//Numpy array shape [100, 64]
//Min -0.260647654533
//Max 0.290329933167
//Number of zeros 0

#ifndef W2_H_
#define W2_H_

#ifndef __SYNTHESIS__
model_default_t w2[6400];
#else
model_default_t w2[6400] = {-0.13774427771568298, 0.01628761366009712, 0.13055342435836792, -0.09803345054388046, -0.15272128582000732, -0.13673886656761169, 0.11197979748249054, 0.19964566826820374, 0.10742705315351486, -0.06959769874811172, -0.04267065599560738, -0.15929754078388214, -0.05716659128665924, -0.14760823547840118, 0.14376316964626312, -0.18029958009719849, 0.11587697267532349, 0.00578988483175635, -0.04839045554399490, 0.17775543034076691, 0.11573430895805359, -0.13183303177356720, -0.05851192772388458, 0.13915194571018219, -0.04197827726602554, 0.20045448839664459, -0.07746805250644684, -0.03097982890903950, -0.11548039317131042, -0.19347259402275085, -0.05078117921948433, -0.06453406810760498, 0.13074514269828796, -0.06142118573188782, 0.00815608259290457, -0.03284638747572899, -0.09786375612020493, 0.00349623686634004, 0.06817649304866791, 0.08208391070365906, -0.13726572692394257, -0.00397584633901715, -0.03441667556762695, 0.03216364979743958, 0.02160211279988289, -0.05455801263451576, 0.05460175499320030, -0.13137349486351013, 0.09886866062879562, 0.13405328989028931, -0.04139597341418266, -0.18322424590587616, -0.15976956486701965, 0.14138437807559967, 0.19709658622741699, 0.08645272254943848, -0.06113186478614807, -0.13931766152381897, -0.08776551485061646, -0.06649126112461090, -0.05228076875209808, -0.13875231146812439, -0.07971508055925369, -0.14710585772991180, 0.15755042433738708, 0.07754600793123245, -0.12941429018974304, 0.16368766129016876, -0.13390633463859558, 0.10292495787143707, -0.04181056469678879, 0.04601258039474487, 0.16189138591289520, 0.10271393507719040, -0.19456265866756439, -0.25286915898323059, 0.22808909416198730, 0.02032598666846752, -0.06424443423748016, -0.16824388504028320, 0.17321425676345825, 0.14533497393131256, 0.05845078825950623, 0.13655140995979309, -0.18095932900905609, 0.03358379378914833, -0.17598448693752289, 0.23856441676616669, 0.08288318663835526, -0.21194554865360260, 0.02708541229367256, 0.03845709934830666, 0.04136161878705025, -0.06406336277723312, -0.16512924432754517, 0.08663102984428406, 0.01581571064889431, -0.13466191291809082, -0.11901254951953888, -0.10105812549591064, 0.23114816844463348, 0.06297263503074646, 0.01587246358394623, 0.23533032834529877, 0.04747774824500084, 0.07238951325416565, 0.05177318304777145, -0.09616874158382416, -0.17111991345882416, 0.05553510785102844, 0.06634972244501114, -0.01958406716585159, -0.12681117653846741, 0.15457791090011597, 0.07753068208694458, -0.04489370435476303, -0.16994337737560272, 0.00996591150760651, -0.22646421194076538, 0.00801930949091911, 0.14937841892242432, 0.09816483408212662, 0.03462299332022667, 0.04507709667086601, -0.20364154875278473, -0.01895353198051453, -0.05726310610771179, 0.22555485367774963, 0.10929765552282333, 0.04569463431835175, 0.06681939214468002, -0.05769263207912445, -0.11018790304660797, -0.03806819766759872, -0.15038366615772247, 0.11730901151895523, -0.06777746230363846, 0.16210541129112244, -0.08769253641366959, -0.10774540901184082, 0.14105252921581268, -0.09227779507637024, -0.11908113211393356, -0.13103143870830536, -0.10462594032287598, 0.13436411321163177, -0.18972916901111603, 0.17387251555919647, 0.16523671150207520, -0.00029093271587044, 0.16442629694938660, 0.13870620727539062, 0.08619019389152527, -0.10748570412397385, 0.11568698287010193, 0.07471285015344620, 0.13846291601657867, 0.09744308888912201, -0.07059010118246078, 0.15990698337554932, -0.01694629155099392, 0.16904030740261078, -0.02816550061106682, -0.14814834296703339, 0.07751508057117462, -0.15160647034645081, -0.13061591982841492, 0.02013941481709480, -0.02161194384098053, 0.16476726531982422, -0.09028899669647217, 0.17908374965190887, 0.15752094984054565, 0.14318875968456268, -0.00203675962984562, -0.16142958402633667, 0.12004546076059341, 0.09657620638608932, 0.16175234317779541, 0.17827522754669189, -0.05105724930763245, -0.15024802088737488, -0.17743177711963654, 0.17663547396659851, -0.00017309322720394, 0.11886061728000641, 0.04493914172053337, 0.00757648376747966, -0.04784898087382317, -0.06890528649091721, -0.03590305149555206, -0.17401646077632904, 0.08879382163286209, -0.19730438292026520, 0.14165574312210083, 0.00427268445491791, 0.04794977977871895, -0.09716803580522537, 0.07149340957403183, -0.02720704488456249, -0.06391151994466782, 0.11624378710985184, -0.19736400246620178, 0.11573836207389832, -0.04827646538615227, -0.18089428544044495, 0.06667669117450714, -0.01345241069793701, 0.00491257105022669, -0.16161563992500305, -0.15761333703994751, 0.21700644493103027, -0.15915885567665100, 0.02698154002428055, -0.13622915744781494, -0.13573278486728668, -0.17433953285217285, -0.16667710244655609, 0.01437587477266788, -0.15800870954990387, -0.23346909880638123, 0.19505687057971954, -0.11072088032960892, -0.13151447474956512, -0.14959043264389038, 0.17368794977664948, -0.08961325883865356, 0.13156175613403320, 0.20260313153266907, -0.21239314973354340, -0.09404546767473221, 0.09818758815526962, -0.07833053171634674, 0.14007976651191711, -0.11928046494722366, -0.07551754266023636, 0.02841827645897865, 0.07286080718040466, -0.06819327175617218, -0.04485847428441048, -0.09527166187763214, 0.02025609277188778, 0.04725239053368568, 0.07357779890298843, 0.02041976153850555, -0.00270006060600281, -0.04331088811159134, -0.05867834761738777, -0.07946759462356567, 0.10057546198368073, -0.19413377344608307, -0.12379845976829529, -0.12015938013792038, -0.03876194357872009, -0.02484317123889923, -0.10779000073671341, -0.09571262449026108, 0.20004197955131531, 0.07754015922546387, -0.03195920586585999, -0.10339191555976868, 0.02627314813435078, 0.20721578598022461, -0.05813764035701752, -0.01212540920823812, -0.01193744409829378, 0.15435352921485901, -0.02176335640251637, 0.13897031545639038, -0.12108620256185532, -0.04130699113011360, -0.01154547091573477, 0.06517282128334045, 0.15291540324687958, 0.18853814899921417, 0.19167765974998474, 0.13303244113922119, 0.02520416490733624, -0.17020918428897858, -0.02278191223740578, 0.09371288120746613, -0.18314932286739349, 0.12848943471908569, -0.09665070474147797, -0.09784648567438126, 0.04869321361184120, 0.11298049986362457, -0.04727396741509438, -0.05009996518492699, -0.14537574350833893, -0.00960500817745924, 0.12631087005138397, 0.10475406050682068, -0.06148920208215714, 0.16470693051815033, 0.13125212490558624, -0.06549335271120071, 0.08173327147960663, -0.09533066302537918, -0.01425263285636902, -0.02369498834013939, 0.04599147289991379, 0.01602906361222267, 0.07828654348850250, -0.17233537137508392, -0.12516315281391144, -0.02382097020745277, -0.15127398073673248, 0.08530013263225555, -0.11366599053144455, -0.04841269180178642, -0.01000476814806461, 0.18145403265953064, -0.08762117475271225, -0.03835264965891838, 0.13726562261581421, -0.07066138833761215, 0.17711727321147919, 0.04484892264008522, 0.00507402978837490, -0.10557627677917480, 0.20963786542415619, 0.14535859227180481, 0.14327742159366608, -0.06589744240045547, 0.10578294098377228, -0.14031518995761871, -0.00718742655590177, -0.15037637948989868, -0.19329261779785156, -0.03917191922664642, -0.09086737036705017, 0.03999283909797668, -0.12970736622810364, -0.11966207623481750, -0.07128819823265076, -0.02594877220690250, 0.02511650510132313, -0.00580473756417632, -0.02498101256787777, -0.16194838285446167, -0.01709652692079544, -0.05766637250781059, 0.17075914144515991, 0.06589029729366302, -0.09518389403820038, 0.04803294688463211, 0.00102452107239515, -0.17660970985889435, 0.12878258526325226, -0.02769180200994015, -0.16642290353775024, -0.15535907447338104, 0.08595763146877289, -0.08172021061182022, 0.16587433218955994, -0.11509106308221817, -0.15122631192207336, -0.03439722955226898, -0.17170889675617218, 0.00252571166492999, 0.07744724303483963, -0.18339622020721436, 0.13444925844669342, -0.17895431816577911, 0.18059185147285461, -0.01629471220076084, -0.03034237958490849, -0.09973616153001785, -0.00865908246487379, 0.15646888315677643, -0.01453814189881086, -0.09158987551927567, -0.00280003249645233, -0.14986342191696167, 0.03347891941666603, -0.00445824768394232, 0.12151444703340530, -0.07989438623189926, -0.14076589047908783, -0.07973460853099823, 0.10993538796901703, -0.03816425055265427, 0.17749539017677307, -0.08979104459285736, 0.15339508652687073, 0.17526739835739136, 0.04954856634140015, -0.07496122270822525, 0.12882274389266968, -0.14808619022369385, 0.07876032590866089, 0.03205597773194313, -0.05387827381491661, 0.11914267390966415, -0.13441592454910278, 0.14056889712810516, 0.01233118679374456, 0.06687656044960022, 0.09050989151000977, 0.10656959563493729, 0.18643811345100403, 0.15132972598075867, 0.03803928941488266, -0.15304183959960938, 0.08898705244064331, 0.16328842937946320, 0.06094738095998764, -0.06481616944074631, -0.00904397945851088, 0.00883874576538801, -0.08401910215616226, 0.08160159736871719, 0.18666957318782806, -0.04443647712469101, 0.02554675005376339, -0.12893687188625336, -0.00442969799041748, 0.18181255459785461, 0.08908657729625702, -0.14733231067657471, -0.01067779865115881, 0.05201336741447449, 0.08031372725963593, -0.13412491977214813, -0.12289620190858841, 0.00227199355140328, -0.02981810271739960, -0.18750408291816711, -0.18742443621158600, -0.00556945754215121, -0.11852359771728516, 0.01955302990972996, -0.07374314963817596, 0.01713576912879944, 0.06347332149744034, 0.01907734572887421, -0.10816147923469543, -0.01506815757602453, 0.07848984748125076, -0.17034715414047241, 0.14187146723270416, -0.12367670983076096, -0.03387645632028580, -0.02625483833253384, 0.18259863555431366, -0.19302731752395630, 0.11792231351137161, 0.17508105933666229, -0.12655086815357208, 0.07956746220588684, -0.02874067425727844, 0.12408532947301865, 0.17148593068122864, 0.15202125906944275, 0.14936436712741852, 0.07287535816431046, 0.19875614345073700, -0.14214630424976349, 0.01182587351650000, 0.20530682802200317, -0.08868389576673508, 0.08619587868452072, 0.03431975468993187, -0.08524709194898605, 0.17931701242923737, -0.09044828265905380, -0.16056901216506958, -0.11436448991298676, -0.10161180049180984, -0.20559027791023254, -0.03295344859361649, -0.09105163067579269, 0.02035048417747021, 0.12711893022060394, -0.08148670941591263, 0.01986078172922134, 0.15348292887210846, -0.00638598017394543, 0.17018720507621765, 0.08826437592506409, 0.03506171703338623, 0.12035094201564789, -0.04709887132048607, -0.09006180614233017, -0.17774119973182678, -0.00701510906219482, 0.05284820124506950, 0.01090655568987131, 0.12724897265434265, 0.08242683857679367, -0.14490211009979248, 0.00180885975714773, -0.03791816905140877, -0.01987758278846741, -0.16742736101150513, 0.14450508356094360, -0.13424187898635864, 0.09452723711729050, -0.14807918667793274, -0.11937449127435684, -0.03071273863315582, 0.02619443647563457, -0.01383203919976950, -0.16564334928989410, -0.14398734271526337, -0.01873939298093319, -0.07046809792518616, 0.10629723966121674, 0.16861282289028168, -0.05317588150501251, -0.07729907333850861, 0.01406678650528193, 0.03561558574438095, 0.01586868613958359, -0.08981815725564957, 0.06910812109708786, -0.05614252015948296, -0.08499557524919510, 0.02286147139966488, 0.03921986743807793, 0.13781893253326416, -0.05162839964032173, -0.12206126004457474, -0.12229935079813004, -0.12767045199871063, 0.11967883259057999, -0.17637057602405548, -0.12208460271358490, -0.08079839497804642, 0.11221198737621307, -0.09253763407468796, 0.00929227471351624, 0.15548463165760040, -0.00675457995384932, 0.02649508416652679, -0.15248711407184601, -0.15514691174030304, -0.13081830739974976, 0.05114445835351944, -0.09217852354049683, 0.09205623716115952, -0.00238872715272009, -0.10605876892805099, 0.11395028233528137, 0.18364809453487396, -0.18424513936042786, -0.09273499995470047, 0.13360139727592468, -0.08423726260662079, 0.01173307001590729, 0.03335227444767952, -0.09896110743284225, 0.01165563333779573, 0.14725624024868011, 0.13137124478816986, 0.19791002571582794, -0.08683105558156967, -0.07635395973920822, 0.08812052756547928, 0.21495193243026733, -0.07015986740589142, -0.07613120228052139, 0.08740114420652390, 0.14576546847820282, 0.00438965857028961, 0.19507670402526855, -0.16545452177524567, -0.00601085461676121, 0.18163590133190155, -0.04007394984364510, 0.15928734838962555, 0.13387672603130341, 0.06395052373409271, 0.10696292668581009, -0.19700640439987183, 0.08630833774805069, 0.02657273411750793, -0.04191130399703979, 0.14483265578746796, -0.04041820019483566, 0.16537190973758698, 0.12055238336324692, -0.10015025734901428, 0.06913914531469345, 0.17004349827766418, -0.05121709406375885, 0.15033702552318573, -0.18857127428054810, 0.16664259135723114, -0.03795309737324715, -0.00568849453702569, 0.08283083885908127, -0.04695824906229973, -0.06601804494857788, -0.10767488181591034, -0.15731362998485565, -0.00940820854157209, -0.11058241873979568, -0.07405380904674530, -0.09558867663145065, -0.13664561510086060, 0.19325877726078033, -0.14558249711990356, 0.09852639585733414, 0.06662012636661530, 0.07727924734354019, -0.15887142717838287, 0.01194616500288248, 0.02645400166511536, -0.00797440856695175, -0.00033338845241815, 0.10787589102983475, -0.03825230523943901, 0.01626679301261902, -0.14489541947841644, -0.05313564836978912, 0.00011758963228203, -0.17306376993656158, 0.04681096971035004, -0.14148052036762238, 0.06715700030326843, -0.06916784495115280, -0.08674745261669159, 0.14289039373397827, -0.07551760226488113, -0.15480834245681763, -0.13719922304153442, -0.14146336913108826, -0.16847811639308929, 0.04914440959692001, -0.10284915566444397, -0.01130023412406445, 0.18411351740360260, 0.06909741461277008, 0.04440224915742874, -0.14981944859027863, 0.12838675081729889, 0.03040244989097118, 0.01764842681586742, 0.09710574895143509, -0.18382249772548676, -0.05331005156040192, 0.00906844437122345, 0.10851300507783890, -0.12514053285121918, -0.15045630931854248, -0.00584247894585133, 0.10399862378835678, 0.07874237000942230, 0.14573204517364502, 0.23383091390132904, -0.07714164257049561, 0.21077789366245270, 0.15642000734806061, -0.02919111400842667, -0.16426678001880646, 0.02025319263339043, -0.04002189263701439, 0.09342189878225327, 0.09072957932949066, -0.12855064868927002, 0.16663300991058350, -0.23890592157840729, -0.02537693083286285, 0.17260397970676422, -0.03823654353618622, -0.16692279279232025, 0.03120099008083344, -0.01918218657374382, 0.03159783035516739, -0.12683998048305511, -0.06424813717603683, -0.16630882024765015, 0.12942193448543549, -0.03134123608469963, 0.09546192735433578, 0.12806618213653564, -0.16578625142574310, 0.08203572779893875, 0.10465029627084732, -0.18895865976810455, -0.07419762015342712, -0.12078731507062912, 0.06303078681230545, -0.12933856248855591, 0.10524040460586548, 0.13568839430809021, 0.02854312397539616, -0.01902864873409271, 0.02066189795732498, 0.02578164823353291, 0.07712049782276154, -0.00360646843910217, 0.04473780468106270, -0.04437895864248276, 0.03286445140838623, 0.16292193531990051, 0.12898893654346466, 0.15170699357986450, -0.17813658714294434, 0.09356294572353363, -0.09866717457771301, -0.19564966857433319, 0.02510920353233814, -0.01066423393785954, -0.13663512468338013, 0.00787870585918427, -0.12428133934736252, -0.02086311765015125, 0.01181896869093180, -0.14147511124610901, -0.14843569695949554, 0.02636458911001682, -0.12378508597612381, -0.09361401200294495, 0.13064335286617279, -0.11343606561422348, -0.14080922305583954, 0.15755712985992432, 0.13646373152732849, 0.01400331687182188, -0.05697838217020035, -0.03510098159313202, 0.11208125203847885, 0.10995724052190781, -0.13466493785381317, -0.17702235281467438, -0.18640238046646118, 0.07871237397193909, -0.06946458667516708, 0.07836352288722992, -0.00408047111704946, 0.09231335669755936, -0.12565305829048157, -0.14631187915802002, 0.05137971788644791, 0.08558924496173859, 0.01103178597986698, 0.11720370501279831, -0.14064139127731323, 0.11447705328464508, -0.08751606941223145, 0.13979117572307587, 0.18258245289325714, -0.08475767821073532, -0.10639529675245285, 0.15728472173213959, 0.02700078859925270, -0.18732480704784393, -0.17896562814712524, 0.18174669146537781, -0.14239142835140228, 0.16046707332134247, 0.02223679423332214, 0.03153198584914207, 0.09772758185863495, 0.18862362205982208, 0.04436989501118660, 0.15340453386306763, -0.17393763363361359, 0.03674438595771790, 0.02707634493708611, -0.03505138307809830, 0.06254550069570541, 0.06030787527561188, 0.11608140170574188, -0.09363541007041931, 0.05677804350852966, -0.01790318079292774, 0.13433305919170380, 0.10401920974254608, 0.01380166783928871, -0.04332184791564941, -0.07380346208810806, -0.12181080132722855, -0.15852232277393341, 0.09648383408784866, 0.15806119143962860, -0.01002528052777052, -0.19215831160545349, -0.12231918424367905, -0.20418806374073029, -0.01636633835732937, -0.13172008097171783, -0.16638901829719543, -0.18780477344989777, -0.16942027211189270, -0.06643552333116531, -0.09911347925662994, 0.12516660988330841, 0.08180516213178635, -0.15495346486568451, -0.03349216654896736, -0.05770451202988625, 0.12950448691844940, 0.01262747589498758, 0.10211324691772461, 0.05484386533498764, 0.03651584684848785, 0.03381665796041489, -0.02452449500560760, -0.08020503073930740, 0.03822053596377373, -0.01988503709435463, -0.01302423235028982, -0.18583439290523529, -0.02183085680007935, 0.03047772869467735, -0.01800398342311382, -0.21136297285556793, -0.15351898968219757, 0.18560290336608887, 0.04515703395009041, 0.02664123475551605, -0.06251496076583862, 0.04734921827912331, -0.18955864012241364, -0.12481961399316788, 0.04589871317148209, 0.06864567101001740, 0.01502893865108490, 0.01765134185552597, 0.06502623856067657, 0.08314024657011032, -0.01238362956792116, 0.01423569582402706, -0.16336116194725037, 0.15814107656478882, -0.07465710490942001, 0.00415401952341199, -0.04160334914922714, 0.00918030925095081, 0.12847638130187988, 0.14315551519393921, -0.17770092189311981, 0.16613461077213287, 0.01776145584881306, -0.03130165487527847, 0.17224167287349701, -0.19449427723884583, 0.16441972553730011, 0.00067874044179916, 0.22590865194797516, 0.13823199272155762, 0.18213389813899994, -0.18837676942348480, -0.02761903218924999, -0.01599118672311306, -0.10461289435625076, -0.03659636899828911, 0.06143543869256973, 0.10454749315977097, 0.13829937577247620, 0.19805203378200531, -0.23163071274757385, 0.06278027594089508, 0.05638663843274117, -0.10452006757259369, -0.16290025413036346, 0.09955709427595139, -0.17241539061069489, 0.13974688947200775, -0.01466583181172609, -0.08039083331823349, -0.00381036102771759, 0.17094160616397858, 0.27449020743370056, -0.20184727013111115, 0.04283325746655464, 0.09131716191768646, 0.16527269780635834, 0.14994794130325317, -0.09609153121709824, -0.18948704004287720, -0.14230875670909882, 0.25608041882514954, -0.05188461765646935, 0.12423939257860184, -0.01959052495658398, 0.21779431402683258, -0.19836947321891785, 0.05602937191724777, 0.10714820772409439, 0.02855886518955231, 0.13934929668903351, 0.02254529669880867, 0.11770325899124146, 0.08626725524663925, 0.05510524660348892, -0.05022385716438293, -0.00636311061680317, 0.06995991617441177, 0.00258035957813263, 0.25606596469879150, -0.14786022901535034, -0.00721838744357228, -0.00845441501587629, 0.07876131683588028, 0.03082486987113953, 0.02668100036680698, 0.00524332374334335, 0.14451368153095245, 0.08600203692913055, 0.17107771337032318, 0.12007481604814529, -0.15851725637912750, -0.07507243752479553, 0.00490174954757094, -0.11718746274709702, -0.01595228537917137, -0.18410587310791016, -0.03565623238682747, 0.04475674778223038, 0.09824743121862411, 0.17575183510780334, -0.18206524848937988, 0.11531750112771988, -0.14979541301727295, -0.09489456564188004, -0.07723893970251083, 0.10081059485673904, 0.03115797974169254, 0.14980919659137726, -0.11731270700693130, 0.20986463129520416, 0.14310726523399353, 0.15529063344001770, 0.05514374375343323, -0.16660419106483459, 0.00430226465687156, 0.15661720931529999, -0.02603038772940636, 0.16964551806449890, 0.03945201635360718, -0.00411550607532263, -0.09853219240903854, 0.02660906873643398, -0.12869147956371307, -0.05720686912536621, 0.10447312891483307, 0.12595663964748383, -0.07836765050888062, 0.08871465176343918, -0.14014732837677002, 0.16387857496738434, -0.13323494791984558, 0.10698524862527847, -0.09757190197706223, 0.12922628223896027, -0.07920768111944199, -0.01180203631520271, 0.07325572520494461, 0.16472813487052917, -0.03918864950537682, 0.06432357430458069, 0.13076800107955933, 0.12820486724376678, 0.01842541992664337, -0.16934198141098022, 0.04301289469003677, -0.15279363095760345, 0.00403237063437700, 0.04813966155052185, -0.05858109146356583, -0.04166612401604652, -0.15692131221294403, -0.04217307269573212, -0.06788340210914612, -0.02839006483554840, 0.07262048870325089, -0.09713447839021683, -0.14974489808082581, 0.04619738832116127, -0.08670999109745026, 0.13859450817108154, 0.10153263807296753, -0.06983567029237747, -0.08202399313449860, -0.16563734412193298, 0.01961155422031879, 0.14521685242652893, 0.18941600620746613, -0.14056007564067841, -0.10011279582977295, 0.12044669687747955, -0.14417514204978943, -0.09087001532316208, 0.08915242552757263, -0.17863528430461884, -0.08363928645849228, 0.15238618850708008, 0.01870601810514927, -0.14850488305091858, -0.16741482913494110, 0.15424618124961853, -0.03544209152460098, 0.17552444338798523, -0.00741399824619293, -0.20078128576278687, -0.13895696401596069, -0.09658937901258469, 0.06251653283834457, 0.18428249657154083, -0.09308327734470367, 0.18712180852890015, -0.01175928488373756, 0.15398718416690826, 0.05481063947081566, -0.03978082910180092, 0.20007106661796570, -0.08485962450504303, -0.04857002198696136, 0.00029769539833069, 0.04830715432763100, 0.05252735316753387, 0.16494575142860413, -0.10606640577316284, 0.12213540077209473, -0.17839056253433228, 0.19538404047489166, 0.18505407869815826, -0.02127900719642639, -0.05237618088722229, -0.04357091709971428, 0.04359986260533333, -0.03555129095911980, 0.14130224287509918, 0.12123295664787292, 0.09165921062231064, 0.08118863403797150, -0.15312574803829193, 0.00701937125995755, -0.09376650303602219, -0.04517383873462677, 0.00912423059344292, -0.01053944230079651, 0.08735442161560059, 0.00538198556751013, -0.00771942036226392, -0.05156375095248222, 0.15316788852214813, -0.01898339763283730, 0.07362909615039825, -0.03605537489056587, -0.20702247321605682, -0.15500731766223907, 0.15398743748664856, -0.09954316169023514, 0.19156023859977722, -0.02026441693305969, 0.11663931608200073, -0.09061007201671600, 0.08180075883865356, 0.06814484298229218, 0.15037544071674347, 0.03304925560951233, -0.01255209743976593, 0.16319875419139862, -0.12990765273571014, 0.00475725438445807, -0.06955871731042862, -0.06186681985855103, 0.16716438531875610, -0.10624921321868896, 0.02576202712953091, 0.04757012426853180, -0.14242061972618103, 0.06903419643640518, 0.01115560159087181, 0.03286875784397125, 0.07508423179388046, 0.12294381111860275, 0.03797470405697823, -0.05441574752330780, 0.05093821510672569, 0.19095699489116669, 0.02678011357784271, 0.16066791117191315, -0.21066112816333771, -0.13673749566078186, -0.14116722345352173, -0.02315377816557884, -0.02823680266737938, 0.07622692734003067, 0.13736246526241302, -0.07865467667579651, 0.02814814820885658, 0.15638485550880432, -0.13942638039588928, 0.09433328360319138, 0.18383722007274628, 0.05001927912235260, -0.16347885131835938, -0.11020047217607498, -0.12170330435037613, -0.17638745903968811, -0.09273019433021545, -0.00537097267806530, -0.05583215132355690, -0.08317739516496658, -0.04752935096621513, -0.13728561997413635, -0.13514459133148193, -0.10108909010887146, -0.14585301280021667, -0.00672291684895754, -0.02951372787356377, 0.09898313134908676, 0.09039830416440964, 0.18829074501991272, 0.05691405013203621, 0.01384251564741135, 0.00982178375124931, -0.19700594246387482, 0.19081482291221619, -0.04428657889366150, -0.08298809081315994, 0.01202022843062878, -0.10657443851232529, -0.19080992043018341, -0.04248046875000000, -0.15216118097305298, 0.17268891632556915, 0.13825096189975739, -0.00110124947968870, 0.15842057764530182, -0.03491543978452682, -0.01774210296571255, -0.03958451747894287, 0.12717525660991669, -0.14331613481044769, -0.00077064440120012, -0.06760206073522568, 0.02194064483046532, 0.02378237247467041, -0.01890366524457932, 0.12179616093635559, -0.04084187746047974, 0.05957125872373581, -0.07332622259855270, 0.13845051825046539, -0.09986430406570435, -0.07023482024669647, -0.13948743045330048, -0.08221345394849777, 0.00724148890003562, 0.16187432408332825, 0.07478077709674835, -0.05945177376270294, -0.10273557901382446, 0.11805205792188644, 0.00016363352187909, -0.05238319933414459, 0.26569184660911560, 0.01205059885978699, -0.00913679692894220, 0.11397403478622437, 0.15818445384502411, -0.20403589308261871, -0.00095092342235148, 0.12558732926845551, 0.11250279098749161, -0.14509169757366180, 0.00634008459746838, -0.11447945982217789, 0.06746195256710052, 0.02349434234201908, 0.09221614897251129, -0.16656842827796936, 0.15930172801017761, 0.01614066213369370, 0.04581545293331146, -0.02918336354196072, 0.12604525685310364, 0.10770280659198761, -0.13361710309982300, 0.05811557173728943, 0.18045099079608917, 0.16311368346214294, 0.00655604666098952, 0.07957366853952408, -0.10758662968873978, 0.10311392694711685, -0.17152230441570282, -0.04128001630306244, -0.16904497146606445, 0.00723818875849247, 0.01055940054357052, 0.01037805248051882, -0.06586405634880066, -0.07137117534875870, -0.17676353454589844, -0.11012372374534607, -0.12405784428119659, -0.12673741579055786, -0.11057119816541672, 0.06618320941925049, -0.10378915071487427, -0.05043349415063858, -0.01028003264218569, -0.12684656679630280, 0.08466522395610809, 0.06870693713426590, 0.06586159765720367, -0.02109533548355103, 0.08441928774118423, -0.04468324407935143, -0.09041321277618408, 0.13365870714187622, 0.01837293244898319, -0.15699024498462677, -0.02202671021223068, 0.08811496198177338, 0.03431077301502228, 0.01762094348669052, -0.18603830039501190, -0.15073928236961365, 0.12453894317150116, 0.03517749905586243, -0.04193253442645073, -0.15973882377147675, 0.19048225879669189, 0.04440620914101601, 0.04582973569631577, -0.07257428765296936, -0.01926327496767044, 0.08586559444665909, -0.00304161850363016, 0.12594579160213470, 0.01897741854190826, -0.16319237649440765, -0.08937052637338638, 0.11864693462848663, -0.08398234844207764, -0.06265705078840256, -0.10516069829463959, -0.15086267888545990, 0.06436812132596970, 0.11287076026201248, -0.16288025677204132, -0.16580386459827423, 0.09547939151525497, -0.01823985017836094, -0.17903283238410950, -0.11498838663101196, 0.11299756169319153, 0.00968049839138985, -0.12079447507858276, 0.01111614704132080, 0.12342799454927444, -0.16048690676689148, 0.01479895412921906, 0.14811457693576813, -0.10509927570819855, 0.13676254451274872, 0.15173672139644623, -0.06922210007905960, 0.03273874521255493, 0.17513523995876312, 0.08774672448635101, -0.03321455419063568, 0.12081877142190933, 0.04975911974906921, -0.10205312073230743, 0.12702751159667969, -0.12389702349901199, -0.09553605318069458, -0.06661569327116013, 0.13232083618640900, -0.07030171900987625, 0.04535247758030891, -0.12770485877990723, -0.17437945306301117, -0.11820080131292343, 0.17905351519584656, 0.20007005333900452, 0.05836696922779083, 0.05915346369147301, -0.03828852623701096, -0.24649585783481598, 0.09035086631774902, -0.17652975022792816, -0.14980658888816833, 0.05423308908939362, 0.06389129906892776, -0.03974155336618423, 0.05271869152784348, 0.06131814420223236, -0.09585224092006683, -0.15353247523307800, 0.18272492289543152, -0.01618497446179390, 0.11357834190130234, -0.03409651666879654, 0.19605843722820282, -0.19580164551734924, -0.05777366831898689, 0.06656792014837265, -0.05988356843590736, 0.07462741434574127, 0.13575568795204163, 0.04872447997331619, -0.00851833075284958, -0.11218278110027313, -0.12186551839113235, -0.20684644579887390, -0.15744812786579132, -0.00856937933713198, -0.10144986957311630, 0.04536510631442070, -0.23102061450481415, 0.12464868277311325, 0.06665147840976715, -0.14725860953330994, -0.00595807190984488, -0.17140954732894897, 0.29032993316650391, -0.07128202170133591, -0.08072775602340698, 0.12828524410724640, -0.07948126643896103, 0.05281135067343712, -0.18392345309257507, 0.17068409919738770, -0.09437797218561172, 0.01804210990667343, -0.10497211664915085, 0.01383944693952799, -0.09210392087697983, 0.08377344906330109, -0.06112533062696457, 0.15491913259029388, 0.00351142883300781, 0.20710355043411255, -0.17838366329669952, -0.17555473744869232, 0.05890952795743942, 0.02277086488902569, -0.07012246549129486, -0.12427821755409241, 0.04636214673519135, 0.04604389145970345, -0.22383889555931091, -0.05254309996962547, -0.18856273591518402, 0.04598141834139824, 0.17038412392139435, 0.21102297306060791, 0.04386464878916740, -0.10915523767471313, -0.07475186139345169, -0.10379783064126968, 0.03039789758622646, 0.03855578228831291, 0.08876574784517288, -0.13296766579151154, 0.02338335476815701, 0.07861433178186417, -0.16355961561203003, 0.14771167933940887, -0.19334155321121216, 0.12703675031661987, -0.04694816842675209, 0.21142430603504181, -0.04349432140588760, -0.15704736113548279, 0.11713110655546188, 0.15330636501312256, 0.19016200304031372, 0.02818697318434715, 0.12026968598365784, -0.02702404372394085, 0.06190122291445732, 0.11204242706298828, -0.04814083501696587, -0.02108318731188774, -0.09906394034624100, 0.06778605282306671, -0.05481391027569771, -0.16460475325584412, 0.12501116096973419, 0.15717156231403351, 0.00640757847577333, 0.04683414846658707, -0.09495907276868820, -0.07295917719602585, 0.10340298712253571, -0.07679311931133270, 0.10401969403028488, -0.17098054289817810, 0.05519011616706848, 0.01155352964997292, 0.10262763500213623, -0.19085100293159485, -0.19636622071266174, 0.08743028342723846, 0.16719938814640045, -0.07034459710121155, 0.14727658033370972, -0.16704930365085602, 0.13617360591888428, 0.00335586443543434, -0.00818314962089062, 0.15777641534805298, -0.16165781021118164, 0.06398156285285950, -0.21439304947853088, 0.12058796733617783, -0.09907247126102448, -0.03787649050354958, -0.14475131034851074, 0.04284722357988358, -0.18684615194797516, -0.01730912178754807, -0.13020515441894531, 0.17141039669513702, -0.16062663495540619, -0.03290503472089767, 0.10864146053791046, -0.12497526407241821, 0.00227472069673240, 0.04557942226529121, 0.10793152451515198, 0.00978608522564173, 0.14581416547298431, 0.02515701577067375, -0.16645401716232300, -0.06450136750936508, -0.12373108416795731, 0.13818944990634918, -0.20063093304634094, -0.08667553216218948, 0.07548607885837555, 0.14931808412075043, -0.04535655304789543, 0.05381948873400688, -0.17849762737751007, 0.09261775761842728, 0.15430995821952820, -0.04059436544775963, 0.07635430991649628, 0.04407999664545059, 0.04304655268788338, -0.06901238113641739, -0.05699394643306732, -0.12676939368247986, -0.08737128227949142, 0.15518803894519806, -0.12773835659027100, -0.07031340152025223, 0.09153477847576141, -0.13239462673664093, 0.03693680837750435, 0.05313941463828087, -0.07278539240360260, 0.12397322058677673, -0.07738927751779556, -0.16194590926170349, -0.12406266480684280, 0.07571314275264740, 0.15962888300418854, 0.13233251869678497, -0.19223894178867340, 0.18154814839363098, 0.09338247776031494, -0.07796013355255127, -0.18076311051845551, 0.00252268370240927, 0.15639759600162506, 0.15027922391891479, 0.03493059426546097, 0.00936333090066910, -0.13907749950885773, 0.10094259679317474, 0.17868070304393768, 0.04736866801977158, -0.00979816261678934, 0.17075684666633606, 0.04178043082356453, 0.02261725626885891, 0.18929265439510345, -0.03923498839139938, -0.15759286284446716, 0.04151800647377968, 0.15725268423557281, 0.20030489563941956, -0.07783160358667374, -0.12772178649902344, -0.07051260024309158, 0.13405516743659973, -0.10164886713027954, -0.02406507916748524, 0.08572132140398026, 0.00356734078377485, 0.15468467772006989, -0.09436718374490738, -0.20477595925331116, 0.05524229258298874, 0.00826233252882957, 0.11274085193872452, -0.14542986452579498, -0.05422588810324669, 0.08892547339200974, -0.03202880173921585, -0.08499695360660553, -0.00516881933435798, -0.21098716557025909, 0.00264054071158171, -0.08823031187057495, 0.09406156837940216, 0.01231092028319836, 0.17788454890251160, 0.15919692814350128, 0.17624151706695557, 0.06030915677547455, -0.13232946395874023, -0.09550437331199646, -0.04883184656500816, -0.06797539442777634, -0.03439814224839211, 0.16335943341255188, -0.07621231675148010, 0.00862116087228060, -0.10835793614387512, -0.01560372114181519, -0.16594469547271729, 0.03272861614823341, -0.05061705783009529, 0.04997386783361435, -0.14311990141868591, 0.02690822631120682, -0.02540372498333454, 0.03092825412750244, 0.00928557477891445, 0.18659451603889465, -0.21152107417583466, 0.04057479649782181, 0.11949470639228821, 0.16958157718181610, -0.03537235781550407, -0.17696134746074677, 0.03998556360602379, 0.20862857997417450, 0.11275777965784073, -0.09654402732849121, 0.12765036523342133, 0.12604762613773346, -0.05228973925113678, -0.03059372119605541, 0.01628778502345085, 0.03882252797484398, -0.01937453076243401, 0.10819501429796219, -0.11388209462165833, 0.14404647052288055, 0.23817722499370575, -0.17734354734420776, -0.10740938037633896, 0.04841060191392899, 0.03038306161761284, 0.18209348618984222, -0.04621634259819984, 0.00126994890160859, 0.13551010191440582, -0.00980578269809484, -0.07737578451633453, 0.14978961646556854, -0.05397285893559456, -0.02401947975158691, -0.11527692526578903, -0.00930589437484741, -0.18927609920501709, 0.13442808389663696, 0.02984426915645599, -0.16834470629692078, -0.14334626495838165, -0.15804824233055115, 0.10992849618196487, 0.16826002299785614, -0.05161600932478905, 0.12982963025569916, -0.09320262819528580, 0.19989271461963654, -0.12295427173376083, 0.02386087924242020, -0.06243252381682396, -0.17946839332580566, -0.11167149990797043, -0.00570192933082581, -0.01815580762922764, -0.05375432595610619, -0.11251752823591232, -0.14579623937606812, -0.07634241878986359, -0.18165339529514313, -0.17047956585884094, 0.10793314874172211, 0.06011323630809784, 0.04208046942949295, -0.09203524887561798, -0.05326163396239281, -0.15853461623191833, -0.13018456101417542, -0.08992091566324234, -0.06742808222770691, 0.13914893567562103, 0.15169480443000793, -0.13191197812557220, -0.16895049810409546, 0.09167963266372681, 0.21156160533428192, -0.06121576577425003, -0.20250020921230316, 0.06619849056005478, 0.15874904394149780, 0.11118356138467789, 0.11990156769752502, 0.13976715505123138, -0.06210493296384811, 0.14293202757835388, 0.01818255148828030, 0.22731457650661469, -0.07848435640335083, -0.03612939640879631, 0.06570410728454590, -0.02222002670168877, 0.08994833379983902, 0.04635342583060265, -0.00591300940141082, 0.16720303893089294, -0.03734881430864334, 0.06373140960931778, 0.00830435752868652, 0.04730396717786789, 0.15324380993843079, -0.03957093879580498, -0.00075066532008350, 0.09575630724430084, -0.12811616063117981, -0.11854119598865509, -0.13535776734352112, -0.11470642685890198, -0.11417063325643539, 0.02289447560906410, -0.16317924857139587, 0.14445012807846069, 0.08136611431837082, 0.16349197924137115, 0.07908483594655991, 0.03504238277673721, 0.01381312217563391, -0.13939025998115540, -0.05609953403472900, 0.08482705056667328, 0.17483527958393097, -0.09909059852361679, 0.03877119347453117, 0.02079867385327816, -0.11644028127193451, 0.02228135429322720, 0.13051854074001312, -0.13057950139045715, -0.16370131075382233, -0.09963461011648178, 0.00730228424072266, -0.11767552793025970, 0.13112439215183258, 0.18219359219074249, 0.04713442549109459, -0.09380175918340683, 0.03157740086317062, 0.16374231874942780, 0.08851224929094315, -0.05687765777111053, 0.06560985743999481, -0.12992052733898163, -0.04785259813070297, -0.08803074806928635, 0.19685345888137817, -0.08245822042226791, -0.13084430992603302, -0.16623651981353760, 0.03353861346840858, -0.08037021011114120, -0.14907740056514740, 0.18310038745403290, 0.14379917085170746, -0.07035254687070847, 0.14379353821277618, 0.08291411399841309, 0.17273637652397156, 0.20549900829792023, 0.06265053898096085, -0.14483585953712463, -0.02518207952380180, 0.12238273024559021, -0.15147200226783752, -0.04481694102287292, 0.12306243181228638, -0.16295082867145538, -0.09252402931451797, -0.12190121412277222, 0.08675156533718109, 0.16104453802108765, -0.16613483428955078, 0.07948391139507294, -0.18283942341804504, 0.06286064535379410, 0.03955395519733429, 0.02029842883348465, 0.14364048838615417, -0.07944180816411972, -0.15997722744941711, -0.04684616625308990, -0.06643202155828476, 0.18417800962924957, 0.11853496730327606, 0.15236693620681763, -0.09845316410064697, -0.15558117628097534, -0.03413184359669685, -0.06556513905525208, -0.06392472982406616, 0.05883964896202087, 0.10381199419498444, -0.03729541599750519, -0.13583293557167053, 0.02030455321073532, -0.10980472713708878, 0.13441286981105804, -0.10276613384485245, 0.23669385910034180, 0.12467919290065765, -0.09089420735836029, 0.02247313782572746, 0.01590847596526146, 0.16190955042839050, -0.06752230226993561, 0.07845162600278854, -0.02224611118435860, -0.15811216831207275, 0.05782668665051460, -0.13525766134262085, 0.08554691821336746, -0.04178512468934059, -0.22441321611404419, 0.00810271874070168, 0.04918027296662331, -0.02715222723782063, -0.10932629555463791, 0.01200577896088362, -0.03476745635271072, 0.16611827909946442, 0.02510099671781063, -0.05257075279951096, 0.19432239234447479, -0.14134868979454041, 0.05713113397359848, 0.06911389529705048, -0.04354545474052429, -0.01821573078632355, 0.04109576344490051, 0.14346644282341003, 0.12816211581230164, -0.01265211217105389, -0.10349021852016449, -0.19626806676387787, -0.12781503796577454, -0.21115013957023621, -0.12183186411857605, 0.13053067028522491, 0.19984988868236542, -0.05512524396181107, -0.02014694362878799, -0.10482364147901535, 0.10944118350744247, -0.21792583167552948, 0.03613290563225746, -0.20942901074886322, -0.14727972447872162, 0.05937571823596954, -0.02461163885891438, -0.15425635874271393, -0.05276752635836601, 0.18630185723304749, 0.20908467471599579, 0.01716488040983677, 0.17457370460033417, -0.18610565364360809, 0.15033844113349915, -0.15463571250438690, 0.03336865454912186, 0.00255799386650324, 0.05521465092897415, 0.17649354040622711, 0.01185772474855185, 0.09191132336854935, -0.03109914809465408, 0.05805930495262146, 0.04616863653063774, -0.08153008669614792, 0.15416106581687927, 0.17700196802616119, 0.04379645735025406, 0.20433378219604492, 0.02440341748297215, -0.05710679292678833, -0.12765011191368103, -0.07069545239210129, 0.06869940459728241, 0.05405635386705399, -0.02336786873638630, -0.15813381969928741, 0.04955440759658813, -0.10907125473022461, -0.01428069546818733, 0.07405436038970947, 0.12022910267114639, 0.09988183528184891, 0.07775969803333282, -0.06346960365772247, -0.02190180122852325, 0.17144645750522614, 0.05642940104007721, -0.14361447095870972, -0.11123786121606827, 0.13778729736804962, -0.04334454238414764, -0.11629361659288406, -0.05027858912944794, 0.05832111835479736, -0.07863704115152359, -0.05152838677167892, -0.06742800027132034, -0.10761442035436630, -0.02027644775807858, -0.18840503692626953, 0.00379029079340398, 0.05124162137508392, -0.10575011372566223, -0.00419506337493658, 0.10741125047206879, 0.15859733521938324, 0.07768242061138153, -0.05779528617858887, 0.13418738543987274, 0.10983072966337204, -0.09881368279457092, 0.11153981834650040, 0.05198953673243523, 0.06036564335227013, -0.12031968683004379, -0.00011496245861053, -0.10430738329887390, 0.09125011414289474, 0.16934533417224884, 0.13778434693813324, 0.09610639512538910, 0.11159245669841766, 0.10544186830520630, -0.10451338440179825, -0.03627513721585274, -0.08316836506128311, 0.01844840869307518, -0.10277339071035385, -0.11418125778436661, -0.16170759499073029, -0.12769651412963867, -0.00533686159178615, -0.19441758096218109, 0.15210247039794922, 0.03140230849385262, 0.17831072211265564, 0.05737100914120674, -0.05881899967789650, 0.16986912488937378, 0.00503694871440530, 0.11312766373157501, 0.06570779532194138, -0.14325536787509918, -0.06284898519515991, -0.10749553143978119, 0.17989815771579742, 0.03359325230121613, -0.14400964975357056, -0.05104487016797066, -0.09383240342140198, 0.03203465789556503, -0.04522421956062317, 0.11166083812713623, 0.05770293250679970, 0.17346145212650299, -0.01719203777611256, -0.06989108771085739, 0.02092039957642555, -0.10398878157138824, -0.01510509476065636, 0.02169542573392391, 0.15483327209949493, 0.02976177260279655, 0.01183085236698389, 0.13241355121135712, -0.15729631483554840, -0.12917050719261169, 0.06948335468769073, 0.07566334307193756, 0.05384533107280731, -0.15473267436027527, -0.02569995820522308, -0.07187464833259583, -0.05299345776438713, 0.07396650314331055, -0.01259727310389280, 0.11834707111120224, -0.05294850841164589, -0.15405808389186859, 0.06285239756107330, -0.16483277082443237, 0.01535222399979830, 0.14844515919685364, 0.02065828070044518, 0.04944709688425064, -0.00919370353221893, -0.10397949069738388, 0.03890146315097809, 0.01585391163825989, -0.05923717468976974, 0.00260369945317507, 0.15927624702453613, -0.00444648973643780, -0.20388306677341461, -0.00318064750172198, -0.21912513673305511, -0.13096171617507935, -0.07411444932222366, 0.09869389981031418, 0.17460711300373077, 0.13352634012699127, 0.10141302645206451, 0.18912711739540100, 0.00602929107844830, 0.00011429586447775, 0.17763425409793854, 0.09593766182661057, 0.17454753816127777, -0.16332623362541199, 0.04747919738292694, 0.12968049943447113, 0.06279924511909485, 0.16913288831710815, -0.06661037355661392, -0.07190825790166855, -0.15958620607852936, -0.04752308502793312, -0.01894472166895866, 0.04670198634266853, 0.15723022818565369, 0.03314369916915894, 0.09697838127613068, 0.08093420416116714, 0.17735879123210907, 0.04728057235479355, 0.11756993830204010, 0.18432220816612244, 0.06719136983156204, -0.08450824022293091, -0.04834577813744545, 0.01485297642648220, 0.01035854034125805, -0.03580255806446075, 0.06434515118598938, -0.18079859018325806, 0.16050268709659576, -0.08010256290435791, -0.07252283394336700, 0.18102297186851501, -0.11373414844274521, 0.10988645255565643, 0.06461627781391144, 0.04506937414407730, -0.02527371048927307, 0.03791236877441406, 0.17128488421440125, -0.11950463056564331, -0.03296441212296486, -0.07097477465867996, -0.18488256633281708, 0.22667884826660156, -0.10112857818603516, -0.20477966964244843, -0.06727045774459839, -0.18408602476119995, -0.10510858893394470, -0.14996640384197235, 0.17341224849224091, 0.15635618567466736, -0.15402902662754059, 0.14239175617694855, -0.16666381061077118, 0.00652030622586608, -0.13711020350456238, -0.15272346138954163, -0.11877777427434921, -0.01797133684158325, -0.21430060267448425, -0.09453352540731430, 0.00573444459587336, -0.01886172033846378, 0.00932657439261675, 0.04760249331593513, -0.10644938796758652, 0.03609920665621758, -0.05098871514201164, -0.15081650018692017, -0.20073996484279633, 0.17256064713001251, -0.02912127971649170, -0.17574240267276764, 0.08450914919376373, -0.23173114657402039, 0.18227329850196838, 0.11647774279117584, -0.01836068741977215, -0.07610398530960083, -0.15279695391654968, -0.17760178446769714, 0.07072921097278595, -0.01281305775046349, -0.18065592646598816, -0.00011256779544055, -0.16047982871532440, 0.23009487986564636, -0.06907682865858078, 0.17678320407867432, -0.17614842951297760, -0.07149266451597214, 0.09622155129909515, 0.00559703400358558, -0.21402032673358917, 0.07081511616706848, 0.08108475059270859, -0.03823954612016678, -0.05519909411668777, -0.21200944483280182, -0.12376788258552551, 0.15177695453166962, -0.06467894464731216, -0.02978862076997757, 0.03823483362793922, 0.11302761733531952, -0.14233949780464172, -0.11081328988075256, -0.16182185709476471, -0.16274991631507874, -0.00952944718301296, -0.17855240404605865, 0.18661059439182281, 0.09377554804086685, -0.03060623072087765, -0.02085528708994389, -0.10231134295463562, 0.13053770363330841, -0.00863271672278643, -0.15908804535865784, -0.17094762623310089, -0.04849343001842499, 0.05341550707817078, -0.08097846060991287, -0.10714086890220642, 0.02351057343184948, -0.07485115528106689, -0.06051477417349815, -0.09179826080799103, 0.10330181568861008, -0.09954565763473511, 0.04780164361000061, -0.17665573954582214, -0.19271187484264374, 0.05191995203495026, 0.21125584840774536, 0.10755355656147003, 0.05320513620972633, 0.13404057919979095, -0.03975495696067810, 0.13128052651882172, -0.01394741237163544, -0.11405125260353088, -0.06854578852653503, -0.15414325892925262, -0.03865788877010345, 0.13376529514789581, 0.03676032647490501, -0.03413642942905426, -0.09546696394681931, -0.01574780046939850, -0.15418249368667603, -0.00106385350227356, 0.07000519335269928, -0.00356877455487847, -0.15363673865795135, 0.02243620157241821, -0.03126975521445274, -0.12898604571819305, 0.06269653141498566, 0.20624326169490814, -0.09892725199460983, 0.09023425728082657, -0.06355422735214233, -0.17346858978271484, 0.03243039548397064, 0.00596237881109118, -0.02095297351479530, 0.13916352391242981, 0.20434756577014923, -0.13569837808609009, 0.10714782774448395, -0.04518039524555206, -0.04923475906252861, -0.06765154004096985, -0.12054529786109924, 0.16289751231670380, 0.18454682826995850, -0.03815652057528496, 0.17399834096431732, 0.08814749121665955, 0.10165052860975266, 0.04410210996866226, -0.05233741551637650, -0.06505877524614334, -0.05999714508652687, 0.01128560025244951, 0.09826987236738205, -0.07566142827272415, 0.16131804883480072, 0.04674458876252174, -0.16104194521903992, 0.14039757847785950, -0.11175131797790527, -0.16454663872718811, 0.11048043519258499, -0.04785015061497688, -0.16381269693374634, -0.13971874117851257, 0.01574814505875111, 0.01874089241027832, 0.04541432112455368, -0.03318531066179276, -0.12549823522567749, 0.14512719213962555, 0.17785592377185822, -0.11664891988039017, -0.00164157175458968, 0.16367198526859283, -0.04615587368607521, 0.18929545581340790, 0.08482933789491653, 0.19815349578857422, -0.12869298458099365, -0.08095353096723557, -0.05103253573179245, -0.05328169837594032, -0.16133674979209900, 0.03078361228108406, -0.14782631397247314, 0.15050746500492096, -0.09967139363288879, -0.12328624725341797, -0.07482739537954330, 0.08115923404693604, -0.02015878818929195, 0.01734777167439461, -0.11281276494264603, 0.07425443828105927, -0.02480924502015114, -0.06626492738723755, -0.00654842332005501, -0.00322437984868884, -0.13690495491027832, -0.14555227756500244, 0.00993919000029564, -0.06902540475130081, 0.03002436645328999, -0.16882234811782837, -0.18813464045524597, -0.09560133516788483, 0.01320014055818319, 0.14716032147407532, 0.15302325785160065, -0.01794685609638691, 0.15829218924045563, 0.11198074370622635, 0.01182745397090912, 0.11006124317646027, 0.03527546674013138, -0.14761300384998322, -0.19027996063232422, 0.02918693237006664, -0.05304077267646790, -0.05852240324020386, 0.13454931974411011, 0.05878077447414398, -0.14207480847835541, 0.10979951173067093, -0.13502030074596405, -0.03458723798394203, -0.09419669955968857, -0.14250053465366364, -0.06480070203542709, 0.06000037491321564, 0.09738539904356003, -0.05451139435172081, 0.15541894733905792, -0.13763712346553802, -0.06412084400653839, -0.06900036334991455, -0.17023827135562897, -0.09725743532180786, 0.08925716578960419, -0.10410070419311523, -0.05585127323865891, -0.14728938043117523, -0.13068124651908875, -0.17774033546447754, -0.09505193680524826, -0.13458472490310669, 0.14797106385231018, -0.17115277051925659, 0.16465876996517181, 0.13065935671329498, -0.06756009906530380, 0.02564840950071812, -0.03098930232226849, -0.17406667768955231, -0.17028097808361053, 0.13933241367340088, -0.13014991581439972, -0.06292220950126648, 0.19507636129856110, 0.15845467150211334, 0.15631818771362305, 0.08792980760335922, -0.06260259449481964, -0.10144086182117462, -0.09822645783424377, -0.05819541960954666, -0.09493031352758408, -0.04920323193073273, -0.04773443564772606, -0.05324854701757431, 0.01422551739960909, -0.01676902920007706, -0.04528068006038666, -0.11582023650407791, 0.13356618583202362, -0.18200403451919556, 0.06378434598445892, -0.15741312503814697, 0.19258226454257965, 0.14170247316360474, -0.06440072506666183, 0.19378650188446045, -0.01989176124334335, 0.12340753525495529, -0.04591969028115273, -0.05951363593339920, 0.10707617551088333, 0.00392262358218431, 0.11595807969570160, -0.11570070683956146, -0.04745963588356972, 0.12128183245658875, -0.13289603590965271, -0.08636435866355896, 0.13751249015331268, -0.03736442327499390, -0.17909005284309387, -0.05122454091906548, -0.02505038678646088, 0.10391341894865036, -0.20379213988780975, -0.06459015607833862, -0.08238258957862854, 0.18207626044750214, -0.22870504856109619, 0.18835890293121338, 0.00021849083714187, 0.13452625274658203, -0.22109034657478333, -0.18671953678131104, -0.11352545768022537, -0.15697528421878815, -0.04161277413368225, -0.17682255804538727, -0.13191382586956024, -0.06737004220485687, 0.05618324503302574, 0.00704103335738182, -0.03927524387836456, 0.09953641146421432, -0.11313065886497498, 0.14914451539516449, 0.06023714691400528, 0.02007984183728695, 0.06778194010257721, 0.08688630163669586, 0.16993907094001770, 0.06414337456226349, -0.05502977967262268, 0.04340592771768570, -0.10378250479698181, 0.05875941738486290, 0.13040158152580261, 0.10462319105863571, -0.13416643440723419, 0.06022420153021812, 0.13455705344676971, -0.06533949822187424, 0.05184572190046310, 0.02070487290620804, 0.07670938968658447, -0.12889362871646881, 0.22659566998481750, 0.11271668970584869, -0.21872094273567200, 0.08827719092369080, -0.20791989564895630, 0.20479746162891388, 0.14094151556491852, -0.12539801001548767, -0.14975295960903168, 0.19363582134246826, -0.25172525644302368, -0.02070245333015919, 0.03071608580648899, 0.02215524204075336, -0.00717831728979945, 0.13999421894550323, 0.08812475204467773, -0.18744678795337677, -0.05724555253982544, -0.21571446955204010, -0.17260248959064484, -0.04326458647847176, -0.10179363191127777, 0.09067459404468536, 0.21109886467456818, -0.10511017590761185, 0.05981803685426712, -0.13491964340209961, -0.19967690110206604, 0.09336466342210770, 0.04946545511484146, -0.08312951028347015, -0.15267179906368256, 0.04219656065106392, 0.03592693805694580, 0.13245995342731476, -0.07386112213134766, 0.06268441677093506, 0.17842699587345123, -0.10134655982255936, 0.06063794717192650, 0.17374029755592346, 0.09119305759668350, 0.00009796023368835, -0.07447838038206100, 0.00988134369254112, -0.05925758183002472, 0.08154671639204025, -0.04048692807555199, 0.16155813634395599, -0.12851609289646149, 0.04172842949628830, -0.06332788616418839, 0.00149243255145848, -0.14443802833557129, 0.21437352895736694, -0.03782228380441666, 0.05427277833223343, 0.24128608405590057, 0.05038685724139214, -0.05461710318922997, 0.00746524427086115, 0.20856346189975739, 0.12798778712749481, 0.23689150810241699, -0.08927280455827713, -0.16371455788612366, -0.10466619580984116, -0.05115522071719170, 0.00862631946802139, 0.11615340411663055, -0.18439185619354248, 0.21752157807350159, 0.08484860509634018, 0.05396714806556702, 0.01799560524523258, 0.15785600244998932, -0.11362238973379135, 0.10004092752933502, 0.17978365719318390, 0.04283436015248299, -0.18784321844577789, -0.13283504545688629, 0.06400264799594879, 0.11367975175380707, 0.06087337806820869, -0.15683422982692719, -0.10583575069904327, 0.19617371261119843, 0.09591345489025116, -0.01996396295726299, 0.19244371354579926, 0.17905002832412720, -0.17004166543483734, -0.01931319572031498, -0.08375634998083115, -0.13793842494487762, 0.01943290047347546, 0.04961000382900238, -0.04702772200107574, 0.05759588256478310, -0.12908487021923065, 0.02467795833945274, -0.22827005386352539, -0.13936330378055573, -0.13189785182476044, -0.10275832563638687, 0.11004520952701569, -0.11112821847200394, 0.17783331871032715, -0.14229159057140350, 0.16380135715007782, 0.22292469441890717, -0.00700448453426361, -0.12340980023145676, 0.09976532310247421, 0.15384759008884430, 0.05113777145743370, -0.14279925823211670, 0.05692376196384430, 0.19729071855545044, 0.06706963479518890, 0.14445340633392334, 0.16101990640163422, 0.02257287688553333, -0.17209842801094055, 0.11286299675703049, 0.12059507519006729, -0.03374302014708519, 0.19704467058181763, -0.05710654333233833, -0.08472653478384018, 0.00588014721870422, 0.16649682819843292, -0.15857450664043427, -0.07729066908359528, 0.07175477594137192, 0.00895748566836119, -0.13362924754619598, 0.11391066759824753, -0.08430701494216919, 0.10005493462085724, 0.01974030211567879, -0.05944935977458954, -0.04064108058810234, -0.09331972897052765, -0.01424737088382244, 0.15835666656494141, -0.08981979638338089, 0.09891097992658615, 0.08054405450820923, 0.02263840846717358, -0.01631170511245728, 0.19113762676715851, -0.08671605587005615, 0.16178727149963379, 0.05859207734465599, 0.05055922269821167, 0.05724348500370979, -0.06095171347260475, 0.09097038209438324, -0.09022070467472076, 0.17583902180194855, -0.01911720633506775, 0.08615674078464508, 0.10535109788179398, -0.11534399539232254, -0.14700165390968323, 0.02345861680805683, 0.05662393197417259, 0.02734003029763699, 0.09476669132709503, -0.15973000228404999, -0.17108982801437378, -0.13947807252407074, -0.07440216839313507, -0.11647929996252060, -0.04188488423824310, 0.05443119630217552, 0.04929840937256813, -0.01553365588188171, -0.09293784201145172, -0.09690994024276733, 0.07162338495254517, 0.03784432634711266, 0.01424593292176723, 0.04007189720869064, -0.08253009617328644, 0.14040066301822662, 0.17765319347381592, -0.05643441900610924, -0.14951577782630920, -0.07154934853315353, 0.08750704675912857, 0.10193664580583572, -0.05417037755250931, -0.11908742785453796, -0.06102319061756134, -0.12876021862030029, 0.09531971812248230, 0.16467477381229401, 0.04220601171255112, 0.13716264069080353, -0.16881072521209717, 0.06531836837530136, 0.05665714293718338, -0.13076561689376831, 0.16355307400226593, -0.09014361351728439, -0.17234386503696442, -0.12485802918672562, 0.07151716202497482, 0.13610698282718658, 0.02159588038921356, 0.05609591305255890, 0.09737167507410049, -0.14023755490779877, 0.18675284087657928, -0.15861675143241882, 0.15582664310932159, 0.07209171354770660, -0.01974395103752613, -0.01323664747178555, -0.00673597306013107, 0.18717490136623383, 0.01015630271285772, -0.09703287482261658, -0.00405962765216827, -0.08283505588769913, 0.01100109238177538, 0.18465223908424377, -0.08836993575096130, -0.00562104582786560, 0.02903853543102741, -0.15679116547107697, 0.07578016817569733, -0.12464407086372375, 0.01761441677808762, 0.15533788502216339, -0.07438686490058899, 0.11231466382741928, 0.13036601245403290, -0.22085072100162506, 0.13935548067092896, 0.11493684351444244, 0.01859119720757008, 0.03958614915609360, -0.10155602544546127, 0.02164695784449577, -0.14172455668449402, -0.03866324573755264, 0.11986228823661804, -0.09969712048768997, -0.13921545445919037, 0.03511688113212585, 0.15506236255168915, 0.17082969844341278, 0.17585058510303497, 0.04058910161256790, 0.14360238611698151, -0.14074181020259857, 0.07057902216911316, 0.01986913383007050, 0.10104028880596161, -0.06354829668998718, 0.13986541330814362, -0.04006114974617958, -0.01133736316114664, 0.08811525255441666, 0.08618104457855225, 0.09626962244510651, -0.12943165004253387, 0.04101704433560371, 0.07514798641204834, -0.05391954258084297, -0.03207499533891678, -0.06940276920795441, -0.08508798480033875, 0.08537068217992783, -0.09447627514600754, 0.19086338579654694, -0.14048993587493896, 0.01237623672932386, 0.07012219727039337, 0.06162568181753159, -0.13153506815433502, 0.12072625756263733, -0.16669864952564240, -0.08806079626083374, 0.18423336744308472, 0.14954869449138641, 0.09627841413021088, -0.09489427506923676, 0.16043829917907715, 0.16230830550193787, -0.10467241704463959, -0.14448258280754089, 0.10581249743700027, 0.06080217286944389, -0.15308052301406860, -0.24796071648597717, -0.06183042004704475, 0.14144812524318695, -0.10206886380910873, 0.02483167871832848, 0.02063633501529694, -0.07827936857938766, 0.05326035246253014, -0.05812490358948708, -0.11787625402212143, 0.09995733201503754, -0.07129108905792236, -0.08098375052213669, 0.11133863031864166, -0.13047012686729431, 0.08456978946924210, -0.12973095476627350, 0.00807471573352814, 0.04999833181500435, 0.15483705699443817, 0.08325181901454926, -0.05671669542789459, 0.06527240574359894, -0.04406100884079933, 0.13821719586849213, 0.10885521769523621, 0.01860041730105877, -0.00832436978816986, 0.14409692585468292, -0.07270054519176483, 0.15542021393775940, 0.03225657343864441, -0.10553964227437973, 0.14662253856658936, 0.17972901463508606, -0.15840417146682739, 0.12262657284736633, -0.07431933283805847, 0.00645361142233014, 0.06494472175836563, 0.04577372968196869, 0.03386492282152176, 0.01898760162293911, -0.02085296623408794, -0.13537259399890900, 0.05004326999187469, -0.11490567773580551, -0.01400929875671864, 0.03846878930926323, 0.10798193514347076, -0.07203853130340576, -0.04466066136956215, -0.09489292651414871, 0.15501396358013153, -0.18762677907943726, -0.04436615109443665, -0.13576056063175201, -0.13736337423324585, 0.03271894156932831, 0.01620161533355713, -0.17270658910274506, 0.12032513320446014, -0.00977735593914986, 0.02460333704948425, -0.14944235980510712, -0.08120602369308472, -0.12201637029647827, 0.11883490532636642, -0.16399972140789032, -0.18686616420745850, -0.01997412368655205, 0.04388321191072464, -0.17707668244838715, -0.05557002127170563, -0.15504857897758484, -0.13373161852359772, -0.11639615893363953, -0.04140660539269447, 0.08359190076589584, 0.02343977615237236, 0.09943480044603348, 0.08737568557262421, -0.00828729104250669, -0.01641975343227386, 0.11188872903585434, -0.11048521101474762, 0.12476405501365662, 0.06374979019165039, 0.10293129086494446, 0.15464556217193604, 0.01282876450568438, 0.06051779538393021, 0.11386618763208389, 0.05369063094258308, 0.09549412131309509, 0.14513844251632690, 0.17361983656883240, -0.00299452012404799, -0.10506047308444977, 0.09666951000690460, 0.02194434404373169, -0.08956392109394073, 0.03877601772546768, 0.04732954129576683, 0.11565391719341278, -0.14836589992046356, 0.16950233280658722, -0.03616717457771301, 0.15831410884857178, 0.15522988140583038, 0.10618013143539429, -0.17583660781383514, 0.01600000821053982, -0.04039905965328217, -0.01199919544160366, -0.07750979065895081, -0.04383064806461334, -0.01991270668804646, -0.11256445199251175, -0.09706192463636398, -0.12772943079471588, 0.06460768729448318, -0.19354242086410522, 0.12229299545288086, 0.00457213772460818, 0.00569456862285733, -0.13110578060150146, 0.13817141950130463, -0.05905880779027939, 0.19581080973148346, -0.17445415258407593, -0.06036459282040596, -0.17131368815898895, -0.05663383007049561, 0.16371034085750580, 0.05044402927160263, -0.11374269425868988, 0.07661008834838867, 0.09987105429172516, -0.09033980965614319, 0.07061544805765152, -0.05237574130296707, -0.05628601461648941, 0.10699138790369034, 0.10257087647914886, 0.02226177603006363, -0.16004428267478943, 0.01507486775517464, -0.17413440346717834, -0.18443566560745239, -0.12958917021751404, -0.01936550624668598, -0.03455853089690208, -0.00011484746937640, -0.06633904576301575, 0.24629198014736176, 0.01172577030956745, 0.06155471131205559, 0.07339842617511749, -0.02678216993808746, 0.11495842784643173, 0.06391612440347672, -0.08938451111316681, 0.08949796855449677, -0.01813102513551712, 0.00307673867791891, -0.09511657804250717, 0.06015198305249214, -0.08196617662906647, -0.02610917761921883, 0.22785040736198425, -0.07522961497306824, 0.15473164618015289, 0.14491720497608185, 0.13391797244548798, -0.18594841659069061, -0.14395064115524292, 0.15359236299991608, -0.03241271898150444, -0.20184062421321869, 0.09859465062618256, 0.11227907240390778, -0.04801526665687561, 0.09587208926677704, -0.05750171467661858, 0.14513689279556274, 0.00008833986066747, 0.05050828307867050, 0.14471621811389923, 0.10986649990081787, 0.16757312417030334, 0.07637424767017365, 0.18910163640975952, -0.22373592853546143, -0.13301132619380951, 0.05509832128882408, -0.17159388959407806, -0.14099670946598053, 0.21609638631343842, -0.00532930810004473, -0.15107758343219757, 0.09303338825702667, -0.03197598457336426, -0.14430528879165649, -0.07327228039503098, 0.19852554798126221, -0.17335696518421173, 0.13324213027954102, 0.10553513467311859, 0.10133150219917297, -0.21031226217746735, 0.03208085522055626, 0.11358474940061569, 0.13589905202388763, 0.01993126235902309, -0.13264957070350647, -0.14366780221462250, -0.04151482880115509, -0.15582394599914551, 0.01053924579173326, -0.16073003411293030, 0.12026116251945496, -0.13874882459640503, 0.08503594994544983, -0.14615485072135925, 0.06548579782247543, -0.01308879535645247, 0.18952168524265289, -0.13439609110355377, 0.15210168063640594, -0.14868724346160889, -0.09163989126682281, 0.04424388706684113, -0.14354932308197021, -0.07523095607757568, 0.13223464787006378, 0.11383308470249176, -0.13803698122501373, -0.13560433685779572, -0.07287320494651794, -0.04746321216225624, -0.04319121316075325, 0.01802241057157516, -0.17281940579414368, 0.05171618610620499, 0.02257700078189373, -0.13595315814018250, -0.18578678369522095, 0.23187227547168732, -0.05349008738994598, -0.13691486418247223, -0.08728554844856262, -0.03880039975047112, 0.01106180716305971, -0.05427914485335350, -0.00036327540874481, 0.17652870714664459, 0.09367791563272476, 0.14775666594505310, 0.07008720189332962, -0.01090800575911999, -0.00732275843620300, -0.05269717797636986, 0.18597519397735596, -0.13472774624824524, -0.18591192364692688, 0.16780865192413330, 0.13608981668949127, -0.07896116375923157, -0.00574760558083653, -0.16764767467975616, 0.00685412483289838, -0.11623499542474747, 0.12361820787191391, 0.11181769520044327, -0.01381537038832903, 0.16749219596385956, -0.10154125839471817, 0.14502047002315521, 0.18697458505630493, -0.02160899154841900, 0.06609556823968887, 0.07196552306413651, 0.10537362843751907, -0.19452741742134094, 0.14212574064731598, -0.10313014686107635, -0.03290302306413651, -0.08386189490556717, 0.14170897006988525, 0.02945368923246861, 0.14678250253200531, 0.01127755548804998, 0.04776105284690857, 0.12857770919799805, -0.03244763612747192, 0.14059768617153168, 0.02749936841428280, -0.13087683916091919, -0.07383884489536285, -0.03851111978292465, 0.07161755859851837, 0.01423577684909105, -0.17527586221694946, -0.04543823003768921, 0.13425566256046295, -0.08503759652376175, -0.01070328336209059, 0.04801725223660469, 0.13572280108928680, -0.14926230907440186, -0.18245822191238403, -0.08461739867925644, 0.11644054949283600, -0.12805965542793274, -0.15833175182342529, -0.09953796118497849, -0.00105406937655061, -0.01483657769858837, -0.11479885876178741, -0.12464322894811630, -0.00885918363928795, 0.06538912653923035, 0.03515637293457985, -0.09401839226484299, 0.16286055743694305, 0.03454157710075378, 0.12078960239887238, -0.00677577173337340, -0.00689301593229175, 0.13856390118598938, 0.17020973563194275, -0.09515523910522461, -0.23672644793987274, 0.11011958867311478, -0.05046712234616280, 0.14393980801105499, 0.14666722714900970, 0.18044717609882355, 0.02035976015031338, -0.13520708680152893, 0.18727236986160278, -0.07475189119577408, -0.05114869773387909, -0.17261357605457306, -0.15396657586097717, 0.06168756633996964, -0.18743340671062469, 0.15744885802268982, -0.09818202257156372, -0.05278670042753220, 0.12818872928619385, 0.17233149707317352, 0.08407337963581085, 0.16052033007144928, 0.12359668314456940, -0.15737484395503998, 0.02431582286953926, 0.18158684670925140, -0.16571526229381561, -0.11124853044748306, 0.18313542008399963, -0.15793561935424805, 0.19990025460720062, -0.03348047658801079, 0.03100226819515228, 0.10674551874399185, 0.18193154036998749, -0.14863876998424530, -0.08439778536558151, -0.17552480101585388, 0.19130234420299530, 0.12388821691274643, -0.12463602423667908, 0.13522742688655853, -0.02547641098499298, 0.02352852188050747, -0.10895855724811554, 0.14099802076816559, 0.01152042020112276, 0.02479826658964157, 0.17244961857795715, -0.16456131637096405, 0.09438200294971466, 0.09718972444534302, 0.23415465652942657, 0.06861273944377899, 0.18543389439582825, 0.08036800473928452, 0.11300678551197052, -0.17046758532524109, -0.07690202444791794, -0.06871219724416733, -0.03943695127964020, -0.09114634990692139, -0.04766266420483589, 0.16398079693317413, 0.15615034103393555, 0.00184006080962718, -0.00444538192823529, -0.02394585311412811, 0.03063099831342697, 0.12176133692264557, 0.02762021124362946, 0.11184024065732956, 0.03752956166863441, -0.14098766446113586, -0.03203418478369713, 0.13064597547054291, -0.10577294230461121, -0.18244007229804993, -0.08591559529304504, 0.14346145093441010, -0.09443254768848419, -0.03002825938165188, 0.03227595239877701, -0.12855271995067596, 0.14318485558032990, 0.03880872204899788, 0.02980779111385345, -0.17869736254215240, 0.01614134013652802, 0.01363448239862919, 0.04348013177514076, -0.00105912983417511, -0.17294198274612427, -0.01954980753362179, 0.07878965139389038, -0.14195103943347931, 0.00556945800781250, 0.02041067741811275, -0.18500588834285736, -0.15946154296398163, 0.17561756074428558, 0.21321220695972443, 0.03852237761020660, -0.15010035037994385, 0.14332114160060883, -0.00244264304637909, -0.05565157532691956, -0.11714962869882584, 0.15171942114830017, 0.11945128440856934, 0.16777080297470093, 0.02197549119591713, -0.03043262474238873, 0.01363643817603588, -0.13319024443626404, 0.01631383411586285, -0.09060586988925934, 0.02302680164575577, -0.05334896221756935, 0.15602532029151917, -0.17485296726226807, 0.09708182513713837, -0.16546313464641571, -0.02866772376000881, 0.10283278673887253, -0.17127919197082520, 0.18909165263175964, -0.04312517493963242, -0.09235994517803192, 0.03702852129936218, 0.14712116122245789, 0.10149986296892166, 0.12750676274299622, 0.05117584019899368, 0.17687121033668518, -0.05921050906181335, -0.05262758955359459, -0.13901847600936890, -0.01888033747673035, -0.00141068105585873, -0.16493152081966400, -0.12784701585769653, -0.01837793737649918, -0.06587263196706772, -0.16489772498607635, 0.16129416227340698, 0.13624545931816101, 0.06930097192525864, 0.03601399064064026, 0.05029190331697464, -0.17740923166275024, 0.02607388421893120, 0.05614682286977768, 0.10988023877143860, 0.17635928094387054, -0.07932562381029129, 0.06465242058038712, -0.01235692109912634, 0.02405864931643009, 0.15051327645778656, 0.13531111180782318, -0.04865946248173714, -0.01049487758427858, -0.08728729933500290, -0.16153629124164581, -0.02635950595140457, 0.14929741621017456, 0.13495114445686340, -0.01101089362055063, -0.14729832112789154, 0.17537046968936920, 0.01722984574735165, 0.15817375481128693, -0.03851839900016785, -0.00180832762271166, -0.14012134075164795, 0.13391405344009399, -0.10926199704408646, 0.12240253388881683, -0.04834335669875145, 0.00522450264543295, 0.14318263530731201, 0.15971232950687408, 0.11156225949525833, 0.06461225450038910, 0.00999937485903502, 0.01261815056204796, 0.07601204514503479, -0.13273710012435913, -0.07127902656793594, -0.00280393986031413, 0.13138748705387115, -0.03022400662302971, 0.16389186680316925, -0.15803846716880798, 0.11152642965316772, -0.02667916752398014, 0.19764406979084015, 0.05513656139373779, 0.15287208557128906, 0.06834992021322250, 0.02394586801528931, -0.18927186727523804, 0.18272970616817474, -0.17730459570884705, -0.08862554281949997, -0.01204549614340067, 0.17882470786571503, 0.16391792893409729, -0.06827645003795624, -0.06384217739105225, -0.14676414430141449, 0.10231637209653854, -0.09084548056125641, -0.15777748823165894, -0.05266036465764046, -0.13076615333557129, 0.11717042326927185, -0.13428041338920593, 0.02315399050712585, -0.11769717931747437, 0.14139984548091888, 0.08572046458721161, 0.11621101200580597, -0.07109700888395309, 0.19381107389926910, -0.02573482505977154, 0.15397158265113831, 0.12433627992868423, -0.00428012758493423, 0.08736407011747360, -0.16853389143943787, -0.11531360447406769, 0.01103425025939941, -0.06607429683208466, -0.09332485496997833, -0.04572255536913872, -0.09601981937885284, 0.06614197790622711, -0.04619156196713448, -0.19291153550148010, -0.15572346746921539, -0.06747065484523773, 0.09401546418666840, -0.08899594098329544, 0.15606006979942322, 0.06581911444664001, 0.09079445153474808, 0.06265319883823395, 0.08205267786979675, -0.12370371073484421, 0.14841704070568085, -0.11528002470731735, -0.08219973742961884, 0.04702567309141159, -0.19833995401859283, -0.17631784081459045, 0.00927963294088840, 0.16367474198341370, 0.13496102392673492, -0.05704690143465996, 0.16851848363876343, -0.09040775150060654, 0.15236458182334900, -0.14218366146087646, -0.07665508985519409, 0.03002773970365524, -0.07909466326236725, 0.15107004344463348, -0.03479783982038498, 0.02985715493559837, -0.02124116569757462, -0.01269005984067917, 0.17081791162490845, 0.00806062109768391, 0.06618393957614899, -0.09195548295974731, -0.13133469223976135, -0.12183362990617752, -0.14357724785804749, 0.04977823048830032, -0.04999302327632904, -0.03839395195245743, 0.15939800441265106, -0.05626947060227394, 0.14433327317237854, -0.09746394306421280, -0.15150141716003418, -0.01527136564254761, -0.17322273552417755, -0.05931805074214935, 0.17100885510444641, 0.02303933724761009, -0.14718267321586609, 0.18496368825435638, -0.03644280508160591, 0.09287589788436890, -0.08044672757387161, -0.13311724364757538, -0.09358116984367371, 0.00614775344729424, 0.15334653854370117, 0.00665149465203285, -0.09843404591083527, 0.17662230134010315, -0.02474742382764816, 0.13294894993305206, 0.13686822354793549, -0.18997116386890411, -0.09012516587972641, 0.05503535643219948, -0.12420810014009476, -0.04046402871608734, -0.06728157401084900, 0.04847414791584015, -0.16726672649383545, -0.04233767092227936, 0.08889380097389221, -0.09946277737617493, 0.02169351652264595, -0.01549398899078369, 0.01204173825681210, 0.10110299289226532, -0.07943603396415710, 0.12928991019725800, -0.08597243577241898, -0.09961365163326263, 0.14203713834285736, -0.17042151093482971, -0.14777837693691254, -0.04545001313090324, 0.13905753195285797, -0.08466883748769760, -0.06850392371416092, 0.20636919140815735, -0.12773494422435760, 0.08414285629987717, 0.11770344525575638, 0.10258182138204575, 0.06871005892753601, 0.08467332273721695, -0.11510781943798065, 0.14132000505924225, -0.12885203957557678, 0.07747916132211685, -0.16982382535934448, 0.08707274496555328, -0.18309420347213745, -0.21484826505184174, 0.03537617251276970, 0.05679253116250038, 0.10308050364255905, 0.17760907113552094, 0.09184213727712631, 0.10041485726833344, 0.17257475852966309, -0.13142204284667969, 0.09146139770746231, -0.06670698523521423, 0.07349682599306107, 0.13143980503082275, -0.16521462798118591, 0.04143501818180084, -0.13891364634037018, -0.00228214007802308, -0.18657334148883820, 0.02299213595688343, -0.08194086700677872, -0.04256660491228104, 0.17749948799610138, -0.01319684088230133, 0.15204353630542755, -0.13218602538108826, 0.10990652441978455, -0.10141260921955109, -0.09776394814252853, 0.05944068729877472, -0.13206426799297333, -0.18526329100131989, -0.14090564846992493, 0.12492091208696365, -0.03078733943402767, -0.15780425071716309, 0.18552622199058533, 0.04410693049430847, -0.15150494873523712, 0.03569547086954117, -0.14565737545490265, 0.18222683668136597, -0.01058717817068100, -0.17993474006652832, 0.20073118805885315, 0.04089668393135071, 0.00401047803461552, -0.00417665019631386, -0.03475686907768250, 0.04198995605111122, 0.14956583082675934, -0.21594867110252380, -0.08336608111858368, 0.18943235278129578, -0.09124232083559036, 0.14929389953613281, 0.19075956940650940, 0.11807204782962799, -0.13197901844978333, -0.09188182651996613, -0.00721913808956742, 0.01379208266735077, 0.11930734664201736, -0.17192915081977844, 0.08317382633686066, 0.01058335043489933, -0.19019946455955505, 0.16242276132106781, -0.00975894834846258, 0.07950358092784882, 0.01294761337339878, 0.12880083918571472, -0.12719495594501495, -0.02498084120452404, -0.11921920627355576, 0.12789513170719147, -0.12151412665843964, 0.00104319222737104, 0.13763986527919769, 0.05910606682300568, -0.14248289167881012, 0.06104261055588722, -0.06487572938203812, -0.15425229072570801, -0.03447795286774635, -0.17835387587547302, 0.16434347629547119, -0.09343415498733521, 0.04031020402908325, 0.06502287089824677, 0.12961040437221527, -0.15645708143711090, 0.07625859230756760, 0.11650030314922333, -0.12271468341350555, 0.11950922012329102, 0.11431664973497391, 0.03921051323413849, -0.09953982383012772, 0.12782344222068787, -0.08639831840991974, -0.12436137348413467, 0.03697110712528229, 0.07391955703496933, 0.06827148795127869, -0.07561357319355011, 0.16149044036865234, -0.08686446398496628, 0.05184935778379440, 0.09692896902561188, -0.13747742772102356, -0.15441024303436279, -0.18202993273735046, 0.16629278659820557, 0.04068328067660332, -0.04034155979752541, 0.05260157212615013, 0.02068646810948849, -0.20562824606895447, 0.09613920748233795, 0.14224022626876831, 0.05276579037308693, -0.01930860057473183, 0.04610453546047211, -0.09124059230089188, 0.10955633968114853, 0.07564166188240051, -0.08238852024078369, -0.06050975620746613, 0.03539253398776054, 0.00213803676888347, 0.16594465076923370, 0.21436299383640289, 0.04491092264652252, 0.08181085437536240, 0.05578018352389336, 0.06799369305372238, -0.12935470044612885, -0.11895049363374710, 0.06542533636093140, -0.10016817599534988, -0.01349965110421181, -0.01497261226177216, 0.06193147599697113, -0.10782425850629807, -0.08341196924448013, -0.00723876990377903, -0.15193817019462585, -0.04404275119304657, 0.03702052682638168, 0.05556640774011612, 0.04450505971908569, 0.08010411262512207, -0.07644296437501907, -0.06337901949882507, 0.01670554652810097, 0.13263253867626190, 0.19059126079082489, 0.08994917571544647, 0.11244392395019531, 0.02697887271642685, 0.09969376772642136, -0.09118648618459702, 0.05506407469511032, -0.15352058410644531, -0.11013120412826538, 0.05130613222718239, -0.07509969919919968, 0.06086343899369240, 0.05645116418600082, -0.00176660181023180, -0.06989642232656479, -0.00378401088528335, -0.04330015927553177, -0.13568939268589020, 0.05776548758149147, -0.12051197141408920, -0.06969892233610153, 0.10482268780469894, -0.22264085710048676, -0.01307776756584644, 0.21064509451389313, 0.15718287229537964, 0.20473955571651459, -0.08459657430648804, 0.13537311553955078, -0.03324130922555923, -0.03505381941795349, -0.02001325786113739, 0.14063809812068939, -0.00647747237235308, -0.01615491509437561, -0.11360360682010651, 0.18500281870365143, -0.18521833419799805, -0.06521071493625641, -0.13246840238571167, -0.14230729639530182, -0.16106101870536804, -0.09311597049236298, 0.06957852840423584, -0.13942995667457581, -0.18507170677185059, 0.21789772808551788, 0.08243937790393829, -0.00281884218566120, 0.04820889234542847, 0.12971024215221405, -0.00086287164594978, -0.02979664877057076, -0.07872152328491211, -0.17261131107807159, 0.00089628365822136, -0.16621860861778259, -0.04423156380653381, 0.01018649339675903, 0.07581729441881180, 0.10630383342504501, -0.16938516497612000, 0.12445394694805145, 0.02687657997012138, 0.16505579650402069, 0.13055048882961273, -0.13744719326496124, 0.11483647674322128, -0.09608253836631775, 0.04045637696981430, 0.13267838954925537, 0.10806604474782944, -0.08853781968355179, 0.02938808314502239, 0.00160786428023130, -0.01992602273821831, 0.04683187231421471, 0.11897701025009155, 0.00931246671825647, 0.16612434387207031, 0.05481956526637077, 0.18824732303619385, 0.05080663040280342, -0.03905074670910835, -0.04894331097602844, 0.03301085531711578, 0.18989360332489014, 0.03995543718338013, 0.10363107174634933, 0.12846629321575165, -0.01339879259467125, -0.10207133740186691, -0.11664421111345291, -0.05409324169158936, -0.12458933144807816, -0.07014002650976181, 0.19258598983287811, -0.03728453069925308, 0.12812116742134094, -0.01842349767684937, 0.08905743062496185, -0.07588528841733932, 0.17438302934169769, -0.15352909266948700, 0.14531232416629791, 0.18288214504718781, -0.00761638302356005, -0.16639037430286407, 0.04191916063427925, 0.07464117556810379, 0.09293351322412491, 0.06041275709867477, 0.17452901601791382, -0.15551827847957611, -0.09343443065881729, -0.12032598257064819, 0.03524927422404289, 0.16994021832942963, -0.16307309269905090, 0.08800794929265976, 0.09994125366210938, -0.12998411059379578, 0.06014381349086761, 0.07065669447183609, -0.11982569098472595, -0.10044842213392258, -0.12812915444374084, 0.04269947111606598, -0.10965971648693085, -0.15262518823146820, 0.00817910302430391, -0.05119613558053970, -0.14463569223880768, -0.12528775632381439, 0.05013019964098930, 0.05348931625485420, -0.00785896554589272, -0.07860525697469711, -0.01635226979851723, -0.06224068626761436, -0.03558957576751709, -0.00743418792262673, 0.12598849833011627, 0.12569808959960938, 0.16420307755470276, -0.15740120410919189, -0.09222590178251266, -0.09804489463567734, 0.15103489160537720, 0.15645349025726318, -0.13097561895847321, 0.20604042708873749, 0.11606852710247040, 0.07443048059940338, 0.07911562174558640, 0.02251669391989708, -0.01869488507509232, -0.21682874858379364, 0.10119812190532684, 0.16387306153774261, -0.19359564781188965, 0.11880231648683548, -0.24191577732563019, -0.03093236684799194, 0.00358747015707195, 0.04936133697628975, 0.09118214994668961, 0.02088322862982750, -0.16461288928985596, -0.19858522713184357, 0.17826889455318451, 0.11299857497215271, -0.15421473979949951, -0.06840824335813522, 0.02902717888355255, 0.04725459218025208, 0.05881735309958458, -0.00470614433288574, 0.16378076374530792, -0.13632112741470337, 0.01427112892270088, -0.06032397598028183, -0.16241590678691864, 0.08545004576444626, 0.16090102493762970, -0.13610996305942535, 0.16254104673862457, -0.11126779019832611, 0.00234987027943134, 0.10376925021409988, -0.13830944895744324, -0.14666040241718292, 0.19089578092098236, 0.08109752088785172, -0.05672123655676842, -0.04898080602288246, -0.24501444399356842, -0.08149002492427826, -0.07192274928092957, -0.07783234119415283, 0.00443654740229249, 0.02687741816043854, 0.02114435844123363, -0.11240455508232117, -0.04197478294372559, 0.17198494076728821, 0.04914728552103043, 0.03222325816750526, 0.07301639765501022, 0.06172342598438263, -0.02526130713522434, -0.07965051382780075, 0.20156231522560120, 0.15842741727828979, 0.03467813134193420, 0.07337871938943863, 0.16917204856872559, 0.02056408673524857, 0.02913089282810688, -0.12404362857341766, 0.16289068758487701, 0.01182049978524446, 0.18603442609310150, -0.03114828094840050, 0.06459224969148636, 0.02941427193582058, -0.00803190749138594, -0.17559638619422913, -0.01087980158627033, -0.04432043433189392, 0.19373337924480438, -0.05830910056829453, -0.15404379367828369, 0.03626795113086700, -0.02369289100170135, -0.11126475781202316, -0.02417407557368279, -0.18495753407478333, 0.00698756519705057, 0.04219028353691101, 0.12735864520072937, -0.02472008764743805, 0.10370068252086639, -0.22205348312854767, -0.20897249877452850, 0.17744955420494080, -0.14482115209102631, -0.18861642479896545, 0.04717008024454117, 0.15432099997997284, -0.15385699272155762, 0.03279461711645126, -0.05179764702916145, -0.11073046922683716, -0.06737676262855530, -0.11717054247856140, 0.08288954198360443, -0.00543981045484543, -0.16237935423851013, -0.15114758908748627, -0.05655323341488838, -0.07188925147056580, -0.02522066235542297, -0.08298809826374054, 0.08503929525613785, -0.08174970746040344, 0.17136506736278534, 0.11277448385953903, -0.02664230391383171, -0.02388689108192921, 0.17212939262390137, 0.04336864501237869, -0.13746878504753113, -0.16018454730510712, -0.08746130764484406, -0.00423569232225418, 0.14122472703456879, 0.17418526113033295, -0.06938117742538452, 0.07280933111906052, -0.01312743127346039, -0.02281639538705349, -0.18372571468353271, 0.10331103205680847, 0.12187934666872025, -0.10440032929182053, -0.01499100029468536, 0.14055904746055603, -0.13829268515110016, 0.05099226161837578, 0.17617750167846680, 0.11685673892498016, 0.01837351173162460, 0.04207612946629524, -0.07272548973560333, 0.00344963301904500, -0.03434811532497406, 0.12919737398624420, -0.03755122795701027, 0.10825645178556442, 0.17529098689556122, 0.11124317348003387, -0.07539563626050949, 0.13579016923904419, -0.04140068590641022, 0.10872997343540192, 0.12052737176418304, -0.01149848103523254, 0.07761237025260925, -0.01329911407083273, 0.07999541610479355, 0.01742427609860897, -0.02420535124838352, -0.06751013547182083, -0.03307278454303741, 0.16310194134712219, 0.08590489625930786, 0.14465263485908508, -0.07786445319652557, -0.03877564519643784, -0.06582032144069672, -0.07605238258838654, 0.07772750407457352, 0.05408493056893349, -0.09662289172410965, 0.08929724246263504, -0.16924542188644409, -0.14251577854156494, 0.21155062317848206, -0.04833113774657249, 0.14990898966789246, 0.06074718013405800, 0.03422432020306587, -0.01404982246458530, 0.09724554419517517, -0.21406990289688110, -0.00041751214303076, 0.06836062669754028, -0.10980223119258881, 0.12445887178182602, -0.16133829951286316, 0.09110307693481445, -0.05975677445530891, 0.09193573892116547, 0.16714315116405487, -0.11350835114717484, 0.13573628664016724, 0.06141654774546623, -0.17308768630027771, 0.08176028728485107, -0.07291118800640106, -0.09305392205715179, 0.03856950998306274, -0.05896545201539993, 0.06603293865919113, 0.11224554479122162, 0.17236064374446869, -0.09307435154914856, -0.15926904976367950, 0.03269506990909576, -0.00917838513851166, 0.13047170639038086, -0.11165230721235275, -0.04824383556842804, 0.11753416061401367, 0.05234136059880257, -0.04287602007389069, 0.00989053305238485, 0.01819519326090813, -0.02815727889537811, -0.06264585256576538, 0.22933731973171234, 0.07860480993986130, -0.05437246710062027, 0.12914149463176727, 0.18890702724456787, 0.18047323822975159, 0.13044522702693939, -0.06635899096727371, 0.20604701340198517, 0.03085928596556187, -0.17221631109714508, -0.01712343469262123, 0.00388437393121421, 0.04319119453430176, 0.04264066740870476, -0.09706783294677734, -0.15034288167953491, -0.05000321567058563, -0.18495970964431763, 0.16658174991607666, -0.12282000482082367, 0.17890873551368713, -0.08468370139598846, 0.05295004695653915, -0.19166374206542969, 0.00033669636468403, 0.09650978446006775, -0.02095312438905239, 0.06314864009618759, 0.07476652413606644, -0.10259667783975601, -0.16966032981872559, 0.10127295553684235, 0.14572247862815857, -0.09456892311573029, 0.15016858279705048, 0.06317135691642761, 0.13128666579723358, 0.12023610621690750, -0.13464358448982239, 0.15661284327507019, -0.11803843826055527, 0.00808471906930208, -0.03701320290565491, -0.08382274955511093, 0.20276561379432678, -0.04251381382346153, 0.12084764987230301, -0.04448261857032776, 0.05155319347977638, -0.10015044361352921, 0.04596713930368423, -0.05694650113582611, 0.09680946171283722, -0.09436877816915512, 0.00914607662707567, -0.05962404608726501, 0.14034260809421539, 0.21034975349903107, -0.01360383536666632, -0.00889016687870026, -0.02107666991651058, 0.03327548503875732, -0.16966994106769562, 0.15475144982337952, -0.04185101017355919, 0.06259809434413910, -0.14401581883430481, 0.09632480889558792, -0.09445514529943466, -0.16894730925559998, 0.16949130594730377, 0.14329126477241516, 0.02704018726944923, 0.05407642945647240, -0.01817731373012066, -0.19407293200492859, 0.02218045294284821, -0.12907211482524872, 0.01285987347364426, 0.01293325237929821, 0.19402173161506653, -0.15924024581909180, -0.01769626885652542, 0.10334130376577377, -0.06705727428197861, 0.09974708408117294, 0.06098838150501251, 0.00303606595844030, -0.02903830632567406, -0.02180070057511330, -0.15340825915336609, -0.01181610953062773, -0.20187538862228394, 0.16346903145313263, 0.00514559773728251, -0.02419181354343891, -0.04798184335231781, -0.15014190971851349, -0.08009763807058334, -0.01854802668094635, 0.04634783416986465, -0.06135488674044609, -0.05371687933802605, -0.00291261170059443, -0.07095794379711151, -0.07196581363677979, -0.04373472929000854, -0.16774061322212219, 0.22703412175178528, -0.06657288968563080, 0.07518673688173294, 0.00787755846977234, 0.02363126166164875, 0.07235973328351974, 0.11009249836206436, 0.01974241435527802, -0.17747782170772552, -0.10420083999633789, -0.01800736226141453, 0.13520054519176483, 0.07168016582727432, -0.11626175045967102, 0.00267662107944489, -0.03621383011341095, 0.06389100104570389, -0.03988561034202576, -0.16715976595878601, -0.05349516868591309, 0.09055133163928986, 0.04064307361841202, 0.22276240587234497, -0.02638307400047779, -0.06845325231552124, 0.07004008442163467, -0.10343832522630692, -0.09196312725543976, 0.04693042859435081, 0.18246003985404968, 0.07382024079561234, 0.20761939883232117, 0.06730638444423676, 0.06639518588781357, 0.12725780904293060, 0.18121246993541718, -0.15660732984542847, 0.12048813700675964, 0.12903121113777161, -0.10063234716653824, -0.21399004757404327, -0.01196793280541897, 0.14520691335201263, -0.00098663568496704, 0.08031091839075089, -0.06012880057096481, -0.04389309883117676, -0.04495931044220924, 0.02737950347363949, 0.07021935284137726, -0.09170534461736679, -0.01289583183825016, 0.14259351789951324, 0.10428103804588318, -0.06634715944528580, 0.00750920316204429, -0.08019456267356873, -0.25327348709106445, -0.08694344013929367, 0.04325260967016220, -0.05283827334642410, -0.23731063306331635, -0.17683185636997223, 0.08673277497291565, -0.19368633627891541, 0.16295270621776581, 0.02107229083776474, 0.18824593722820282, 0.17026649415493011, 0.15328057110309601, 0.01264850422739983, 0.18666210770606995, -0.05557058751583099, -0.21169677376747131, 0.17945837974548340, 0.01412232965230942, 0.12019146978855133, -0.07692555338144302, 0.11417101323604584, -0.07450284808874130, 0.08641663193702698, -0.09979696571826935, 0.15004222095012665, -0.02888697385787964, -0.08470390737056732, 0.02396625652909279, -0.21433347463607788, 0.08239044994115829, -0.13406315445899963, 0.00282406900078058, -0.07585304230451584, 0.00257612066343427, 0.07597460597753525, -0.20903046429157257, -0.21383941173553467, -0.06977698206901550, -0.14912098646163940, 0.27563291788101196, 0.17127418518066406, -0.08365943282842636, -0.08551635593175888, 0.01630551367998123, 0.09279213100671768, -0.19272936880588531, -0.02597738616168499, 0.00374688580632210, 0.18061710894107819, -0.09176698327064514, -0.11067010462284088, -0.01888625137507915, -0.11391885578632355, -0.15698146820068359, -0.11333801597356796, -0.03497038781642914, 0.14096093177795410, -0.11359750479459763, -0.15249094367027283, -0.09740803390741348, 0.19820638000965118, -0.07303964346647263, -0.14445580542087555, 0.22353117167949677, 0.10318359732627869, -0.21948142349720001, 0.13953478634357452, 0.19586169719696045, 0.09463526308536530, 0.09288926422595978, 0.08946761488914490, 0.00903644599020481, 0.11942365765571594, 0.04303796589374542, -0.18425196409225464, -0.06329079717397690, 0.05763791501522064, 0.12618429958820343, 0.10250999033451080, 0.11014534533023834, 0.10116268694400787, -0.05434086918830872, -0.12428403645753860, -0.06184221059083939, 0.15408509969711304, -0.10765542089939117, -0.05016464740037918, -0.18753767013549805, -0.17814731597900391, -0.09152969717979431, 0.02275668829679489, -0.03986477851867676, 0.06244019791483879, 0.00271905399858952, 0.19169636070728302, 0.09063912928104401, -0.06125441193580627, 0.04520436376333237, -0.07993911206722260, 0.07816168665885925, 0.16150613129138947, -0.07712413370609283, -0.17881390452384949, -0.21354655921459198, -0.05515027791261673, 0.00514979194849730, 0.16594159603118896, 0.00334813748486340, -0.08919738233089447, 0.02661425806581974, -0.16031068563461304, -0.10010416805744171, 0.17907212674617767, 0.04620667919516563, 0.05044075846672058, 0.08693647384643555, -0.07523774355649948, -0.17601150274276733, -0.05038230121135712, 0.16786792874336243, 0.15869839489459991, 0.13028772175312042, -0.09291394799947739, 0.15752348303794861, -0.18891586363315582, 0.10712517797946930, -0.08221902698278427, 0.08357829600572586, -0.04423972964286804, 0.14303956925868988, -0.15069508552551270, -0.03280839323997498, 0.06769858300685883, -0.11708742380142212, 0.09491117298603058, -0.03794816508889198, 0.06250271946191788, 0.19039724767208099, 0.05286433175206184, 0.02493802458047867, -0.04095275327563286, 0.08768483251333237, -0.04837265610694885, 0.05611461400985718, -0.02333743311464787, -0.14976151287555695, -0.18614020943641663, -0.05297829955816269, 0.10477489233016968, -0.11242666840553284, 0.05900780856609344, 0.04643000662326813, 0.09699274599552155, -0.14697052538394928, 0.11135731637477875, 0.06234349682927132, 0.07304373383522034, 0.05662652105093002, 0.17995475232601166, -0.08663321286439896, 0.13139750063419342, 0.01068679895251989, -0.02633307687938213, -0.13361674547195435, -0.04819002002477646, -0.01739291474223137, -0.17960438132286072, -0.11053367704153061, -0.03460162132978439, 0.01171997841447592, 0.05827888473868370, 0.09292171895503998, -0.11939696222543716, 0.17366345226764679, 0.10807105153799057, 0.16196864843368530, 0.16922216117382050, 0.02296210266649723, -0.13890030980110168, -0.19588771462440491, 0.08845449239015579, 0.12763078510761261, 0.10030637681484222, -0.11346944421529770, 0.07980173081159592, 0.15703655779361725, -0.05228557810187340, 0.12313442677259445, -0.08376694470643997, 0.19673255085945129, -0.14649046957492828, 0.03471200540661812, -0.02441526018083096, -0.02566765807569027, -0.16012921929359436, 0.14307177066802979, -0.01120115816593170, -0.02341082133352757, -0.10413474589586258, -0.01165373995900154, 0.19717079401016235, -0.17682014405727386, 0.09719902276992798, 0.16557738184928894, 0.04765339940786362, -0.15463700890541077, 0.07615526020526886, 0.20735350251197815, 0.17722819745540619, -0.06126305833458900, 0.16555322706699371, 0.20183309912681580, 0.06910243630409241, 0.10991575568914413, -0.11739142239093781, -0.01103170216083527, -0.03942820429801941, 0.17117552459239960, -0.15504604578018188, 0.15132407844066620, -0.04258477687835693, 0.00481241568922997, 0.14679430425167084, 0.09138898551464081, -0.11205063760280609, 0.18376606702804565, 0.07208723574876785, -0.00944544747471809, -0.02554336190223694, 0.10508176684379578, -0.11739540845155716, -0.20457185804843903, -0.12807101011276245, -0.10535256564617157, -0.00119390105828643, 0.14426985383033752, 0.10077808797359467, 0.10869613289833069, 0.02323059178888798, 0.07800569385290146, 0.16417565941810608, -0.16948442161083221, -0.06091007217764854, -0.04704166576266289, -0.13278169929981232, -0.06557053327560425, -0.02358659543097019, 0.11812458187341690, -0.08393999934196472, -0.00838525500148535, 0.08767294138669968, -0.12154391407966614, -0.04255868121981621, -0.14796395599842072, 0.01485340762883425, -0.15196198225021362, 0.22909662127494812, -0.12560231983661652, 0.12082823365926743, -0.15626183152198792, -0.08803434669971466, 0.11104148626327515, -0.20746117830276489, 0.13502539694309235, -0.03318472951650620, -0.11049129068851471, 0.15127289295196533, -0.14679695665836334, -0.00383316911756992, 0.00952997896820307, -0.10689020156860352, -0.21756064891815186, -0.06988716125488281, 0.11940941959619522, -0.06717817485332489, -0.17948099970817566, 0.15547366440296173, 0.10875494033098221, 0.20840235054492950, -0.13375240564346313, -0.06970684975385666, -0.12004481256008148, 0.11439929157495499, 0.13886664807796478, -0.09101922065019608, 0.10588996112346649, 0.04861507564783096, 0.02791005000472069, 0.05023171007633209, -0.03436726704239845, 0.04240857064723969, 0.00031901750480756, -0.16522052884101868, 0.08289794623851776, -0.12154309451580048, -0.10823611170053482, -0.10444631427526474, -0.00715153105556965, -0.19326217472553253, -0.15867796540260315, 0.18064905703067780, -0.08075272291898727, 0.17070014774799347, -0.00177621818147600, 0.12309280037879944, 0.01850138604640961, -0.14405684173107147, -0.05905307084321976, -0.04825799912214279, -0.05668809264898300, 0.13221380114555359, 0.01523668505251408, -0.07339043170213699, -0.14301860332489014, 0.09507009387016296, 0.17105612158775330, -0.07068634778261185, 0.13797827064990997, 0.15224523842334747, -0.09542012214660645, 0.06310166418552399, -0.09353408217430115, -0.13687257468700409, 0.09884002059698105, -0.01857453584671021, 0.10294151306152344, -0.11997993290424347, 0.01714889705181122, 0.16325636208057404, 0.15319849550724030, 0.08166631311178207, 0.10482807457447052, -0.02956080064177513, -0.16914416849613190, 0.16248650848865509, 0.04476190358400345, -0.03062694519758224, 0.15827845036983490, -0.02193884551525116, -0.00955994147807360, 0.14046505093574524, 0.09632109850645065, -0.04232149943709373, -0.15984508395195007, -0.06815396994352341, 0.18719778954982758, 0.15308547019958496, -0.07322007417678833, 0.00945419631898403, 0.13281461596488953, -0.15375700592994690, 0.07851424068212509, 0.03415572643280029, 0.05561259388923645, -0.10011939704418182, 0.05690300092101097, 0.17155885696411133, -0.00138747156597674, 0.09503154456615448, -0.09699196368455887, -0.02880499325692654, -0.15339596569538116, 0.10209333151578903, -0.01164354290813208, 0.05275147408246994, -0.08055908977985382, 0.06546336412429810, 0.00317518669180572, 0.19880945980548859, 0.18044751882553101, 0.18896532058715820, -0.09138005226850510, -0.12004339694976807, -0.00193198234774172, -0.03731625899672508, -0.15462519228458405, 0.09590214490890503, -0.19418166577816010, 0.03093420714139938, -0.02844218350946903, 0.02906299196183681, -0.08391436189413071, 0.02531708218157291, -0.05212076008319855, 0.04205888882279396, 0.03936088457703590, 0.07380507141351700, -0.05186655744910240, 0.04910157620906830, -0.06801501661539078, -0.03317180648446083, 0.06358690559864044, -0.02100039646029472, 0.06205482780933380, -0.04645881429314613, -0.15307348966598511, 0.01071833632886410, 0.05393191426992416, -0.00889080762863159, -0.15792435407638550, -0.11585969477891922, 0.13910014927387238, -0.11684015393257141, 0.01888555288314819, 0.08896103501319885, -0.06822137534618378, 0.18191595375537872, 0.15288461744785309, 0.18765811622142792, 0.07729191333055496, 0.04605987295508385, 0.15362025797367096, -0.17696630954742432, -0.11010083556175232, -0.00838901009410620, 0.13280659914016724, -0.10095455497503281, -0.14334587752819061, 0.01858360320329666, 0.02419494837522507, -0.05915226042270660, -0.06062765792012215, 0.12486104667186737, -0.11696919053792953, -0.12603123486042023, -0.18518888950347900, 0.14790585637092590, -0.15156134963035583, 0.11454483866691589, 0.10065960884094238, 0.20866610109806061, -0.09380542486906052, 0.03218287974596024, 0.00905316136777401, -0.07111014425754547, -0.18712703883647919, -0.19754330813884735, -0.06157476454973221, -0.03432799503207207, 0.19659365713596344, 0.08474372327327728, 0.16260105371475220, 0.08753947168588638, 0.10491593927145004, 0.11658267676830292, -0.06144078820943832, 0.11152386665344238, 0.04081393033266068, -0.19821213185787201, 0.00265865959227085, -0.00429844763129950, -0.03722478449344635, -0.14505046606063843, 0.05146748200058937, 0.22302922606468201, -0.15978837013244629, 0.15116778016090393, -0.08898370712995529, -0.13424122333526611, -0.09358537942171097, 0.05569122359156609, 0.04094623029232025, 0.17254759371280670, -0.09377425909042358, 0.11130037903785706, 0.12225728482007980, -0.01966855302453041, 0.09136033058166504, -0.19405090808868408, 0.16080968081951141, 0.10952252894639969, -0.14700518548488617, 0.08135159313678741, 0.20716086030006409, -0.15270191431045532, -0.19248905777931213, -0.02742708101868629, -0.09119854867458344, 0.02810307778418064, 0.16552785038948059, 0.13300998508930206, 0.06712908297777176, 0.09939005225896835, -0.09478510171175003, -0.10431514680385590, 0.18302761018276215, -0.01541523635387421, 0.06077822297811508, -0.03316967561841011, 0.07917847484350204, -0.14072889089584351, 0.15493799746036530, -0.02521841414272785, 0.00288698775693774, 0.02140549756586552, 0.12451919913291931, 0.02328951843082905, 0.01504645962268114, 0.16168881952762604, 0.16219899058341980, -0.09220945090055466, -0.01831444166600704, -0.03194713220000267, -0.08028004318475723, 0.03842155262827873, 0.12954188883304596, -0.09463530778884888, -0.15240862965583801, -0.02581830322742462, -0.14102618396282196, 0.09270104020833969, -0.02251396328210831, -0.07355707138776779, -0.16597627103328705, 0.19291983544826508, -0.08450401574373245, 0.02035132050514221, -0.08919135481119156, -0.06197343766689301, -0.13416753709316254, 0.10316552966833115, -0.09099534898996353, -0.11619439721107483, -0.10810775309801102, -0.03528983891010284, -0.04982024058699608, 0.03724673390388489, -0.00103916821535677, 0.12013665586709976, -0.00235822540707886, 0.11662213504314423, 0.09782285988330841, 0.01367850974202156, -0.15356606245040894, -0.08168119192123413, 0.07958997786045074, 0.08706323802471161, 0.08821886032819748, -0.19186927378177643, 0.07182973623275757, 0.00246930238790810, 0.15796855092048645, -0.13849945366382599, 0.06147831678390503, -0.04053668677806854, 0.02158093638718128, -0.14870241284370422, -0.06989036500453949, -0.20720638334751129, 0.04733460396528244, 0.08451370894908905, -0.05823259800672531, -0.03348659723997116, -0.19115997850894928, -0.18732719123363495, 0.15085352957248688, -0.05318954586982727, -0.13749910891056061, 0.07446902245283127, 0.07805214077234268, -0.07934124022722244, -0.13880281150341034, -0.17934386432170868, -0.12389470636844635, -0.00600083684548736, -0.18585959076881409, -0.13707281649112701, 0.03096213005483150, 0.12097556889057159, 0.10432346910238266, 0.17024442553520203, -0.08091887086629868, 0.00334264198318124, -0.08588124066591263, 0.10210340470075607, -0.17312778532505035, -0.11615409702062607, 0.06380244344472885, -0.09125243872404099, 0.04030744731426239, 0.18229217827320099, 0.09107688069343567, -0.18655517697334290, 0.19762328267097473, -0.15966077148914337, -0.06753632426261902, 0.16777604818344116, -0.15330263972282410, 0.01241264306008816, 0.06855146586894989, -0.03936988115310669, -0.11414883285760880, -0.10139071941375732, -0.10536060482263565, 0.15596677362918854, -0.02687323838472366, -0.15672779083251953, -0.12990702688694000, 0.10577242076396942, 0.15163002908229828, -0.04106371104717255, -0.07829048484563828, -0.00828090030699968, -0.03861541673541069, -0.18785408139228821, -0.06281857192516327, -0.16464531421661377, -0.13636837899684906, 0.05495189130306244, 0.00988633930683136, -0.08369390666484833, -0.10654433071613312, 0.14658601582050323, -0.01029711309820414, 0.04623728990554810, -0.17964300513267517, 0.02704820968210697, -0.05557106807827950, 0.15458783507347107, 0.08770043402910233, 0.20286093652248383, -0.01927339658141136, -0.12273012101650238, -0.17058460414409637, 0.11258041858673096, 0.12516401708126068, -0.14443926513195038, 0.01079553924500942, -0.18472874164581299, 0.13831222057342529, -0.15456168353557587, -0.12012753635644913, -0.12645556032657623, 0.05600384250283241, -0.06542303413152695, 0.10094331949949265, -0.16748721897602081, -0.04373598471283913, 0.15960375964641571, -0.00270740990526974, -0.12101981788873672, -0.11959851533174515, 0.15037605166435242, -0.17997473478317261, 