//Numpy array shape [64, 32]
//Min -0.302848875523
//Max 0.363484889269
//Number of zeros 0

#ifndef W5_H_
#define W5_H_

#ifndef __SYNTHESIS__
model_default_t w5[2048];
#else
model_default_t w5[2048] = {-0.15754647552967072, 0.14793367683887482, -0.21788169443607330, 0.24469155073165894, -0.28156641125679016, -0.13209465146064758, 0.30380040407180786, -0.09166077524423599, -0.03325844556093216, 0.01807872392237186, -0.01978973671793938, 0.26353836059570312, -0.16891232132911682, 0.22987321019172668, -0.19776675105094910, 0.16827502846717834, -0.02105798199772835, -0.01460642740130424, 0.21851204335689545, -0.09050180763006210, 0.27209559082984924, -0.14913478493690491, 0.09376601129770279, -0.28244060277938843, 0.25177359580993652, 0.17815171182155609, 0.16067904233932495, -0.23969630897045135, -0.03728557750582695, -0.14398491382598877, -0.08782576024532318, 0.04914988204836845, -0.11584624648094177, 0.17416329681873322, 0.10675874352455139, -0.13279283046722412, -0.26172044873237610, -0.03199166432023048, -0.22569125890731812, 0.14175370335578918, -0.10618422925472260, -0.17326587438583374, -0.07025775313377380, -0.10233388096094131, 0.22412680089473724, 0.00277135940268636, -0.09840282797813416, -0.15219919383525848, 0.08756490796804428, -0.20392517745494843, -0.22198092937469482, 0.00952455401420593, 0.17805325984954834, -0.21017517149448395, 0.09090710431337357, 0.18058483302593231, -0.02312869206070900, 0.06702584028244019, -0.21658061444759369, 0.17884445190429688, -0.18311175704002380, -0.23675577342510223, -0.20304311811923981, 0.18966658413410187, -0.01212143618613482, -0.18939855694770813, -0.08605065941810608, 0.10429379343986511, 0.01061212643980980, -0.13693119585514069, 0.13023452460765839, 0.27493515610694885, 0.21178820729255676, 0.11198449879884720, -0.11349258571863174, 0.04268999397754669, 0.09987492859363556, 0.08023961633443832, 0.05252910777926445, -0.18095102906227112, -0.03014899231493473, -0.14474494755268097, 0.01251377630978823, 0.15213586390018463, 0.14372074604034424, -0.23991380631923676, 0.21234035491943359, 0.16676151752471924, -0.20829066634178162, 0.22289897501468658, -0.23803497850894928, 0.09877941012382507, 0.28253495693206787, 0.13140057027339935, 0.05322768911719322, -0.02228946425020695, 0.05437457561492920, 0.17804920673370361, -0.10552948713302612, 0.16043281555175781, 0.00682675838470459, -0.20683103799819946, -0.22319656610488892, 0.06919640302658081, 0.01400953531265259, 0.00287729501724243, 0.19738793373107910, 0.00273400545120239, -0.22187966108322144, -0.18371999263763428, -0.14142322540283203, -0.20290219783782959, 0.03449535369873047, 0.10163223743438721, 0.12369841337203979, 0.18351334333419800, -0.20515120029449463, -0.20957612991333008, 0.05529356002807617, -0.01504516601562500, 0.20145666599273682, 0.14649796485900879, -0.14349299669265747, -0.23811000585556030, -0.04461550712585449, -0.12575447559356689, -0.23179346323013306, 0.07832902669906616, -0.09076056629419327, 0.08888544142246246, 0.20473061501979828, -0.04247488826513290, 0.20547184348106384, -0.19310370087623596, -0.03360424190759659, -0.01375283207744360, -0.26615315675735474, 0.28306621313095093, -0.25009238719940186, -0.12732523679733276, 0.04754771292209625, -0.11957719922065735, 0.14681123197078705, 0.25853008031845093, 0.10384415090084076, 0.14113678038120270, -0.04529489204287529, 0.21868124604225159, 0.03618671745061874, 0.29935750365257263, -0.10532734543085098, 0.03441787511110306, -0.08050294965505600, -0.17478720843791962, -0.15800063312053680, 0.28637024760246277, 0.05540237203240395, 0.02201767265796661, -0.01146395504474640, 0.29903334379196167, -0.22000406682491302, 0.06756553798913956, 0.13610543310642242, 0.02440344542264938, 0.05108292400836945, -0.01231337245553732, 0.11427895724773407, -0.15606419742107391, 0.07358955591917038, -0.02372572757303715, 0.13200034201145172, -0.18113893270492554, 0.20425704121589661, -0.05125978216528893, -0.17421662807464600, 0.00008873347542249, -0.03699345886707306, 0.14164668321609497, -0.03921787813305855, 0.04862584173679352, 0.02512680552899837, -0.19242414832115173, 0.20582082867622375, 0.04063216596841812, -0.12356138229370117, 0.24618002772331238, 0.19999262690544128, 0.13580051064491272, 0.07883877307176590, -0.28936189413070679, 0.03548515215516090, 0.11343972384929657, 0.03617510572075844, -0.10411212593317032, -0.25008082389831543, -0.13444343209266663, 0.06334997713565826, 0.03797772899270058, 0.00303624058142304, 0.24409274756908417, -0.10803905874490738, -0.14531072974205017, -0.02614829502999783, -0.17147755622863770, 0.21645995974540710, -0.24459035694599152, 0.04469821229577065, 0.06530234962701797, -0.20780740678310394, -0.01295306161046028, 0.06956610083580017, -0.15828914940357208, -0.20428664982318878, 0.07144737988710403, 0.00010007491800934, -0.01788912899792194, -0.19923043251037598, 0.00041766985668801, 0.08350454270839691, -0.07005105167627335, 0.16437412798404694, 0.07396693527698517, 0.01823828928172588, -0.13880485296249390, -0.19890509545803070, 0.16399897634983063, 0.25412940979003906, 0.07798980921506882, 0.19230185449123383, -0.02738946676254272, -0.11715416610240936, 0.12388372421264648, -0.08944647014141083, 0.06834731996059418, -0.13926404714584351, 0.02295123971998692, -0.03724564239382744, 0.10484848171472549, 0.18108631670475006, 0.14586603641510010, 0.04385909810662270, 0.25289669632911682, 0.12430420517921448, 0.19424027204513550, -0.17268808186054230, 0.21614389121532440, 0.19870871305465698, -0.19125249981880188, -0.13992558419704437, 0.06530110538005829, -0.02956764027476311, -0.04025133699178696, -0.04874125123023987, -0.18676844239234924, 0.17991496622562408, 0.26131495833396912, 0.13839599490165710, 0.01881583593785763, 0.14964321255683899, 0.15119637548923492, 0.13323816657066345, 0.23731532692909241, 0.01362494379281998, -0.16258774697780609, 0.14099952578544617, -0.14794515073299408, 0.08132883906364441, 0.09092770516872406, -0.24903275072574615, -0.07995865494012833, 0.10492732375860214, 0.04573621228337288, 0.01335677597671747, -0.14862059056758881, -0.05532861128449440, -0.21183110773563385, -0.10754565894603729, 0.19184464216232300, -0.03104914911091328, 0.24308130145072937, 0.08876487612724304, -0.23861591517925262, 0.05191149562597275, 0.23766537010669708, 0.09116804599761963, -0.04355026036500931, 0.08861570805311203, -0.17718479037284851, 0.11963248252868652, -0.02827137708663940, 0.14451558887958527, 0.05525309219956398, -0.17532935738563538, 0.05432874709367752, 0.23547087609767914, -0.04109968245029449, 0.11296489834785461, 0.20074141025543213, -0.23853377997875214, 0.12076358497142792, 0.21854268014431000, 0.20991446077823639, 0.01466757059097290, -0.01883404143154621, -0.15397414565086365, -0.12149960547685623, 0.23882415890693665, 0.08199878782033920, -0.08044504374265671, 0.11939308792352676, 0.10588530451059341, -0.14893469214439392, 0.19161997735500336, -0.01538532413542271, 0.13934028148651123, 0.15070046484470367, 0.21135574579238892, 0.14368048310279846, -0.08474195003509521, -0.18539679050445557, -0.16805081069469452, -0.06016694754362106, 0.06011177226901054, 0.19859363138675690, 0.07780651003122330, -0.15840211510658264, -0.08524657040834427, -0.04611920565366745, -0.23879495263099670, 0.13321395218372345, -0.01342664100229740, -0.24114859104156494, 0.17264592647552490, -0.15256096422672272, 0.02813594788312912, 0.24089387059211731, -0.18886594474315643, -0.23201008141040802, 0.08337744325399399, 0.22457008063793182, -0.09303998202085495, 0.04766763746738434, 0.20900225639343262, -0.14824013411998749, 0.01352801173925400, -0.04891704022884369, 0.14179606735706329, -0.13860288262367249, -0.01407940685749054, -0.21688438951969147, 0.16496445238590240, 0.16685168445110321, 0.03808718174695969, -0.21394963562488556, -0.09782603383064270, 0.15936984121799469, 0.33475193381309509, 0.00346835190430284, -0.00257458747364581, 0.12473619729280472, -0.16746236383914948, -0.11502716690301895, 0.20144642889499664, -0.12838204205036163, -0.09832055866718292, 0.09516165405511856, 0.07910650968551636, 0.00432483572512865, 0.28963536024093628, 0.22186072170734406, 0.09466673433780670, 0.22968944907188416, 0.09411539882421494, 0.22382207214832306, -0.22175823152065277, 0.31316724419593811, -0.18753828108310699, -0.08597362786531448, 0.16119326651096344, 0.09971627593040466, 0.10907118767499924, 0.32071176171302795, 0.15877880156040192, -0.14040072262287140, -0.08157490193843842, -0.17176668345928192, 0.04411575570702553, -0.08896300196647644, 0.09187121689319611, 0.13092961907386780, 0.18749475479125977, -0.08858677744865417, -0.16596679389476776, -0.28301748633384705, -0.24727359414100647, 0.05696310475468636, 0.15302170813083649, -0.16586980223655701, 0.01384973432868719, 0.02748032100498676, 0.00171395589131862, 0.16042202711105347, 0.26185062527656555, 0.09137963503599167, 0.12617664039134979, 0.07715602219104767, -0.05559676513075829, -0.30222526192665100, 0.22001181542873383, 0.23757895827293396, -0.22676257789134979, -0.10745398700237274, 0.23226723074913025, -0.17975968122482300, 0.23404698073863983, 0.09386011213064194, 0.23722739517688751, -0.01825797371566296, 0.15751805901527405, 0.25613936781883240, -0.05537554994225502, -0.17716892063617706, 0.03131597489118576, 0.14262656867504120, 0.05505515262484550, -0.03974282741546631, 0.17147830128669739, 0.11473761498928070, -0.03680285438895226, -0.04462480545043945, 0.10785031318664551, -0.21942086517810822, 0.11459220200777054, -0.16707348823547363, -0.22955825924873352, -0.02762423455715179, 0.18926487863063812, -0.04669594019651413, -0.13883307576179504, -0.07659301906824112, -0.17678457498550415, 0.12122976034879684, 0.06805506348609924, 0.14159955084323883, -0.14978851377964020, 0.18978719413280487, 0.21973149478435516, -0.19000226259231567, 0.11864710599184036, 0.24109758436679840, 0.14486496150493622, -0.04385107383131981, -0.25205945968627930, 0.11559646576642990, 0.01605506613850594, -0.18809057772159576, -0.05299817025661469, -0.11954978853464127, 0.04641276970505714, -0.13154873251914978, -0.07689595967531204, 0.21741349995136261, 0.15269668400287628, -0.08435681462287903, -0.11402985453605652, 0.20549075305461884, 0.13306698203086853, -0.10020522773265839, -0.10150715708732605, -0.04146705940365791, 0.25261902809143066, 0.15303939580917358, 0.07118815183639526, 0.18691152334213257, -0.01230753213167191, 0.09036091715097427, 0.04743253439664841, 0.04589108750224113, 0.18087370693683624, -0.03430991619825363, 0.24029812216758728, 0.09735639393329620, 0.17672109603881836, 0.10490521788597107, -0.05105362832546234, 0.06062720343470573, 0.10254737734794617, -0.12006312608718872, -0.22455576062202454, 0.08880523592233658, -0.24216561019420624, 0.01532700192183256, 0.27043277025222778, -0.24319493770599365, 0.14651145040988922, 0.13941793143749237, 0.03710159659385681, -0.19908866286277771, -0.18958418071269989, -0.18317437171936035, -0.12569195032119751, 0.01007227972149849, -0.15211383998394012, -0.01489349175244570, 0.23868314921855927, -0.01979897357523441, 0.20643222332000732, -0.09693665057420731, -0.00345676159486175, -0.23624992370605469, -0.10313687473535538, 0.11358376592397690, 0.13859276473522186, 0.05017080903053284, -0.14138954877853394, 0.09347642958164215, -0.19344262778759003, 0.08477644622325897, 0.03743543103337288, -0.03743566945195198, -0.10262566059827805, -0.15496152639389038, 0.16197234392166138, 0.25536891818046570, -0.07064892351627350, 0.17836056649684906, 0.08603672683238983, -0.07678566873073578, 0.00217831321060658, -0.28312128782272339, 0.05983137711882591, -0.28511846065521240, -0.00015402928693220, -0.12644319236278534, -0.03900185599923134, -0.16930551826953888, 0.10686712712049484, 0.19037345051765442, -0.02302481792867184, 0.06382673978805542, -0.16496802866458893, -0.25048357248306274, 0.03374868631362915, -0.03117895871400833, -0.13883465528488159, 0.10244257748126984, -0.11178635805845261, 0.12928761541843414, 0.21574935317039490, 0.22613354027271271, -0.03910737112164497, 0.26820597052574158, 0.09717638790607452, 0.22616593539714813, -0.02685235626995564, -0.07532778382301331, 0.17652963101863861, -0.20404557883739471, -0.26177608966827393, 0.04256081581115723, 0.15237455070018768, -0.02672864496707916, 0.26665237545967102, 0.20154452323913574, 0.23097102344036102, 0.02414658665657043, -0.11151780188083649, 0.01790855824947357, 0.21960012614727020, 0.11189060658216476, -0.05547604709863663, 0.06216764077544212, 0.09987428784370422, 0.16439312696456909, 0.09719111770391464, 0.18068678677082062, -0.17163680493831635, -0.00837751943618059, 0.04122166335582733, 0.16730804741382599, -0.13616958260536194, -0.00628588860854506, -0.16581815481185913, 0.24045075476169586, -0.19074693322181702, -0.17642788589000702, 0.05924278497695923, -0.09001508355140686, 0.12293808162212372, -0.00054620357695967, 0.15917703509330750, -0.28244313597679138, -0.20238959789276123, 0.16438126564025879, 0.10989067703485489, -0.28485777974128723, -0.14468915760517120, -0.16329224407672882, 0.09186724573373795, -0.06315892189741135, 0.16879996657371521, 0.04133346676826477, 0.12869487702846527, -0.20215308666229248, 0.17491494119167328, -0.26058292388916016, 0.00174887781031430, -0.02239651046693325, -0.21099336445331573, -0.22224940359592438, -0.19527027010917664, -0.17111986875534058, 0.18578954041004181, 0.19940872490406036, -0.12679764628410339, 0.14235503971576691, -0.17899103462696075, -0.06183972954750061, 0.00458349846303463, 0.24404999613761902, 0.20475389063358307, 0.01416144706308842, -0.00997116230428219, -0.03904319554567337, -0.00211354019120336, -0.15585777163505554, -0.01194516569375992, -0.22886611521244049, 0.04457238316535950, -0.05231749266386032, 0.10946749150753021, 0.00147759786341339, -0.01885748282074928, 0.07063040882349014, 0.00129992025904357, 0.05705001205205917, 0.02968210913240910, -0.09732511639595032, 0.03056688606739044, -0.10307842493057251, 0.21493943035602570, -0.21532094478607178, -0.09970012307167053, 0.11482491344213486, -0.05722199007868767, -0.13972979784011841, -0.05282742157578468, -0.10805563628673553, -0.06599428504705429, 0.09217537194490433, 0.02356440387666225, 0.06880828738212585, -0.12662743031978607, 0.10671089589595795, 0.29639047384262085, 0.23524542152881622, 0.25677827000617981, 0.07961282134056091, 0.18805973231792450, 0.28160300850868225, 0.09266540408134460, 0.19208279252052307, -0.26423957943916321, 0.28789752721786499, 0.08828623592853546, -0.15689373016357422, 0.05741765350103378, -0.02075801230967045, -0.27056768536567688, 0.13794447481632233, 0.13330580294132233, 0.05064082890748978, -0.14777012169361115, -0.21564224362373352, -0.20222885906696320, -0.08742462843656540, -0.22518898546695709, 0.04300666972994804, 0.12340161204338074, 0.05145568028092384, 0.03039886988699436, -0.15319520235061646, 0.01414905954152346, 0.13992166519165039, 0.15821492671966553, 0.06726828217506409, -0.23796160519123077, 0.07887107878923416, -0.06683313101530075, -0.01807237975299358, -0.05127013847231865, 0.04322338476777077, -0.24204540252685547, -0.18685336410999298, 0.18980310857295990, 0.06194008514285088, -0.03641101345419884, -0.04289120435714722, 0.07928972691297531, -0.00057043344713748, 0.00890013948082924, -0.12568868696689606, -0.17198765277862549, 0.03339241817593575, -0.18194483220577240, -0.06800746917724609, 0.10918239504098892, -0.10643331706523895, -0.05068224668502808, -0.09521158784627914, -0.09056604653596878, -0.23505558073520660, -0.00265606166794896, 0.36348488926887512, -0.17548003792762756, -0.26768070459365845, 0.06867220997810364, -0.04239924252033234, 0.06487087905406952, 0.02147933468222618, -0.07677870243787766, 0.13391475379467010, -0.00345305050723255, -0.01882036589086056, -0.00575862731784582, 0.30872055888175964, -0.07132958620786667, -0.01296539232134819, 0.08724645525217056, -0.03196496888995171, 0.12020847946405411, 0.29946792125701904, -0.14652249217033386, 0.10650664567947388, -0.26622122526168823, -0.02446798607707024, -0.10628428310155869, 0.17770771682262421, -0.18942534923553467, 0.12782089412212372, -0.16229832172393799, 0.02146168611943722, -0.10753259062767029, -0.10150150954723358, -0.08495605736970901, 0.08114865422248840, -0.18358038365840912, -0.21922466158866882, 0.11946767568588257, -0.02952764555811882, 0.00233970768749714, -0.00537848100066185, -0.03400827571749687, -0.20160356163978577, 0.10012982040643692, -0.23549501597881317, 0.04092779383063316, -0.09525373578071594, 0.08354967832565308, 0.11554473638534546, 0.20167072117328644, 0.13349398970603943, 0.02673463150858879, 0.14330297708511353, 0.01026834920048714, 0.01627599075436592, 0.18613022565841675, -0.01982367224991322, -0.11741042882204056, -0.10854929685592651, -0.02341296523809433, -0.03998640924692154, 0.18305623531341553, 0.05754331871867180, -0.12583768367767334, -0.12063711881637573, 0.06692231446504593, -0.04634988307952881, 0.12987299263477325, 0.20377601683139801, -0.05990759655833244, -0.04344746842980385, -0.08318368345499039, 0.03608386963605881, 0.09994787722826004, -0.01107914745807648, 0.17074953019618988, -0.25090605020523071, -0.00477455044165254, 0.21556246280670166, 0.04573612287640572, 0.03314299881458282, 0.14920270442962646, 0.00847051478922367, -0.22092778980731964, 0.06051820516586304, 0.09779492020606995, 0.16551277041435242, -0.26171645522117615, -0.08819871395826340, -0.14017744362354279, -0.10719933360815048, 0.22838152945041656, -0.06777647882699966, -0.01193195953965187, -0.18722964823246002, 0.06750764697790146, -0.00310789165087044, -0.10361240059137344, 0.02350100502371788, -0.04804611951112747, -0.12429630756378174, -0.10448172688484192, -0.08582787215709686, 0.21872539818286896, 0.26930055022239685, 0.23099952936172485, 0.02290645241737366, 0.13972878456115723, -0.06664460897445679, -0.02741559967398643, -0.03191250935196877, -0.27293288707733154, 0.31586790084838867, 0.15442563593387604, 0.04897771030664444, 0.26590415835380554, 0.30640950798988342, -0.02474735863506794, 0.00192217528820038, -0.30284887552261353, 0.15213361382484436, -0.25720426440238953, -0.13414578139781952, -0.02731735631823540, 0.31217840313911438, -0.12094870209693909, 0.01333585660904646, -0.02180015295743942, -0.10362121462821960, 0.03107425384223461, -0.11207328736782074, -0.05181149765849113, -0.15625731647014618, 0.11342979967594147, -0.06638582795858383, -0.02273901738226414, -0.11030814796686172, 0.07689890265464783, -0.14382648468017578, 0.25971388816833496, 0.14292170107364655, -0.00873779412358999, 0.08003184944391251, 0.06651155650615692, 0.07161317765712738, -0.09855341911315918, 0.02089476771652699, -0.05305853858590126, 0.13418306410312653, 0.00259559880942106, -0.17786003649234772, 0.21939210593700409, -0.02933410927653313, -0.23053935170173645, 0.22350524365901947, -0.14002071321010590, 0.01851216889917850, 0.02964248880743980, -0.15043841302394867, -0.19433067739009857, -0.15081694722175598, 0.21597982943058014, -0.09539499878883362, 0.21166269481182098, -0.19908201694488525, -0.16096974909305573, -0.20250444114208221, -0.08687165379524231, -0.24559955298900604, -0.19544409215450287, -0.13779425621032715, 0.11323052644729614, 0.18526649475097656, 0.07933841645717621, -0.05198818445205688, 0.03603392094373703, -0.12623919546604156, 0.01998892053961754, -0.17744371294975281, 0.05300477892160416, -0.24434553086757660, 0.11843869090080261, -0.08503074198961258, 0.16892635822296143, -0.22449187934398651, 0.29274240136146545, 0.15101531147956848, -0.11483971029520035, -0.20811805129051208, 0.31775829195976257, -0.14108274877071381, -0.21414394676685333, 0.06065063551068306, 0.12331584841012955, 0.09080052375793457, 0.05428078025579453, -0.10908599942922592, 0.01456477213650942, 0.01642790809273720, 0.21687218546867371, 0.04190589115023613, 0.09293349087238312, -0.08235269039869308, -0.14598494768142700, 0.17004783451557159, -0.18532860279083252, 0.04162457957863808, -0.13407102227210999, 0.29514923691749573, 0.04038012772798538, -0.17361259460449219, -0.09752717614173889, 0.05143745243549347, 0.06002122908830643, 0.06451515108346939, -0.07199641317129135, 0.05113320052623749, 0.20747479796409607, 0.06777478009462357, 0.11719304323196411, 0.02241322956979275, 0.03686233982443810, 0.04739521071314812, 0.12411899864673615, -0.19494712352752686, -0.00422082236036658, -0.01721836067736149, -0.17135956883430481, 0.23386789858341217, 0.15850910544395447, -0.10983817279338837, 0.03452303633093834, -0.16615599393844604, -0.12989239394664764, -0.16485470533370972, -0.10648563504219055, -0.20041455328464508, -0.05813416466116905, 0.00873041618615389, 0.16853496432304382, 0.10199624300003052, -0.18283064663410187, -0.13576374948024750, 0.15033714473247528, -0.18248650431632996, 0.02926926873624325, -0.08417842537164688, 0.21411074697971344, -0.14779557287693024, -0.11469130218029022, 0.01684079505503178, 0.06509182602167130, 0.10580456256866455, -0.16723451018333435, 0.16498816013336182, 0.09750398248434067, 0.11260320246219635, -0.20574921369552612, -0.17060783505439758, 0.00342558557167649, 0.23355202376842499, -0.07785664498806000, -0.05679099261760712, 0.16746045649051666, 0.15657053887844086, 0.09845789521932602, -0.22693350911140442, 0.18770356476306915, -0.10227972269058228, 0.00973624642938375, 0.24220840632915497, -0.23072475194931030, -0.07702302187681198, -0.02786218933761120, 0.21530291438102722, 0.12170251458883286, -0.05852438881993294, 0.04123098030686378, -0.00083079095929861, 0.11319757252931595, -0.17948034405708313, -0.27099883556365967, 0.03351899236440659, -0.10056918859481812, 0.20124615728855133, 0.02815676294267178, 0.01406879164278507, -0.15645396709442139, 0.14644248783588409, 0.14276854693889618, -0.19822382926940918, -0.20603093504905701, -0.15579473972320557, 0.04366913810372353, -0.19952096045017242, -0.14017239212989807, -0.24298855662345886, -0.03903556987643242, 0.02965082600712776, 0.13810251653194427, -0.01963336952030659, 0.09203077852725983, -0.01722168363630772, 0.04654546827077866, -0.14861497282981873, 0.19278286397457123, -0.13258346915245056, 0.12148179113864899, 0.00307849585078657, -0.17583400011062622, -0.09191411733627319, 0.20506270229816437, -0.10950329899787903, -0.01855277456343174, -0.19861099123954773, 0.13946282863616943, 0.11319825053215027, -0.13845720887184143, -0.24780516326427460, -0.20853911340236664, -0.15088158845901489, -0.27089706063270569, -0.11917097866535187, -0.04451033845543861, -0.24781820178031921, -0.09734984487295151, -0.12938074767589569, 0.21905815601348877, -0.00611040461808443, -0.01686325669288635, 0.03439001366496086, -0.25405898690223694, 0.11475443094968796, -0.24732849001884460, -0.05597664043307304, -0.00325551768764853, 0.30344861745834351, -0.14597406983375549, -0.13480511307716370, 0.14923314750194550, -0.12716144323348999, -0.19227623939514160, 0.16744580864906311, 0.01338955666869879, -0.17739519476890564, 0.02651911973953247, -0.18620169162750244, -0.22379606962203979, 0.12322288751602173, 0.05730962753295898, 0.07375639677047729, 0.17632204294204712, -0.07447910308837891, 0.07377344369888306, 0.04629909992218018, -0.06151539087295532, -0.13319617509841919, -0.03166180849075317, -0.23584431409835815, 0.08986139297485352, 0.11063998937606812, -0.24543452262878418, 0.01522183418273926, -0.00939512252807617, -0.11529994010925293, -0.12601727247238159, 0.23569649457931519, -0.11334574222564697, 0.14662021398544312, -0.16030144691467285, -0.01645392179489136, 0.07674854993820190, -0.18730103969573975, -0.15938055515289307, 0.04539823532104492, 0.08834785223007202, -0.12420463562011719, -0.22965572774410248, -0.25021117925643921, 0.03297713026404381, -0.11778313666582108, -0.11497614532709122, 0.08118086308240891, 0.24813047051429749, 0.03563775867223740, -0.07152327895164490, 0.21758554875850677, -0.10340850800275803, -0.07323899120092392, 0.14072032272815704, -0.13326710462570190, 0.08550082892179489, -0.06290563941001892, 0.07284630089998245, 0.00533219194039702, -0.13050842285156250, -0.07972797751426697, 0.19961075484752655, 0.10673990845680237, -0.04508605599403381, 0.17482930421829224, -0.03477574884891510, -0.01593743078410625, -0.16348849236965179, -0.12734170258045197, 0.22090272605419159, 0.07181094586849213, -0.07180509716272354, 0.00092155416496098, 0.01439122017472982, -0.21871630847454071, 0.27112135291099548, 0.11645026504993439, -0.02395153418183327, -0.25737914443016052, -0.03068746253848076, 0.15914872288703918, 0.05372209101915359, 0.04686008766293526, -0.19990798830986023, -0.04934944957494736, -0.19992230832576752, 0.03080742806196213, 0.28686010837554932, 0.17808379232883453, 0.12222030013799667, 0.10503011196851730, 0.01383220311254263, 0.17728462815284729, -0.26443418860435486, 0.21672663092613220, 0.10952873528003693, 0.10272490978240967, 0.14770375192165375, 0.12538015842437744, 0.12889298796653748, 0.25524702668190002, 0.15142701566219330, 0.30649316310882568, -0.05942660570144653, 0.25197672843933105, -0.08940596878528595, -0.18472887575626373, -0.15749184787273407, -0.17103101313114166, -0.19136798381805420, -0.05752114579081535, 0.29979622364044189, 0.12863858044147491, 0.23238098621368408, -0.26154091954231262, 0.21397534012794495, -0.18594148755073547, 0.18024645745754242, 0.09100542217493057, 0.05240610241889954, -0.10325098782777786, 0.03363442048430443, -0.02514404244720936, 0.00966062769293785, -0.01504585705697536, 0.26015084981918335, 0.02478859014809132, 0.01821066811680794, 0.10996966063976288, -0.06662577390670776, -0.02844295278191566, 0.05915943905711174, -0.23382173478603363, 0.04144649952650070, -0.24093599617481232, 0.28698727488517761, -0.16979241371154785, -0.05291473865509033, -0.04694624990224838, 0.11046124249696732, -0.23485368490219116, 0.26711416244506836, -0.07044092565774918, -0.15548200905323029, -0.11839922517538071, 0.04298119246959686, 0.34695476293563843, -0.04020858183503151, 0.00397856207564473, 0.06470496952533722, 0.00193426350597292, -0.02269283868372440, 0.20999857783317566, 0.20817907154560089, -0.00227182498201728, -0.25356143712997437, 0.27430436015129089, -0.15438565611839294, 0.20100004971027374, -0.06549591571092606, -0.14761610329151154, 0.11491250246763229, -0.11253991723060608, 0.26077237725257874, 0.18095879256725311, -0.23441331088542938, 0.32440164685249329, -0.26398834586143494, 0.12898078560829163, 0.24625056982040405, -0.17670583724975586, -0.04667633771896362, -0.18863731622695923, -0.19420838356018066, 0.18381357192993164, 0.01900309324264526, -0.09895706176757812, 0.11291521787643433, -0.18951344490051270, -0.00449317693710327, 0.06277549266815186, -0.05302774906158447, -0.09851402044296265, 0.10432314872741699, 0.03953176736831665, 0.10629302263259888, 0.04017663002014160, -0.21258151531219482, -0.21804767847061157, 0.00772255659103394, 0.12413996458053589, 0.13575905561447144, 0.03850221633911133, 0.07620501518249512, -0.18017625808715820, -0.24790203571319580, 0.17609649896621704, 0.17687588930130005, 0.01840096712112427, 0.00215941667556763, 0.19957900047302246, -0.27850741147994995, -0.06877879798412323, -0.08809880167245865, 0.22818209230899811, -0.00787528790533543, 0.00389484828338027, 0.17415203154087067, 0.20880609750747681, -0.11307321488857269, -0.23183494806289673, 0.22681969404220581, -0.12027455866336823, 0.22286638617515564, 0.05830908939242363, -0.23684714734554291, 0.13224130868911743, -0.15307344496250153, -0.10909102112054825, -0.03561471775174141, -0.27739363908767700, -0.15966358780860901, -0.20573952794075012, 0.24435287714004517, 0.02571301721036434, -0.11153160035610199, 0.19712081551551819, 0.12449032068252563, -0.16255307197570801, 0.14431507885456085, -0.10240183025598526, 0.28745177388191223, 0.13526748120784760, -0.19296538829803467, 0.15694484114646912, 0.05705805495381355, 0.01167602185159922, -0.00429018680006266, -0.28049352765083313, -0.17089055478572845, -0.02544652111828327, -0.18269847333431244, 0.11794032901525497, 0.15536285936832428, -0.05053097009658813, -0.00807464215904474, 0.02098789066076279, -0.21430176496505737, -0.08319641649723053, 0.14655391871929169, 0.15100008249282837, 0.09078444540500641, -0.00081492133904248, -0.23901480436325073, -0.06754215061664581, 0.09684119373559952, 0.13099487125873566, -0.13829600811004639, 0.06890708208084106, 0.09637033939361572, 0.19098383188247681, 0.23343534767627716, -0.07850317656993866, 0.07875756919384003, 0.19122409820556641, 0.03463870286941528, 0.27338322997093201, -0.04902829602360725, 0.28521493077278137, -0.18659032881259918, 0.10249840468168259, 0.21516145765781403, 0.05644351989030838, -0.03561771288514137, -0.20466394722461700, 0.19326893985271454, 0.23136444389820099, 0.26895728707313538, -0.20352086424827576, -0.29099246859550476, -0.12519745528697968, 0.07073156535625458, -0.20402887463569641, -0.19203291833400726, -0.06642682105302811, -0.13275964558124542, 0.12052153795957565, 0.04653243348002434, 0.11270915716886520, 0.27963486313819885, -0.16871501505374908, -0.07221566140651703, -0.11501862108707428, 0.03022639080882072, 0.12419862300157547, 0.06651638448238373, 0.09587229043245316, 0.10123828053474426, 0.25782078504562378, 0.05854188278317451, -0.13602113723754883, 0.14566522836685181, -0.24420633912086487, 0.09594088047742844, -0.10157641768455505, 0.02398490905761719, 0.05880047753453255, -0.17838220298290253, -0.03403133526444435, 0.00301906978711486, 0.07702304422855377, -0.18949761986732483, -0.15120811760425568, -0.20377220213413239, 0.03515828028321266, 0.14766262471675873, -0.12354478240013123, 0.10000865906476974, 0.05071305483579636, 0.15633240342140198, 0.02625990286469460, -0.20170781016349792, 0.27228134870529175, -0.02999383211135864, 0.00581857888028026, -0.06787949055433273, -0.12691448628902435, -0.04300266504287720, 0.00331056723371148, -0.15761709213256836, -0.13401377201080322, -0.23600959777832031, 0.21492290496826172, -0.21506655216217041, 0.18538647890090942, 0.23448675870895386, 0.01650524139404297, -0.06369024515151978, 0.13557642698287964, 0.12114840745925903, 0.24930977821350098, -0.07771927118301392, -0.18773633241653442, -0.03338646888732910, -0.02596545219421387, 0.01471292972564697, 0.24709516763687134, 0.16278743743896484, -0.16280418634414673, -0.09683483839035034, -0.05737167596817017, 0.24498343467712402, 0.14434069395065308, -0.08197903633117676, -0.11329776048660278, 0.24483025074005127, -0.19769614934921265, 0.21211677789688110, 0.21660804748535156, 0.14134430885314941, 0.10217136144638062, 0.08656788617372513, -0.10515596717596054, -0.00702117802575231, -0.01485550682991743, 0.12909744679927826, -0.15343393385410309, -0.21654768288135529, -0.03776137158274651, -0.08848556876182556, 0.29849201440811157, -0.15711744129657745, 0.14196260273456573, -0.08675628155469894, -0.03051456436514854, 0.31245768070220947, 0.21089191734790802, 0.31581899523735046, 0.19613669812679291, -0.01306545455008745, 0.06362617760896683, -0.20286263525485992, 0.24325466156005859, 0.12153858691453934, 0.33296796679496765, -0.07870712131261826, -0.24090792238712311, -0.08160076290369034, -0.01920946128666401, 0.03733827173709869, 0.19215789437294006, -0.22050887346267700, -0.08011109381914139, -0.16119636595249176, 0.22630602121353149, 0.01426833774894476, 0.04149635881185532, 0.05267382413148880, -0.09937849640846252, 0.15545816719532013, -0.05559516698122025, 0.10730993747711182, 0.07733657956123352, 0.16457939147949219, -0.01079515367746353, -0.18552488088607788, 0.18414162099361420, 0.10314059257507324, 0.11373461782932281, 0.17805989086627960, -0.18836070597171783, 0.14822119474411011, -0.10324613749980927, 0.19285601377487183, -0.22675129771232605, 0.24050933122634888, -0.18962283432483673, -0.19668871164321899, -0.10190990567207336, -0.05413195863366127, -0.06180507317185402, 0.08972693979740143, -0.14957827329635620, -0.11996874958276749, 0.00659780530259013, 0.20659714937210083, -0.11356555670499802, -0.00601816456764936, 0.11406885087490082, 0.04031009972095490, -0.21721693873405457, 0.15344972908496857, -0.04730713367462158, 0.13994422554969788, 0.04056561365723610, 0.20413996279239655, 0.20406362414360046, -0.20541521906852722, -0.11610347777605057, 0.10967689752578735, -0.03022488579154015, -0.12239489704370499, 0.20651793479919434, 0.01170455384999514, 0.00223604077473283, 0.23895144462585449, -0.19181840121746063, 0.19898344576358795, -0.19564074277877808, 0.12410612404346466, 0.12147312611341476, 0.07598568499088287, 0.14617367088794708, -0.18232652544975281, 0.16319774091243744, 0.15974295139312744, -0.15749783813953400, -0.22198425233364105, 0.02990870177745819, -0.17607662081718445, 0.18843966722488403, -0.21337375044822693, 0.13304477930068970, 0.09343121945858002, -0.16717414557933807, 0.12731507420539856, 0.08458001911640167, 0.06841748952865601, -0.16615889966487885, 0.21811257302761078, 0.06538857519626617, -0.13116909563541412, -0.15907646715641022, -0.02451495826244354, 0.12787130475044250, 0.21119175851345062, -0.17218008637428284, 0.17383289337158203, -0.04403424635529518, 0.01794503070414066, 0.02566275186836720, 0.11159230023622513, -0.00496716611087322, 0.03277499228715897, -0.10623779892921448, -0.02675835601985455, -0.20485642552375793, -0.05168038979172707, 0.05823142454028130, 0.03872071579098701, -0.21457707881927490, 0.25445151329040527, 0.14952497184276581, 0.07001699507236481, -0.14899949729442596, 0.20343786478042603, -0.10324978083372116, -0.13985894620418549, 0.17572079598903656, -0.24131280183792114, -0.07427728176116943, 0.13248977065086365, -0.17383937537670135, 0.00839943904429674, 0.11842343211174011, 0.28004214167594910, -0.05682549625635147, -0.19972595572471619, 0.04367690533399582, 0.06442201137542725, 0.04613513499498367, 0.00902439933270216, 0.16226546466350555, 0.02198807336390018, 0.05284263938665390, -0.13018366694450378, 0.03602690622210503, -0.08185045421123505, 0.21263857185840607, -0.09262635558843613, -0.01079782936722040, 0.17418165504932404, -0.17188970744609833, -0.10252873599529266, -0.08917918056249619, 0.16393300890922546, 0.13185176253318787, -0.09853757172822952, 0.02356914989650249, 0.20082472264766693, 0.17442050576210022, 0.15888623893260956, 0.28412991762161255, 0.08088947832584381, 0.04543781653046608, -0.28657445311546326, -0.10946758091449738, -0.17807543277740479, 0.08748234063386917, -0.00556062534451485, 0.08461522310972214, -0.07093187421560287, -0.08280741423368454, 0.14218658208847046, 0.09508681297302246, 0.20045489072799683, 0.24213257431983948, -0.00770398415625095, -0.26169562339782715, 0.03866396099328995, 0.11268923431634903, 0.08724242448806763, 0.08496965467929840, -0.20750884711742401, -0.11067851632833481, -0.11816059052944183, -0.08252443373203278, 0.15301497280597687, 0.10306175053119659, 0.12501497566699982, -0.23970057070255280, -0.21526953577995300, 0.03164850547909737, 0.06832087039947510, -0.18180690705776215, 0.05758086591959000, 0.09394964575767517, -0.09200143069028854, 0.18736200034618378, 0.03378298133611679, -0.17318348586559296, -0.11126399785280228, 0.22536632418632507, -0.18120795488357544, -0.06650289893150330, 0.06513354182243347, -0.18905754387378693, -0.10846613347530365, -0.08203925937414169, 0.17630389332771301, 0.05578041076660156, -0.07140143960714340, -0.14552590250968933, -0.22583398222923279, -0.13919764757156372, 0.05199188739061356, -0.08449722081422806, -0.23689749836921692, -0.11233600229024887, -0.03429168462753296, -0.24218446016311646, 0.09464076906442642, -0.03807538002729416, -0.15711241960525513, -0.03870528563857079, -0.03571033477783203, -0.16818140447139740, 0.18063907325267792, -0.18498057126998901, 0.02778235450387001, -0.01399627514183521, -0.10042150318622589, 0.02214616350829601, 0.26523867249488831, 0.16600142419338226, 0.02543078362941742, 0.07650268077850342, -0.14579549431800842, -0.19030445814132690, -0.07937240600585938, -0.02436404302716255, -0.07931275665760040, -0.21629713475704193, -0.06450122594833374, -0.22344180941581726, 0.15422199666500092, -0.16374924778938293, -0.19293159246444702, -0.10435330867767334, -0.24265223741531372, 0.00010603666305542, -0.18776464462280273, 0.24147123098373413, -0.15587627887725830, 0.18557280302047729, -0.10503244400024414, 0.08531558513641357, -0.22219437360763550, 0.00194698572158813, 0.06412142515182495, 0.03278684616088867, -0.11189931631088257, 0.08980250358581543, 0.21846371889114380, -0.08986872434616089, -0.19429850578308105, -0.24845844507217407, -0.22886961698532104, -0.24146717786788940, 0.09822160005569458, 0.01288104057312012, -0.17057949304580688, 0.00156253576278687, 0.10119193792343140, -0.16619503498077393, 0.02984994649887085, -0.02136629819869995, -0.24541842937469482, -0.20080184936523438, -0.09965604543685913, 0.11834323406219482, 0.04878067970275879, 0.17843651771545410, -0.13871049880981445, 0.14195317029953003, 0.08393335342407227, -0.18326216936111450, -0.13624787330627441, 0.20862233638763428, -0.22727161645889282, -0.08346921205520630, 0.16778361797332764, -0.08324289321899414, -0.03637242317199707, -0.16755974292755127, -0.05935090780258179, -0.22853440046310425, -0.01451522111892700, 0.03637653589248657, -0.14889448881149292, 0.10483503341674805, -0.18756896257400513, 0.15828269720077515, 0.15968120098114014, 0.03574997186660767, -0.04517251253128052, -0.22850000858306885, -0.19952476024627686, 0.23100906610488892, -0.16715365648269653, -0.15030658245086670, 0.13283936679363251, 0.12633472681045532, 0.15059940516948700, -0.14979957044124603, -0.14090856909751892, -0.17862068116664886, -0.12522746622562408, 0.02620490267872810, 0.00693765282630920, 0.18679818511009216, 0.25681558251380920, 0.08033764362335205, -0.14416512846946716, 0.15663541853427887, 0.11199110001325607, 0.14075931906700134, 0.23684336245059967, 0.04442166909575462, 0.00923152174800634, -0.05301692336797714, -0.12872354686260223, -0.12661562860012054, -0.14083714783191681, 0.30067649483680725, -0.13828814029693604, -0.23912750184535980, 0.26575773954391479, 0.07980949431657791, -0.14676024019718170, 0.33970102667808533, 0.04664278030395508, 0.12620344758033752, 0.20917259156703949, -0.04154030978679657, 0.11159946769475937, 0.06860261410474777, -0.03134149312973022, 0.22023926675319672, 0.24685359001159668, 0.13256575167179108, 0.04968856275081635, -0.06597652286291122, 0.00179338711313903, 0.13586488366127014, 0.15797330439090729, 0.22755463421344757, -0.02259231917560101, -0.09507589042186737, 0.15867866575717926, -0.21280173957347870, -0.00320916064083576, 0.07000369578599930, 0.00485337432473898, -0.10813747346401215, 0.17546734213829041, -0.26147198677062988, -0.09771214425563812, 0.04354965686798096, -0.09066545963287354, -0.09949677437543869, -0.08079524338245392, -0.10270591825246811, -0.11207335442304611, 0.20177757740020752, 0.07835431396961212, 0.09658113121986389, -0.28420180082321167, 0.28268802165985107, -0.10268123447895050, -0.00978748407214880, -0.00523240119218826, 0.29774329066276550, 0.08895882964134216, -0.20016695559024811, 0.17309175431728363, -0.06821674108505249, -0.04204943403601646, -0.09972370415925980, -0.07021203637123108, -0.17923210561275482, 0.18599526584148407, -0.10975001007318497, -0.13108105957508087, 0.03075676783919334, -0.13110914826393127, -0.08305712044239044, -0.17638044059276581, -0.06305755674839020, -0.07026357948780060, 0.23785509169101715, 0.15034671127796173, -0.18929623067378998, 0.25969204306602478, -0.04598609730601311, 0.28236690163612366, -0.24784693121910095, 0.24417458474636078, 0.18080937862396240, 0.25530174374580383, -0.17416210472583771, 0.12575259804725647, -0.20332185924053192, 0.02785323560237885, -0.13830792903900146, 0.18419489264488220, -0.11921534687280655, 0.20262075960636139, -0.12126354873180389, 0.04022339358925819, -0.24949343502521515, 0.09286748617887497, 0.23415741324424744, 0.10707793384790421, 0.10511735081672668, -0.00623704073950648, 0.12888921797275543, -0.06609971821308136, 0.09141024947166443, -0.16745935380458832, -0.15619446337223053, -0.04795642197132111, -0.11784069240093231, 0.20581652224063873, -0.08774388581514359, -0.12250488251447678, 0.28920802474021912, 0.08859962970018387, -0.06303599476814270, -0.02954853512346745, 0.16046355664730072, 0.24863640964031219, 0.08282847702503204, 0.02217688784003258, 0.17240145802497864, 0.02201841026544571, 0.17954513430595398, -0.10237941890954971, 0.25927716493606567, -0.16695679724216461, -0.16574011743068695, -0.17847152054309845, 0.03087685443460941, 0.25365880131721497, -0.04054926335811615, 0.17064516246318817, 0.24349527060985565, 0.03161618113517761, -0.12550094723701477, -0.24267876148223877, 0.10091038048267365, 0.09907958656549454, -0.17470149695873260, 0.18403947353363037, -0.06981475651264191, -0.06364586949348450, -0.05162713676691055, 0.08417891710996628, -0.01887232623994350, -0.11534035950899124, 0.00747093884274364, 0.03184175118803978, -0.12295282632112503, 0.20226223766803741, -0.10594208538532257, 0.06457624584436417, -0.14958474040031433, -0.20160041749477386, -0.05179182440042496, 0.23051202297210693, -0.15898810327053070, -0.10894799232482910, 0.16454178094863892, 0.03953493386507034, 0.16524623334407806, -0.21648384630680084, 0.04393520951271057, -0.21416251361370087, -0.18389888107776642, 0.15961387753486633, -0.04251967743039131, -0.07631281018257141, 0.12525379657745361, -0.02759909816086292, 0.04167644307017326, -0.17940305173397064, -0.10833370685577393, -0.02060957625508308, -0.02770721539855003, -0.09758482873439789, 0.13817386329174042, -0.18962299823760986, -0.16673295199871063, 0.22216618061065674, 0.11174342036247253, 0.03585160151124001, -0.15459987521171570, -0.05696047469973564, -0.07234781980514526, 0.11297439783811569, -0.09737584739923477, 0.22148235142230988, -0.21336026489734650, 0.19821310043334961, 0.11480005830526352, -0.18708908557891846, -0.16254526376724243, 0.03599679097533226, 0.07157113403081894, 0.17434898018836975, -0.05333306640386581, 0.13860903680324554, -0.08291317522525787, 0.20864306390285492, 0.09186813980340958, 0.08137843012809753, 0.16637019813060760, 0.22009253501892090, -0.19876702129840851, -0.04206171259284019, -0.03614161908626556, 0.13701309263706207, -0.08861646056175232, 0.16311058402061462, -0.05046793445944786, -0.24498480558395386, -0.00638294219970703, -0.23688220977783203, 0.07635867595672607, 0.07724738121032715, 0.01472461223602295, -0.16004824638366699, 0.18946617841720581, 0.05828619003295898, 0.00024437904357910, -0.15886467695236206, 0.19741618633270264, 0.08618408441543579, 0.12587684392929077, 0.21538847684860229, 0.15375196933746338, -0.20766240358352661, 0.11291354894638062, -0.02566277980804443, 0.21247833967208862, -0.06808692216873169, -0.03311443328857422, -0.22993236780166626, 0.19677191972732544, 0.08749061822891235, 0.10643202066421509, 0.23354798555374146, -0.11715215444564819, -0.00740182399749756, 0.15400093793869019, 0.11354887485504150, -0.11710244417190552, 0.26232510805130005, 0.06147569417953491, 0.20373970270156860, -0.16543468832969666, 0.06596694886684418, -0.06671529263257980, -0.13343729078769684, -0.03034972958266735, 0.15678805112838745, 0.26512610912322998, -0.08175314217805862, 0.02839145623147488, 0.02650416269898415, -0.21025370061397552, 0.02079391852021217, 0.25786516070365906, -0.00233684037812054, 0.19183745980262756, -0.25340813398361206, 0.00592187512665987, 0.08810634911060333, 0.27943292260169983, -0.18041735887527466, -0.00663691060617566, -0.10796112567186356, 0.09961402416229248, 0.01004552096128464, -0.09357983618974686, -0.02633881382644176, 0.27182579040527344, 0.03760982304811478, -0.11924344301223755, 0.06863266229629517, -0.19252964854240417, -0.18520878255367279, 0.03268468752503395, 0.15489482879638672, -0.12839688360691071, -0.14774407446384430, 0.27543041110038757, 0.27166989445686340, 0.16418252885341644, -0.10151298344135284, -0.11946590989828110, 0.06370083987712860, 0.14295333623886108, 0.11252902448177338, 0.13250654935836792, -0.16970089077949524, -0.17132386565208435, -0.21258117258548737, -0.24454887211322784, -0.18259774148464203, -0.18780899047851562, 0.24071843922138214, 0.15406735241413116, -0.09301765263080597, 0.02465173229575157, -0.01610928773880005, 0.08161636441946030, -0.11312495917081833, -0.05306037515401840, 0.17554895579814911, -0.14247314631938934};

#endif

#endif
