#include <math.h> 
 #include <string.h> 
#include "./include/k2c_include.h" 
#include "./include/k2c_tensor_include.h" 

 


void mlp_c(k2c_tensor* dense_input_input, k2c_tensor* dense_2_output) { 

float dense_output_array[32] = {0}; 
k2c_tensor dense_output = { &dense_output_array[0], 1, 32, { 32, 1, 1, 1, 1 } }; 
float dense_kernel_array[800] = {
+1.80275723e-01f,+1.75803661e-01f,-2.56837085e-02f,+1.05072744e-01f,-2.16315523e-01f,
+3.65719339e-03f,-2.23386467e-01f,+1.54111296e-01f,-1.21088125e-01f,-5.80328181e-02f,
-5.83341345e-02f,-1.37793124e-02f,+1.55171454e-01f,-1.71640798e-01f,-1.92678750e-01f,
-1.65003493e-01f,+3.20233792e-01f,-1.38812035e-01f,-1.30215526e-01f,+1.19337374e-02f,
+8.71976763e-02f,+7.68977404e-02f,+2.18666628e-01f,-1.21533759e-01f,+1.04377404e-01f,
-1.79746464e-01f,+2.95962840e-01f,-2.54964411e-01f,-1.97086036e-02f,+5.56434914e-02f,
-3.22173774e-01f,+1.04605623e-01f,-4.53678854e-02f,+2.43112311e-01f,+1.18062802e-01f,
-1.63207471e-01f,+1.47450313e-01f,+2.27992654e-01f,+1.75664455e-01f,-1.25507236e-01f,
-5.81519529e-02f,-2.24608287e-01f,+1.38638660e-01f,-2.99843282e-01f,+8.68613571e-02f,
+1.03154741e-01f,-2.78980762e-01f,-4.53617200e-02f,-3.02519202e-02f,-1.81111932e-01f,
+2.77536809e-02f,+2.74014603e-02f,+6.53322935e-02f,-2.69775867e-01f,-9.89271402e-02f,
+2.07034014e-02f,-1.30838335e-01f,+2.44218901e-01f,-6.71449080e-02f,+2.85204947e-01f,
+1.50860935e-01f,+6.67299479e-02f,+1.55652300e-01f,+1.08252265e-01f,+1.01412356e-01f,
+1.66262966e-02f,+1.94950908e-01f,-1.38437584e-01f,-1.57097459e-01f,-2.30685502e-01f,
+8.34857970e-02f,+2.31169507e-01f,+1.64237782e-01f,+2.84304887e-01f,-6.74617477e-03f,
+1.32219285e-01f,+1.93690717e-01f,+1.36688009e-01f,-2.89912596e-02f,-1.63547859e-01f,
-4.94747162e-02f,+2.68400699e-01f,+2.08477959e-01f,-1.13081641e-01f,-5.40498048e-02f,
+2.28335083e-01f,+1.39887989e-01f,-2.72473728e-04f,-4.12667580e-02f,+1.07408874e-01f,
+2.50147432e-02f,+8.60404074e-02f,-7.52105862e-02f,+5.54161929e-02f,+1.85560510e-01f,
+1.26815960e-01f,-1.23292118e-01f,+7.60243535e-02f,-4.02463764e-01f,-7.49094263e-02f,
+4.80105449e-03f,-2.43781030e-01f,+1.67767573e-02f,-1.99730635e-01f,+5.88204805e-03f,
+1.66449435e-02f,+1.67249404e-02f,+1.60548508e-01f,-1.32099614e-01f,-2.48498991e-02f,
-3.81846040e-01f,+2.57598042e-01f,-2.14163005e-01f,+5.54079525e-02f,+1.11237116e-01f,
-2.19770357e-01f,+8.41183811e-02f,-1.31986305e-01f,-4.13614735e-02f,+3.04935753e-01f,
+2.46930346e-02f,+2.29627311e-01f,+2.43674278e-01f,-2.03254998e-01f,-6.66684806e-02f,
+2.75689781e-01f,+5.50436042e-02f,+1.08053967e-01f,-1.93637103e-01f,+2.95093030e-01f,
-1.90304413e-01f,+2.50848114e-01f,-8.60658884e-02f,+1.07649013e-01f,+7.69288838e-02f,
+1.10416636e-01f,-1.06222458e-01f,+4.83393036e-02f,+2.42390588e-01f,+9.39556658e-02f,
-1.37503326e-01f,+2.27127716e-01f,+1.63319930e-01f,-2.49812946e-01f,-2.59212732e-01f,
+2.45770618e-01f,-5.12147844e-02f,-2.96455145e-01f,-1.74094945e-01f,+2.96191633e-01f,
+6.88949134e-03f,+2.29577437e-01f,+1.60200164e-01f,-9.83569026e-02f,-6.04279749e-02f,
+1.23960070e-01f,+1.63360596e-01f,+1.62977293e-01f,+1.24868885e-01f,-1.20392449e-01f,
-4.06014264e-01f,-4.05524373e-01f,+2.22665563e-01f,+1.49913847e-01f,+3.00604463e-01f,
+4.09484804e-02f,-2.46787705e-02f,+3.35146070e-01f,+1.77384783e-02f,+2.53167033e-01f,
+3.50047201e-01f,-6.32212460e-02f,+3.59788924e-01f,-2.74315208e-01f,-1.47340193e-01f,
-4.62537736e-01f,+1.07371807e-01f,+2.18377471e-01f,-1.65441096e-01f,-1.14356019e-01f,
-1.58407271e-01f,+4.27586973e-01f,+1.13773510e-01f,-2.01343894e-02f,-2.02701479e-01f,
+5.11821657e-02f,+3.18713188e-01f,+7.69194067e-02f,-6.52116835e-02f,+1.93492174e-01f,
-2.45955110e-01f,-2.52837539e-01f,+3.15187722e-01f,+2.63663739e-01f,+3.37227769e-02f,
+2.75811981e-02f,-1.38750657e-01f,+1.56757295e-01f,+1.18489251e-01f,+8.78994390e-02f,
-2.42933422e-01f,+1.02931008e-01f,-8.48017912e-03f,-4.70237732e-02f,+1.38774857e-01f,
+3.67909707e-02f,-2.72850215e-01f,+1.92605123e-01f,-2.83846498e-01f,-3.20743769e-01f,
-1.67794064e-01f,-1.93473831e-01f,+1.94924816e-01f,-1.61151126e-01f,-4.92120124e-02f,
-1.07363231e-01f,+2.19757602e-01f,+2.03533635e-01f,+2.63397992e-01f,+8.08412358e-02f,
-4.36300635e-02f,-2.50203520e-01f,+3.63263249e-01f,+4.20262277e-01f,-9.71538424e-02f,
-2.77846456e-01f,-5.69691556e-03f,-1.62384942e-01f,+2.82701731e-01f,+8.15148428e-02f,
+2.89053023e-01f,+6.10279329e-02f,-1.15604848e-01f,-3.15198869e-01f,-1.36198610e-01f,
+8.03166926e-02f,-3.15632671e-01f,+1.09044336e-01f,-2.38955945e-01f,-2.45567441e-01f,
+3.10233206e-01f,-1.04265340e-01f,+1.56046599e-01f,-8.02230537e-02f,+2.43356630e-01f,
-1.56826660e-01f,-1.55385926e-01f,+4.10844237e-02f,-1.14689603e-01f,+2.21334890e-01f,
-3.21175277e-01f,+2.47880090e-02f,-2.60233015e-01f,-1.73062518e-01f,+2.34156892e-01f,
+7.70586878e-02f,-2.27361828e-01f,+1.67400777e-01f,+2.21354157e-01f,-7.19234720e-02f,
-2.58218586e-01f,-2.77259856e-01f,+1.43680096e-01f,-6.46490455e-02f,-2.31282458e-01f,
+2.12597966e-01f,-1.61365360e-01f,-1.57397360e-01f,-5.06471507e-02f,+6.49241358e-02f,
+2.34868959e-01f,+6.54612407e-02f,+2.60598212e-01f,-9.21178013e-02f,+1.95502162e-01f,
-7.18110576e-02f,-9.71885324e-02f,-4.77688462e-02f,-1.19126298e-01f,+7.17939585e-02f,
-7.96252564e-02f,-4.91487198e-02f,-2.00367719e-01f,-7.56099150e-02f,+1.77722067e-01f,
-4.69054803e-02f,+1.69755265e-01f,+2.14954853e-01f,-1.14530005e-01f,-2.05771089e-01f,
-1.11817615e-02f,+1.41925693e-01f,-1.39203131e-01f,+2.15855733e-01f,-2.41439208e-01f,
+1.57735541e-01f,+1.81294486e-01f,-1.90588050e-02f,-1.50316104e-01f,+2.18161136e-01f,
-2.63030380e-02f,+2.28365645e-01f,-5.34636565e-02f,-2.04803601e-01f,+1.82099491e-01f,
-2.21112221e-01f,-2.44316936e-01f,+2.89027929e-01f,-2.51338452e-01f,-3.03405039e-02f,
-1.44809812e-01f,+3.01131129e-01f,-2.23237053e-01f,-8.93950909e-02f,-4.56235521e-02f,
-2.55633444e-01f,+2.47740418e-01f,-1.32305861e-01f,-1.26861632e-01f,-3.01331609e-01f,
-1.55449912e-01f,-1.74806714e-01f,-2.61891074e-03f,-1.71746686e-02f,-1.73414573e-01f,
-1.27203390e-01f,-4.93659973e-02f,+3.01181197e-01f,-1.45326182e-01f,+2.90200144e-01f,
-2.72438258e-01f,-1.88842058e-01f,+1.34921566e-01f,-1.40221752e-02f,+3.27110201e-01f,
-2.62841638e-02f,+8.95980597e-02f,+2.84356624e-01f,-2.42754936e-01f,-1.44619986e-01f,
-4.51271515e-03f,-7.05017522e-02f,+3.46319646e-01f,+2.82170419e-02f,-2.99674422e-01f,
-2.85947651e-01f,-1.75005600e-01f,-3.30072224e-01f,-2.85421550e-01f,+1.39234856e-01f,
+1.34578571e-01f,+2.39508227e-02f,-2.24532485e-01f,-2.95255989e-01f,+7.72737190e-02f,
-1.48362011e-01f,-4.67719138e-02f,-2.50343353e-01f,-1.62898824e-01f,-1.12887301e-01f,
+1.54165268e-01f,-1.63891166e-01f,-7.74177089e-02f,+1.96531028e-01f,+1.74606163e-02f,
-2.63165325e-01f,-5.89447618e-02f,+1.84552222e-01f,-1.34701386e-01f,+1.60687715e-01f,
-1.74897075e-01f,+4.97219674e-02f,+5.98982908e-02f,-2.08258256e-02f,-7.07399622e-02f,
-1.82668626e-01f,+2.52952546e-01f,+1.08655192e-01f,+9.88400355e-02f,+1.32557809e-01f,
-5.09044528e-03f,+1.79286405e-01f,+5.52498586e-02f,-2.29835793e-01f,-6.67851195e-02f,
+1.02420926e-01f,+2.52598375e-02f,-2.77107984e-01f,+1.80371225e-01f,-7.85895512e-02f,
-2.42784441e-01f,+2.57964849e-01f,-1.89351887e-01f,+9.03955922e-02f,-1.49336606e-01f,
-6.44152462e-02f,+7.88584426e-02f,+6.47813901e-02f,-1.53484479e-01f,+9.79679003e-02f,
-6.23514056e-02f,+2.17105120e-01f,+2.51005646e-02f,-2.87981570e-01f,-4.12249565e-02f,
+2.22435892e-01f,+1.98922649e-01f,+2.65922934e-01f,-6.73812777e-02f,-1.98021695e-01f,
-1.90217812e-02f,-2.65009645e-02f,-6.23413920e-03f,-4.68745120e-02f,-3.94229367e-02f,
-1.75283477e-01f,-3.60594600e-01f,-7.35713989e-02f,+1.47835582e-01f,-1.75644010e-01f,
-7.84254670e-02f,-1.53355002e-01f,+2.94851005e-01f,-7.24735335e-02f,-8.38709176e-02f,
+3.23058277e-01f,+2.11247161e-01f,-1.27234951e-01f,+2.96641678e-01f,+3.63747686e-01f,
+2.80236334e-01f,+1.23496860e-01f,+2.97583044e-02f,-2.32035413e-01f,-3.49457227e-02f,
+1.53977573e-01f,+5.71199246e-02f,-9.36221629e-02f,-2.46263504e-01f,-1.41719744e-01f,
+2.53983438e-01f,+2.53653407e-01f,-1.04843535e-01f,-3.23299766e-01f,+5.64841628e-02f,
-1.94677874e-01f,+1.36189833e-01f,+2.13818446e-01f,+1.03637956e-01f,-1.22784190e-01f,
+1.39366537e-01f,-2.69915193e-01f,-9.45575312e-02f,+8.12622905e-02f,-1.21498451e-01f,
-1.68635964e-01f,+2.23190710e-03f,+8.60573426e-02f,-7.19379857e-02f,+1.83780223e-01f,
+1.61787629e-01f,+8.59626383e-02f,-3.77080357e-03f,-2.30906308e-01f,+2.17122942e-01f,
-1.83832556e-01f,-5.37873469e-02f,-1.46931097e-01f,-1.94330856e-01f,-1.78535730e-01f,
-9.15916115e-02f,-6.25602901e-02f,+3.37119699e-01f,-2.98536830e-02f,+1.67328268e-01f,
-2.06230417e-01f,-1.31441802e-01f,-1.56094685e-01f,-8.72694552e-02f,-1.86674386e-01f,
+6.35991096e-02f,+9.37849134e-02f,+1.35735244e-01f,+1.69035286e-01f,-6.13503680e-02f,
+1.00289464e-01f,-4.65175509e-02f,+2.31833085e-02f,+3.14929008e-01f,+4.17455621e-02f,
+9.37957391e-02f,-2.31857002e-01f,+8.69127586e-02f,+9.83869955e-02f,-2.40994081e-01f,
-1.77496299e-01f,-2.95829415e-01f,+1.76078171e-01f,-3.60618860e-01f,+1.95207074e-01f,
+2.85347968e-01f,-3.54696922e-02f,-1.36601314e-01f,-3.02261978e-01f,-1.67840138e-01f,
-2.13001654e-01f,-2.53199786e-01f,+2.22324118e-01f,-2.90585101e-01f,-2.54517376e-01f,
+1.15799680e-02f,+1.36744246e-01f,+2.45481044e-01f,+3.11834604e-01f,-1.73808098e-01f,
+3.37122530e-01f,+1.80291325e-01f,-3.34973127e-01f,+3.77974093e-01f,-4.70643281e-04f,
-2.39047885e-01f,-1.45937100e-01f,-1.86775967e-01f,+2.25301951e-01f,-3.84163409e-01f,
-2.38570988e-01f,-2.92982250e-01f,+1.28336053e-03f,-1.20326072e-01f,-1.12139530e-01f,
+4.92023528e-02f,+9.36824381e-02f,-7.48591274e-02f,-1.06560420e-02f,-4.36752468e-01f,
+1.72692999e-01f,-7.80337676e-02f,+3.83507252e-01f,+2.42677256e-01f,+2.78705925e-01f,
+1.39183939e-01f,+1.14394359e-01f,+3.50914687e-01f,+1.84868783e-01f,-1.90234140e-01f,
-1.33061215e-01f,+1.43174231e-01f,-4.17096652e-02f,-3.06324810e-01f,+2.05027878e-01f,
+7.35658780e-02f,-2.95789093e-01f,+1.23657487e-01f,+2.10542083e-01f,-1.35075733e-01f,
+1.06959343e-02f,+4.55205031e-02f,-1.28084928e-01f,+2.40362704e-01f,-9.43118334e-02f,
-3.04712743e-01f,-3.28600496e-01f,-3.13395441e-01f,-1.13922082e-01f,-2.43129700e-01f,
+2.92539835e-01f,+1.53538108e-01f,+1.89736560e-01f,+1.13818340e-01f,+2.14768965e-02f,
-3.01628381e-01f,+2.48328298e-01f,-3.03290844e-01f,+2.60448694e-01f,-9.82039645e-02f,
-1.83385447e-01f,+8.34301934e-02f,-1.62658170e-01f,-2.76212441e-03f,-1.85083419e-01f,
+3.66057396e-01f,+1.31495809e-03f,-1.28906727e-01f,+2.21692711e-01f,-1.06422380e-01f,
-8.15151781e-02f,-2.31993288e-01f,+1.38687938e-01f,+1.90867635e-03f,-2.24149540e-01f,
-3.85815680e-01f,+7.64667988e-02f,+6.51216507e-02f,-8.68648365e-02f,-3.21342982e-02f,
-3.11586082e-01f,+2.39963830e-01f,+9.90077332e-02f,-1.26965225e-01f,-6.80453852e-02f,
+2.03382000e-01f,-1.91110551e-01f,-6.51074275e-02f,+7.43444562e-02f,+2.72092253e-01f,
+2.16489434e-01f,-1.71144083e-01f,+1.84222594e-01f,-3.19668323e-01f,-1.76494807e-01f,
+2.78503627e-01f,+1.46490589e-01f,+2.21450761e-01f,+4.95476499e-02f,-1.53578818e-01f,
-7.27676451e-02f,-7.85071626e-02f,-2.33562291e-01f,-6.99038571e-03f,+6.21774197e-02f,
-6.65429235e-02f,+2.64976442e-01f,-1.67691886e-01f,+1.10371262e-01f,-1.44563764e-01f,
-2.88465440e-01f,-1.76081121e-01f,-1.97217852e-01f,+2.71764696e-01f,+1.29328296e-01f,
-1.42903067e-02f,+3.10110390e-01f,-1.40428349e-01f,+1.76558718e-01f,-1.96413755e-01f,
+1.12022161e-01f,-3.10320258e-02f,+6.14853539e-02f,-3.01339358e-01f,-2.21941710e-01f,
+1.69241667e-01f,-1.38243616e-01f,+4.39399900e-03f,-2.13145882e-01f,+2.32075945e-01f,
-7.11412504e-02f,+2.28480458e-01f,-2.64259249e-01f,+1.76068738e-01f,-9.07442272e-02f,
-3.14412177e-01f,+6.54476285e-02f,-1.58963114e-01f,-1.18229374e-01f,-3.35092306e-01f,
+6.12585507e-02f,+1.65748805e-01f,-1.43234417e-01f,+1.18696913e-01f,+1.08916007e-01f,
-1.74959674e-01f,-3.29955101e-01f,-3.05697955e-02f,+2.74974674e-01f,+2.79927105e-01f,
+6.62888214e-02f,+3.20581555e-01f,-1.90334633e-01f,-8.54798555e-02f,-1.29312456e-01f,
+2.06213057e-01f,+3.75575215e-01f,-2.11912259e-01f,+1.35769799e-01f,-1.39310166e-01f,
-1.12731270e-01f,+8.59567076e-02f,+1.25626355e-01f,-2.65512038e-02f,+3.12929600e-01f,
-1.21328220e-01f,+3.68156552e-01f,+1.92825675e-01f,-2.77689099e-03f,+1.08619638e-01f,
+1.72489032e-01f,-9.35928077e-02f,-1.47687048e-01f,-2.42029876e-01f,-1.19980544e-01f,
+5.28705269e-02f,-3.23639393e-01f,-2.19522953e-01f,+2.92860344e-03f,-2.40989793e-02f,
-1.62301853e-01f,+1.41066581e-01f,-5.71891200e-04f,-3.62325646e-02f,-1.43324107e-01f,
+4.32843864e-02f,-2.57382512e-01f,-1.25060394e-01f,+5.42439101e-03f,+1.35725230e-01f,
+8.17355216e-02f,+1.43746659e-01f,+4.94869277e-02f,-5.02594654e-03f,+1.40281156e-01f,
+8.90626386e-02f,-2.29415923e-01f,+3.84117156e-01f,+1.53880924e-01f,+3.70982230e-01f,
-2.37215877e-01f,+2.01309115e-01f,+5.27511463e-02f,+4.13004518e-01f,-5.37632555e-02f,
-1.79012939e-01f,+2.59410560e-01f,-1.45013437e-01f,+2.35326946e-01f,-6.84282854e-02f,
+1.62512675e-01f,+3.76939893e-01f,+3.23417038e-01f,-1.17987134e-01f,-1.69442669e-01f,
-1.77509412e-01f,+1.33142814e-01f,-2.68787891e-01f,+2.49448508e-01f,-3.75345588e-01f,
+1.83195621e-01f,-1.49853200e-01f,+3.70049894e-01f,-1.64956097e-02f,-5.04660085e-02f,
-2.71713197e-01f,-2.06469581e-01f,+1.91868376e-02f,-2.77326908e-02f,-1.73010498e-01f,
-2.25773007e-01f,+1.00873791e-01f,-1.22054845e-01f,-2.85900474e-01f,+2.81068236e-02f,
-1.19709589e-01f,-2.26398651e-02f,-2.84691423e-01f,+6.88977093e-02f,+2.63208896e-01f,
-4.75702137e-02f,+3.54792178e-02f,-4.27640647e-01f,-1.65593132e-01f,-1.08517192e-01f,
-2.57018238e-01f,+4.37917486e-02f,+1.64427608e-01f,-8.31227899e-02f,+2.47964948e-01f,
-1.41509622e-01f,+1.58277959e-01f,+3.30918133e-01f,-1.61796380e-02f,+1.78191885e-01f,
+2.54325002e-01f,+2.25747272e-01f,-1.55342385e-01f,+2.54047602e-01f,-2.62402892e-01f,
-1.57132760e-01f,-1.86335921e-01f,-1.41637206e-01f,-1.21564142e-01f,+3.47593427e-02f,
+2.23703399e-01f,-9.06737968e-02f,+8.66502970e-02f,+1.90514256e-03f,+1.37323827e-01f,
+2.16734543e-01f,+2.49285758e-01f,+2.37083539e-01f,+1.25729129e-01f,+3.21381539e-02f,
-1.23759687e-01f,-2.79736996e-01f,+2.19380334e-01f,+3.03175718e-01f,+6.63065389e-02f,
-3.91162336e-02f,+3.23269397e-01f,+1.15148842e-01f,+2.74877757e-01f,-1.73199862e-01f,
}; 
k2c_tensor dense_kernel = { &dense_kernel_array[0], 2, 800, { 25,32, 1, 1, 1 } }; 
float dense_bias_array[32] = {
-1.12535423e-02f,-2.44384799e-02f,+2.77589839e-02f,-3.81617323e-02f,-2.99212113e-02f,
-3.07454374e-02f,+1.12881735e-02f,-2.05073413e-02f,+4.82867397e-02f,+1.73915178e-02f,
-4.50508669e-02f,+0.00000000e+00f,+1.99967641e-02f,+5.41500859e-02f,+6.23863973e-02f,
+1.44755198e-02f,+0.00000000e+00f,-7.49107376e-02f,-4.33292016e-02f,+3.21228127e-03f,
-3.01970933e-02f,-9.80132818e-03f,-2.39567123e-02f,+2.68401182e-03f,-3.66342813e-02f,
+5.29121514e-03f,-5.10632321e-02f,-5.07187434e-02f,+0.00000000e+00f,-1.66715216e-02f,
+2.58142091e-02f,-1.82377063e-02f,}; 
k2c_tensor dense_bias = { &dense_bias_array[0], 1, 32, { 32, 1, 1, 1, 1 } }; 
float dense_fwork[57] = {0}; 

 
float dense_1_output_array[16] = {0}; 
k2c_tensor dense_1_output = { &dense_1_output_array[0], 1, 16, { 16, 1, 1, 1, 1 } }; 
float dense_1_kernel_array[512] = {
+1.99314371e-01f,-1.58411801e-01f,+2.61361957e-01f,+1.72845617e-01f,-3.48517567e-01f,
-1.12941310e-01f,-2.17095643e-01f,+7.05034435e-02f,+2.22028971e-01f,-7.40073398e-02f,
+2.34954223e-01f,+3.47943790e-02f,+1.03930704e-01f,-1.18438555e-02f,+1.02437427e-02f,
-1.19493879e-01f,+1.24449417e-01f,-1.00548878e-01f,+3.59842509e-01f,+3.44000489e-01f,
+1.09120831e-01f,-3.11007947e-01f,-2.77637243e-01f,-1.28054827e-01f,-2.59861965e-02f,
-3.35259259e-01f,-2.60281652e-01f,+7.46043250e-02f,+6.81414306e-02f,-1.82783082e-01f,
+4.84073162e-01f,+1.67375043e-01f,-2.75246561e-01f,+1.75300419e-01f,-3.76938134e-01f,
-1.87964365e-01f,-6.45283908e-02f,+2.49319822e-01f,-2.74471998e-01f,+1.30094821e-04f,
-2.65113890e-01f,-3.12721044e-01f,+8.68627131e-02f,-2.58863658e-01f,-2.53136247e-01f,
-1.41209304e-01f,+1.92095265e-01f,+3.62314224e-01f,-3.35625336e-02f,+2.71681286e-02f,
+3.06234211e-01f,+1.65511385e-01f,-8.40555355e-02f,+1.49477888e-02f,+5.88483922e-02f,
-8.53291750e-02f,-9.55707673e-03f,-2.81283796e-01f,+2.93924540e-01f,+7.73950592e-02f,
-2.66442776e-01f,+2.44387940e-01f,-2.31418952e-01f,+1.68306783e-01f,+2.53011435e-01f,
-3.24356675e-01f,+2.00810954e-02f,-2.18169957e-01f,+2.24839494e-01f,-3.22432846e-01f,
+2.60889828e-01f,+2.74376154e-01f,+3.19459498e-01f,-4.68714088e-02f,+5.85073568e-02f,
-1.26564756e-01f,-1.71153247e-01f,-5.40204253e-03f,+2.28593826e-01f,-2.06851706e-01f,
-9.96566266e-02f,+3.89485985e-01f,-2.16944844e-01f,-2.32969850e-01f,-2.36238688e-01f,
-2.36611724e-01f,+1.17517151e-01f,+1.59548789e-01f,+2.31939971e-01f,-2.26019509e-02f,
-1.79206714e-01f,-1.78357020e-01f,+9.01567414e-02f,+7.94356093e-02f,-1.47602990e-01f,
+8.83497149e-02f,-1.00330196e-01f,+1.13650605e-01f,+1.56111747e-01f,+1.73400849e-01f,
-2.07015961e-01f,-3.24647248e-01f,+2.73999959e-01f,+5.17259985e-02f,-1.48666382e-01f,
-1.40519395e-01f,+6.27435818e-02f,-2.06377730e-01f,-7.27334572e-03f,-1.30509451e-01f,
+2.18996614e-01f,-1.66081965e-01f,+4.99289222e-02f,+3.63954246e-01f,+1.43335611e-01f,
+8.85631517e-02f,-1.69419989e-01f,+1.37937292e-01f,+1.80137470e-01f,+8.79481807e-03f,
+2.60244131e-01f,+1.02929145e-01f,+1.36791095e-01f,-3.61726075e-01f,+1.92272618e-01f,
+3.68228793e-01f,+2.49097735e-01f,+8.62747505e-02f,+1.82913020e-01f,+2.41773367e-01f,
-2.98413545e-01f,-1.02608316e-01f,+2.02525809e-01f,+2.66519487e-01f,+1.29409194e-01f,
+1.45742118e-01f,-4.44075167e-01f,-9.21839848e-02f,-1.79740950e-01f,+9.19585377e-02f,
-1.51037589e-01f,+2.55433112e-01f,-2.25979865e-01f,-2.67085522e-01f,+3.13989639e-01f,
-1.57754481e-01f,-5.99005353e-03f,-2.19792828e-01f,-1.24533474e-01f,+3.92626971e-01f,
+3.67100090e-01f,-1.39422834e-01f,-1.79838091e-01f,+1.84209794e-01f,+3.97676587e-01f,
+1.74017828e-02f,+4.37510908e-01f,+1.01462184e-02f,+1.18655935e-01f,+1.79682389e-01f,
-2.40179807e-01f,+2.54595459e-01f,-6.52398989e-02f,-2.57272035e-01f,+3.95129055e-01f,
+2.68368244e-01f,+2.04394192e-01f,+2.14760363e-01f,-3.33453774e-01f,-2.58437932e-01f,
+3.15736353e-01f,+9.92865935e-02f,+3.49827349e-01f,-5.40475696e-02f,+8.75438564e-03f,
+1.45855919e-01f,-1.45604119e-01f,-2.73683161e-01f,-3.09271216e-01f,-2.08099812e-01f,
+1.60612196e-01f,-9.12961364e-02f,+1.10263735e-01f,-3.21604401e-01f,+3.13899785e-01f,
+1.86330110e-01f,-1.00325853e-01f,+1.84629768e-01f,-2.96970129e-01f,-3.21886539e-02f,
+2.04099089e-01f,+1.58307284e-01f,+5.90583831e-02f,+8.40735808e-03f,+8.79378840e-02f,
-2.02525735e-01f,+4.39426810e-01f,-7.35602975e-02f,+3.39509070e-01f,+4.16540533e-01f,
-4.28116530e-01f,+1.75020903e-01f,+9.80854109e-02f,-3.78585219e-01f,+1.49486601e-01f,
+1.08077355e-01f,-3.73987943e-01f,-1.44797070e-02f,-1.76087469e-02f,-1.17011413e-01f,
+6.08868301e-02f,+2.61941671e-01f,-1.10218018e-01f,+1.36594176e-01f,+2.77319372e-01f,
+3.23357910e-01f,-4.08183575e-01f,+3.02887648e-01f,+1.88891292e-01f,-1.06587939e-01f,
-3.33869755e-02f,+3.89717013e-01f,-1.51750803e-01f,+3.85078967e-01f,-1.67145655e-01f,
+2.69275516e-01f,-3.04744750e-01f,-2.57005513e-01f,+1.32506728e-01f,-1.20495073e-01f,
-1.81642529e-02f,+2.39446521e-01f,-3.09778333e-01f,+1.13759123e-01f,+2.00289845e-01f,
+5.75109236e-02f,-8.12825710e-02f,+3.15267503e-01f,+7.70488307e-02f,+4.08507138e-02f,
-4.09463882e-01f,-2.08025619e-01f,+3.37035000e-01f,+3.08325082e-01f,+1.39680654e-01f,
-3.83370012e-01f,-4.38866913e-02f,+1.00137353e-01f,+4.11668837e-01f,+1.18506990e-01f,
-1.12780929e-02f,+3.10243845e-01f,-1.61918074e-01f,-3.47245485e-02f,+2.48656888e-03f,
-2.11841077e-01f,-1.69264182e-01f,-1.43369675e-01f,-2.33635485e-01f,+4.20715809e-02f,
-1.49820149e-02f,+2.56315559e-01f,-1.92947850e-01f,-1.94504589e-01f,+1.60422295e-01f,
-2.76791334e-01f,+9.85729694e-03f,-8.50614905e-03f,+2.83987552e-01f,+1.17772371e-01f,
-2.54276395e-01f,+2.09941179e-01f,-2.08919328e-02f,-3.87617620e-03f,-2.46824399e-01f,
-1.34804621e-01f,+9.07162577e-02f,+2.48280302e-01f,-3.12599570e-01f,+1.54839009e-02f,
+2.71996647e-01f,-1.73343375e-01f,+2.31814727e-01f,+4.01289500e-02f,+5.03773289e-03f,
-8.83478373e-02f,+6.74700513e-02f,-9.30533186e-02f,+2.12673455e-01f,+2.54925877e-01f,
-2.51549512e-01f,+3.05887073e-01f,+2.80489121e-03f,+1.72430649e-01f,-3.86111885e-02f,
-2.68824130e-01f,+3.42741221e-01f,-1.16951756e-01f,-2.91125983e-01f,-2.79651564e-02f,
+1.71526074e-01f,+7.65670612e-02f,-1.64903194e-01f,-2.50794947e-01f,-2.90979654e-01f,
-1.97181150e-01f,-1.51037812e-01f,+1.99043378e-01f,+1.04584932e-01f,+2.89752692e-01f,
-1.34131491e-01f,-1.52963072e-01f,+1.95554525e-01f,-4.24033664e-02f,+2.63299681e-02f,
+3.31776530e-01f,-2.32788265e-01f,+1.47845685e-01f,+2.36419126e-01f,-2.16212764e-01f,
+2.42588684e-01f,+1.62020206e-01f,+3.71796191e-02f,+2.06441373e-01f,-1.24091148e-01f,
+1.08895227e-01f,-1.43142074e-01f,+1.18092680e-02f,+6.52024848e-03f,-7.41442218e-02f,
-1.21862233e-01f,+4.07110810e-01f,+1.79293752e-01f,-1.37370735e-01f,+1.39714703e-01f,
+1.97568927e-02f,+4.38727349e-01f,+4.32821929e-01f,-1.88471273e-01f,-1.89993810e-02f,
+2.95006335e-01f,-4.76570912e-02f,+1.04415230e-01f,-2.72339851e-01f,+1.69082031e-01f,
+1.28122211e-01f,+4.55103844e-01f,-3.12856257e-01f,+2.65025377e-01f,+3.57252926e-01f,
+5.00912145e-02f,+2.54704237e-01f,-1.92166418e-01f,+2.09072992e-01f,-1.13029867e-01f,
+5.93562499e-02f,+2.36127540e-01f,-6.93069696e-02f,+9.16836709e-02f,+1.34183571e-01f,
-3.39989752e-01f,-2.96577722e-01f,+3.36761653e-01f,+1.86257601e-01f,-1.76389933e-01f,
+3.43106031e-01f,-3.83687854e-01f,+3.43485445e-01f,+1.45772994e-01f,+9.84794348e-02f,
-1.08695902e-01f,+2.31220305e-01f,-5.77948354e-02f,+1.12564638e-01f,-3.06850135e-01f,
-8.23135376e-02f,+1.67995453e-01f,-2.43159324e-01f,-1.99928820e-01f,-1.43352240e-01f,
-7.26021454e-02f,-1.00290114e-02f,-4.76897545e-02f,-3.23155135e-01f,-3.24497879e-01f,
-1.22848220e-01f,-3.11162353e-01f,-3.17850322e-01f,-3.52151275e-01f,-1.51955247e-01f,
+3.24336618e-01f,+2.18305618e-01f,+4.95209880e-02f,-1.19883426e-01f,-2.81391114e-01f,
+2.36420911e-02f,+8.18617120e-02f,+2.23479301e-01f,-1.24690659e-01f,-1.46450624e-01f,
-4.68592793e-02f,-1.66258752e-01f,+3.33087087e-01f,-1.28478967e-02f,+2.02076092e-01f,
-8.29519928e-02f,+2.62263685e-01f,-1.62892938e-01f,+4.47256744e-01f,-2.70136565e-01f,
-3.03799480e-01f,-4.29008752e-02f,+2.16377839e-01f,+1.72343567e-01f,+1.88491583e-01f,
-1.91224560e-01f,-3.13914835e-01f,-2.05684215e-01f,-1.92320988e-01f,-1.27223119e-01f,
+2.16896415e-01f,+7.09073544e-02f,-7.01959804e-02f,-6.29817322e-03f,-5.25827780e-02f,
+4.53857668e-02f,+2.28959098e-01f,+6.89392090e-02f,+1.77868493e-02f,+1.42167345e-01f,
+2.72483349e-01f,-1.93501100e-01f,+2.17099175e-01f,+5.36918417e-02f,+3.66699487e-01f,
-1.64750274e-02f,-8.15022886e-02f,+2.13284582e-01f,+2.52204716e-01f,-5.35425246e-02f,
+2.23153353e-01f,-5.34433536e-02f,-2.76830107e-01f,-7.85268564e-03f,-3.20541337e-02f,
-1.27544060e-01f,-1.68920085e-01f,-5.72623312e-02f,+7.06472993e-03f,+1.95181996e-01f,
+1.23355478e-01f,+1.63457781e-01f,-2.83150971e-01f,-3.18461150e-01f,+2.08709091e-01f,
-3.35263252e-01f,-7.54249096e-02f,-2.56363750e-01f,-2.57535189e-01f,+4.47012782e-02f,
-3.17268312e-01f,+3.27361137e-01f,-3.40804905e-01f,-3.07262063e-01f,-2.53705055e-01f,
-2.28400573e-01f,-1.75773382e-01f,+2.37651318e-01f,-1.31996651e-03f,-3.51674497e-01f,
-2.02670231e-01f,+2.95010626e-01f,-2.54494429e-01f,+2.41395742e-01f,+1.74150355e-02f,
+3.33018112e-03f,+8.07398707e-02f,-1.04460649e-01f,-9.89054367e-02f,+2.38176122e-01f,
-3.62826198e-01f,-1.79102778e-01f,+4.22589004e-01f,-4.56050932e-02f,+8.89344215e-02f,
-2.16287717e-01f,-3.70904088e-01f,-3.08847606e-01f,+4.69556779e-01f,+2.55874336e-01f,
-5.11101671e-02f,-8.61443952e-02f,-3.24923515e-01f,+1.46113515e-01f,+5.03483899e-02f,
-1.64215565e-01f,-1.24239147e-01f,+1.32198930e-01f,+3.96684110e-01f,+1.91709220e-01f,
-2.26301357e-01f,-1.68390334e-01f,-2.02346388e-02f,-1.70352504e-01f,+7.47387260e-02f,
-5.76112419e-02f,-1.11515097e-01f,+3.57422769e-01f,-2.23362774e-01f,-1.14511229e-01f,
+3.99166554e-01f,+2.20593020e-01f,}; 
k2c_tensor dense_1_kernel = { &dense_1_kernel_array[0], 2, 512, { 32,16, 1, 1, 1 } }; 
float dense_1_bias_array[16] = {
-7.23479763e-02f,-3.17969881e-02f,+5.04759587e-02f,+8.56285617e-02f,-2.35543633e-03f,
-1.28537249e-02f,+7.58786500e-02f,+1.52459024e-02f,+1.12359576e-01f,-1.82633922e-02f,
+3.35367024e-02f,+1.08168572e-01f,+8.74359999e-03f,-6.50847256e-02f,+7.92735741e-02f,
+8.05005990e-03f,}; 
k2c_tensor dense_1_bias = { &dense_1_bias_array[0], 1, 16, { 16, 1, 1, 1, 1 } }; 
float dense_1_fwork[48] = {0}; 

 
float dense_2_kernel_array[16] = {
+1.55502915e-01f,+1.62566662e-01f,-3.99869323e-01f,-4.08426404e-01f,+9.47389230e-02f,
+5.70263565e-01f,+8.06658641e-02f,+3.90562475e-01f,-2.80204922e-01f,+4.42141414e-01f,
+9.25642401e-02f,-1.03228375e-01f,+1.97952971e-01f,+1.88148066e-01f,-1.40960336e-01f,
+2.82709718e-01f,}; 
k2c_tensor dense_2_kernel = { &dense_2_kernel_array[0], 2, 16, { 16, 1, 1, 1, 1 } }; 
float dense_2_bias_array[1] = {
-9.68111902e-02f,}; 
k2c_tensor dense_2_bias = { &dense_2_bias_array[0], 1, 1, { 1,1,1,1,1 } }; 
float dense_2_fwork[17] = {0}; 

 
k2c_dense(&dense_output,dense_input_input,&dense_kernel, 
	&dense_bias,k2c_relu,dense_fwork); 
k2c_tensor dropout_output; 
dropout_output.ndim = dense_output.ndim; // copy data into output struct 
dropout_output.numel = dense_output.numel; 
memcpy(dropout_output.shape,dense_output.shape,K2C_MAX_NDIM*sizeof(size_t));  
dropout_output.array = &dense_output.array[0]; // rename for clarity 
k2c_dense(&dense_1_output,&dropout_output,&dense_1_kernel, 
	&dense_1_bias,k2c_relu,dense_1_fwork); 
k2c_tensor dropout_1_output; 
dropout_1_output.ndim = dense_1_output.ndim; // copy data into output struct 
dropout_1_output.numel = dense_1_output.numel; 
memcpy(dropout_1_output.shape,dense_1_output.shape,K2C_MAX_NDIM*sizeof(size_t));  
dropout_1_output.array = &dense_1_output.array[0]; // rename for clarity 
k2c_dense(dense_2_output,&dropout_1_output,&dense_2_kernel, 
	&dense_2_bias,k2c_sigmoid,dense_2_fwork); 

 } 

void mlp_c_initialize() { 

} 

void mlp_c_terminate() { 

} 

