#include <math.h> 
 #include <string.h> 
#include "./include/k2c_include.h" 
#include "./include/k2c_tensor_include.h" 

 


void mlp_100(k2c_tensor* dense_input_input, k2c_tensor* dense_2_output) { 

float dense_output_array[64] = {0}; 
k2c_tensor dense_output = { &dense_output_array[0], 1, 64, { 64, 1, 1, 1, 1 } }; 
float dense_kernel_array[6400] = {
-1.37744278e-01f,+1.62876137e-02f,+1.30553424e-01f,-9.80334505e-02f,-1.52721286e-01f,
-1.36738867e-01f,+1.11979797e-01f,+1.99645668e-01f,+1.07427053e-01f,-6.95976987e-02f,
-4.26706560e-02f,-1.59297541e-01f,-5.71665913e-02f,-1.47608235e-01f,+1.43763170e-01f,
-1.80299580e-01f,+1.15876973e-01f,+5.78988483e-03f,-4.83904555e-02f,+1.77755430e-01f,
+1.15734309e-01f,-1.31833032e-01f,-5.85119277e-02f,+1.39151946e-01f,-4.19782773e-02f,
+2.00454488e-01f,-7.74680525e-02f,-3.09798289e-02f,-1.15480393e-01f,-1.93472594e-01f,
-5.07811792e-02f,-6.45340681e-02f,+1.30745143e-01f,-6.14211857e-02f,+8.15608259e-03f,
-3.28463875e-02f,-9.78637561e-02f,+3.49623687e-03f,+6.81764930e-02f,+8.20839107e-02f,
-1.37265727e-01f,-3.97584634e-03f,-3.44166756e-02f,+3.21636498e-02f,+2.16021128e-02f,
-5.45580126e-02f,+5.46017550e-02f,-1.31373495e-01f,+9.88686606e-02f,+1.34053290e-01f,
-4.13959734e-02f,-1.83224246e-01f,-1.59769565e-01f,+1.41384378e-01f,+1.97096586e-01f,
+8.64527225e-02f,-6.11318648e-02f,-1.39317662e-01f,-8.77655149e-02f,-6.64912611e-02f,
-5.22807688e-02f,-1.38752311e-01f,-7.97150806e-02f,-1.47105858e-01f,+1.57550424e-01f,
+7.75460079e-02f,-1.29414290e-01f,+1.63687661e-01f,-1.33906335e-01f,+1.02924958e-01f,
-4.18105647e-02f,+4.60125804e-02f,+1.61891386e-01f,+1.02713935e-01f,-1.94562659e-01f,
-2.52869159e-01f,+2.28089094e-01f,+2.03259867e-02f,-6.42444342e-02f,-1.68243885e-01f,
+1.73214257e-01f,+1.45334974e-01f,+5.84507883e-02f,+1.36551410e-01f,-1.80959329e-01f,
+3.35837938e-02f,-1.75984487e-01f,+2.38564417e-01f,+8.28831866e-02f,-2.11945549e-01f,
+2.70854123e-02f,+3.84570993e-02f,+4.13616188e-02f,-6.40633628e-02f,-1.65129244e-01f,
+8.66310298e-02f,+1.58157106e-02f,-1.34661913e-01f,-1.19012550e-01f,-1.01058125e-01f,
+2.31148168e-01f,+6.29726350e-02f,+1.58724636e-02f,+2.35330328e-01f,+4.74777482e-02f,
+7.23895133e-02f,+5.17731830e-02f,-9.61687416e-02f,-1.71119913e-01f,+5.55351079e-02f,
+6.63497224e-02f,-1.95840672e-02f,-1.26811177e-01f,+1.54577911e-01f,+7.75306821e-02f,
-4.48937044e-02f,-1.69943377e-01f,+9.96591151e-03f,-2.26464212e-01f,+8.01930949e-03f,
+1.49378419e-01f,+9.81648341e-02f,+3.46229933e-02f,+4.50770967e-02f,-2.03641549e-01f,
-1.89535320e-02f,-5.72631061e-02f,+2.25554854e-01f,+1.09297656e-01f,+4.56946343e-02f,
+6.68193921e-02f,-5.76926321e-02f,-1.10187903e-01f,-3.80681977e-02f,-1.50383666e-01f,
+1.17309012e-01f,-6.77774623e-02f,+1.62105411e-01f,-8.76925364e-02f,-1.07745409e-01f,
+1.41052529e-01f,-9.22777951e-02f,-1.19081132e-01f,-1.31031439e-01f,-1.04625940e-01f,
+1.34364113e-01f,-1.89729169e-01f,+1.73872516e-01f,+1.65236712e-01f,-2.90932716e-04f,
+1.64426297e-01f,+1.38706207e-01f,+8.61901939e-02f,-1.07485704e-01f,+1.15686983e-01f,
+7.47128502e-02f,+1.38462916e-01f,+9.74430889e-02f,-7.05901012e-02f,+1.59906983e-01f,
-1.69462916e-02f,+1.69040307e-01f,-2.81655006e-02f,-1.48148343e-01f,+7.75150806e-02f,
-1.51606470e-01f,-1.30615920e-01f,+2.01394148e-02f,-2.16119438e-02f,+1.64767265e-01f,
-9.02889967e-02f,+1.79083750e-01f,+1.57520950e-01f,+1.43188760e-01f,-2.03675963e-03f,
-1.61429584e-01f,+1.20045461e-01f,+9.65762064e-02f,+1.61752343e-01f,+1.78275228e-01f,
-5.10572493e-02f,-1.50248021e-01f,-1.77431777e-01f,+1.76635474e-01f,-1.73093227e-04f,
+1.18860617e-01f,+4.49391417e-02f,+7.57648377e-03f,-4.78489809e-02f,-6.89052865e-02f,
-3.59030515e-02f,-1.74016461e-01f,+8.87938216e-02f,-1.97304383e-01f,+1.41655743e-01f,
+4.27268445e-03f,+4.79497798e-02f,-9.71680358e-02f,+7.14934096e-02f,-2.72070449e-02f,
-6.39115199e-02f,+1.16243787e-01f,-1.97364002e-01f,+1.15738362e-01f,-4.82764654e-02f,
-1.80894285e-01f,+6.66766912e-02f,-1.34524107e-02f,+4.91257105e-03f,-1.61615640e-01f,
-1.57613337e-01f,+2.17006445e-01f,-1.59158856e-01f,+2.69815400e-02f,-1.36229157e-01f,
-1.35732785e-01f,-1.74339533e-01f,-1.66677102e-01f,+1.43758748e-02f,-1.58008710e-01f,
-2.33469099e-01f,+1.95056871e-01f,-1.10720880e-01f,-1.31514475e-01f,-1.49590433e-01f,
+1.73687950e-01f,-8.96132588e-02f,+1.31561756e-01f,+2.02603132e-01f,-2.12393150e-01f,
-9.40454677e-02f,+9.81875882e-02f,-7.83305317e-02f,+1.40079767e-01f,-1.19280465e-01f,
-7.55175427e-02f,+2.84182765e-02f,+7.28608072e-02f,-6.81932718e-02f,-4.48584743e-02f,
-9.52716619e-02f,+2.02560928e-02f,+4.72523905e-02f,+7.35777989e-02f,+2.04197615e-02f,
-2.70006061e-03f,-4.33108881e-02f,-5.86783476e-02f,-7.94675946e-02f,+1.00575462e-01f,
-1.94133773e-01f,-1.23798460e-01f,-1.20159380e-01f,-3.87619436e-02f,-2.48431712e-02f,
-1.07790001e-01f,-9.57126245e-02f,+2.00041980e-01f,+7.75401592e-02f,-3.19592059e-02f,
-1.03391916e-01f,+2.62731481e-02f,+2.07215786e-01f,-5.81376404e-02f,-1.21254092e-02f,
-1.19374441e-02f,+1.54353529e-01f,-2.17633564e-02f,+1.38970315e-01f,-1.21086203e-01f,
-4.13069911e-02f,-1.15454709e-02f,+6.51728213e-02f,+1.52915403e-01f,+1.88538149e-01f,
+1.91677660e-01f,+1.33032441e-01f,+2.52041649e-02f,-1.70209184e-01f,-2.27819122e-02f,
+9.37128812e-02f,-1.83149323e-01f,+1.28489435e-01f,-9.66507047e-02f,-9.78464857e-02f,
+4.86932136e-02f,+1.12980500e-01f,-4.72739674e-02f,-5.00999652e-02f,-1.45375744e-01f,
-9.60500818e-03f,+1.26310870e-01f,+1.04754061e-01f,-6.14892021e-02f,+1.64706931e-01f,
+1.31252125e-01f,-6.54933527e-02f,+8.17332715e-02f,-9.53306630e-02f,-1.42526329e-02f,
-2.36949883e-02f,+4.59914729e-02f,+1.60290636e-02f,+7.82865435e-02f,-1.72335371e-01f,
-1.25163153e-01f,-2.38209702e-02f,-1.51273981e-01f,+8.53001326e-02f,-1.13665991e-01f,
-4.84126918e-02f,-1.00047681e-02f,+1.81454033e-01f,-8.76211748e-02f,-3.83526497e-02f,
+1.37265623e-01f,-7.06613883e-02f,+1.77117273e-01f,+4.48489226e-02f,+5.07402979e-03f,
-1.05576277e-01f,+2.09637865e-01f,+1.45358592e-01f,+1.43277422e-01f,-6.58974424e-02f,
+1.05782941e-01f,-1.40315190e-01f,-7.18742656e-03f,-1.50376379e-01f,-1.93292618e-01f,
-3.91719192e-02f,-9.08673704e-02f,+3.99928391e-02f,-1.29707366e-01f,-1.19662076e-01f,
-7.12881982e-02f,-2.59487722e-02f,+2.51165051e-02f,-5.80473756e-03f,-2.49810126e-02f,
-1.61948383e-01f,-1.70965269e-02f,-5.76663725e-02f,+1.70759141e-01f,+6.58902973e-02f,
-9.51838940e-02f,+4.80329469e-02f,+1.02452107e-03f,-1.76609710e-01f,+1.28782585e-01f,
-2.76918020e-02f,-1.66422904e-01f,-1.55359074e-01f,+8.59576315e-02f,-8.17202106e-02f,
+1.65874332e-01f,-1.15091063e-01f,-1.51226312e-01f,-3.43972296e-02f,-1.71708897e-01f,
+2.52571166e-03f,+7.74472430e-02f,-1.83396220e-01f,+1.34449258e-01f,-1.78954318e-01f,
+1.80591851e-01f,-1.62947122e-02f,-3.03423796e-02f,-9.97361615e-02f,-8.65908246e-03f,
+1.56468883e-01f,-1.45381419e-02f,-9.15898755e-02f,-2.80003250e-03f,-1.49863422e-01f,
+3.34789194e-02f,-4.45824768e-03f,+1.21514447e-01f,-7.98943862e-02f,-1.40765890e-01f,
-7.97346085e-02f,+1.09935388e-01f,-3.81642506e-02f,+1.77495390e-01f,-8.97910446e-02f,
+1.53395087e-01f,+1.75267398e-01f,+4.95485663e-02f,-7.49612227e-02f,+1.28822744e-01f,
-1.48086190e-01f,+7.87603259e-02f,+3.20559777e-02f,-5.38782738e-02f,+1.19142674e-01f,
-1.34415925e-01f,+1.40568897e-01f,+1.23311868e-02f,+6.68765604e-02f,+9.05098915e-02f,
+1.06569596e-01f,+1.86438113e-01f,+1.51329726e-01f,+3.80392894e-02f,-1.53041840e-01f,
+8.89870524e-02f,+1.63288429e-01f,+6.09473810e-02f,-6.48161694e-02f,-9.04397946e-03f,
+8.83874577e-03f,-8.40191022e-02f,+8.16015974e-02f,+1.86669573e-01f,-4.44364771e-02f,
+2.55467501e-02f,-1.28936872e-01f,-4.42969799e-03f,+1.81812555e-01f,+8.90865773e-02f,
-1.47332311e-01f,-1.06777987e-02f,+5.20133674e-02f,+8.03137273e-02f,-1.34124920e-01f,
-1.22896202e-01f,+2.27199355e-03f,-2.98181027e-02f,-1.87504083e-01f,-1.87424436e-01f,
-5.56945754e-03f,-1.18523598e-01f,+1.95530299e-02f,-7.37431496e-02f,+1.71357691e-02f,
+6.34733215e-02f,+1.90773457e-02f,-1.08161479e-01f,-1.50681576e-02f,+7.84898475e-02f,
-1.70347154e-01f,+1.41871467e-01f,-1.23676710e-01f,-3.38764563e-02f,-2.62548383e-02f,
+1.82598636e-01f,-1.93027318e-01f,+1.17922314e-01f,+1.75081059e-01f,-1.26550868e-01f,
+7.95674622e-02f,-2.87406743e-02f,+1.24085329e-01f,+1.71485931e-01f,+1.52021259e-01f,
+1.49364367e-01f,+7.28753582e-02f,+1.98756143e-01f,-1.42146304e-01f,+1.18258735e-02f,
+2.05306828e-01f,-8.86838958e-02f,+8.61958787e-02f,+3.43197547e-02f,-8.52470919e-02f,
+1.79317012e-01f,-9.04482827e-02f,-1.60569012e-01f,-1.14364490e-01f,-1.01611800e-01f,
-2.05590278e-01f,-3.29534486e-02f,-9.10516307e-02f,+2.03504842e-02f,+1.27118930e-01f,
-8.14867094e-02f,+1.98607817e-02f,+1.53482929e-01f,-6.38598017e-03f,+1.70187205e-01f,
+8.82643759e-02f,+3.50617170e-02f,+1.20350942e-01f,-4.70988713e-02f,-9.00618061e-02f,
-1.77741200e-01f,-7.01510906e-03f,+5.28482012e-02f,+1.09065557e-02f,+1.27248973e-01f,
+8.24268386e-02f,-1.44902110e-01f,+1.80885976e-03f,-3.79181691e-02f,-1.98775828e-02f,
-1.67427361e-01f,+1.44505084e-01f,-1.34241879e-01f,+9.45272371e-02f,-1.48079187e-01f,
-1.19374491e-01f,-3.07127386e-02f,+2.61944365e-02f,-1.38320392e-02f,-1.65643349e-01f,
-1.43987343e-01f,-1.87393930e-02f,-7.04680979e-02f,+1.06297240e-01f,+1.68612823e-01f,
-5.31758815e-02f,-7.72990733e-02f,+1.40667865e-02f,+3.56155857e-02f,+1.58686861e-02f,
-8.98181573e-02f,+6.91081211e-02f,-5.61425202e-02f,-8.49955752e-02f,+2.28614714e-02f,
+3.92198674e-02f,+1.37818933e-01f,-5.16283996e-02f,-1.22061260e-01f,-1.22299351e-01f,
-1.27670452e-01f,+1.19678833e-01f,-1.76370576e-01f,-1.22084603e-01f,-8.07983950e-02f,
+1.12211987e-01f,-9.25376341e-02f,+9.29227471e-03f,+1.55484632e-01f,-6.75457995e-03f,
+2.64950842e-02f,-1.52487114e-01f,-1.55146912e-01f,-1.30818307e-01f,+5.11444584e-02f,
-9.21785235e-02f,+9.20562372e-02f,-2.38872715e-03f,-1.06058769e-01f,+1.13950282e-01f,
+1.83648095e-01f,-1.84245139e-01f,-9.27350000e-02f,+1.33601397e-01f,-8.42372626e-02f,
+1.17330700e-02f,+3.33522744e-02f,-9.89611074e-02f,+1.16556333e-02f,+1.47256240e-01f,
+1.31371245e-01f,+1.97910026e-01f,-8.68310556e-02f,-7.63539597e-02f,+8.81205276e-02f,
+2.14951932e-01f,-7.01598674e-02f,-7.61312023e-02f,+8.74011442e-02f,+1.45765468e-01f,
+4.38965857e-03f,+1.95076704e-01f,-1.65454522e-01f,-6.01085462e-03f,+1.81635901e-01f,
-4.00739498e-02f,+1.59287348e-01f,+1.33876726e-01f,+6.39505237e-02f,+1.06962927e-01f,
-1.97006404e-01f,+8.63083377e-02f,+2.65727341e-02f,-4.19113040e-02f,+1.44832656e-01f,
-4.04182002e-02f,+1.65371910e-01f,+1.20552383e-01f,-1.00150257e-01f,+6.91391453e-02f,
+1.70043498e-01f,-5.12170941e-02f,+1.50337026e-01f,-1.88571274e-01f,+1.66642591e-01f,
-3.79530974e-02f,-5.68849454e-03f,+8.28308389e-02f,-4.69582491e-02f,-6.60180449e-02f,
-1.07674882e-01f,-1.57313630e-01f,-9.40820854e-03f,-1.10582419e-01f,-7.40538090e-02f,
-9.55886766e-02f,-1.36645615e-01f,+1.93258777e-01f,-1.45582497e-01f,+9.85263959e-02f,
+6.66201264e-02f,+7.72792473e-02f,-1.58871427e-01f,+1.19461650e-02f,+2.64540017e-02f,
-7.97440857e-03f,-3.33388452e-04f,+1.07875891e-01f,-3.82523052e-02f,+1.62667930e-02f,
-1.44895419e-01f,-5.31356484e-02f,+1.17589632e-04f,-1.73063770e-01f,+4.68109697e-02f,
-1.41480520e-01f,+6.71570003e-02f,-6.91678450e-02f,-8.67474526e-02f,+1.42890394e-01f,
-7.55176023e-02f,-1.54808342e-01f,-1.37199223e-01f,-1.41463369e-01f,-1.68478116e-01f,
+4.91444096e-02f,-1.02849156e-01f,-1.13002341e-02f,+1.84113517e-01f,+6.90974146e-02f,
+4.44022492e-02f,-1.49819449e-01f,+1.28386751e-01f,+3.04024499e-02f,+1.76484268e-02f,
+9.71057490e-02f,-1.83822498e-01f,-5.33100516e-02f,+9.06844437e-03f,+1.08513005e-01f,
-1.25140533e-01f,-1.50456309e-01f,-5.84247895e-03f,+1.03998624e-01f,+7.87423700e-02f,
+1.45732045e-01f,+2.33830914e-01f,-7.71416426e-02f,+2.10777894e-01f,+1.56420007e-01f,
-2.91911140e-02f,-1.64266780e-01f,+2.02531926e-02f,-4.00218926e-02f,+9.34218988e-02f,
+9.07295793e-02f,-1.28550649e-01f,+1.66633010e-01f,-2.38905922e-01f,-2.53769308e-02f,
+1.72603980e-01f,-3.82365435e-02f,-1.66922793e-01f,+3.12009901e-02f,-1.91821866e-02f,
+3.15978304e-02f,-1.26839980e-01f,-6.42481372e-02f,-1.66308820e-01f,+1.29421934e-01f,
-3.13412361e-02f,+9.54619274e-02f,+1.28066182e-01f,-1.65786251e-01f,+8.20357278e-02f,
+1.04650296e-01f,-1.88958660e-01f,-7.41976202e-02f,-1.20787315e-01f,+6.30307868e-02f,
-1.29338562e-01f,+1.05240405e-01f,+1.35688394e-01f,+2.85431240e-02f,-1.90286487e-02f,
+2.06618980e-02f,+2.57816482e-02f,+7.71204978e-02f,-3.60646844e-03f,+4.47378047e-02f,
-4.43789586e-02f,+3.28644514e-02f,+1.62921935e-01f,+1.28988937e-01f,+1.51706994e-01f,
-1.78136587e-01f,+9.35629457e-02f,-9.86671746e-02f,-1.95649669e-01f,+2.51092035e-02f,
-1.06642339e-02f,-1.36635125e-01f,+7.87870586e-03f,-1.24281339e-01f,-2.08631177e-02f,
+1.18189687e-02f,-1.41475111e-01f,-1.48435697e-01f,+2.63645891e-02f,-1.23785086e-01f,
-9.36140120e-02f,+1.30643353e-01f,-1.13436066e-01f,-1.40809223e-01f,+1.57557130e-01f,
+1.36463732e-01f,+1.40033169e-02f,-5.69783822e-02f,-3.51009816e-02f,+1.12081252e-01f,
+1.09957241e-01f,-1.34664938e-01f,-1.77022353e-01f,-1.86402380e-01f,+7.87123740e-02f,
-6.94645867e-02f,+7.83635229e-02f,-4.08047112e-03f,+9.23133567e-02f,-1.25653058e-01f,
-1.46311879e-01f,+5.13797179e-02f,+8.55892450e-02f,+1.10317860e-02f,+1.17203705e-01f,
-1.40641391e-01f,+1.14477053e-01f,-8.75160694e-02f,+1.39791176e-01f,+1.82582453e-01f,
-8.47576782e-02f,-1.06395297e-01f,+1.57284722e-01f,+2.70007886e-02f,-1.87324807e-01f,
-1.78965628e-01f,+1.81746691e-01f,-1.42391428e-01f,+1.60467073e-01f,+2.22367942e-02f,
+3.15319858e-02f,+9.77275819e-02f,+1.88623622e-01f,+4.43698950e-02f,+1.53404534e-01f,
-1.73937634e-01f,+3.67443860e-02f,+2.70763449e-02f,-3.50513831e-02f,+6.25455007e-02f,
+6.03078753e-02f,+1.16081402e-01f,-9.36354101e-02f,+5.67780435e-02f,-1.79031808e-02f,
+1.34333059e-01f,+1.04019210e-01f,+1.38016678e-02f,-4.33218479e-02f,-7.38034621e-02f,
-1.21810801e-01f,-1.58522323e-01f,+9.64838341e-02f,+1.58061191e-01f,-1.00252805e-02f,
-1.92158312e-01f,-1.22319184e-01f,-2.04188064e-01f,-1.63663384e-02f,-1.31720081e-01f,
-1.66389018e-01f,-1.87804773e-01f,-1.69420272e-01f,-6.64355233e-02f,-9.91134793e-02f,
+1.25166610e-01f,+8.18051621e-02f,-1.54953465e-01f,-3.34921665e-02f,-5.77045120e-02f,
+1.29504487e-01f,+1.26274759e-02f,+1.02113247e-01f,+5.48438653e-02f,+3.65158468e-02f,
+3.38166580e-02f,-2.45244950e-02f,-8.02050307e-02f,+3.82205360e-02f,-1.98850371e-02f,
-1.30242324e-02f,-1.85834393e-01f,-2.18308568e-02f,+3.04777287e-02f,-1.80039834e-02f,
-2.11362973e-01f,-1.53518990e-01f,+1.85602903e-01f,+4.51570340e-02f,+2.66412348e-02f,
-6.25149608e-02f,+4.73492183e-02f,-1.89558640e-01f,-1.24819614e-01f,+4.58987132e-02f,
+6.86456710e-02f,+1.50289387e-02f,+1.76513419e-02f,+6.50262386e-02f,+8.31402466e-02f,
-1.23836296e-02f,+1.42356958e-02f,-1.63361162e-01f,+1.58141077e-01f,-7.46571049e-02f,
+4.15401952e-03f,-4.16033491e-02f,+9.18030925e-03f,+1.28476381e-01f,+1.43155515e-01f,
-1.77700922e-01f,+1.66134611e-01f,+1.77614558e-02f,-3.13016549e-02f,+1.72241673e-01f,
-1.94494277e-01f,+1.64419726e-01f,+6.78740442e-04f,+2.25908652e-01f,+1.38231993e-01f,
+1.82133898e-01f,-1.88376769e-01f,-2.76190322e-02f,-1.59911867e-02f,-1.04612894e-01f,
-3.65963690e-02f,+6.14354387e-02f,+1.04547493e-01f,+1.38299376e-01f,+1.98052034e-01f,
-2.31630713e-01f,+6.27802759e-02f,+5.63866384e-02f,-1.04520068e-01f,-1.62900254e-01f,
+9.95570943e-02f,-1.72415391e-01f,+1.39746889e-01f,-1.46658318e-02f,-8.03908333e-02f,
-3.81036103e-03f,+1.70941606e-01f,+2.74490207e-01f,-2.01847270e-01f,+4.28332575e-02f,
+9.13171619e-02f,+1.65272698e-01f,+1.49947941e-01f,-9.60915312e-02f,-1.89487040e-01f,
-1.42308757e-01f,+2.56080419e-01f,-5.18846177e-02f,+1.24239393e-01f,-1.95905250e-02f,
+2.17794314e-01f,-1.98369473e-01f,+5.60293719e-02f,+1.07148208e-01f,+2.85588652e-02f,
+1.39349297e-01f,+2.25452967e-02f,+1.17703259e-01f,+8.62672552e-02f,+5.51052466e-02f,
-5.02238572e-02f,-6.36311062e-03f,+6.99599162e-02f,+2.58035958e-03f,+2.56065965e-01f,
-1.47860229e-01f,-7.21838744e-03f,-8.45441502e-03f,+7.87613168e-02f,+3.08248699e-02f,
+2.66810004e-02f,+5.24332374e-03f,+1.44513682e-01f,+8.60020369e-02f,+1.71077713e-01f,
+1.20074816e-01f,-1.58517256e-01f,-7.50724375e-02f,+4.90174955e-03f,-1.17187463e-01f,
-1.59522854e-02f,-1.84105873e-01f,-3.56562324e-02f,+4.47567478e-02f,+9.82474312e-02f,
+1.75751835e-01f,-1.82065248e-01f,+1.15317501e-01f,-1.49795413e-01f,-9.48945656e-02f,
-7.72389397e-02f,+1.00810595e-01f,+3.11579797e-02f,+1.49809197e-01f,-1.17312707e-01f,
+2.09864631e-01f,+1.43107265e-01f,+1.55290633e-01f,+5.51437438e-02f,-1.66604191e-01f,
+4.30226466e-03f,+1.56617209e-01f,-2.60303877e-02f,+1.69645518e-01f,+3.94520164e-02f,
-4.11550608e-03f,-9.85321924e-02f,+2.66090687e-02f,-1.28691480e-01f,-5.72068691e-02f,
+1.04473129e-01f,+1.25956640e-01f,-7.83676505e-02f,+8.87146518e-02f,-1.40147328e-01f,
+1.63878575e-01f,-1.33234948e-01f,+1.06985249e-01f,-9.75719020e-02f,+1.29226282e-01f,
-7.92076811e-02f,-1.18020363e-02f,+7.32557252e-02f,+1.64728135e-01f,-3.91886495e-02f,
+6.43235743e-02f,+1.30768001e-01f,+1.28204867e-01f,+1.84254199e-02f,-1.69341981e-01f,
+4.30128947e-02f,-1.52793631e-01f,+4.03237063e-03f,+4.81396616e-02f,-5.85810915e-02f,
-4.16661240e-02f,-1.56921312e-01f,-4.21730727e-02f,-6.78834021e-02f,-2.83900648e-02f,
+7.26204887e-02f,-9.71344784e-02f,-1.49744898e-01f,+4.61973883e-02f,-8.67099911e-02f,
+1.38594508e-01f,+1.01532638e-01f,-6.98356703e-02f,-8.20239931e-02f,-1.65637344e-01f,
+1.96115542e-02f,+1.45216852e-01f,+1.89416006e-01f,-1.40560076e-01f,-1.00112796e-01f,
+1.20446697e-01f,-1.44175142e-01f,-9.08700153e-02f,+8.91524255e-02f,-1.78635284e-01f,
-8.36392865e-02f,+1.52386189e-01f,+1.87060181e-02f,-1.48504883e-01f,-1.67414829e-01f,
+1.54246181e-01f,-3.54420915e-02f,+1.75524443e-01f,-7.41399825e-03f,-2.00781286e-01f,
-1.38956964e-01f,-9.65893790e-02f,+6.25165328e-02f,+1.84282497e-01f,-9.30832773e-02f,
+1.87121809e-01f,-1.17592849e-02f,+1.53987184e-01f,+5.48106395e-02f,-3.97808291e-02f,
+2.00071067e-01f,-8.48596245e-02f,-4.85700220e-02f,+2.97695398e-04f,+4.83071543e-02f,
+5.25273532e-02f,+1.64945751e-01f,-1.06066406e-01f,+1.22135401e-01f,-1.78390563e-01f,
+1.95384040e-01f,+1.85054079e-01f,-2.12790072e-02f,-5.23761809e-02f,-4.35709171e-02f,
+4.35998626e-02f,-3.55512910e-02f,+1.41302243e-01f,+1.21232957e-01f,+9.16592106e-02f,
+8.11886340e-02f,-1.53125748e-01f,+7.01937126e-03f,-9.37665030e-02f,-4.51738387e-02f,
+9.12423059e-03f,-1.05394423e-02f,+8.73544216e-02f,+5.38198557e-03f,-7.71942036e-03f,
-5.15637510e-02f,+1.53167889e-01f,-1.89833976e-02f,+7.36290962e-02f,-3.60553749e-02f,
-2.07022473e-01f,-1.55007318e-01f,+1.53987437e-01f,-9.95431617e-02f,+1.91560239e-01f,
-2.02644169e-02f,+1.16639316e-01f,-9.06100720e-02f,+8.18007588e-02f,+6.81448430e-02f,
+1.50375441e-01f,+3.30492556e-02f,-1.25520974e-02f,+1.63198754e-01f,-1.29907653e-01f,
+4.75725438e-03f,-6.95587173e-02f,-6.18668199e-02f,+1.67164385e-01f,-1.06249213e-01f,
+2.57620271e-02f,+4.75701243e-02f,-1.42420620e-01f,+6.90341964e-02f,+1.11556016e-02f,
+3.28687578e-02f,+7.50842318e-02f,+1.22943811e-01f,+3.79747041e-02f,-5.44157475e-02f,
+5.09382151e-02f,+1.90956995e-01f,+2.67801136e-02f,+1.60667911e-01f,-2.10661128e-01f,
-1.36737496e-01f,-1.41167223e-01f,-2.31537782e-02f,-2.82368027e-02f,+7.62269273e-02f,
+1.37362465e-01f,-7.86546767e-02f,+2.81481482e-02f,+1.56384856e-01f,-1.39426380e-01f,
+9.43332836e-02f,+1.83837220e-01f,+5.00192791e-02f,-1.63478851e-01f,-1.10200472e-01f,
-1.21703304e-01f,-1.76387459e-01f,-9.27301943e-02f,-5.37097268e-03f,-5.58321513e-02f,
-8.31773952e-02f,-4.75293510e-02f,-1.37285620e-01f,-1.35144591e-01f,-1.01089090e-01f,
-1.45853013e-01f,-6.72291685e-03f,-2.95137279e-02f,+9.89831313e-02f,+9.03983042e-02f,
+1.88290745e-01f,+5.69140501e-02f,+1.38425156e-02f,+9.82178375e-03f,-1.97005942e-01f,
+1.90814823e-01f,-4.42865789e-02f,-8.29880908e-02f,+1.20202284e-02f,-1.06574439e-01f,
-1.90809920e-01f,-4.24804688e-02f,-1.52161181e-01f,+1.72688916e-01f,+1.38250962e-01f,
-1.10124948e-03f,+1.58420578e-01f,-3.49154398e-02f,-1.77421030e-02f,-3.95845175e-02f,
+1.27175257e-01f,-1.43316135e-01f,-7.70644401e-04f,-6.76020607e-02f,+2.19406448e-02f,
+2.37823725e-02f,-1.89036652e-02f,+1.21796161e-01f,-4.08418775e-02f,+5.95712587e-02f,
-7.33262226e-02f,+1.38450518e-01f,-9.98643041e-02f,-7.02348202e-02f,-1.39487430e-01f,
-8.22134539e-02f,+7.24148890e-03f,+1.61874324e-01f,+7.47807771e-02f,-5.94517738e-02f,
-1.02735579e-01f,+1.18052058e-01f,+1.63633522e-04f,-5.23831993e-02f,+2.65691847e-01f,
+1.20505989e-02f,-9.13679693e-03f,+1.13974035e-01f,+1.58184454e-01f,-2.04035893e-01f,
-9.50923422e-04f,+1.25587329e-01f,+1.12502791e-01f,-1.45091698e-01f,+6.34008460e-03f,
-1.14479460e-01f,+6.74619526e-02f,+2.34943423e-02f,+9.22161490e-02f,-1.66568428e-01f,
+1.59301728e-01f,+1.61406621e-02f,+4.58154529e-02f,-2.91833635e-02f,+1.26045257e-01f,
+1.07702807e-01f,-1.33617103e-01f,+5.81155717e-02f,+1.80450991e-01f,+1.63113683e-01f,
+6.55604666e-03f,+7.95736685e-02f,-1.07586630e-01f,+1.03113927e-01f,-1.71522304e-01f,
-4.12800163e-02f,-1.69044971e-01f,+7.23818876e-03f,+1.05594005e-02f,+1.03780525e-02f,
-6.58640563e-02f,-7.13711753e-02f,-1.76763535e-01f,-1.10123724e-01f,-1.24057844e-01f,
-1.26737416e-01f,-1.10571198e-01f,+6.61832094e-02f,-1.03789151e-01f,-5.04334942e-02f,
-1.02800326e-02f,-1.26846567e-01f,+8.46652240e-02f,+6.87069371e-02f,+6.58615977e-02f,
-2.10953355e-02f,+8.44192877e-02f,-4.46832441e-02f,-9.04132128e-02f,+1.33658707e-01f,
+1.83729324e-02f,-1.56990245e-01f,-2.20267102e-02f,+8.81149620e-02f,+3.43107730e-02f,
+1.76209435e-02f,-1.86038300e-01f,-1.50739282e-01f,+1.24538943e-01f,+3.51774991e-02f,
-4.19325344e-02f,-1.59738824e-01f,+1.90482259e-01f,+4.44062091e-02f,+4.58297357e-02f,
-7.25742877e-02f,-1.92632750e-02f,+8.58655944e-02f,-3.04161850e-03f,+1.25945792e-01f,
+1.89774185e-02f,-1.63192376e-01f,-8.93705264e-02f,+1.18646935e-01f,-8.39823484e-02f,
-6.26570508e-02f,-1.05160698e-01f,-1.50862679e-01f,+6.43681213e-02f,+1.12870760e-01f,
-1.62880257e-01f,-1.65803865e-01f,+9.54793915e-02f,-1.82398502e-02f,-1.79032832e-01f,
-1.14988387e-01f,+1.12997562e-01f,+9.68049839e-03f,-1.20794475e-01f,+1.11161470e-02f,
+1.23427995e-01f,-1.60486907e-01f,+1.47989541e-02f,+1.48114577e-01f,-1.05099276e-01f,
+1.36762545e-01f,+1.51736721e-01f,-6.92221001e-02f,+3.27387452e-02f,+1.75135240e-01f,
+8.77467245e-02f,-3.32145542e-02f,+1.20818771e-01f,+4.97591197e-02f,-1.02053121e-01f,
+1.27027512e-01f,-1.23897023e-01f,-9.55360532e-02f,-6.66156933e-02f,+1.32320836e-01f,
-7.03017190e-02f,+4.53524776e-02f,-1.27704859e-01f,-1.74379453e-01f,-1.18200801e-01f,
+1.79053515e-01f,+2.00070053e-01f,+5.83669692e-02f,+5.91534637e-02f,-3.82885262e-02f,
-2.46495858e-01f,+9.03508663e-02f,-1.76529750e-01f,-1.49806589e-01f,+5.42330891e-02f,
+6.38912991e-02f,-3.97415534e-02f,+5.27186915e-02f,+6.13181442e-02f,-9.58522409e-02f,
-1.53532475e-01f,+1.82724923e-01f,-1.61849745e-02f,+1.13578342e-01f,-3.40965167e-02f,
+1.96058437e-01f,-1.95801646e-01f,-5.77736683e-02f,+6.65679201e-02f,-5.98835684e-02f,
+7.46274143e-02f,+1.35755688e-01f,+4.87244800e-02f,-8.51833075e-03f,-1.12182781e-01f,
-1.21865518e-01f,-2.06846446e-01f,-1.57448128e-01f,-8.56937934e-03f,-1.01449870e-01f,
+4.53651063e-02f,-2.31020615e-01f,+1.24648683e-01f,+6.66514784e-02f,-1.47258610e-01f,
-5.95807191e-03f,-1.71409547e-01f,+2.90329933e-01f,-7.12820217e-02f,-8.07277560e-02f,
+1.28285244e-01f,-7.94812664e-02f,+5.28113507e-02f,-1.83923453e-01f,+1.70684099e-01f,
-9.43779722e-02f,+1.80421099e-02f,-1.04972117e-01f,+1.38394469e-02f,-9.21039209e-02f,
+8.37734491e-02f,-6.11253306e-02f,+1.54919133e-01f,+3.51142883e-03f,+2.07103550e-01f,
-1.78383663e-01f,-1.75554737e-01f,+5.89095280e-02f,+2.27708649e-02f,-7.01224655e-02f,
-1.24278218e-01f,+4.63621467e-02f,+4.60438915e-02f,-2.23838896e-01f,-5.25431000e-02f,
-1.88562736e-01f,+4.59814183e-02f,+1.70384124e-01f,+2.11022973e-01f,+4.38646488e-02f,
-1.09155238e-01f,-7.47518614e-02f,-1.03797831e-01f,+3.03978976e-02f,+3.85557823e-02f,
+8.87657478e-02f,-1.32967666e-01f,+2.33833548e-02f,+7.86143318e-02f,-1.63559616e-01f,
+1.47711679e-01f,-1.93341553e-01f,+1.27036750e-01f,-4.69481684e-02f,+2.11424306e-01f,
-4.34943214e-02f,-1.57047361e-01f,+1.17131107e-01f,+1.53306365e-01f,+1.90162003e-01f,
+2.81869732e-02f,+1.20269686e-01f,-2.70240437e-02f,+6.19012229e-02f,+1.12042427e-01f,
-4.81408350e-02f,-2.10831873e-02f,-9.90639403e-02f,+6.77860528e-02f,-5.48139103e-02f,
-1.64604753e-01f,+1.25011161e-01f,+1.57171562e-01f,+6.40757848e-03f,+4.68341485e-02f,
-9.49590728e-02f,-7.29591772e-02f,+1.03402987e-01f,-7.67931193e-02f,+1.04019694e-01f,
-1.70980543e-01f,+5.51901162e-02f,+1.15535296e-02f,+1.02627635e-01f,-1.90851003e-01f,
-1.96366221e-01f,+8.74302834e-02f,+1.67199388e-01f,-7.03445971e-02f,+1.47276580e-01f,
-1.67049304e-01f,+1.36173606e-01f,+3.35586444e-03f,-8.18314962e-03f,+1.57776415e-01f,
-1.61657810e-01f,+6.39815629e-02f,-2.14393049e-01f,+1.20587967e-01f,-9.90724713e-02f,
-3.78764905e-02f,-1.44751310e-01f,+4.28472236e-02f,-1.86846152e-01f,-1.73091218e-02f,
-1.30205154e-01f,+1.71410397e-01f,-1.60626635e-01f,-3.29050347e-02f,+1.08641461e-01f,
-1.24975264e-01f,+2.27472070e-03f,+4.55794223e-02f,+1.07931525e-01f,+9.78608523e-03f,
+1.45814165e-01f,+2.51570158e-02f,-1.66454017e-01f,-6.45013675e-02f,-1.23731084e-01f,
+1.38189450e-01f,-2.00630933e-01f,-8.66755322e-02f,+7.54860789e-02f,+1.49318084e-01f,
-4.53565530e-02f,+5.38194887e-02f,-1.78497627e-01f,+9.26177576e-02f,+1.54309958e-01f,
-4.05943654e-02f,+7.63543099e-02f,+4.40799966e-02f,+4.30465527e-02f,-6.90123811e-02f,
-5.69939464e-02f,-1.26769394e-01f,-8.73712823e-02f,+1.55188039e-01f,-1.27738357e-01f,
-7.03134015e-02f,+9.15347785e-02f,-1.32394627e-01f,+3.69368084e-02f,+5.31394146e-02f,
-7.27853924e-02f,+1.23973221e-01f,-7.73892775e-02f,-1.61945909e-01f,-1.24062665e-01f,
+7.57131428e-02f,+1.59628883e-01f,+1.32332519e-01f,-1.92238942e-01f,+1.81548148e-01f,
+9.33824778e-02f,-7.79601336e-02f,-1.80763111e-01f,+2.52268370e-03f,+1.56397596e-01f,
+1.50279224e-01f,+3.49305943e-02f,+9.36333090e-03f,-1.39077500e-01f,+1.00942597e-01f,
+1.78680703e-01f,+4.73686680e-02f,-9.79816262e-03f,+1.70756847e-01f,+4.17804308e-02f,
+2.26172563e-02f,+1.89292654e-01f,-3.92349884e-02f,-1.57592863e-01f,+4.15180065e-02f,
+1.57252684e-01f,+2.00304896e-01f,-7.78316036e-02f,-1.27721786e-01f,-7.05126002e-02f,
+1.34055167e-01f,-1.01648867e-01f,-2.40650792e-02f,+8.57213214e-02f,+3.56734078e-03f,
+1.54684678e-01f,-9.43671837e-02f,-2.04775959e-01f,+5.52422926e-02f,+8.26233253e-03f,
+1.12740852e-01f,-1.45429865e-01f,-5.42258881e-02f,+8.89254734e-02f,-3.20288017e-02f,
-8.49969536e-02f,-5.16881933e-03f,-2.10987166e-01f,+2.64054071e-03f,-8.82303119e-02f,
+9.40615684e-02f,+1.23109203e-02f,+1.77884549e-01f,+1.59196928e-01f,+1.76241517e-01f,
+6.03091568e-02f,-1.32329464e-01f,-9.55043733e-02f,-4.88318466e-02f,-6.79753944e-02f,
-3.43981422e-02f,+1.63359433e-01f,-7.62123168e-02f,+8.62116087e-03f,-1.08357936e-01f,
-1.56037211e-02f,-1.65944695e-01f,+3.27286161e-02f,-5.06170578e-02f,+4.99738678e-02f,
-1.43119901e-01f,+2.69082263e-02f,-2.54037250e-02f,+3.09282541e-02f,+9.28557478e-03f,
+1.86594516e-01f,-2.11521074e-01f,+4.05747965e-02f,+1.19494706e-01f,+1.69581577e-01f,
-3.53723578e-02f,-1.76961347e-01f,+3.99855636e-02f,+2.08628580e-01f,+1.12757780e-01f,
-9.65440273e-02f,+1.27650365e-01f,+1.26047626e-01f,-5.22897393e-02f,-3.05937212e-02f,
+1.62877850e-02f,+3.88225280e-02f,-1.93745308e-02f,+1.08195014e-01f,-1.13882095e-01f,
+1.44046471e-01f,+2.38177225e-01f,-1.77343547e-01f,-1.07409380e-01f,+4.84106019e-02f,
+3.03830616e-02f,+1.82093486e-01f,-4.62163426e-02f,+1.26994890e-03f,+1.35510102e-01f,
-9.80578270e-03f,-7.73757845e-02f,+1.49789616e-01f,-5.39728589e-02f,-2.40194798e-02f,
-1.15276925e-01f,-9.30589437e-03f,-1.89276099e-01f,+1.34428084e-01f,+2.98442692e-02f,
-1.68344706e-01f,-1.43346265e-01f,-1.58048242e-01f,+1.09928496e-01f,+1.68260023e-01f,
-5.16160093e-02f,+1.29829630e-01f,-9.32026282e-02f,+1.99892715e-01f,-1.22954272e-01f,
+2.38608792e-02f,-6.24325238e-02f,-1.79468393e-01f,-1.11671500e-01f,-5.70192933e-03f,
-1.81558076e-02f,-5.37543260e-02f,-1.12517528e-01f,-1.45796239e-01f,-7.63424188e-02f,
-1.81653395e-01f,-1.70479566e-01f,+1.07933149e-01f,+6.01132363e-02f,+4.20804694e-02f,
-9.20352489e-02f,-5.32616340e-02f,-1.58534616e-01f,-1.30184561e-01f,-8.99209157e-02f,
-6.74280822e-02f,+1.39148936e-01f,+1.51694804e-01f,-1.31911978e-01f,-1.68950498e-01f,
+9.16796327e-02f,+2.11561605e-01f,-6.12157658e-02f,-2.02500209e-01f,+6.61984906e-02f,
+1.58749044e-01f,+1.11183561e-01f,+1.19901568e-01f,+1.39767155e-01f,-6.21049330e-02f,
+1.42932028e-01f,+1.81825515e-02f,+2.27314577e-01f,-7.84843564e-02f,-3.61293964e-02f,
+6.57041073e-02f,-2.22200267e-02f,+8.99483338e-02f,+4.63534258e-02f,-5.91300940e-03f,
+1.67203039e-01f,-3.73488143e-02f,+6.37314096e-02f,+8.30435753e-03f,+4.73039672e-02f,
+1.53243810e-01f,-3.95709388e-02f,-7.50665320e-04f,+9.57563072e-02f,-1.28116161e-01f,
-1.18541196e-01f,-1.35357767e-01f,-1.14706427e-01f,-1.14170633e-01f,+2.28944756e-02f,
-1.63179249e-01f,+1.44450128e-01f,+8.13661143e-02f,+1.63491979e-01f,+7.90848359e-02f,
+3.50423828e-02f,+1.38131222e-02f,-1.39390260e-01f,-5.60995340e-02f,+8.48270506e-02f,
+1.74835280e-01f,-9.90905985e-02f,+3.87711935e-02f,+2.07986739e-02f,-1.16440281e-01f,
+2.22813543e-02f,+1.30518541e-01f,-1.30579501e-01f,-1.63701311e-01f,-9.96346101e-02f,
+7.30228424e-03f,-1.17675528e-01f,+1.31124392e-01f,+1.82193592e-01f,+4.71344255e-02f,
-9.38017592e-02f,+3.15774009e-02f,+1.63742319e-01f,+8.85122493e-02f,-5.68776578e-02f,
+6.56098574e-02f,-1.29920527e-01f,-4.78525981e-02f,-8.80307481e-02f,+1.96853459e-01f,
-8.24582204e-02f,-1.30844310e-01f,-1.66236520e-01f,+3.35386135e-02f,-8.03702101e-02f,
-1.49077401e-01f,+1.83100387e-01f,+1.43799171e-01f,-7.03525469e-02f,+1.43793538e-01f,
+8.29141140e-02f,+1.72736377e-01f,+2.05499008e-01f,+6.26505390e-02f,-1.44835860e-01f,
-2.51820795e-02f,+1.22382730e-01f,-1.51472002e-01f,-4.48169410e-02f,+1.23062432e-01f,
-1.62950829e-01f,-9.25240293e-02f,-1.21901214e-01f,+8.67515653e-02f,+1.61044538e-01f,
-1.66134834e-01f,+7.94839114e-02f,-1.82839423e-01f,+6.28606454e-02f,+3.95539552e-02f,
+2.02984288e-02f,+1.43640488e-01f,-7.94418082e-02f,-1.59977227e-01f,-4.68461663e-02f,
-6.64320216e-02f,+1.84178010e-01f,+1.18534967e-01f,+1.52366936e-01f,-9.84531641e-02f,
-1.55581176e-01f,-3.41318436e-02f,-6.55651391e-02f,-6.39247298e-02f,+5.88396490e-02f,
+1.03811994e-01f,-3.72954160e-02f,-1.35832936e-01f,+2.03045532e-02f,-1.09804727e-01f,
+1.34412870e-01f,-1.02766134e-01f,+2.36693859e-01f,+1.24679193e-01f,-9.08942074e-02f,
+2.24731378e-02f,+1.59084760e-02f,+1.61909550e-01f,-6.75223023e-02f,+7.84516260e-02f,
-2.22461112e-02f,-1.58112168e-01f,+5.78266867e-02f,-1.35257661e-01f,+8.55469182e-02f,
-4.17851247e-02f,-2.24413216e-01f,+8.10271874e-03f,+4.91802730e-02f,-2.71522272e-02f,
-1.09326296e-01f,+1.20057790e-02f,-3.47674564e-02f,+1.66118279e-01f,+2.51009967e-02f,
-5.25707528e-02f,+1.94322392e-01f,-1.41348690e-01f,+5.71311340e-02f,+6.91138953e-02f,
-4.35454547e-02f,-1.82157308e-02f,+4.10957634e-02f,+1.43466443e-01f,+1.28162116e-01f,
-1.26521122e-02f,-1.03490219e-01f,-1.96268067e-01f,-1.27815038e-01f,-2.11150140e-01f,
-1.21831864e-01f,+1.30530670e-01f,+1.99849889e-01f,-5.51252440e-02f,-2.01469436e-02f,
-1.04823641e-01f,+1.09441184e-01f,-2.17925832e-01f,+3.61329056e-02f,-2.09429011e-01f,
-1.47279724e-01f,+5.93757182e-02f,-2.46116389e-02f,-1.54256359e-01f,-5.27675264e-02f,
+1.86301857e-01f,+2.09084675e-01f,+1.71648804e-02f,+1.74573705e-01f,-1.86105654e-01f,
+1.50338441e-01f,-1.54635713e-01f,+3.33686545e-02f,+2.55799387e-03f,+5.52146509e-02f,
+1.76493540e-01f,+1.18577247e-02f,+9.19113234e-02f,-3.10991481e-02f,+5.80593050e-02f,
+4.61686365e-02f,-8.15300867e-02f,+1.54161066e-01f,+1.77001968e-01f,+4.37964574e-02f,
+2.04333782e-01f,+2.44034175e-02f,-5.71067929e-02f,-1.27650112e-01f,-7.06954524e-02f,
+6.86994046e-02f,+5.40563539e-02f,-2.33678687e-02f,-1.58133820e-01f,+4.95544076e-02f,
-1.09071255e-01f,-1.42806955e-02f,+7.40543604e-02f,+1.20229103e-01f,+9.98818353e-02f,
+7.77596980e-02f,-6.34696037e-02f,-2.19018012e-02f,+1.71446458e-01f,+5.64294010e-02f,
-1.43614471e-01f,-1.11237861e-01f,+1.37787297e-01f,-4.33445424e-02f,-1.16293617e-01f,
-5.02785891e-02f,+5.83211184e-02f,-7.86370412e-02f,-5.15283868e-02f,-6.74280003e-02f,
-1.07614420e-01f,-2.02764478e-02f,-1.88405037e-01f,+3.79029079e-03f,+5.12416214e-02f,
-1.05750114e-01f,-4.19506337e-03f,+1.07411250e-01f,+1.58597335e-01f,+7.76824206e-02f,
-5.77952862e-02f,+1.34187385e-01f,+1.09830730e-01f,-9.88136828e-02f,+1.11539818e-01f,
+5.19895367e-02f,+6.03656434e-02f,-1.20319687e-01f,-1.14962459e-04f,-1.04307383e-01f,
+9.12501141e-02f,+1.69345334e-01f,+1.37784347e-01f,+9.61063951e-02f,+1.11592457e-01f,
+1.05441868e-01f,-1.04513384e-01f,-3.62751372e-02f,-8.31683651e-02f,+1.84484087e-02f,
-1.02773391e-01f,-1.14181258e-01f,-1.61707595e-01f,-1.27696514e-01f,-5.33686159e-03f,
-1.94417581e-01f,+1.52102470e-01f,+3.14023085e-02f,+1.78310722e-01f,+5.73710091e-02f,
-5.88189997e-02f,+1.69869125e-01f,+5.03694871e-03f,+1.13127664e-01f,+6.57077953e-02f,
-1.43255368e-01f,-6.28489852e-02f,-1.07495531e-01f,+1.79898158e-01f,+3.35932523e-02f,
-1.44009650e-01f,-5.10448702e-02f,-9.38324034e-02f,+3.20346579e-02f,-4.52242196e-02f,
+1.11660838e-01f,+5.77029325e-02f,+1.73461452e-01f,-1.71920378e-02f,-6.98910877e-02f,
+2.09203996e-02f,-1.03988782e-01f,-1.51050948e-02f,+2.16954257e-02f,+1.54833272e-01f,
+2.97617726e-02f,+1.18308524e-02f,+1.32413551e-01f,-1.57296315e-01f,-1.29170507e-01f,
+6.94833547e-02f,+7.56633431e-02f,+5.38453311e-02f,-1.54732674e-01f,-2.56999582e-02f,
-7.18746483e-02f,-5.29934578e-02f,+7.39665031e-02f,-1.25972731e-02f,+1.18347071e-01f,
-5.29485084e-02f,-1.54058084e-01f,+6.28523976e-02f,-1.64832771e-01f,+1.53522240e-02f,
+1.48445159e-01f,+2.06582807e-02f,+4.94470969e-02f,-9.19370353e-03f,-1.03979491e-01f,
+3.89014632e-02f,+1.58539116e-02f,-5.92371747e-02f,+2.60369945e-03f,+1.59276247e-01f,
-4.44648974e-03f,-2.03883067e-01f,-3.18064750e-03f,-2.19125137e-01f,-1.30961716e-01f,
-7.41144493e-02f,+9.86938998e-02f,+1.74607113e-01f,+1.33526340e-01f,+1.01413026e-01f,
+1.89127117e-01f,+6.02929108e-03f,+1.14295864e-04f,+1.77634254e-01f,+9.59376618e-02f,
+1.74547538e-01f,-1.63326234e-01f,+4.74791974e-02f,+1.29680499e-01f,+6.27992451e-02f,
+1.69132888e-01f,-6.66103736e-02f,-7.19082579e-02f,-1.59586206e-01f,-4.75230850e-02f,
-1.89447217e-02f,+4.67019863e-02f,+1.57230228e-01f,+3.31436992e-02f,+9.69783813e-02f,
+8.09342042e-02f,+1.77358791e-01f,+4.72805724e-02f,+1.17569938e-01f,+1.84322208e-01f,
+6.71913698e-02f,-8.45082402e-02f,-4.83457781e-02f,+1.48529764e-02f,+1.03585403e-02f,
-3.58025581e-02f,+6.43451512e-02f,-1.80798590e-01f,+1.60502687e-01f,-8.01025629e-02f,
-7.25228339e-02f,+1.81022972e-01f,-1.13734148e-01f,+1.09886453e-01f,+6.46162778e-02f,
+4.50693741e-02f,-2.52737105e-02f,+3.79123688e-02f,+1.71284884e-01f,-1.19504631e-01f,
-3.29644121e-02f,-7.09747747e-02f,-1.84882566e-01f,+2.26678848e-01f,-1.01128578e-01f,
-2.04779670e-01f,-6.72704577e-02f,-1.84086025e-01f,-1.05108589e-01f,-1.49966404e-01f,
+1.73412248e-01f,+1.56356186e-01f,-1.54029027e-01f,+1.42391756e-01f,-1.66663811e-01f,
+6.52030623e-03f,-1.37110204e-01f,-1.52723461e-01f,-1.18777774e-01f,-1.79713368e-02f,
-2.14300603e-01f,-9.45335254e-02f,+5.73444460e-03f,-1.88617203e-02f,+9.32657439e-03f,
+4.76024933e-02f,-1.06449388e-01f,+3.60992067e-02f,-5.09887151e-02f,-1.50816500e-01f,
-2.00739965e-01f,+1.72560647e-01f,-2.91212797e-02f,-1.75742403e-01f,+8.45091492e-02f,
-2.31731147e-01f,+1.82273299e-01f,+1.16477743e-01f,-1.83606874e-02f,-7.61039853e-02f,
-1.52796954e-01f,-1.77601784e-01f,+7.07292110e-02f,-1.28130578e-02f,-1.80655926e-01f,
-1.12567795e-04f,-1.60479829e-01f,+2.30094880e-01f,-6.90768287e-02f,+1.76783204e-01f,
-1.76148430e-01f,-7.14926645e-02f,+9.62215513e-02f,+5.59703400e-03f,-2.14020327e-01f,
+7.08151162e-02f,+8.10847506e-02f,-3.82395461e-02f,-5.51990941e-02f,-2.12009445e-01f,
-1.23767883e-01f,+1.51776955e-01f,-6.46789446e-02f,-2.97886208e-02f,+3.82348336e-02f,
+1.13027617e-01f,-1.42339498e-01f,-1.10813290e-01f,-1.61821857e-01f,-1.62749916e-01f,
-9.52944718e-03f,-1.78552404e-01f,+1.86610594e-01f,+9.37755480e-02f,-3.06062307e-02f,
-2.08552871e-02f,-1.02311343e-01f,+1.30537704e-01f,-8.63271672e-03f,-1.59088045e-01f,
-1.70947626e-01f,-4.84934300e-02f,+5.34155071e-02f,-8.09784606e-02f,-1.07140869e-01f,
+2.35105734e-02f,-7.48511553e-02f,-6.05147742e-02f,-9.17982608e-02f,+1.03301816e-01f,
-9.95456576e-02f,+4.78016436e-02f,-1.76655740e-01f,-1.92711875e-01f,+5.19199520e-02f,
+2.11255848e-01f,+1.07553557e-01f,+5.32051362e-02f,+1.34040579e-01f,-3.97549570e-02f,
+1.31280527e-01f,-1.39474124e-02f,-1.14051253e-01f,-6.85457885e-02f,-1.54143259e-01f,
-3.86578888e-02f,+1.33765295e-01f,+3.67603265e-02f,-3.41364294e-02f,-9.54669639e-02f,
-1.57478005e-02f,-1.54182494e-01f,-1.06385350e-03f,+7.00051934e-02f,-3.56877455e-03f,
-1.53636739e-01f,+2.24362016e-02f,-3.12697552e-02f,-1.28986046e-01f,+6.26965314e-02f,
+2.06243262e-01f,-9.89272520e-02f,+9.02342573e-02f,-6.35542274e-02f,-1.73468590e-01f,
+3.24303955e-02f,+5.96237881e-03f,-2.09529735e-02f,+1.39163524e-01f,+2.04347566e-01f,
-1.35698378e-01f,+1.07147828e-01f,-4.51803952e-02f,-4.92347591e-02f,-6.76515400e-02f,
-1.20545298e-01f,+1.62897512e-01f,+1.84546828e-01f,-3.81565206e-02f,+1.73998341e-01f,
+8.81474912e-02f,+1.01650529e-01f,+4.41021100e-02f,-5.23374155e-02f,-6.50587752e-02f,
-5.99971451e-02f,+1.12856003e-02f,+9.82698724e-02f,-7.56614283e-02f,+1.61318049e-01f,
+4.67445888e-02f,-1.61041945e-01f,+1.40397578e-01f,-1.11751318e-01f,-1.64546639e-01f,
+1.10480435e-01f,-4.78501506e-02f,-1.63812697e-01f,-1.39718741e-01f,+1.57481451e-02f,
+1.87408924e-02f,+4.54143211e-02f,-3.31853107e-02f,-1.25498235e-01f,+1.45127192e-01f,
+1.77855924e-01f,-1.16648920e-01f,-1.64157175e-03f,+1.63671985e-01f,-4.61558737e-02f,
+1.89295456e-01f,+8.48293379e-02f,+1.98153496e-01f,-1.28692985e-01f,-8.09535310e-02f,
-5.10325357e-02f,-5.32816984e-02f,-1.61336750e-01f,+3.07836123e-02f,-1.47826314e-01f,
+1.50507465e-01f,-9.96713936e-02f,-1.23286247e-01f,-7.48273954e-02f,+8.11592340e-02f,
-2.01587882e-02f,+1.73477717e-02f,-1.12812765e-01f,+7.42544383e-02f,-2.48092450e-02f,
-6.62649274e-02f,-6.54842332e-03f,-3.22437985e-03f,-1.36904955e-01f,-1.45552278e-01f,
+9.93919000e-03f,-6.90254048e-02f,+3.00243665e-02f,-1.68822348e-01f,-1.88134640e-01f,
-9.56013352e-02f,+1.32001406e-02f,+1.47160321e-01f,+1.53023258e-01f,-1.79468561e-02f,
+1.58292189e-01f,+1.11980744e-01f,+1.18274540e-02f,+1.10061243e-01f,+3.52754667e-02f,
-1.47613004e-01f,-1.90279961e-01f,+2.91869324e-02f,-5.30407727e-02f,-5.85224032e-02f,
+1.34549320e-01f,+5.87807745e-02f,-1.42074808e-01f,+1.09799512e-01f,-1.35020301e-01f,
-3.45872380e-02f,-9.41966996e-02f,-1.42500535e-01f,-6.48007020e-02f,+6.00003749e-02f,
+9.73853990e-02f,-5.45113944e-02f,+1.55418947e-01f,-1.37637123e-01f,-6.41208440e-02f,
-6.90003633e-02f,-1.70238271e-01f,-9.72574353e-02f,+8.92571658e-02f,-1.04100704e-01f,
-5.58512732e-02f,-1.47289380e-01f,-1.30681247e-01f,-1.77740335e-01f,-9.50519368e-02f,
-1.34584725e-01f,+1.47971064e-01f,-1.71152771e-01f,+1.64658770e-01f,+1.30659357e-01f,
-6.75600991e-02f,+2.56484095e-02f,-3.09893023e-02f,-1.74066678e-01f,-1.70280978e-01f,
+1.39332414e-01f,-1.30149916e-01f,-6.29222095e-02f,+1.95076361e-01f,+1.58454672e-01f,
+1.56318188e-01f,+8.79298076e-02f,-6.26025945e-02f,-1.01440862e-01f,-9.82264578e-02f,
-5.81954196e-02f,-9.49303135e-02f,-4.92032319e-02f,-4.77344356e-02f,-5.32485470e-02f,
+1.42255174e-02f,-1.67690292e-02f,-4.52806801e-02f,-1.15820237e-01f,+1.33566186e-01f,
-1.82004035e-01f,+6.37843460e-02f,-1.57413125e-01f,+1.92582265e-01f,+1.41702473e-01f,
-6.44007251e-02f,+1.93786502e-01f,-1.98917612e-02f,+1.23407535e-01f,-4.59196903e-02f,
-5.95136359e-02f,+1.07076176e-01f,+3.92262358e-03f,+1.15958080e-01f,-1.15700707e-01f,
-4.74596359e-02f,+1.21281832e-01f,-1.32896036e-01f,-8.63643587e-02f,+1.37512490e-01f,
-3.73644233e-02f,-1.79090053e-01f,-5.12245409e-02f,-2.50503868e-02f,+1.03913419e-01f,
-2.03792140e-01f,-6.45901561e-02f,-8.23825896e-02f,+1.82076260e-01f,-2.28705049e-01f,
+1.88358903e-01f,+2.18490837e-04f,+1.34526253e-01f,-2.21090347e-01f,-1.86719537e-01f,
-1.13525458e-01f,-1.56975284e-01f,-4.16127741e-02f,-1.76822558e-01f,-1.31913826e-01f,
-6.73700422e-02f,+5.61832450e-02f,+7.04103336e-03f,-3.92752439e-02f,+9.95364115e-02f,
-1.13130659e-01f,+1.49144515e-01f,+6.02371469e-02f,+2.00798418e-02f,+6.77819401e-02f,
+8.68863016e-02f,+1.69939071e-01f,+6.41433746e-02f,-5.50297797e-02f,+4.34059277e-02f,
-1.03782505e-01f,+5.87594174e-02f,+1.30401582e-01f,+1.04623191e-01f,-1.34166434e-01f,
+6.02242015e-02f,+1.34557053e-01f,-6.53394982e-02f,+5.18457219e-02f,+2.07048729e-02f,
+7.67093897e-02f,-1.28893629e-01f,+2.26595670e-01f,+1.12716690e-01f,-2.18720943e-01f,
+8.82771909e-02f,-2.07919896e-01f,+2.04797462e-01f,+1.40941516e-01f,-1.25398010e-01f,
-1.49752960e-01f,+1.93635821e-01f,-2.51725256e-01f,-2.07024533e-02f,+3.07160858e-02f,
+2.21552420e-02f,-7.17831729e-03f,+1.39994219e-01f,+8.81247520e-02f,-1.87446788e-01f,
-5.72455525e-02f,-2.15714470e-01f,-1.72602490e-01f,-4.32645865e-02f,-1.01793632e-01f,
+9.06745940e-02f,+2.11098865e-01f,-1.05110176e-01f,+5.98180369e-02f,-1.34919643e-01f,
-1.99676901e-01f,+9.33646634e-02f,+4.94654551e-02f,-8.31295103e-02f,-1.52671799e-01f,
+4.21965607e-02f,+3.59269381e-02f,+1.32459953e-01f,-7.38611221e-02f,+6.26844168e-02f,
+1.78426996e-01f,-1.01346560e-01f,+6.06379472e-02f,+1.73740298e-01f,+9.11930576e-02f,
+9.79602337e-05f,-7.44783804e-02f,+9.88134369e-03f,-5.92575818e-02f,+8.15467164e-02f,
-4.04869281e-02f,+1.61558136e-01f,-1.28516093e-01f,+4.17284295e-02f,-6.33278862e-02f,
+1.49243255e-03f,-1.44438028e-01f,+2.14373529e-01f,-3.78222838e-02f,+5.42727783e-02f,
+2.41286084e-01f,+5.03868572e-02f,-5.46171032e-02f,+7.46524427e-03f,+2.08563462e-01f,
+1.27987787e-01f,+2.36891508e-01f,-8.92728046e-02f,-1.63714558e-01f,-1.04666196e-01f,
-5.11552207e-02f,+8.62631947e-03f,+1.16153404e-01f,-1.84391856e-01f,+2.17521578e-01f,
+8.48486051e-02f,+5.39671481e-02f,+1.79956052e-02f,+1.57856002e-01f,-1.13622390e-01f,
+1.00040928e-01f,+1.79783657e-01f,+4.28343602e-02f,-1.87843218e-01f,-1.32835045e-01f,
+6.40026480e-02f,+1.13679752e-01f,+6.08733781e-02f,-1.56834230e-01f,-1.05835751e-01f,
+1.96173713e-01f,+9.59134549e-02f,-1.99639630e-02f,+1.92443714e-01f,+1.79050028e-01f,
-1.70041665e-01f,-1.93131957e-02f,-8.37563500e-02f,-1.37938425e-01f,+1.94329005e-02f,
+4.96100038e-02f,-4.70277220e-02f,+5.75958826e-02f,-1.29084870e-01f,+2.46779583e-02f,
-2.28270054e-01f,-1.39363304e-01f,-1.31897852e-01f,-1.02758326e-01f,+1.10045210e-01f,
-1.11128218e-01f,+1.77833319e-01f,-1.42291591e-01f,+1.63801357e-01f,+2.22924694e-01f,
-7.00448453e-03f,-1.23409800e-01f,+9.97653231e-02f,+1.53847590e-01f,+5.11377715e-02f,
-1.42799258e-01f,+5.69237620e-02f,+1.97290719e-01f,+6.70696348e-02f,+1.44453406e-01f,
+1.61019906e-01f,+2.25728769e-02f,-1.72098428e-01f,+1.12862997e-01f,+1.20595075e-01f,
-3.37430201e-02f,+1.97044671e-01f,-5.71065433e-02f,-8.47265348e-02f,+5.88014722e-03f,
+1.66496828e-01f,-1.58574507e-01f,-7.72906691e-02f,+7.17547759e-02f,+8.95748567e-03f,
-1.33629248e-01f,+1.13910668e-01f,-8.43070149e-02f,+1.00054935e-01f,+1.97403021e-02f,
-5.94493598e-02f,-4.06410806e-02f,-9.33197290e-02f,-1.42473709e-02f,+1.58356667e-01f,
-8.98197964e-02f,+9.89109799e-02f,+8.05440545e-02f,+2.26384085e-02f,-1.63117051e-02f,
+1.91137627e-01f,-8.67160559e-02f,+1.61787271e-01f,+5.85920773e-02f,+5.05592227e-02f,
+5.72434850e-02f,-6.09517135e-02f,+9.09703821e-02f,-9.02207047e-02f,+1.75839022e-01f,
-1.91172063e-02f,+8.61567408e-02f,+1.05351098e-01f,-1.15343995e-01f,-1.47001654e-01f,
+2.34586168e-02f,+5.66239320e-02f,+2.73400303e-02f,+9.47666913e-02f,-1.59730002e-01f,
-1.71089828e-01f,-1.39478073e-01f,-7.44021684e-02f,-1.16479300e-01f,-4.18848842e-02f,
+5.44311963e-02f,+4.92984094e-02f,-1.55336559e-02f,-9.29378420e-02f,-9.69099402e-02f,
+7.16233850e-02f,+3.78443263e-02f,+1.42459329e-02f,+4.00718972e-02f,-8.25300962e-02f,
+1.40400663e-01f,+1.77653193e-01f,-5.64344190e-02f,-1.49515778e-01f,-7.15493485e-02f,
+8.75070468e-02f,+1.01936646e-01f,-5.41703776e-02f,-1.19087428e-01f,-6.10231906e-02f,
-1.28760219e-01f,+9.53197181e-02f,+1.64674774e-01f,+4.22060117e-02f,+1.37162641e-01f,
-1.68810725e-01f,+6.53183684e-02f,+5.66571429e-02f,-1.30765617e-01f,+1.63553074e-01f,
-9.01436135e-02f,-1.72343865e-01f,-1.24858029e-01f,+7.15171620e-02f,+1.36106983e-01f,
+2.15958804e-02f,+5.60959131e-02f,+9.73716751e-02f,-1.40237555e-01f,+1.86752841e-01f,
-1.58616751e-01f,+1.55826643e-01f,+7.20917135e-02f,-1.97439510e-02f,-1.32366475e-02f,
-6.73597306e-03f,+1.87174901e-01f,+1.01563027e-02f,-9.70328748e-02f,-4.05962765e-03f,
-8.28350559e-02f,+1.10010924e-02f,+1.84652239e-01f,-8.83699358e-02f,-5.62104583e-03f,
+2.90385354e-02f,-1.56791165e-01f,+7.57801682e-02f,-1.24644071e-01f,+1.76144168e-02f,
+1.55337885e-01f,-7.43868649e-02f,+1.12314664e-01f,+1.30366012e-01f,-2.20850721e-01f,
+1.39355481e-01f,+1.14936844e-01f,+1.85911972e-02f,+3.95861492e-02f,-1.01556025e-01f,
+2.16469578e-02f,-1.41724557e-01f,-3.86632457e-02f,+1.19862288e-01f,-9.96971205e-02f,
-1.39215454e-01f,+3.51168811e-02f,+1.55062363e-01f,+1.70829698e-01f,+1.75850585e-01f,
+4.05891016e-02f,+1.43602386e-01f,-1.40741810e-01f,+7.05790222e-02f,+1.98691338e-02f,
+1.01040289e-01f,-6.35482967e-02f,+1.39865413e-01f,-4.00611497e-02f,-1.13373632e-02f,
+8.81152526e-02f,+8.61810446e-02f,+9.62696224e-02f,-1.29431650e-01f,+4.10170443e-02f,
+7.51479864e-02f,-5.39195426e-02f,-3.20749953e-02f,-6.94027692e-02f,-8.50879848e-02f,
+8.53706822e-02f,-9.44762751e-02f,+1.90863386e-01f,-1.40489936e-01f,+1.23762367e-02f,
+7.01221973e-02f,+6.16256818e-02f,-1.31535068e-01f,+1.20726258e-01f,-1.66698650e-01f,
-8.80607963e-02f,+1.84233367e-01f,+1.49548694e-01f,+9.62784141e-02f,-9.48942751e-02f,
+1.60438299e-01f,+1.62308306e-01f,-1.04672417e-01f,-1.44482583e-01f,+1.05812497e-01f,
+6.08021729e-02f,-1.53080523e-01f,-2.47960716e-01f,-6.18304200e-02f,+1.41448125e-01f,
-1.02068864e-01f,+2.48316787e-02f,+2.06363350e-02f,-7.82793686e-02f,+5.32603525e-02f,
-5.81249036e-02f,-1.17876254e-01f,+9.99573320e-02f,-7.12910891e-02f,-8.09837505e-02f,
+1.11338630e-01f,-1.30470127e-01f,+8.45697895e-02f,-1.29730955e-01f,+8.07471573e-03f,
+4.99983318e-02f,+1.54837057e-01f,+8.32518190e-02f,-5.67166954e-02f,+6.52724057e-02f,
-4.40610088e-02f,+1.38217196e-01f,+1.08855218e-01f,+1.86004173e-02f,-8.32436979e-03f,
+1.44096926e-01f,-7.27005452e-02f,+1.55420214e-01f,+3.22565734e-02f,-1.05539642e-01f,
+1.46622539e-01f,+1.79729015e-01f,-1.58404171e-01f,+1.22626573e-01f,-7.43193328e-02f,
+6.45361142e-03f,+6.49447218e-02f,+4.57737297e-02f,+3.38649228e-02f,+1.89876016e-02f,
-2.08529662e-02f,-1.35372594e-01f,+5.00432700e-02f,-1.14905678e-01f,-1.40092988e-02f,
+3.84687893e-02f,+1.07981935e-01f,-7.20385313e-02f,-4.46606614e-02f,-9.48929265e-02f,
+1.55013964e-01f,-1.87626779e-01f,-4.43661511e-02f,-1.35760561e-01f,-1.37363374e-01f,
+3.27189416e-02f,+1.62016153e-02f,-1.72706589e-01f,+1.20325133e-01f,-9.77735594e-03f,
+2.46033370e-02f,-1.49442360e-01f,-8.12060237e-02f,-1.22016370e-01f,+1.18834905e-01f,
-1.63999721e-01f,-1.86866164e-01f,-1.99741237e-02f,+4.38832119e-02f,-1.77076682e-01f,
-5.55700213e-02f,-1.55048579e-01f,-1.33731619e-01f,-1.16396159e-01f,-4.14066054e-02f,
+8.35919008e-02f,+2.34397762e-02f,+9.94348004e-02f,+8.73756856e-02f,-8.28729104e-03f,
-1.64197534e-02f,+1.11888729e-01f,-1.10485211e-01f,+1.24764055e-01f,+6.37497902e-02f,
+1.02931291e-01f,+1.54645562e-01f,+1.28287645e-02f,+6.05177954e-02f,+1.13866188e-01f,
+5.36906309e-02f,+9.54941213e-02f,+1.45138443e-01f,+1.73619837e-01f,-2.99452012e-03f,
-1.05060473e-01f,+9.66695100e-02f,+2.19443440e-02f,-8.95639211e-02f,+3.87760177e-02f,
+4.73295413e-02f,+1.15653917e-01f,-1.48365900e-01f,+1.69502333e-01f,-3.61671746e-02f,
+1.58314109e-01f,+1.55229881e-01f,+1.06180131e-01f,-1.75836608e-01f,+1.60000082e-02f,
-4.03990597e-02f,-1.19991954e-02f,-7.75097907e-02f,-4.38306481e-02f,-1.99127067e-02f,
-1.12564452e-01f,-9.70619246e-02f,-1.27729431e-01f,+6.46076873e-02f,-1.93542421e-01f,
+1.22292995e-01f,+4.57213772e-03f,+5.69456862e-03f,-1.31105781e-01f,+1.38171420e-01f,
-5.90588078e-02f,+1.95810810e-01f,-1.74454153e-01f,-6.03645928e-02f,-1.71313688e-01f,
-5.66338301e-02f,+1.63710341e-01f,+5.04440293e-02f,-1.13742694e-01f,+7.66100883e-02f,
+9.98710543e-02f,-9.03398097e-02f,+7.06154481e-02f,-5.23757413e-02f,-5.62860146e-02f,
+1.06991388e-01f,+1.02570876e-01f,+2.22617760e-02f,-1.60044283e-01f,+1.50748678e-02f,
-1.74134403e-01f,-1.84435666e-01f,-1.29589170e-01f,-1.93655062e-02f,-3.45585309e-02f,
-1.14847469e-04f,-6.63390458e-02f,+2.46291980e-01f,+1.17257703e-02f,+6.15547113e-02f,
+7.33984262e-02f,-2.67821699e-02f,+1.14958428e-01f,+6.39161244e-02f,-8.93845111e-02f,
+8.94979686e-02f,-1.81310251e-02f,+3.07673868e-03f,-9.51165780e-02f,+6.01519831e-02f,
-8.19661766e-02f,-2.61091776e-02f,+2.27850407e-01f,-7.52296150e-02f,+1.54731646e-01f,
+1.44917205e-01f,+1.33917972e-01f,-1.85948417e-01f,-1.43950641e-01f,+1.53592363e-01f,
-3.24127190e-02f,-2.01840624e-01f,+9.85946506e-02f,+1.12279072e-01f,-4.80152667e-02f,
+9.58720893e-02f,-5.75017147e-02f,+1.45136893e-01f,+8.83398607e-05f,+5.05082831e-02f,
+1.44716218e-01f,+1.09866500e-01f,+1.67573124e-01f,+7.63742477e-02f,+1.89101636e-01f,
-2.23735929e-01f,-1.33011326e-01f,+5.50983213e-02f,-1.71593890e-01f,-1.40996709e-01f,
+2.16096386e-01f,-5.32930810e-03f,-1.51077583e-01f,+9.30333883e-02f,-3.19759846e-02f,
-1.44305289e-01f,-7.32722804e-02f,+1.98525548e-01f,-1.73356965e-01f,+1.33242130e-01f,
+1.05535135e-01f,+1.01331502e-01f,-2.10312262e-01f,+3.20808552e-02f,+1.13584749e-01f,
+1.35899052e-01f,+1.99312624e-02f,-1.32649571e-01f,-1.43667802e-01f,-4.15148288e-02f,
-1.55823946e-01f,+1.05392458e-02f,-1.60730034e-01f,+1.20261163e-01f,-1.38748825e-01f,
+8.50359499e-02f,-1.46154851e-01f,+6.54857978e-02f,-1.30887954e-02f,+1.89521685e-01f,
-1.34396091e-01f,+1.52101681e-01f,-1.48687243e-01f,-9.16398913e-02f,+4.42438871e-02f,
-1.43549323e-01f,-7.52309561e-02f,+1.32234648e-01f,+1.13833085e-01f,-1.38036981e-01f,
-1.35604337e-01f,-7.28732049e-02f,-4.74632122e-02f,-4.31912132e-02f,+1.80224106e-02f,
-1.72819406e-01f,+5.17161861e-02f,+2.25770008e-02f,-1.35953158e-01f,-1.85786784e-01f,
+2.31872275e-01f,-5.34900874e-02f,-1.36914864e-01f,-8.72855484e-02f,-3.88003998e-02f,
+1.10618072e-02f,-5.42791449e-02f,-3.63275409e-04f,+1.76528707e-01f,+9.36779156e-02f,
+1.47756666e-01f,+7.00872019e-02f,-1.09080058e-02f,-7.32275844e-03f,-5.26971780e-02f,
+1.85975194e-01f,-1.34727746e-01f,-1.85911924e-01f,+1.67808652e-01f,+1.36089817e-01f,
-7.89611638e-02f,-5.74760558e-03f,-1.67647675e-01f,+6.85412483e-03f,-1.16234995e-01f,
+1.23618208e-01f,+1.11817695e-01f,-1.38153704e-02f,+1.67492196e-01f,-1.01541258e-01f,
+1.45020470e-01f,+1.86974585e-01f,-2.16089915e-02f,+6.60955682e-02f,+7.19655231e-02f,
+1.05373628e-01f,-1.94527417e-01f,+1.42125741e-01f,-1.03130147e-01f,-3.29030231e-02f,
-8.38618949e-02f,+1.41708970e-01f,+2.94536892e-02f,+1.46782503e-01f,+1.12775555e-02f,
+4.77610528e-02f,+1.28577709e-01f,-3.24476361e-02f,+1.40597686e-01f,+2.74993684e-02f,
-1.30876839e-01f,-7.38388449e-02f,-3.85111198e-02f,+7.16175586e-02f,+1.42357768e-02f,
-1.75275862e-01f,-4.54382300e-02f,+1.34255663e-01f,-8.50375965e-02f,-1.07032834e-02f,
+4.80172522e-02f,+1.35722801e-01f,-1.49262309e-01f,-1.82458222e-01f,-8.46173987e-02f,
+1.16440549e-01f,-1.28059655e-01f,-1.58331752e-01f,-9.95379612e-02f,-1.05406938e-03f,
-1.48365777e-02f,-1.14798859e-01f,-1.24643229e-01f,-8.85918364e-03f,+6.53891265e-02f,
+3.51563729e-02f,-9.40183923e-02f,+1.62860557e-01f,+3.45415771e-02f,+1.20789602e-01f,
-6.77577173e-03f,-6.89301593e-03f,+1.38563901e-01f,+1.70209736e-01f,-9.51552391e-02f,
-2.36726448e-01f,+1.10119589e-01f,-5.04671223e-02f,+1.43939808e-01f,+1.46667227e-01f,
+1.80447176e-01f,+2.03597602e-02f,-1.35207087e-01f,+1.87272370e-01f,-7.47518912e-02f,
-5.11486977e-02f,-1.72613576e-01f,-1.53966576e-01f,+6.16875663e-02f,-1.87433407e-01f,
+1.57448858e-01f,-9.81820226e-02f,-5.27867004e-02f,+1.28188729e-01f,+1.72331497e-01f,
+8.40733796e-02f,+1.60520330e-01f,+1.23596683e-01f,-1.57374844e-01f,+2.43158229e-02f,
+1.81586847e-01f,-1.65715262e-01f,-1.11248530e-01f,+1.83135420e-01f,-1.57935619e-01f,
+1.99900255e-01f,-3.34804766e-02f,+3.10022682e-02f,+1.06745519e-01f,+1.81931540e-01f,
-1.48638770e-01f,-8.43977854e-02f,-1.75524801e-01f,+1.91302344e-01f,+1.23888217e-01f,
-1.24636024e-01f,+1.35227427e-01f,-2.54764110e-02f,+2.35285219e-02f,-1.08958557e-01f,
+1.40998021e-01f,+1.15204202e-02f,+2.47982666e-02f,+1.72449619e-01f,-1.64561316e-01f,
+9.43820029e-02f,+9.71897244e-02f,+2.34154657e-01f,+6.86127394e-02f,+1.85433894e-01f,
+8.03680047e-02f,+1.13006786e-01f,-1.70467585e-01f,-7.69020244e-02f,-6.87121972e-02f,
-3.94369513e-02f,-9.11463499e-02f,-4.76626642e-02f,+1.63980797e-01f,+1.56150341e-01f,
+1.84006081e-03f,-4.44538193e-03f,-2.39458531e-02f,+3.06309983e-02f,+1.21761337e-01f,
+2.76202112e-02f,+1.11840241e-01f,+3.75295617e-02f,-1.40987664e-01f,-3.20341848e-02f,
+1.30645975e-01f,-1.05772942e-01f,-1.82440072e-01f,-8.59155953e-02f,+1.43461451e-01f,
-9.44325477e-02f,-3.00282594e-02f,+3.22759524e-02f,-1.28552720e-01f,+1.43184856e-01f,
+3.88087220e-02f,+2.98077911e-02f,-1.78697363e-01f,+1.61413401e-02f,+1.36344824e-02f,
+4.34801318e-02f,-1.05912983e-03f,-1.72941983e-01f,-1.95498075e-02f,+7.87896514e-02f,
-1.41951039e-01f,+5.56945801e-03f,+2.04106774e-02f,-1.85005888e-01f,-1.59461543e-01f,
+1.75617561e-01f,+2.13212207e-01f,+3.85223776e-02f,-1.50100350e-01f,+1.43321142e-01f,
-2.44264305e-03f,-5.56515753e-02f,-1.17149629e-01f,+1.51719421e-01f,+1.19451284e-01f,
+1.67770803e-01f,+2.19754912e-02f,-3.04326247e-02f,+1.36364382e-02f,-1.33190244e-01f,
+1.63138341e-02f,-9.06058699e-02f,+2.30268016e-02f,-5.33489622e-02f,+1.56025320e-01f,
-1.74852967e-01f,+9.70818251e-02f,-1.65463135e-01f,-2.86677238e-02f,+1.02832787e-01f,
-1.71279192e-01f,+1.89091653e-01f,-4.31251749e-02f,-9.23599452e-02f,+3.70285213e-02f,
+1.47121161e-01f,+1.01499863e-01f,+1.27506763e-01f,+5.11758402e-02f,+1.76871210e-01f,
-5.92105091e-02f,-5.26275896e-02f,-1.39018476e-01f,-1.88803375e-02f,-1.41068106e-03f,
-1.64931521e-01f,-1.27847016e-01f,-1.83779374e-02f,-6.58726320e-02f,-1.64897725e-01f,
+1.61294162e-01f,+1.36245459e-01f,+6.93009719e-02f,+3.60139906e-02f,+5.02919033e-02f,
-1.77409232e-01f,+2.60738842e-02f,+5.61468229e-02f,+1.09880239e-01f,+1.76359281e-01f,
-7.93256238e-02f,+6.46524206e-02f,-1.23569211e-02f,+2.40586493e-02f,+1.50513276e-01f,
+1.35311112e-01f,-4.86594625e-02f,-1.04948776e-02f,-8.72872993e-02f,-1.61536291e-01f,
-2.63595060e-02f,+1.49297416e-01f,+1.34951144e-01f,-1.10108936e-02f,-1.47298321e-01f,
+1.75370470e-01f,+1.72298457e-02f,+1.58173755e-01f,-3.85183990e-02f,-1.80832762e-03f,
-1.40121341e-01f,+1.33914053e-01f,-1.09261997e-01f,+1.22402534e-01f,-4.83433567e-02f,
+5.22450265e-03f,+1.43182635e-01f,+1.59712330e-01f,+1.11562259e-01f,+6.46122545e-02f,
+9.99937486e-03f,+1.26181506e-02f,+7.60120451e-02f,-1.32737100e-01f,-7.12790266e-02f,
-2.80393986e-03f,+1.31387487e-01f,-3.02240066e-02f,+1.63891867e-01f,-1.58038467e-01f,
+1.11526430e-01f,-2.66791675e-02f,+1.97644070e-01f,+5.51365614e-02f,+1.52872086e-01f,
+6.83499202e-02f,+2.39458680e-02f,-1.89271867e-01f,+1.82729706e-01f,-1.77304596e-01f,
-8.86255428e-02f,-1.20454961e-02f,+1.78824708e-01f,+1.63917929e-01f,-6.82764500e-02f,
-6.38421774e-02f,-1.46764144e-01f,+1.02316372e-01f,-9.08454806e-02f,-1.57777488e-01f,
-5.26603647e-02f,-1.30766153e-01f,+1.17170423e-01f,-1.34280413e-01f,+2.31539905e-02f,
-1.17697179e-01f,+1.41399845e-01f,+8.57204646e-02f,+1.16211012e-01f,-7.10970089e-02f,
+1.93811074e-01f,-2.57348251e-02f,+1.53971583e-01f,+1.24336280e-01f,-4.28012758e-03f,
+8.73640701e-02f,-1.68533891e-01f,-1.15313604e-01f,+1.10342503e-02f,-6.60742968e-02f,
-9.33248550e-02f,-4.57225554e-02f,-9.60198194e-02f,+6.61419779e-02f,-4.61915620e-02f,
-1.92911536e-01f,-1.55723467e-01f,-6.74706548e-02f,+9.40154642e-02f,-8.89959410e-02f,
+1.56060070e-01f,+6.58191144e-02f,+9.07944515e-02f,+6.26531988e-02f,+8.20526779e-02f,
-1.23703711e-01f,+1.48417041e-01f,-1.15280025e-01f,-8.21997374e-02f,+4.70256731e-02f,
-1.98339954e-01f,-1.76317841e-01f,+9.27963294e-03f,+1.63674742e-01f,+1.34961024e-01f,
-5.70469014e-02f,+1.68518484e-01f,-9.04077515e-02f,+1.52364582e-01f,-1.42183661e-01f,
-7.66550899e-02f,+3.00277397e-02f,-7.90946633e-02f,+1.51070043e-01f,-3.47978398e-02f,
+2.98571549e-02f,-2.12411657e-02f,-1.26900598e-02f,+1.70817912e-01f,+8.06062110e-03f,
+6.61839396e-02f,-9.19554830e-02f,-1.31334692e-01f,-1.21833630e-01f,-1.43577248e-01f,
+4.97782305e-02f,-4.99930233e-02f,-3.83939520e-02f,+1.59398004e-01f,-5.62694706e-02f,
+1.44333273e-01f,-9.74639431e-02f,-1.51501417e-01f,-1.52713656e-02f,-1.73222736e-01f,
-5.93180507e-02f,+1.71008855e-01f,+2.30393372e-02f,-1.47182673e-01f,+1.84963688e-01f,
-3.64428051e-02f,+9.28758979e-02f,-8.04467276e-02f,-1.33117244e-01f,-9.35811698e-02f,
+6.14775345e-03f,+1.53346539e-01f,+6.65149465e-03f,-9.84340459e-02f,+1.76622301e-01f,
-2.47474238e-02f,+1.32948950e-01f,+1.36868224e-01f,-1.89971164e-01f,-9.01251659e-02f,
+5.50353564e-02f,-1.24208100e-01f,-4.04640287e-02f,-6.72815740e-02f,+4.84741479e-02f,
-1.67266726e-01f,-4.23376709e-02f,+8.88938010e-02f,-9.94627774e-02f,+2.16935165e-02f,
-1.54939890e-02f,+1.20417383e-02f,+1.01102993e-01f,-7.94360340e-02f,+1.29289910e-01f,
-8.59724358e-02f,-9.96136516e-02f,+1.42037138e-01f,-1.70421511e-01f,-1.47778377e-01f,
-4.54500131e-02f,+1.39057532e-01f,-8.46688375e-02f,-6.85039237e-02f,+2.06369191e-01f,
-1.27734944e-01f,+8.41428563e-02f,+1.17703445e-01f,+1.02581821e-01f,+6.87100589e-02f,
+8.46733227e-02f,-1.15107819e-01f,+1.41320005e-01f,-1.28852040e-01f,+7.74791613e-02f,
-1.69823825e-01f,+8.70727450e-02f,-1.83094203e-01f,-2.14848265e-01f,+3.53761725e-02f,
+5.67925312e-02f,+1.03080504e-01f,+1.77609071e-01f,+9.18421373e-02f,+1.00414857e-01f,
+1.72574759e-01f,-1.31422043e-01f,+9.14613977e-02f,-6.67069852e-02f,+7.34968260e-02f,
+1.31439805e-01f,-1.65214628e-01f,+4.14350182e-02f,-1.38913646e-01f,-2.28214008e-03f,
-1.86573341e-01f,+2.29921360e-02f,-8.19408670e-02f,-4.25666049e-02f,+1.77499488e-01f,
-1.31968409e-02f,+1.52043536e-01f,-1.32186025e-01f,+1.09906524e-01f,-1.01412609e-01f,
-9.77639481e-02f,+5.94406873e-02f,-1.32064268e-01f,-1.85263291e-01f,-1.40905648e-01f,
+1.24920912e-01f,-3.07873394e-02f,-1.57804251e-01f,+1.85526222e-01f,+4.41069305e-02f,
-1.51504949e-01f,+3.56954709e-02f,-1.45657375e-01f,+1.82226837e-01f,-1.05871782e-02f,
-1.79934740e-01f,+2.00731188e-01f,+4.08966839e-02f,+4.01047803e-03f,-4.17665020e-03f,
-3.47568691e-02f,+4.19899561e-02f,+1.49565831e-01f,-2.15948671e-01f,-8.33660811e-02f,
+1.89432353e-01f,-9.12423208e-02f,+1.49293900e-01f,+1.90759569e-01f,+1.18072048e-01f,
-1.31979018e-01f,-9.18818265e-02f,-7.21913809e-03f,+1.37920827e-02f,+1.19307347e-01f,
-1.71929151e-01f,+8.31738263e-02f,+1.05833504e-02f,-1.90199465e-01f,+1.62422761e-01f,
-9.75894835e-03f,+7.95035809e-02f,+1.29476134e-02f,+1.28800839e-01f,-1.27194956e-01f,
-2.49808412e-02f,-1.19219206e-01f,+1.27895132e-01f,-1.21514127e-01f,+1.04319223e-03f,
+1.37639865e-01f,+5.91060668e-02f,-1.42482892e-01f,+6.10426106e-02f,-6.48757294e-02f,
-1.54252291e-01f,-3.44779529e-02f,-1.78353876e-01f,+1.64343476e-01f,-9.34341550e-02f,
+4.03102040e-02f,+6.50228709e-02f,+1.29610404e-01f,-1.56457081e-01f,+7.62585923e-02f,
+1.16500303e-01f,-1.22714683e-01f,+1.19509220e-01f,+1.14316650e-01f,+3.92105132e-02f,
-9.95398238e-02f,+1.27823442e-01f,-8.63983184e-02f,-1.24361373e-01f,+3.69711071e-02f,
+7.39195570e-02f,+6.82714880e-02f,-7.56135732e-02f,+1.61490440e-01f,-8.68644640e-02f,
+5.18493578e-02f,+9.69289690e-02f,-1.37477428e-01f,-1.54410243e-01f,-1.82029933e-01f,
+1.66292787e-01f,+4.06832807e-02f,-4.03415598e-02f,+5.26015721e-02f,+2.06864681e-02f,
-2.05628246e-01f,+9.61392075e-02f,+1.42240226e-01f,+5.27657904e-02f,-1.93086006e-02f,
+4.61045355e-02f,-9.12405923e-02f,+1.09556340e-01f,+7.56416619e-02f,-8.23885202e-02f,
-6.05097562e-02f,+3.53925340e-02f,+2.13803677e-03f,+1.65944651e-01f,+2.14362994e-01f,
+4.49109226e-02f,+8.18108544e-02f,+5.57801835e-02f,+6.79936931e-02f,-1.29354700e-01f,
-1.18950494e-01f,+6.54253364e-02f,-1.00168176e-01f,-1.34996511e-02f,-1.49726123e-02f,
+6.19314760e-02f,-1.07824259e-01f,-8.34119692e-02f,-7.23876990e-03f,-1.51938170e-01f,
-4.40427512e-02f,+3.70205268e-02f,+5.55664077e-02f,+4.45050597e-02f,+8.01041126e-02f,
-7.64429644e-02f,-6.33790195e-02f,+1.67055465e-02f,+1.32632539e-01f,+1.90591261e-01f,
+8.99491757e-02f,+1.12443924e-01f,+2.69788727e-02f,+9.96937677e-02f,-9.11864862e-02f,
+5.50640747e-02f,-1.53520584e-01f,-1.10131204e-01f,+5.13061322e-02f,-7.50996992e-02f,
+6.08634390e-02f,+5.64511642e-02f,-1.76660181e-03f,-6.98964223e-02f,-3.78401089e-03f,
-4.33001593e-02f,-1.35689393e-01f,+5.77654876e-02f,-1.20511971e-01f,-6.96989223e-02f,
+1.04822688e-01f,-2.22640857e-01f,-1.30777676e-02f,+2.10645095e-01f,+1.57182872e-01f,
+2.04739556e-01f,-8.45965743e-02f,+1.35373116e-01f,-3.32413092e-02f,-3.50538194e-02f,
-2.00132579e-02f,+1.40638098e-01f,-6.47747237e-03f,-1.61549151e-02f,-1.13603607e-01f,
+1.85002819e-01f,-1.85218334e-01f,-6.52107149e-02f,-1.32468402e-01f,-1.42307296e-01f,
-1.61061019e-01f,-9.31159705e-02f,+6.95785284e-02f,-1.39429957e-01f,-1.85071707e-01f,
+2.17897728e-01f,+8.24393779e-02f,-2.81884219e-03f,+4.82088923e-02f,+1.29710242e-01f,
-8.62871646e-04f,-2.97966488e-02f,-7.87215233e-02f,-1.72611311e-01f,+8.96283658e-04f,
-1.66218609e-01f,-4.42315638e-02f,+1.01864934e-02f,+7.58172944e-02f,+1.06303833e-01f,
-1.69385165e-01f,+1.24453947e-01f,+2.68765800e-02f,+1.65055797e-01f,+1.30550489e-01f,
-1.37447193e-01f,+1.14836477e-01f,-9.60825384e-02f,+4.04563770e-02f,+1.32678390e-01f,
+1.08066045e-01f,-8.85378197e-02f,+2.93880831e-02f,+1.60786428e-03f,-1.99260227e-02f,
+4.68318723e-02f,+1.18977010e-01f,+9.31246672e-03f,+1.66124344e-01f,+5.48195653e-02f,
+1.88247323e-01f,+5.08066304e-02f,-3.90507467e-02f,-4.89433110e-02f,+3.30108553e-02f,
+1.89893603e-01f,+3.99554372e-02f,+1.03631072e-01f,+1.28466293e-01f,-1.33987926e-02f,
-1.02071337e-01f,-1.16644211e-01f,-5.40932417e-02f,-1.24589331e-01f,-7.01400265e-02f,
+1.92585990e-01f,-3.72845307e-02f,+1.28121167e-01f,-1.84234977e-02f,+8.90574306e-02f,
-7.58852884e-02f,+1.74383029e-01f,-1.53529093e-01f,+1.45312324e-01f,+1.82882145e-01f,
-7.61638302e-03f,-1.66390374e-01f,+4.19191606e-02f,+7.46411756e-02f,+9.29335132e-02f,
+6.04127571e-02f,+1.74529016e-01f,-1.55518278e-01f,-9.34344307e-02f,-1.20325983e-01f,
+3.52492742e-02f,+1.69940218e-01f,-1.63073093e-01f,+8.80079493e-02f,+9.99412537e-02f,
-1.29984111e-01f,+6.01438135e-02f,+7.06566945e-02f,-1.19825691e-01f,-1.00448422e-01f,
-1.28129154e-01f,+4.26994711e-02f,-1.09659716e-01f,-1.52625188e-01f,+8.17910302e-03f,
-5.11961356e-02f,-1.44635692e-01f,-1.25287756e-01f,+5.01301996e-02f,+5.34893163e-02f,
-7.85896555e-03f,-7.86052570e-02f,-1.63522698e-02f,-6.22406863e-02f,-3.55895758e-02f,
-7.43418792e-03f,+1.25988498e-01f,+1.25698090e-01f,+1.64203078e-01f,-1.57401204e-01f,
-9.22259018e-02f,-9.80448946e-02f,+1.51034892e-01f,+1.56453490e-01f,-1.30975619e-01f,
+2.06040427e-01f,+1.16068527e-01f,+7.44304806e-02f,+7.91156217e-02f,+2.25166939e-02f,
-1.86948851e-02f,-2.16828749e-01f,+1.01198122e-01f,+1.63873062e-01f,-1.93595648e-01f,
+1.18802316e-01f,-2.41915777e-01f,-3.09323668e-02f,+3.58747016e-03f,+4.93613370e-02f,
+9.11821499e-02f,+2.08832286e-02f,-1.64612889e-01f,-1.98585227e-01f,+1.78268895e-01f,
+1.12998575e-01f,-1.54214740e-01f,-6.84082434e-02f,+2.90271789e-02f,+4.72545922e-02f,
+5.88173531e-02f,-4.70614433e-03f,+1.63780764e-01f,-1.36321127e-01f,+1.42711289e-02f,
-6.03239760e-02f,-1.62415907e-01f,+8.54500458e-02f,+1.60901025e-01f,-1.36109963e-01f,
+1.62541047e-01f,-1.11267790e-01f,+2.34987028e-03f,+1.03769250e-01f,-1.38309449e-01f,
-1.46660402e-01f,+1.90895781e-01f,+8.10975209e-02f,-5.67212366e-02f,-4.89808060e-02f,
-2.45014444e-01f,-8.14900249e-02f,-7.19227493e-02f,-7.78323412e-02f,+4.43654740e-03f,
+2.68774182e-02f,+2.11443584e-02f,-1.12404555e-01f,-4.19747829e-02f,+1.71984941e-01f,
+4.91472855e-02f,+3.22232582e-02f,+7.30163977e-02f,+6.17234260e-02f,-2.52613071e-02f,
-7.96505138e-02f,+2.01562315e-01f,+1.58427417e-01f,+3.46781313e-02f,+7.33787194e-02f,
+1.69172049e-01f,+2.05640867e-02f,+2.91308928e-02f,-1.24043629e-01f,+1.62890688e-01f,
+1.18204998e-02f,+1.86034426e-01f,-3.11482809e-02f,+6.45922497e-02f,+2.94142719e-02f,
-8.03190749e-03f,-1.75596386e-01f,-1.08798016e-02f,-4.43204343e-02f,+1.93733379e-01f,
-5.83091006e-02f,-1.54043794e-01f,+3.62679511e-02f,-2.36928910e-02f,-1.11264758e-01f,
-2.41740756e-02f,-1.84957534e-01f,+6.98756520e-03f,+4.21902835e-02f,+1.27358645e-01f,
-2.47200876e-02f,+1.03700683e-01f,-2.22053483e-01f,-2.08972499e-01f,+1.77449554e-01f,
-1.44821152e-01f,-1.88616425e-01f,+4.71700802e-02f,+1.54321000e-01f,-1.53856993e-01f,
+3.27946171e-02f,-5.17976470e-02f,-1.10730469e-01f,-6.73767626e-02f,-1.17170542e-01f,
+8.28895420e-02f,-5.43981045e-03f,-1.62379354e-01f,-1.51147589e-01f,-5.65532334e-02f,
-7.18892515e-02f,-2.52206624e-02f,-8.29880983e-02f,+8.50392953e-02f,-8.17497075e-02f,
+1.71365067e-01f,+1.12774484e-01f,-2.66423039e-02f,-2.38868911e-02f,+1.72129393e-01f,
+4.33686450e-02f,-1.37468785e-01f,-1.60184547e-01f,-8.74613076e-02f,-4.23569232e-03f,
+1.41224727e-01f,+1.74185261e-01f,-6.93811774e-02f,+7.28093311e-02f,-1.31274313e-02f,
-2.28163954e-02f,-1.83725715e-01f,+1.03311032e-01f,+1.21879347e-01f,-1.04400329e-01f,
-1.49910003e-02f,+1.40559047e-01f,-1.38292685e-01f,+5.09922616e-02f,+1.76177502e-01f,
+1.16856739e-01f,+1.83735117e-02f,+4.20761295e-02f,-7.27254897e-02f,+3.44963302e-03f,
-3.43481153e-02f,+1.29197374e-01f,-3.75512280e-02f,+1.08256452e-01f,+1.75290987e-01f,
+1.11243173e-01f,-7.53956363e-02f,+1.35790169e-01f,-4.14006859e-02f,+1.08729973e-01f,
+1.20527372e-01f,-1.14984810e-02f,+7.76123703e-02f,-1.32991141e-02f,+7.99954161e-02f,
+1.74242761e-02f,-2.42053512e-02f,-6.75101355e-02f,-3.30727845e-02f,+1.63101941e-01f,
+8.59048963e-02f,+1.44652635e-01f,-7.78644532e-02f,-3.87756452e-02f,-6.58203214e-02f,
-7.60523826e-02f,+7.77275041e-02f,+5.40849306e-02f,-9.66228917e-02f,+8.92972425e-02f,
-1.69245422e-01f,-1.42515779e-01f,+2.11550623e-01f,-4.83311377e-02f,+1.49908990e-01f,
+6.07471801e-02f,+3.42243202e-02f,-1.40498225e-02f,+9.72455442e-02f,-2.14069903e-01f,
-4.17512143e-04f,+6.83606267e-02f,-1.09802231e-01f,+1.24458872e-01f,-1.61338300e-01f,
+9.11030769e-02f,-5.97567745e-02f,+9.19357389e-02f,+1.67143151e-01f,-1.13508351e-01f,
+1.35736287e-01f,+6.14165477e-02f,-1.73087686e-01f,+8.17602873e-02f,-7.29111880e-02f,
-9.30539221e-02f,+3.85695100e-02f,-5.89654520e-02f,+6.60329387e-02f,+1.12245545e-01f,
+1.72360644e-01f,-9.30743515e-02f,-1.59269050e-01f,+3.26950699e-02f,-9.17838514e-03f,
+1.30471706e-01f,-1.11652307e-01f,-4.82438356e-02f,+1.17534161e-01f,+5.23413606e-02f,
-4.28760201e-02f,+9.89053305e-03f,+1.81951933e-02f,-2.81572789e-02f,-6.26458526e-02f,
+2.29337320e-01f,+7.86048099e-02f,-5.43724671e-02f,+1.29141495e-01f,+1.88907027e-01f,
+1.80473238e-01f,+1.30445227e-01f,-6.63589910e-02f,+2.06047013e-01f,+3.08592860e-02f,
-1.72216311e-01f,-1.71234347e-02f,+3.88437393e-03f,+4.31911945e-02f,+4.26406674e-02f,
-9.70678329e-02f,-1.50342882e-01f,-5.00032157e-02f,-1.84959710e-01f,+1.66581750e-01f,
-1.22820005e-01f,+1.78908736e-01f,-8.46837014e-02f,+5.29500470e-02f,-1.91663742e-01f,
+3.36696365e-04f,+9.65097845e-02f,-2.09531244e-02f,+6.31486401e-02f,+7.47665241e-02f,
-1.02596678e-01f,-1.69660330e-01f,+1.01272956e-01f,+1.45722479e-01f,-9.45689231e-02f,
+1.50168583e-01f,+6.31713569e-02f,+1.31286666e-01f,+1.20236106e-01f,-1.34643584e-01f,
+1.56612843e-01f,-1.18038438e-01f,+8.08471907e-03f,-3.70132029e-02f,-8.38227496e-02f,
+2.02765614e-01f,-4.25138138e-02f,+1.20847650e-01f,-4.44826186e-02f,+5.15531935e-02f,
-1.00150444e-01f,+4.59671393e-02f,-5.69465011e-02f,+9.68094617e-02f,-9.43687782e-02f,
+9.14607663e-03f,-5.96240461e-02f,+1.40342608e-01f,+2.10349753e-01f,-1.36038354e-02f,
-8.89016688e-03f,-2.10766699e-02f,+3.32754850e-02f,-1.69669941e-01f,+1.54751450e-01f,
-4.18510102e-02f,+6.25980943e-02f,-1.44015819e-01f,+9.63248089e-02f,-9.44551453e-02f,
-1.68947309e-01f,+1.69491306e-01f,+1.43291265e-01f,+2.70401873e-02f,+5.40764295e-02f,
-1.81773137e-02f,-1.94072932e-01f,+2.21804529e-02f,-1.29072115e-01f,+1.28598735e-02f,
+1.29332524e-02f,+1.94021732e-01f,-1.59240246e-01f,-1.76962689e-02f,+1.03341304e-01f,
-6.70572743e-02f,+9.97470841e-02f,+6.09883815e-02f,+3.03606596e-03f,-2.90383063e-02f,
-2.18007006e-02f,-1.53408259e-01f,-1.18161095e-02f,-2.01875389e-01f,+1.63469031e-01f,
+5.14559774e-03f,-2.41918135e-02f,-4.79818434e-02f,-1.50141910e-01f,-8.00976381e-02f,
-1.85480267e-02f,+4.63478342e-02f,-6.13548867e-02f,-5.37168793e-02f,-2.91261170e-03f,
-7.09579438e-02f,-7.19658136e-02f,-4.37347293e-02f,-1.67740613e-01f,+2.27034122e-01f,
-6.65728897e-02f,+7.51867369e-02f,+7.87755847e-03f,+2.36312617e-02f,+7.23597333e-02f,
+1.10092498e-01f,+1.97424144e-02f,-1.77477822e-01f,-1.04200840e-01f,-1.80073623e-02f,
+1.35200545e-01f,+7.16801658e-02f,-1.16261750e-01f,+2.67662108e-03f,-3.62138301e-02f,
+6.38910010e-02f,-3.98856103e-02f,-1.67159766e-01f,-5.34951687e-02f,+9.05513316e-02f,
+4.06430736e-02f,+2.22762406e-01f,-2.63830740e-02f,-6.84532523e-02f,+7.00400844e-02f,
-1.03438325e-01f,-9.19631273e-02f,+4.69304286e-02f,+1.82460040e-01f,+7.38202408e-02f,
+2.07619399e-01f,+6.73063844e-02f,+6.63951859e-02f,+1.27257809e-01f,+1.81212470e-01f,
-1.56607330e-01f,+1.20488137e-01f,+1.29031211e-01f,-1.00632347e-01f,-2.13990048e-01f,
-1.19679328e-02f,+1.45206913e-01f,-9.86635685e-04f,+8.03109184e-02f,-6.01288006e-02f,
-4.38930988e-02f,-4.49593104e-02f,+2.73795035e-02f,+7.02193528e-02f,-9.17053446e-02f,
-1.28958318e-02f,+1.42593518e-01f,+1.04281038e-01f,-6.63471594e-02f,+7.50920316e-03f,
-8.01945627e-02f,-2.53273487e-01f,-8.69434401e-02f,+4.32526097e-02f,-5.28382733e-02f,
-2.37310633e-01f,-1.76831856e-01f,+8.67327750e-02f,-1.93686336e-01f,+1.62952706e-01f,
+2.10722908e-02f,+1.88245937e-01f,+1.70266494e-01f,+1.53280571e-01f,+1.26485042e-02f,
+1.86662108e-01f,-5.55705875e-02f,-2.11696774e-01f,+1.79458380e-01f,+1.41223297e-02f,
+1.20191470e-01f,-7.69255534e-02f,+1.14171013e-01f,-7.45028481e-02f,+8.64166319e-02f,
-9.97969657e-02f,+1.50042221e-01f,-2.88869739e-02f,-8.47039074e-02f,+2.39662565e-02f,
-2.14333475e-01f,+8.23904499e-02f,-1.34063154e-01f,+2.82406900e-03f,-7.58530423e-02f,
+2.57612066e-03f,+7.59746060e-02f,-2.09030464e-01f,-2.13839412e-01f,-6.97769821e-02f,
-1.49120986e-01f,+2.75632918e-01f,+1.71274185e-01f,-8.36594328e-02f,-8.55163559e-02f,
+1.63055137e-02f,+9.27921310e-02f,-1.92729369e-01f,-2.59773862e-02f,+3.74688581e-03f,
+1.80617109e-01f,-9.17669833e-02f,-1.10670105e-01f,-1.88862514e-02f,-1.13918856e-01f,
-1.56981468e-01f,-1.13338016e-01f,-3.49703878e-02f,+1.40960932e-01f,-1.13597505e-01f,
-1.52490944e-01f,-9.74080339e-02f,+1.98206380e-01f,-7.30396435e-02f,-1.44455805e-01f,
+2.23531172e-01f,+1.03183597e-01f,-2.19481423e-01f,+1.39534786e-01f,+1.95861697e-01f,
+9.46352631e-02f,+9.28892642e-02f,+8.94676149e-02f,+9.03644599e-03f,+1.19423658e-01f,
+4.30379659e-02f,-1.84251964e-01f,-6.32907972e-02f,+5.76379150e-02f,+1.26184300e-01f,
+1.02509990e-01f,+1.10145345e-01f,+1.01162687e-01f,-5.43408692e-02f,-1.24284036e-01f,
-6.18422106e-02f,+1.54085100e-01f,-1.07655421e-01f,-5.01646474e-02f,-1.87537670e-01f,
-1.78147316e-01f,-9.15296972e-02f,+2.27566883e-02f,-3.98647785e-02f,+6.24401979e-02f,
+2.71905400e-03f,+1.91696361e-01f,+9.06391293e-02f,-6.12544119e-02f,+4.52043638e-02f,
-7.99391121e-02f,+7.81616867e-02f,+1.61506131e-01f,-7.71241337e-02f,-1.78813905e-01f,
-2.13546559e-01f,-5.51502779e-02f,+5.14979195e-03f,+1.65941596e-01f,+3.34813748e-03f,
-8.91973823e-02f,+2.66142581e-02f,-1.60310686e-01f,-1.00104168e-01f,+1.79072127e-01f,
+4.62066792e-02f,+5.04407585e-02f,+8.69364738e-02f,-7.52377436e-02f,-1.76011503e-01f,
-5.03823012e-02f,+1.67867929e-01f,+1.58698395e-01f,+1.30287722e-01f,-9.29139480e-02f,
+1.57523483e-01f,-1.88915864e-01f,+1.07125178e-01f,-8.22190270e-02f,+8.35782960e-02f,
-4.42397296e-02f,+1.43039569e-01f,-1.50695086e-01f,-3.28083932e-02f,+6.76985830e-02f,
-1.17087424e-01f,+9.49111730e-02f,-3.79481651e-02f,+6.25027195e-02f,+1.90397248e-01f,
+5.28643318e-02f,+2.49380246e-02f,-4.09527533e-02f,+8.76848325e-02f,-4.83726561e-02f,
+5.61146140e-02f,-2.33374331e-02f,-1.49761513e-01f,-1.86140209e-01f,-5.29782996e-02f,
+1.04774892e-01f,-1.12426668e-01f,+5.90078086e-02f,+4.64300066e-02f,+9.69927460e-02f,
-1.46970525e-01f,+1.11357316e-01f,+6.23434968e-02f,+7.30437338e-02f,+5.66265211e-02f,
+1.79954752e-01f,-8.66332129e-02f,+1.31397501e-01f,+1.06867990e-02f,-2.63330769e-02f,
-1.33616745e-01f,-4.81900200e-02f,-1.73929147e-02f,-1.79604381e-01f,-1.10533677e-01f,
-3.46016213e-02f,+1.17199784e-02f,+5.82788847e-02f,+9.29217190e-02f,-1.19396962e-01f,
+1.73663452e-01f,+1.08071052e-01f,+1.61968648e-01f,+1.69222161e-01f,+2.29621027e-02f,
-1.38900310e-01f,-1.95887715e-01f,+8.84544924e-02f,+1.27630785e-01f,+1.00306377e-01f,
-1.13469444e-01f,+7.98017308e-02f,+1.57036558e-01f,-5.22855781e-02f,+1.23134427e-01f,
-8.37669447e-02f,+1.96732551e-01f,-1.46490470e-01f,+3.47120054e-02f,-2.44152602e-02f,
-2.56676581e-02f,-1.60129219e-01f,+1.43071771e-01f,-1.12011582e-02f,-2.34108213e-02f,
-1.04134746e-01f,-1.16537400e-02f,+1.97170794e-01f,-1.76820144e-01f,+9.71990228e-02f,
+1.65577382e-01f,+4.76533994e-02f,-1.54637009e-01f,+7.61552602e-02f,+2.07353503e-01f,
+1.77228197e-01f,-6.12630583e-02f,+1.65553227e-01f,+2.01833099e-01f,+6.91024363e-02f,
+1.09915756e-01f,-1.17391422e-01f,-1.10317022e-02f,-3.94282043e-02f,+1.71175525e-01f,
-1.55046046e-01f,+1.51324078e-01f,-4.25847769e-02f,+4.81241569e-03f,+1.46794304e-01f,
+9.13889855e-02f,-1.12050638e-01f,+1.83766067e-01f,+7.20872357e-02f,-9.44544747e-03f,
-2.55433619e-02f,+1.05081767e-01f,-1.17395408e-01f,-2.04571858e-01f,-1.28071010e-01f,
-1.05352566e-01f,-1.19390106e-03f,+1.44269854e-01f,+1.00778088e-01f,+1.08696133e-01f,
+2.32305918e-02f,+7.80056939e-02f,+1.64175659e-01f,-1.69484422e-01f,-6.09100722e-02f,
-4.70416658e-02f,-1.32781699e-01f,-6.55705333e-02f,-2.35865954e-02f,+1.18124582e-01f,
-8.39399993e-02f,-8.38525500e-03f,+8.76729414e-02f,-1.21543914e-01f,-4.25586812e-02f,
-1.47963956e-01f,+1.48534076e-02f,-1.51961982e-01f,+2.29096621e-01f,-1.25602320e-01f,
+1.20828234e-01f,-1.56261832e-01f,-8.80343467e-02f,+1.11041486e-01f,-2.07461178e-01f,
+1.35025397e-01f,-3.31847295e-02f,-1.10491291e-01f,+1.51272893e-01f,-1.46796957e-01f,
-3.83316912e-03f,+9.52997897e-03f,-1.06890202e-01f,-2.17560649e-01f,-6.98871613e-02f,
+1.19409420e-01f,-6.71781749e-02f,-1.79481000e-01f,+1.55473664e-01f,+1.08754940e-01f,
+2.08402351e-01f,-1.33752406e-01f,-6.97068498e-02f,-1.20044813e-01f,+1.14399292e-01f,
+1.38866648e-01f,-9.10192207e-02f,+1.05889961e-01f,+4.86150756e-02f,+2.79100500e-02f,
+5.02317101e-02f,-3.43672670e-02f,+4.24085706e-02f,+3.19017505e-04f,-1.65220529e-01f,
+8.28979462e-02f,-1.21543095e-01f,-1.08236112e-01f,-1.04446314e-01f,-7.15153106e-03f,
-1.93262175e-01f,-1.58677965e-01f,+1.80649057e-01f,-8.07527229e-02f,+1.70700148e-01f,
-1.77621818e-03f,+1.23092800e-01f,+1.85013860e-02f,-1.44056842e-01f,-5.90530708e-02f,
-4.82579991e-02f,-5.66880926e-02f,+1.32213801e-01f,+1.52366851e-02f,-7.33904317e-02f,
-1.43018603e-01f,+9.50700939e-02f,+1.71056122e-01f,-7.06863478e-02f,+1.37978271e-01f,
+1.52245238e-01f,-9.54201221e-02f,+6.31016642e-02f,-9.35340822e-02f,-1.36872575e-01f,
+9.88400206e-02f,-1.85745358e-02f,+1.02941513e-01f,-1.19979933e-01f,+1.71488971e-02f,
+1.63256362e-01f,+1.53198496e-01f,+8.16663131e-02f,+1.04828075e-01f,-2.95608006e-02f,
-1.69144168e-01f,+1.62486508e-01f,+4.47619036e-02f,-3.06269452e-02f,+1.58278450e-01f,
-2.19388455e-02f,-9.55994148e-03f,+1.40465051e-01f,+9.63210985e-02f,-4.23214994e-02f,
-1.59845084e-01f,-6.81539699e-02f,+1.87197790e-01f,+1.53085470e-01f,-7.32200742e-02f,
+9.45419632e-03f,+1.32814616e-01f,-1.53757006e-01f,+7.85142407e-02f,+3.41557264e-02f,
+5.56125939e-02f,-1.00119397e-01f,+5.69030009e-02f,+1.71558857e-01f,-1.38747157e-03f,
+9.50315446e-02f,-9.69919637e-02f,-2.88049933e-02f,-1.53395966e-01f,+1.02093332e-01f,
-1.16435429e-02f,+5.27514741e-02f,-8.05590898e-02f,+6.54633641e-02f,+3.17518669e-03f,
+1.98809460e-01f,+1.80447519e-01f,+1.88965321e-01f,-9.13800523e-02f,-1.20043397e-01f,
-1.93198235e-03f,-3.73162590e-02f,-1.54625192e-01f,+9.59021449e-02f,-1.94181666e-01f,
+3.09342071e-02f,-2.84421835e-02f,+2.90629920e-02f,-8.39143619e-02f,+2.53170822e-02f,
-5.21207601e-02f,+4.20588888e-02f,+3.93608846e-02f,+7.38050714e-02f,-5.18665574e-02f,
+4.91015762e-02f,-6.80150166e-02f,-3.31718065e-02f,+6.35869056e-02f,-2.10003965e-02f,
+6.20548278e-02f,-4.64588143e-02f,-1.53073490e-01f,+1.07183363e-02f,+5.39319143e-02f,
-8.89080763e-03f,-1.57924354e-01f,-1.15859695e-01f,+1.39100149e-01f,-1.16840154e-01f,
+1.88855529e-02f,+8.89610350e-02f,-6.82213753e-02f,+1.81915954e-01f,+1.52884617e-01f,
+1.87658116e-01f,+7.72919133e-02f,+4.60598730e-02f,+1.53620258e-01f,-1.76966310e-01f,
-1.10100836e-01f,-8.38901009e-03f,+1.32806599e-01f,-1.00954555e-01f,-1.43345878e-01f,
+1.85836032e-02f,+2.41949484e-02f,-5.91522604e-02f,-6.06276579e-02f,+1.24861047e-01f,
-1.16969191e-01f,-1.26031235e-01f,-1.85188890e-01f,+1.47905856e-01f,-1.51561350e-01f,
+1.14544839e-01f,+1.00659609e-01f,+2.08666101e-01f,-9.38054249e-02f,+3.21828797e-02f,
+9.05316137e-03f,-7.11101443e-02f,-1.87127039e-01f,-1.97543308e-01f,-6.15747645e-02f,
-3.43279950e-02f,+1.96593657e-01f,+8.47437233e-02f,+1.62601054e-01f,+8.75394717e-02f,
+1.04915939e-01f,+1.16582677e-01f,-6.14407882e-02f,+1.11523867e-01f,+4.08139303e-02f,
-1.98212132e-01f,+2.65865959e-03f,-4.29844763e-03f,-3.72247845e-02f,-1.45050466e-01f,
+5.14674820e-02f,+2.23029226e-01f,-1.59788370e-01f,+1.51167780e-01f,-8.89837071e-02f,
-1.34241223e-01f,-9.35853794e-02f,+5.56912236e-02f,+4.09462303e-02f,+1.72547594e-01f,
-9.37742591e-02f,+1.11300379e-01f,+1.22257285e-01f,-1.96685530e-02f,+9.13603306e-02f,
-1.94050908e-01f,+1.60809681e-01f,+1.09522529e-01f,-1.47005185e-01f,+8.13515931e-02f,
+2.07160860e-01f,-1.52701914e-01f,-1.92489058e-01f,-2.74270810e-02f,-9.11985487e-02f,
+2.81030778e-02f,+1.65527850e-01f,+1.33009985e-01f,+6.71290830e-02f,+9.93900523e-02f,
-9.47851017e-02f,-1.04315147e-01f,+1.83027610e-01f,-1.54152364e-02f,+6.07782230e-02f,
-3.31696756e-02f,+7.91784748e-02f,-1.40728891e-01f,+1.54937997e-01f,-2.52184141e-02f,
+2.88698776e-03f,+2.14054976e-02f,+1.24519199e-01f,+2.32895184e-02f,+1.50464596e-02f,
+1.61688820e-01f,+1.62198991e-01f,-9.22094509e-02f,-1.83144417e-02f,-3.19471322e-02f,
-8.02800432e-02f,+3.84215526e-02f,+1.29541889e-01f,-9.46353078e-02f,-1.52408630e-01f,
-2.58183032e-02f,-1.41026184e-01f,+9.27010402e-02f,-2.25139633e-02f,-7.35570714e-02f,
-1.65976271e-01f,+1.92919835e-01f,-8.45040157e-02f,+2.03513205e-02f,-8.91913548e-02f,
-6.19734377e-02f,-1.34167537e-01f,+1.03165530e-01f,-9.09953490e-02f,-1.16194397e-01f,
-1.08107753e-01f,-3.52898389e-02f,-4.98202406e-02f,+3.72467339e-02f,-1.03916822e-03f,
+1.20136656e-01f,-2.35822541e-03f,+1.16622135e-01f,+9.78228599e-02f,+1.36785097e-02f,
-1.53566062e-01f,-8.16811919e-02f,+7.95899779e-02f,+8.70632380e-02f,+8.82188603e-02f,
-1.91869274e-01f,+7.18297362e-02f,+2.46930239e-03f,+1.57968551e-01f,-1.38499454e-01f,
+6.14783168e-02f,-4.05366868e-02f,+2.15809364e-02f,-1.48702413e-01f,-6.98903650e-02f,
-2.07206383e-01f,+4.73346040e-02f,+8.45137089e-02f,-5.82325980e-02f,-3.34865972e-02f,
-1.91159979e-01f,-1.87327191e-01f,+1.50853530e-01f,-5.31895459e-02f,-1.37499109e-01f,
+7.44690225e-02f,+7.80521408e-02f,-7.93412402e-02f,-1.38802812e-01f,-1.79343864e-01f,
-1.23894706e-01f,-6.00083685e-03f,-1.85859591e-01f,-1.37072816e-01f,+3.09621301e-02f,
+1.20975569e-01f,+1.04323469e-01f,+1.70244426e-01f,-8.09188709e-02f,+3.34264198e-03f,
-8.58812407e-02f,+1.02103405e-01f,-1.73127785e-01f,-1.16154097e-01f,+6.38024434e-02f,
-9.12524387e-02f,+4.03074473e-02f,+1.82292178e-01f,+9.10768807e-02f,-1.86555177e-01f,
+1.97623283e-01f,-1.59660771e-01f,-6.75363243e-02f,+1.67776048e-01f,-1.53302640e-01f,
+1.24126431e-02f,+6.85514659e-02f,-3.93698812e-02f,-1.14148833e-01f,-1.01390719e-01f,
-1.05360605e-01f,+1.55966774e-01f,-2.68732384e-02f,-1.56727791e-01f,-1.29907027e-01f,
+1.05772421e-01f,+1.51630029e-01f,-4.10637110e-02f,-7.82904848e-02f,-8.28090031e-03f,
-3.86154167e-02f,-1.87854081e-01f,-6.28185719e-02f,-1.64645314e-01f,-1.36368379e-01f,
+5.49518913e-02f,+9.88633931e-03f,-8.36939067e-02f,-1.06544331e-01f,+1.46586016e-01f,
-1.02971131e-02f,+4.62372899e-02f,-1.79643005e-01f,+2.70482097e-02f,-5.55710681e-02f,
+1.54587835e-01f,+8.77004340e-02f,+2.02860937e-01f,-1.92733966e-02f,-1.22730121e-01f,
-1.70584604e-01f,+1.12580419e-01f,+1.25164017e-01f,-1.44439265e-01f,+1.07955392e-02f,
-1.84728742e-01f,+1.38312221e-01f,-1.54561684e-01f,-1.20127536e-01f,-1.26455560e-01f,
+5.60038425e-02f,-6.54230341e-02f,+1.00943319e-01f,-1.67487219e-01f,-4.37359847e-02f,
+1.59603760e-01f,-2.70740991e-03f,-1.21019818e-01f,-1.19598515e-01f,+1.50376052e-01f,
-1.79974735e-01f,+1.55156538e-01f,-9.99647751e-02f,-4.41576727e-02f,-7.30282143e-02f,
+1.42389849e-01f,-4.17377204e-02f,-1.81917809e-02f,+1.11108787e-01f,+1.34501562e-01f,
+7.16204122e-02f,+9.82973129e-02f,+9.14258063e-02f,-3.26357819e-02f,-3.90191339e-02f,
-6.08163700e-02f,-3.89602333e-02f,+9.89512727e-02f,+9.43986103e-02f,+1.90113351e-01f,
-1.61426917e-01f,+1.03765294e-01f,+1.59038708e-01f,+8.72566551e-02f,-2.53608413e-02f,
-1.87732391e-02f,+6.85107633e-02f,-8.31977874e-02f,-1.85593724e-01f,-4.26693112e-02f,
-7.24724960e-03f,+1.48804128e-01f,+7.84217119e-02f,+1.85544267e-01f,+1.78851396e-01f,
+1.18200406e-01f,+4.00972106e-02f,-4.26409859e-03f,+8.20590854e-02f,+1.48101538e-01f,
+5.32942750e-02f,+1.61711961e-01f,+7.29313493e-03f,+3.91982272e-02f,+1.38088360e-01f,
-1.58945262e-01f,+9.78360698e-02f,+1.41915411e-01f,+1.75299972e-01f,+1.35803878e-01f,
-7.47858658e-02f,-9.53083709e-02f,-1.56408399e-01f,-9.15572271e-02f,-1.61490589e-01f,
+1.06853105e-01f,+1.42634645e-01f,-1.32769316e-01f,+8.69328827e-02f,+6.62591532e-02f,
-1.35203764e-01f,+1.12112895e-01f,+4.76242267e-02f,+9.70851406e-02f,-4.01752144e-02f,
-9.68183130e-02f,+1.31793454e-01f,-2.07229137e-01f,-7.93427080e-02f,-1.64855659e-01f,
+3.24513018e-02f,+1.37127601e-02f,-1.64150104e-01f,+1.01451941e-01f,-1.03431761e-01f,
-6.53517991e-02f,+4.16867174e-02f,-2.07100324e-02f,-1.72177866e-01f,+2.41738395e-03f,
+7.13376254e-02f,+1.24121219e-01f,+5.01621105e-02f,+9.81658474e-02f,-7.26429075e-02f,
-1.41417131e-01f,+1.23306446e-01f,-1.38162062e-01f,+4.56571616e-02f,+3.69423032e-02f,
-1.17893759e-02f,+1.67590827e-01f,+4.31614518e-02f,-3.11693102e-02f,+2.47360691e-02f,
+7.26498216e-02f,-1.50639281e-01f,+1.54407829e-01f,+1.36366680e-01f,+2.09846497e-02f,
-3.95098925e-02f,+1.10343762e-01f,+1.04140840e-01f,+1.43524250e-02f,+9.19716060e-02f,
+5.56162046e-03f,+3.36463787e-02f,+1.73427552e-01f,-7.42719248e-02f,-4.33961339e-02f,
+1.40364945e-01f,+4.86526312e-03f,-1.82825014e-01f,-1.16497472e-01f,-1.26153946e-01f,
-1.11457765e-01f,+1.10127948e-01f,-9.17526335e-02f,+2.28721406e-02f,-7.51725957e-02f,
+1.51381478e-01f,+1.38005346e-01f,-1.79785676e-02f,-7.64065608e-02f,-1.65208250e-01f,
-1.92830205e-01f,+8.05517882e-02f,-4.88813482e-02f,+2.72136256e-02f,-9.17358994e-02f,
+5.84052876e-02f,-1.09720662e-01f,-8.43241885e-02f,+9.09119193e-03f,-9.95939448e-02f,
-1.02981687e-01f,-6.66008964e-02f,-4.93918546e-02f,-5.47997057e-02f,+1.36454836e-01f,
+1.70991942e-01f,-7.90154338e-02f,-6.82664663e-02f,-1.10214867e-01f,+4.96014655e-02f,
+7.41023123e-02f,-1.73175305e-01f,-1.52182346e-02f,-9.96682718e-02f,-1.50626153e-01f,
+1.99244305e-01f,-3.76732498e-02f,-1.21732660e-01f,+1.11773252e-01f,+1.52032137e-01f,
-5.17256558e-05f,-4.33264524e-02f,-1.71840236e-01f,-1.12630658e-01f,+1.57698885e-01f,
+1.28847256e-01f,+1.07714878e-02f,-1.21408381e-01f,-1.53665066e-01f,-1.07187025e-01f,
-1.38143823e-01f,+5.85155301e-02f,-9.87381041e-02f,-1.68778047e-01f,+1.41315594e-01f,
+1.61228240e-01f,+1.31190583e-01f,-1.12128258e-01f,-3.78694981e-02f,+1.08664274e-01f,
+2.56941747e-02f,-8.74602119e-04f,+1.57736659e-01f,-1.29295751e-01f,+1.90590724e-01f,
-9.43828151e-02f,+1.33447632e-01f,-1.72361001e-01f,-4.97423783e-02f,-1.20342657e-01f,
+1.13660529e-01f,+9.87330303e-02f,+1.22884057e-01f,+2.88368145e-04f,-9.17194039e-02f,
+1.72099322e-01f,+1.76271915e-01f,-4.18244787e-02f,-1.04254484e-02f,-4.14737687e-02f,
-8.77348706e-02f,+1.37631491e-01f,+9.18147340e-02f,-1.09011337e-01f,+2.58700270e-02f,
+1.14067078e-01f,-1.35149226e-01f,+9.01244059e-02f,+9.18918997e-02f,-7.39515275e-02f,
-1.36303768e-01f,-9.86710750e-03f,-6.91644773e-02f,-2.22629756e-01f,+2.94895265e-02f,
-1.27975956e-01f,+3.09865531e-02f,-2.46407092e-03f,-4.75238264e-03f,+1.47758629e-02f,
+7.81131834e-02f,+1.02221847e-01f,-1.82812035e-01f,-2.63583064e-02f,-1.18424200e-01f,
-1.02065243e-01f,+1.47182003e-01f,-8.07627887e-02f,+1.69664383e-01f,-1.22474559e-01f,
+1.08410589e-01f,-1.85060427e-01f,+1.65508538e-02f,+1.07483670e-01f,-1.14710525e-01f,
+8.26204643e-02f,-1.01046190e-01f,+1.53011873e-01f,-1.23449631e-01f,-8.07233006e-02f,
+1.42236277e-01f,-2.41193607e-01f,+1.23881914e-01f,-1.73926890e-01f,+1.37874767e-01f,
+8.14110860e-02f,-1.50062874e-01f,-4.23837751e-02f,+7.94936866e-02f,+3.31735164e-02f,
+1.71317622e-01f,+2.50386894e-01f,+5.72914258e-02f,+4.32673208e-02f,+2.27081813e-02f,
+8.59502107e-02f,-2.17510566e-01f,-4.37682010e-02f,+1.07889384e-01f,+1.95601285e-02f,
-2.09248364e-01f,+7.81665817e-02f,-1.79514095e-01f,-6.82930797e-02f,+1.02380021e-02f,
+2.87854355e-02f,+1.96174234e-01f,-1.66691840e-02f,-8.58499408e-02f,+1.21954598e-01f,
-1.31070733e-01f,+6.14423975e-02f,+1.73887864e-01f,+1.66310877e-01f,-1.06450990e-01f,
+5.29824719e-02f,+6.26507625e-02f,-7.96160027e-02f,+1.03484998e-02f,+4.09335569e-02f,
-2.29246952e-02f,-1.47666752e-01f,-4.61390615e-02f,+2.48219445e-01f,+9.40502286e-02f,
-6.09446205e-02f,+1.21766180e-02f,-2.08492950e-02f,+1.21021718e-01f,+1.25448197e-01f,
-4.41583842e-02f,-2.54711621e-02f,+1.19880222e-01f,-1.38776528e-03f,-1.04521565e-01f,
-7.91571755e-03f,-1.09853260e-01f,+7.76335225e-02f,+6.22257069e-02f,-6.25876710e-02f,
-1.37769163e-01f,+5.21162637e-02f,-3.78763564e-02f,+1.25288829e-01f,-1.54405996e-01f,
+1.08251348e-01f,-5.50578050e-02f,+1.18958823e-01f,+1.76116382e-03f,+6.87596053e-02f,
-1.96718983e-02f,-3.78905050e-02f,-5.89765161e-02f,+1.60837751e-02f,+4.31864075e-02f,
-1.05109856e-01f,-1.36579713e-02f,-1.92619503e-01f,-1.41809121e-01f,-5.86225390e-02f,
-4.16533686e-02f,-1.30805895e-01f,+9.24082706e-05f,+1.66276053e-01f,+1.40373617e-01f,
-9.37586203e-02f,-1.22677743e-01f,+1.10494204e-01f,+8.52863267e-02f,+6.01877980e-02f,
+2.47133449e-02f,-6.72332942e-02f,-1.43397257e-01f,-1.47039788e-02f,+3.67171541e-02f,
+9.60109085e-02f,+1.35619894e-01f,+1.26840577e-01f,-1.59897238e-01f,-1.40964519e-02f,
+8.64051208e-02f,-3.70183550e-02f,+1.52013879e-02f,-1.82905778e-01f,-2.86330469e-02f,
-1.62382349e-01f,+8.12417418e-02f,+2.96050645e-02f,+1.88714325e-01f,-1.59903049e-01f,
+1.20624967e-01f,+1.17641494e-01f,-1.42587433e-02f,+1.81648135e-02f,+5.11538386e-02f,
+1.13344952e-01f,+4.72614244e-02f,+1.69236764e-01f,+1.96076423e-01f,+2.14854434e-01f,
-5.06836176e-03f,-1.03657924e-01f,+1.78591698e-01f,+3.31594162e-02f,-8.38715658e-02f,
-3.17267887e-02f,+9.58891287e-02f,+1.19673014e-01f,-9.07843485e-02f,+2.28446096e-01f,
-1.40013024e-01f,+1.96785688e-01f,+4.96222302e-02f,-9.95118693e-02f,-7.56951198e-02f,
+7.16378018e-02f,+1.05185397e-02f,-2.00863749e-01f,+1.73734203e-01f,-2.30498031e-01f,
-1.28405988e-01f,+1.11383699e-01f,+4.05655429e-02f,-6.63584471e-02f,-1.46164950e-02f,
-2.36664385e-01f,+2.47349367e-01f,-3.46199162e-02f,+2.67310105e-02f,-8.20051283e-02f,
+1.81986198e-01f,+5.93249053e-02f,-7.76883811e-02f,+1.80398464e-01f,-8.75259861e-02f,
-1.26413777e-01f,+1.09429479e-01f,+4.81912047e-02f,+1.71685100e-01f,+2.11015537e-01f,
+1.89632460e-01f,-1.22469537e-01f,+1.08872741e-01f,-1.07501827e-01f,-1.89909652e-01f,
-1.10231519e-01f,+1.62233219e-01f,+2.87550334e-02f,-1.25190601e-01f,-6.55493140e-03f,
-1.38277173e-01f,+1.14582002e-01f,-1.37099326e-01f,+2.18539909e-01f,-2.19516307e-01f,
+8.96518454e-02f,+5.63451648e-03f,-3.46093178e-02f,+1.60252228e-01f,-8.66008177e-02f,
+1.68895155e-01f,+1.89050771e-02f,+1.56055853e-01f,-3.03708296e-03f,-8.37879702e-02f,
+1.93142846e-01f,-1.63973704e-01f,-1.33199334e-01f,+2.30856881e-01f,+7.55637065e-02f,
+7.26614846e-04f,-6.90293461e-02f,+9.66296121e-02f,-2.64311451e-02f,+1.15546159e-01f,
-1.65797368e-01f,+5.30532710e-02f,-1.76855996e-01f,+9.46452543e-02f,+7.46938512e-02f,
+3.85978408e-02f,-5.77061996e-02f,+1.16650090e-02f,+1.13580517e-01f,-2.10776310e-02f,
-3.14579457e-02f,+7.03864098e-02f,+4.33551483e-02f,-1.40121818e-01f,-8.10142327e-03f,
+5.87942638e-02f,-5.23981266e-02f,-1.16795026e-01f,+2.13109881e-01f,-3.56922746e-02f,
-8.38608742e-02f,+2.01540634e-01f,-1.90752804e-01f,+2.10981339e-01f,-6.29509836e-02f,
-1.62874520e-01f,-3.13214324e-02f,-8.12848434e-02f,-2.60647655e-01f,+5.83587587e-02f,
+1.67030707e-01f,-2.49663889e-02f,-5.45044392e-02f,-9.63507965e-02f,+1.27015933e-01f,
-1.08927742e-01f,-2.05844315e-03f,-1.38190106e-01f,+1.64228603e-01f,+3.84616107e-02f,
-4.22389582e-02f,-1.93192348e-01f,-2.10211873e-01f,+1.57937005e-01f,-3.20488364e-02f,
+5.56346634e-03f,-1.69836208e-01f,+1.39300510e-01f,+2.15970248e-01f,-2.57501483e-01f,
+8.12916979e-02f,-4.17106785e-03f,+1.68676496e-01f,-1.62615925e-01f,+1.09460704e-01f,
-9.48179588e-02f,+2.13804208e-02f,-2.56084800e-02f,-3.56000029e-02f,+1.56042337e-01f,
-1.13598548e-01f,-9.55087394e-02f,+9.44167599e-02f,-1.00896962e-01f,-1.56476125e-01f,
-1.49788827e-01f,+1.24034069e-01f,+1.17048562e-01f,-8.39111805e-02f,-1.50710214e-02f,
+6.32457733e-02f,-1.32310778e-01f,-1.43207684e-02f,-9.05723721e-02f,-4.38650399e-02f,
+1.62382856e-01f,-7.22674206e-02f,+3.59346047e-02f,-6.46133721e-02f,-1.98595840e-02f,
-2.96246931e-02f,-7.32630119e-02f,-1.63734153e-01f,-2.67969817e-02f,+5.08996621e-02f,
+1.59414679e-01f,-7.72870705e-02f,-5.17332330e-02f,+8.46756846e-02f,+1.71321496e-01f,
-1.44297615e-01f,+1.16883911e-01f,+1.22159943e-01f,+1.08534053e-01f,+3.44940498e-02f,
-2.80692969e-02f,+1.84942946e-01f,-1.27425477e-01f,-2.53557414e-02f,-9.00169089e-02f,
+8.52389112e-02f,-1.15989149e-01f,-6.74799606e-02f,+1.85003415e-01f,-9.91254523e-02f,
+1.18321814e-01f,+5.87009974e-02f,-1.52584791e-01f,+2.80164531e-05f,+1.39654383e-01f,
-1.02968708e-01f,+1.32822737e-01f,-5.27753979e-02f,-2.92908829e-02f,+2.20127314e-01f,
+1.17200390e-01f,-1.31952446e-02f,+3.62105966e-02f,-2.02545702e-01f,+9.34986547e-02f,
+8.73670802e-02f,-2.20338672e-01f,-1.81079537e-01f,-1.91201344e-02f,-4.03362401e-02f,
+1.34133384e-01f,-1.00137047e-01f,-1.46811277e-01f,-8.17258507e-02f,+1.31534800e-01f,
-4.73717116e-02f,+1.30024642e-01f,-4.46653701e-02f,-7.25321798e-03f,+3.61615643e-02f,
-1.46157101e-01f,-9.46709290e-02f,+7.96140805e-02f,-5.13737835e-02f,+1.05745852e-01f,
-7.41634369e-02f,+1.91591114e-01f,+6.11855015e-02f,-1.51498288e-01f,-1.19412787e-01f,
+2.01627821e-01f,-1.59662634e-01f,+1.62527189e-01f,+8.69183242e-02f,-3.36010605e-02f,
+1.30904198e-01f,+1.32693410e-01f,-1.35045618e-01f,-6.12033084e-02f,-7.38992319e-02f,
-9.64521617e-02f,-5.85993454e-02f,+5.41653335e-02f,+3.68205607e-02f,-1.90421924e-01f,
+1.79525837e-01f,+8.10904801e-02f,-3.21793556e-02f,-1.66557543e-03f,-2.09492147e-02f,
-5.42656556e-02f,-7.28681386e-02f,+4.94186431e-02f,-1.40788212e-01f,+1.30247042e-01f,
-6.82251006e-02f,+8.72786716e-02f,-1.87681347e-01f,+1.62753388e-01f,+8.96372870e-02f,
+1.07268557e-01f,+9.98454839e-02f,-6.79658651e-02f,+1.25742294e-02f,+6.48543239e-02f,
-9.86410379e-02f,+9.94975865e-03f,-1.82332247e-01f,+5.70384376e-02f,+6.74254298e-02f,
-1.43035874e-01f,+1.47045329e-01f,+1.81924731e-01f,+1.13257378e-01f,+9.31981355e-02f,
-9.58317444e-02f,+1.07486874e-01f,+1.21835977e-01f,+8.94113183e-02f,+1.43264174e-01f,
+1.37636200e-01f,+1.47996560e-01f,+1.14736043e-01f,-7.93763995e-02f,-1.56572729e-01f,
-8.03506896e-02f,+2.05101773e-01f,+2.72724754e-03f,+1.46374375e-01f,+8.69525075e-02f,
+4.42190580e-02f,-1.36216983e-01f,-7.20341206e-02f,+2.11347342e-01f,-5.53781167e-02f,
-5.29641025e-02f,+9.06998366e-02f,-1.80785298e-01f,-2.18873452e-02f,-2.56018545e-02f,
-1.59271911e-01f,+9.64941531e-02f,+5.51505536e-02f,-3.50965858e-02f,+8.09611976e-02f,
-4.48696502e-02f,-6.94748759e-03f,-2.18233496e-01f,-1.85962632e-01f,+5.32161593e-02f,
+1.16284667e-02f,+1.15790404e-01f,+2.00072169e-01f,-1.05444007e-01f,-9.02143568e-02f,
-1.74799517e-01f,-1.12793922e-01f,-1.77210383e-02f,+1.79986842e-02f,-1.42794205e-02f,
+1.76540413e-03f,-3.87606397e-02f,+2.67742798e-02f,-3.65690887e-02f,+4.98328209e-02f,
+6.19235635e-02f,-6.43009320e-02f,-1.47496715e-01f,+7.96966702e-02f,-6.38834387e-02f,
-1.90765053e-01f,+1.03285126e-02f,+1.76401138e-01f,+5.98777756e-02f,+1.44148946e-01f,
-1.48100436e-01f,+1.56015232e-01f,-1.09600186e-01f,+1.24159835e-01f,+3.27465944e-02f,
+7.04710856e-02f,-5.72318323e-02f,-1.02194874e-02f,-1.07888438e-01f,+1.73402548e-01f,
+2.40995381e-02f,-7.82144219e-02f,+1.08009085e-01f,-1.96395516e-01f,+8.18953961e-02f,
+1.42580211e-01f,-1.41642213e-01f,-1.57394081e-01f,-1.58570692e-01f,+4.67893854e-02f,
-8.64803791e-02f,-1.02145389e-01f,-5.11777624e-02f,+1.94003850e-01f,-1.26473725e-01f,
-1.17215812e-02f,-1.09032504e-01f,+7.06295893e-02f,-1.39242858e-01f,-9.00554433e-02f,
-5.75067997e-02f,-1.58843443e-01f,-1.28470257e-01f,-4.76031005e-02f,+7.26318732e-02f,
-1.12518892e-01f,-1.54540852e-01f,+1.59089610e-01f,+1.18898384e-01f,-1.81311399e-01f,
-1.54764861e-01f,+8.51511434e-02f,-1.04210585e-01f,-3.06199379e-02f,+8.04515034e-02f,
+1.29232362e-01f,-1.49081647e-01f,-1.12855874e-01f,-9.87150967e-02f,-1.10994436e-01f,
+7.71306306e-02f,-1.65374503e-02f,+4.93150614e-02f,-1.50108844e-01f,+5.11269793e-02f,
+5.60846254e-02f,+1.76049501e-01f,+4.76963110e-02f,-8.95034447e-02f,-1.19202472e-01f,
-5.61502809e-03f,+3.09577826e-02f,-6.06279634e-02f,-1.40567154e-01f,-7.82046542e-02f,
-6.84307143e-02f,-1.93608785e-03f,-5.56489378e-02f,-1.10365704e-01f,+1.86921343e-01f,
+1.43770158e-01f,-1.53778538e-01f,-1.28616944e-01f,+1.17005585e-02f,+1.33780032e-01f,
-1.60088688e-01f,-3.97536578e-03f,-5.67701012e-02f,+1.67019561e-01f,+1.10214308e-01f,
+1.63205653e-01f,-2.47456916e-02f,-2.91218027e-03f,-1.43300712e-01f,-1.11542031e-01f,
+1.65866002e-01f,-1.98599920e-02f,+5.39145842e-02f,+9.98367295e-02f,+6.15448505e-02f,
-5.19717075e-02f,-1.85449183e-01f,-1.53968722e-01f,+1.37456968e-01f,-1.29011780e-01f,
+1.62403956e-01f,+1.03492185e-01f,-1.15233250e-01f,+1.36345318e-02f,+4.20984626e-03f,
-1.03765972e-01f,+1.88115165e-01f,+1.25050873e-01f,-1.57875214e-02f,+6.82505593e-02f,
-1.87368169e-01f,+1.40938889e-02f,-1.36835640e-02f,-5.59166223e-02f,-1.77139267e-01f,
+1.13651663e-01f,+2.48087160e-02f,+6.97916821e-02f,+1.22643150e-01f,+5.66627756e-02f,
+8.01293775e-02f,+1.76330045e-01f,+5.07784337e-02f,-6.05448037e-02f,+1.08288497e-01f,
-1.04140446e-01f,-1.43100485e-01f,-1.36208177e-01f,-6.19786978e-03f,-1.16916642e-01f,
-4.44804057e-02f,-5.09752594e-02f,+4.37146537e-02f,+1.53661504e-01f,+1.06095530e-01f,
-8.00839141e-02f,-9.24408510e-02f,-2.93606129e-02f,+9.91632864e-02f,+1.62309796e-01f,
-1.74905896e-01f,+1.42105147e-01f,-5.00782765e-02f,-5.08837849e-02f,+1.60169974e-01f,
+8.94391239e-02f,+1.38519734e-01f,+5.74502125e-02f,-7.44519243e-03f,-4.27041724e-02f,
-8.59191641e-02f,+1.74687296e-01f,+3.10169607e-02f,+8.46294165e-02f,+3.28333490e-02f,
+1.28050715e-01f,+1.65116668e-01f,+1.74165756e-01f,+1.67142257e-01f,+1.32640690e-01f,
-5.50331324e-02f,+1.42036267e-02f,+2.78185010e-02f,-1.20471865e-02f,-1.75274417e-01f,
+9.54136923e-02f,-1.45886540e-01f,+8.82050116e-03f,-5.05443066e-02f,-1.12715244e-01f,
-1.02615468e-01f,+3.28783840e-02f,+7.42466599e-02f,-1.02948062e-01f,-1.56302035e-01f,
-1.28144011e-01f,+2.06555158e-01f,-8.25742036e-02f,-9.44967046e-02f,-4.26692590e-02f,
+3.89006324e-02f,+1.56108243e-02f,-6.75287023e-02f,-4.26723156e-03f,-1.20488390e-01f,
-7.77093992e-02f,-3.47815305e-02f,-3.45262811e-02f,+8.36577192e-02f,-8.95573348e-02f,
-1.00161776e-01f,+9.65140387e-02f,+1.13143340e-01f,-1.86857414e-02f,+1.96851894e-01f,
+1.15290619e-01f,-6.55315891e-02f,-1.45000711e-01f,+9.81044606e-04f,+1.82837784e-01f,
+4.07136567e-02f,+8.87451321e-02f,-1.18550524e-01f,-1.86268792e-01f,+1.04584582e-01f,
+1.90669194e-01f,-4.04163003e-02f,-2.73742899e-02f,+1.12748653e-01f,-1.81095064e-01f,
-8.94680396e-02f,-1.27183646e-01f,-7.16217607e-02f,-4.17712964e-02f,-5.12369275e-02f,
+8.42456147e-02f,-1.72507204e-02f,-2.46004641e-01f,+4.47861850e-02f,-1.05677411e-01f,
-9.53564569e-02f,-1.52559161e-01f,+1.13903955e-01f,+5.45996651e-02f,-2.02417046e-01f,
-1.63111180e-01f,-2.51400203e-01f,-7.29110986e-02f,-2.20940337e-02f,+1.47350088e-01f,
+8.95036161e-02f,+1.85396865e-01f,-8.18718672e-02f,-9.15654078e-02f,-1.91392705e-01f,
+2.18434390e-02f,-4.40160856e-02f,+1.18733220e-01f,-1.34505004e-01f,+2.48634331e-02f,
-1.20020330e-01f,-1.71054959e-01f,+1.38125047e-01f,-8.06663111e-02f,-1.53442353e-01f,
+1.14516400e-01f,+9.55424309e-02f,-1.70736730e-01f,+1.54289812e-01f,-2.49578222e-03f,
+2.15685070e-02f,-1.70934603e-01f,+5.92397898e-02f,+6.12524897e-03f,-1.78592503e-01f,
+8.89900625e-02f,-9.52793658e-03f,-2.13274136e-01f,+1.51625171e-01f,+1.51940554e-01f,
-4.67923246e-02f,+7.14804903e-02f,-1.03443801e-01f,-1.52750596e-01f,-2.24596616e-02f,
-9.83575881e-02f,+5.14717102e-02f,+1.85102224e-02f,+1.40348330e-01f,+2.26136953e-01f,
-1.36324316e-01f,+2.28017811e-02f,+2.04920068e-01f,-7.47522991e-03f,+8.35108534e-02f,
-2.84994673e-02f,-1.46561816e-01f,-1.07725963e-01f,-7.49921473e-03f,+1.71744287e-01f,
+4.83854255e-03f,+5.32100424e-02f,+4.85853031e-02f,+1.18486919e-01f,-8.73553157e-02f,
-1.39085259e-02f,-1.75858557e-01f,-5.11217564e-02f,+9.11014229e-02f,+1.94705084e-01f,
+8.55137631e-02f,-1.79300264e-01f,+1.70540586e-01f,-1.09013602e-01f,+1.32536918e-01f,
+3.63659374e-02f,+9.73277539e-02f,-1.51842043e-01f,-1.03810452e-01f,+1.44460455e-01f,
+1.37952015e-01f,+1.11296579e-01f,+2.28615012e-02f,-1.70480713e-01f,-1.02403976e-01f,
-2.41499990e-02f,-7.03832805e-02f,-1.26362458e-01f,+1.43076286e-01f,+4.11091037e-02f,
-1.66942552e-01f,-1.73551798e-01f,-1.03089944e-01f,+1.42535761e-01f,-1.54600009e-01f,
+9.03344527e-02f,+1.29243687e-01f,+1.98033497e-01f,+1.08046688e-01f,+7.91479424e-02f,
-1.74930856e-01f,+1.17815942e-01f,+1.56660661e-01f,-1.53227642e-01f,-7.82488286e-02f,
-1.16289333e-01f,+1.27260104e-01f,-3.26094776e-02f,+1.81824192e-02f,+8.08437355e-03f,
-1.44376755e-01f,-1.83114246e-01f,-1.75731167e-01f,+8.50520805e-02f,-8.33634362e-02f,
+9.80653241e-02f,-4.80047911e-02f,-1.74102128e-01f,-5.03985118e-03f,-3.66545059e-02f,
+1.26100108e-01f,-1.60877869e-01f,-3.76485437e-02f,-5.41714281e-02f,-5.94115034e-02f,
+1.70875534e-01f,-4.10131700e-02f,+8.45983475e-02f,-1.70995116e-01f,-5.00731803e-02f,
-1.47277296e-01f,+1.79320071e-02f,+1.80349499e-02f,+5.64770848e-02f,-8.35451949e-03f,
-1.22247711e-01f,-5.71065175e-04f,-1.94595590e-01f,-7.70995244e-02f,+1.75097361e-01f,
-1.59827948e-01f,+1.72202587e-01f,-1.60655007e-01f,+1.28508240e-01f,+5.74778207e-02f,
+8.90772045e-02f,-6.14150390e-02f,-1.17033511e-01f,-2.05918178e-02f,-4.87796515e-02f,
-1.21797919e-02f,-6.98157623e-02f,-1.25500277e-01f,-1.74173322e-02f,+1.78524345e-01f,
-6.37091249e-02f,+4.02418524e-03f,-1.75506994e-01f,+4.68134880e-02f,+1.15786912e-02f,
-1.61903948e-01f,+9.46439058e-02f,-1.44069344e-01f,-9.73947197e-02f,+1.39387831e-01f,
+6.07318664e-03f,-1.39988959e-01f,-9.23654512e-02f,+1.81919470e-01f,+1.51619002e-01f,
-1.31403804e-01f,-4.11142707e-02f,+5.00422977e-02f,+1.54793039e-01f,+1.44175962e-01f,
+5.83568700e-02f,-3.89315225e-02f,+1.87111303e-01f,+1.94118067e-04f,+2.64476221e-02f,
-1.59954950e-01f,-3.66128497e-02f,-1.80800125e-01f,+8.04062709e-02f,+7.51113668e-02f,
+6.57603666e-02f,-1.60986394e-01f,+1.64187148e-01f,-1.70051306e-01f,+1.22393213e-01f,
-5.62078990e-02f,-1.49649099e-01f,-9.29934729e-04f,-5.09455018e-02f,-1.66660011e-01f,
+4.89189252e-02f,-1.09251030e-02f,-2.85591092e-02f,+1.14158913e-01f,-1.35628417e-01f,
+1.02981426e-01f,+4.67320681e-02f,-8.62269700e-02f,-1.65198699e-01f,-1.65558651e-01f,
+1.93548091e-02f,-1.50062904e-01f,-1.58893555e-01f,-1.61879256e-01f,+2.36070603e-02f,
-1.94078684e-01f,+1.24754645e-01f,+1.18601374e-01f,+1.49608478e-01f,-1.40133038e-01f,
+1.19339256e-02f,+5.42200990e-02f,-1.14245352e-03f,-1.02944605e-01f,-1.15816869e-01f,
+1.33323848e-01f,-4.02431265e-02f,-1.43896073e-01f,+1.25590712e-01f,+1.54525653e-01f,
-1.11233909e-02f,-1.13987803e-01f,+1.30701195e-02f,-8.82000700e-02f,+1.47693396e-01f,
+8.56082663e-02f,+1.46686032e-01f,+6.61919713e-02f,+1.29536942e-01f,-1.66283906e-01f,
+7.62509853e-02f,-9.77616012e-02f,-1.77727029e-01f,-1.84650555e-01f,+9.96467024e-02f,
+3.82782519e-02f,+1.70997158e-01f,-1.90372080e-01f,-6.44737631e-02f,-5.39538562e-02f,
-4.35305387e-02f,+9.30324420e-02f,-5.77270612e-02f,+8.88544917e-02f,+1.38852909e-01f,
+1.06980205e-01f,-5.03095575e-02f,-5.75948805e-02f,+1.34995252e-01f,+5.38800023e-02f,
