//Numpy array shape [100, 8]
//Min -0.346096575260
//Max 0.337463676929
//Number of zeros 0

#ifndef W2_H_
#define W2_H_

#ifndef __SYNTHESIS__
model_default_t w2[800];
#else
model_default_t w2[800] = {0.01515251584351063, -0.06639012694358826, 0.11370284855365753, 0.02271909266710281, 0.22167401015758514, -0.20630633831024170, -0.08036920428276062, -0.02121504209935665, -0.29644480347633362, 0.00078078551450744, -0.30526286363601685, -0.13836917281150818, -0.28970450162887573, 0.04274538904428482, 0.18812011182308197, 0.10548561811447144, -0.16509883105754852, 0.00890079140663147, 0.00114184408448637, 0.04253418371081352, -0.10097724199295044, -0.13242499530315399, 0.02640168368816376, 0.25813814997673035, -0.27580079436302185, -0.17231227457523346, 0.01331749279052019, 0.06048903986811638, -0.09240828454494476, 0.30554819107055664, -0.01386912167072296, 0.21930366754531860, -0.09263243526220322, 0.10042101144790649, -0.05668234825134277, -0.02188713848590851, -0.10394579172134399, -0.11361279338598251, 0.14375503361225128, -0.14309540390968323, -0.08022944629192352, 0.08411356806755066, 0.00030284776585177, -0.08578228950500488, -0.11315639317035675, -0.15923008322715759, -0.04799363017082214, 0.12239094823598862, 0.03048130683600903, -0.10668504983186722, -0.00246267975308001, -0.14300018548965454, 0.01648283749818802, -0.06883993744850159, -0.14654728770256042, -0.12645901739597321, -0.01399748586118221, -0.00555747933685780, -0.07599514722824097, -0.04970876872539520, -0.08237655460834503, 0.14771260321140289, -0.20002371072769165, -0.07835100591182709, -0.01062597706913948, -0.14919452369213104, 0.11956281214952469, -0.01503232680261135, -0.05397621914744377, -0.29432398080825806, 0.10105167329311371, 0.05332550406455994, 0.04654904827475548, 0.03494105860590935, 0.07112769037485123, 0.17620664834976196, 0.17206513881683350, -0.12937445938587189, 0.20108391344547272, -0.16371974349021912, -0.05010705441236496, -0.04696610942482948, 0.29392552375793457, 0.12032818794250488, 0.01456455606967211, -0.28803235292434692, 0.03467987477779388, -0.01124909333884716, -0.18347011506557465, -0.09861361235380173, -0.19509029388427734, -0.11928505450487137, -0.21354635059833527, -0.01385203469544649, 0.18246112763881683, 0.13307023048400879, -0.07209455966949463, 0.20829902589321136, 0.20424669981002808, 0.20774081349372864, 0.25202068686485291, 0.19427302479743958, -0.07597975432872772, -0.00858288723975420, 0.23734536767005920, 0.09268103539943695, 0.33723324537277222, 0.33356571197509766, 0.01168114598840475, -0.33511134982109070, -0.14521589875221252, -0.01129927672445774, -0.00253940490074456, -0.05556017905473709, 0.12393196672201157, 0.05205848440527916, -0.02763180062174797, 0.12772123515605927, -0.16353544592857361, 0.10463751107454300, 0.05242616683244705, 0.15271569788455963, 0.05169547721743584, -0.20341065526008606, -0.11734487116336823, -0.07662593573331833, 0.02353514730930328, 0.07800594717264175, 0.19389270246028900, 0.17437398433685303, -0.12856009602546692, 0.15213847160339355, -0.18608175218105316, -0.24040532112121582, 0.23016820847988129, -0.19045606255531311, 0.12338817119598389, -0.12921573221683502, -0.14563421905040741, -0.24747538566589355, -0.04172756895422935, -0.10198170691728592, -0.00039938092231750, -0.06360253691673279, 0.12344720959663391, -0.12047524750232697, -0.00381355499848723, -0.26961946487426758, 0.11825580149888992, -0.02085576392710209, 0.22601954638957977, -0.04727103933691978, 0.17012065649032593, -0.05954567342996597, 0.19585099816322327, 0.04213480651378632, 0.01495733764022589, 0.12893913686275482, -0.21904656291007996, -0.07099285721778870, 0.25732740759849548, 0.27326199412345886, 0.30903130769729614, 0.30681392550468445, -0.09623610228300095, -0.01718582212924957, -0.23270010948181152, -0.20026028156280518, 0.25086063146591187, 0.09316422790288925, 0.19587001204490662, 0.15523475408554077, 0.08801651746034622, -0.22692017257213593, 0.15785999596118927, -0.02142055891454220, 0.05032536759972572, -0.07358394563198090, 0.09919951111078262, 0.24183590710163116, 0.14970180392265320, -0.04626188427209854, -0.21385636925697327, 0.24688823521137238, 0.04504916816949844, -0.20264214277267456, -0.16606356203556061, -0.21632581949234009, -0.03718251734972000, 0.09448456764221191, 0.21667094528675079, 0.16388560831546783, -0.15272301435470581, 0.25214222073554993, 0.13926328718662262, 0.28885987401008606, 0.13723836839199066, -0.08138145506381989, 0.23048256337642670, -0.12346605956554413, 0.25829562544822693, 0.08601024746894836, 0.25307837128639221, -0.04954874143004417, 0.22463893890380859, -0.22224870324134827, 0.07756711542606354, 0.09474384784698486, -0.12615059316158295, -0.07134094089269638, 0.16111163794994354, 0.13639603555202484, -0.15846686065196991, -0.27007690072059631, 0.19705049693584442, -0.31154146790504456, -0.14616128802299500, 0.25391095876693726, -0.13581842184066772, -0.03340583294630051, -0.04497347399592400, -0.27375650405883789, 0.03836555778980255, -0.18929959833621979, 0.05256421864032745, -0.22748862206935883, 0.15732112526893616, -0.13920220732688904, 0.11476683616638184, 0.18323956429958344, 0.09292609989643097, -0.20360487699508667, 0.11360722780227661, 0.09897341579198837, 0.14208476245403290, -0.05508395656943321, -0.12551946938037872, 0.07264205813407898, -0.04710972309112549, -0.16878087818622589, 0.17563688755035400, 0.15468111634254456, -0.20511566102504730, -0.16579346358776093, 0.21286310255527496, -0.07715947926044464, -0.04500283300876617, 0.18017619848251343, -0.06650642305612564, 0.25949588418006897, 0.22790299355983734, 0.20543679594993591, 0.14391469955444336, 0.09049987047910690, 0.13903997838497162, -0.00608754251152277, 0.20422959327697754, -0.03183275833725929, 0.20136339962482452, -0.17879611253738403, 0.15484021604061127, -0.11620638519525528, 0.10241331160068512, 0.03362886235117912, -0.01493658125400543, -0.06826490908861160, 0.13245992362499237, 0.00747788231819868, -0.04707049950957298, -0.00344527442939579, -0.16330330073833466, 0.10334565490484238, 0.15684813261032104, -0.09384277462959290, -0.21500559151172638, -0.23155705630779266, 0.02712896279990673, -0.16410632431507111, 0.18573616445064545, -0.03451825305819511, -0.13728763163089752, 0.05332012847065926, -0.06200797483325005, -0.07888190448284149, -0.23212607204914093, -0.04864738881587982, -0.02350984513759613, 0.24291321635246277, -0.34609657526016235, -0.09734816104173660, 0.04165467992424965, -0.02864723466336727, -0.20339757204055786, 0.03327652066946030, 0.17458231747150421, 0.11329631507396698, -0.25993087887763977, -0.01116351876407862, 0.01490689255297184, 0.02598599717020988, -0.06467752158641815, 0.16612853109836578, 0.15984316170215607, -0.10462262481451035, -0.11691801249980927, -0.04093596711754799, -0.03597660362720490, 0.17290201783180237, 0.08901141583919525, -0.06751755625009537, 0.11995421350002289, -0.05296765640377998, 0.09301466494798660, 0.10146035254001617, 0.18548688292503357, 0.19301684200763702, -0.01338030025362968, 0.14566764235496521, 0.09963582456111908, 0.09664195775985718, -0.17844457924365997, -0.07640700787305832, -0.12649993598461151, -0.15575474500656128, -0.29180467128753662, -0.11512792110443115, 0.04692219197750092, 0.12170131504535675, -0.20278967916965485, 0.17315341532230377, -0.17442026734352112, 0.15283375978469849, -0.09930716454982758, -0.27490419149398804, 0.07240782678127289, 0.03271815553307533, -0.09301704913377762, 0.00118282088078558, 0.25090751051902771, 0.01559871155768633, -0.01200771331787109, 0.04543347656726837, -0.03913834691047668, 0.02093023806810379, 0.15883412957191467, 0.16191568970680237, -0.01266631111502647, 0.24329082667827606, 0.02142368443310261, 0.10354070365428925, 0.00981847941875458, 0.13823971152305603, 0.31155103445053101, 0.13196164369583130, -0.11709838360548019, -0.11040362715721130, -0.15130703151226044, 0.15492644906044006, -0.21789133548736572, -0.24691282212734222, -0.24727115035057068, 0.16757290065288544, 0.12069094926118851, -0.00874234922230244, -0.16603893041610718, -0.21822771430015564, -0.10128898918628693, 0.08594796061515808, -0.17373469471931458, 0.14400391280651093, 0.06602972000837326, -0.15020604431629181, -0.17949651181697845, -0.08564179390668869, -0.21521332859992981, -0.05305262282490730, 0.16453756392002106, -0.16766455769538879, -0.08363310992717743, -0.03042494691908360, 0.22287644445896149, 0.02317226678133011, 0.05273942649364471, -0.14912381768226624, 0.03928218781948090, 0.16415044665336609, 0.25759771466255188, -0.10927466303110123, -0.07576894760131836, 0.06202816963195801, 0.17722187936306000, 0.21736143529415131, -0.01122177764773369, -0.06703433394432068, 0.16181531548500061, -0.12610693275928497, 0.01355552766472101, 0.05240540206432343, -0.18380752205848694, 0.07646444439888000, -0.08977757394313812, 0.11814254522323608, 0.02712428197264671, 0.18160393834114075, 0.19159284234046936, -0.02886787988245487, 0.05373717844486237, 0.07015118747949600, 0.15723498165607452, 0.18128140270709991, -0.12358444929122925, 0.03167733177542686, -0.00559599697589874, -0.16127832233905792, -0.15062879025936127, 0.12042173743247986, 0.00792040489614010, -0.17721831798553467, 0.00871411059051752, 0.03447756916284561, -0.13640162348747253, -0.13035699725151062, 0.22403971850872040, 0.16083094477653503, -0.05422315746545792, 0.02046288736164570, -0.10762457549571991, 0.11842034757137299, -0.19913360476493835, 0.05455962195992470, 0.02375571429729462, -0.03910687565803528, 0.13729195296764374, -0.12640550732612610, -0.02401699498295784, 0.13047938048839569, -0.28269287943840027, 0.13940306007862091, -0.07084514200687408, 0.16985951364040375, -0.07664174586534500, 0.14775465428829193, -0.01403216365724802, 0.10437897592782974, 0.00862405635416508, 0.24558676779270172, -0.14050753414630890, -0.15336787700653076, 0.15523302555084229, 0.08309061825275421, 0.11086662858724594, -0.01124563813209534, 0.13555836677551270, 0.06985241919755936, -0.19361020624637604, 0.13127569854259491, -0.14216400682926178, -0.30054789781570435, 0.10971266031265259, 0.13638563454151154, -0.13211199641227722, -0.04737439379096031, -0.16463407874107361, 0.03433925285935402, 0.08090358972549438, -0.21847628057003021, 0.14246988296508789, 0.14381644129753113, -0.05592890828847885, 0.02978727966547012, -0.01802930235862732, -0.15984793007373810, 0.07050434499979019, 0.03756175935268402, -0.03159638121724129, -0.04869060590863228, -0.16816000640392303, 0.03245344012975693, -0.23271825909614563, 0.18520735204219818, 0.12440724670886993, 0.04527250304818153, 0.21228437125682831, -0.03743750602006912, 0.11681539565324783, 0.14445163309574127, -0.00199258327484131, -0.09341743588447571, 0.13060151040554047, -0.03385096415877342, 0.08763516694307327, 0.15065750479698181, 0.21132627129554749, 0.12358684092760086, -0.18599218130111694, -0.19726693630218506, -0.30984973907470703, -0.25846990942955017, -0.31365931034088135, -0.18979486823081970, -0.33907592296600342, 0.29851025342941284, -0.03504173457622528, -0.08952645212411880, -0.09954475611448288, -0.05295830965042114, 0.28938388824462891, -0.06272032856941223, 0.33746367692947388, -0.12859517335891724, 0.20538832247257233, 0.09991941601037979, -0.13089893758296967, 0.06213576346635818, -0.07316218316555023, 0.04264648631215096, 0.21216203272342682, -0.06158491224050522, -0.15573957562446594, -0.02499480172991753, 0.20564201474189758, -0.08462853729724884, -0.09566625207662582, 0.15916192531585693, -0.00264394329860806, 0.18558132648468018, -0.00868944823741913, 0.11388120055198669, -0.12346965074539185, -0.18895958364009857, -0.19710153341293335, 0.06176375597715378, -0.08710944652557373, -0.01175281777977943, -0.10471008718013763, 0.23166020214557648, -0.16447229683399200, 0.05382849648594856, -0.09678202867507935, 0.16053965687751770, -0.00348298274911940, -0.14113985002040863, -0.21132148802280426, 0.03093626350164413, -0.27847847342491150, -0.09986682236194611, -0.14403523504734039, -0.25325840711593628, -0.08945988863706589, -0.18131385743618011, -0.23551006615161896, 0.02999416925013065, 0.24730527400970459, -0.09697016328573227, -0.09575241804122925, 0.16020284593105316, 0.28286787867546082, -0.16099196672439575, 0.17544104158878326, -0.21110600233078003, 0.12506073713302612, -0.06495572626590729, -0.12602628767490387, -0.09415522217750549, 0.11153794825077057, -0.03658046573400497, -0.16500867903232574, -0.07286960631608963, -0.16111817955970764, -0.12774975597858429, 0.01878524571657181, -0.29181113839149475, -0.20191752910614014, -0.10008435696363449, -0.15257732570171356, 0.26401582360267639, -0.17394104599952698, 0.08981141448020935, -0.02169789373874664, 0.02246144041419029, -0.24276109039783478, 0.17809638381004333, -0.21273413300514221, 0.26994565129280090, 0.08940804004669189, -0.10283767431974411, -0.00427399715408683, -0.21215856075286865, -0.07626758515834808, -0.12809424102306366, -0.04112403094768524, 0.14180667698383331, 0.25363618135452271, 0.22115972638130188, 0.10549455881118774, -0.20178079605102539, 0.15905584394931793, 0.07449280470609665, -0.17683732509613037, -0.08885803818702698, -0.12659567594528198, 0.04724331572651863, 0.08786923438310623, -0.08478220552206039, -0.22401201725006104, 0.23715677857398987, 0.04012279212474823, 0.00541343539953232, 0.09967258572578430, -0.11994063854217529, 0.25963485240936279, 0.25832810997962952, -0.07946649193763733, 0.08480077981948853, 0.02670322358608246, -0.29703959822654724, -0.21540991961956024, 0.14539037644863129, -0.02837706357240677, -0.28524535894393921, 0.15149545669555664, 0.30285912752151489, -0.02958376705646515, 0.04345170781016350, -0.32256552577018738, -0.31809523701667786, -0.00876972544938326, -0.20550306141376495, 0.07320619374513626, -0.01101374626159668, 0.14465691149234772, 0.29297566413879395, 0.22043231129646301, -0.00072864850517362, -0.03862609341740608, 0.10105518251657486, 0.04937985166907310, -0.05357827991247177, -0.08493454754352570, -0.28249815106391907, 0.11802527308464050, 0.21679404377937317, 0.21639527380466461, -0.10806416720151901, 0.00310047389939427, -0.06584461033344269, -0.15193057060241699, 0.05564479529857635, -0.02007492072880268, -0.12422210723161697, -0.15224154293537140, 0.02092779427766800, 0.00573883997276425, 0.00265152985230088, 0.16986022889614105, -0.10037561506032944, -0.09350900352001190, -0.24780716001987457, -0.24455590546131134, 0.06146498396992683, 0.16689057648181915, -0.17232027649879456, -0.02926963567733765, -0.06960287690162659, -0.12128422409296036, -0.06448008120059967, 0.05817522108554840, 0.21152782440185547, 0.09444336593151093, -0.12266023457050323, 0.17748634517192841, 0.08032414317131042, -0.07466183602809906, 0.08333136886358261, -0.24611814320087433, -0.16293387115001678, -0.13818576931953430, -0.11724735051393509, -0.19763764739036560, 0.17984649538993835, -0.13964881002902985, 0.01544457022100687, -0.00449708616361022, -0.09523465484380722, 0.04239013791084290, -0.20215234160423279, 0.15115506947040558, -0.00892391335219145, -0.21586863696575165, 0.07455314695835114, -0.00777483265846968, -0.02913741208612919, -0.00278904940932989, 0.11926058679819107, -0.18337762355804443, 0.28357419371604919, 0.00973085872828960, -0.20402507483959198, -0.15713270008563995, 0.11184096336364746, -0.10908265411853790, 0.09040654450654984, -0.04746982455253601, 0.01742409728467464, 0.07086480408906937, -0.03908298537135124, 0.16667512059211731, -0.01840710639953613, 0.01071549300104380, 0.13963435590267181, 0.02916769683361053, 0.03223788738250732, -0.19941094517707825, -0.10929365456104279, 0.07833890616893768, -0.13488964736461639, 0.05574820190668106, 0.03125257417559624, -0.06526187062263489, 0.21872238814830780, -0.02960030175745487, 0.07002980262041092, 0.08015697449445724, -0.03662489354610443, -0.13875006139278412, -0.14079503715038300, -0.04407380521297455, 0.17528624832630157, -0.27421760559082031, -0.30984807014465332, -0.30848202109336853, -0.03895889967679977, -0.20666396617889404, 0.19653388857841492, -0.10504950582981110, 0.22786886990070343, -0.23152825236320496, 0.00163075234740973, -0.10735421627759933, -0.25267565250396729, 0.08599778264760971, 0.08852554112672806, -0.03342987596988678, 0.03136270865797997, -0.19549776613712311, -0.11391095072031021, 0.04300133138895035, -0.00785955600440502, -0.21855980157852173, -0.09711323678493500, -0.14280053973197937, -0.11641511321067810, -0.06637266278266907, -0.10176853090524673, 0.14883759617805481, -0.17436869442462921, 0.16677866876125336, -0.18415988981723785, -0.20278063416481018, 0.16490787267684937, -0.16958276927471161, -0.06602595001459122, -0.09561961889266968, 0.15633493661880493, -0.04957785829901695, 0.02677891403436661, -0.15329438447952271, 0.12021027505397797, -0.04902901872992516, -0.17455734312534332, 0.14905813336372375, 0.01972359977662563, -0.24157893657684326, -0.10555976629257202, -0.07674165070056915, 0.02557318471372128, -0.09791962057352066, 0.12286391109228134, -0.09645182639360428, -0.05369617789983749, 0.20487803220748901, 0.10670009255409241, -0.08826050162315369, 0.04687766358256340, -0.12916968762874603, 0.01691252551972866, -0.28599697351455688, -0.32800471782684326, 0.06064614653587341, 0.17083767056465149, 0.21986548602581024, -0.00910917017608881, -0.04975700378417969, 0.11582539230585098, -0.20802365243434906, 0.12894895672798157, 0.19082608819007874, 0.23555682599544525, 0.03257001936435699, 0.17103645205497742};

#endif

#endif
