#include <math.h> 
 #include <string.h> 
#include "./include/k2c_include.h" 
#include "./include/k2c_tensor_include.h" 

 


void mlp_100(k2c_tensor* dense_input_input, k2c_tensor* dense_1_output) { 

float dense_output_array[8] = {0}; 
k2c_tensor dense_output = { &dense_output_array[0], 1, 8, { 8,1,1,1,1 } }; 
float dense_kernel_array[800] = {
+1.51525158e-02f,-6.63901269e-02f,+1.13702849e-01f,+2.27190927e-02f,+2.21674010e-01f,
-2.06306338e-01f,-8.03692043e-02f,-2.12150421e-02f,-2.96444803e-01f,+7.80785515e-04f,
-3.05262864e-01f,-1.38369173e-01f,-2.89704502e-01f,+4.27453890e-02f,+1.88120112e-01f,
+1.05485618e-01f,-1.65098831e-01f,+8.90079141e-03f,+1.14184408e-03f,+4.25341837e-02f,
-1.00977242e-01f,-1.32424995e-01f,+2.64016837e-02f,+2.58138150e-01f,-2.75800794e-01f,
-1.72312275e-01f,+1.33174928e-02f,+6.04890399e-02f,-9.24082845e-02f,+3.05548191e-01f,
-1.38691217e-02f,+2.19303668e-01f,-9.26324353e-02f,+1.00421011e-01f,-5.66823483e-02f,
-2.18871385e-02f,-1.03945792e-01f,-1.13612793e-01f,+1.43755034e-01f,-1.43095404e-01f,
-8.02294463e-02f,+8.41135681e-02f,+3.02847766e-04f,-8.57822895e-02f,-1.13156393e-01f,
-1.59230083e-01f,-4.79936302e-02f,+1.22390948e-01f,+3.04813068e-02f,-1.06685050e-01f,
-2.46267975e-03f,-1.43000185e-01f,+1.64828375e-02f,-6.88399374e-02f,-1.46547288e-01f,
-1.26459017e-01f,-1.39974859e-02f,-5.55747934e-03f,-7.59951472e-02f,-4.97087687e-02f,
-8.23765546e-02f,+1.47712603e-01f,-2.00023711e-01f,-7.83510059e-02f,-1.06259771e-02f,
-1.49194524e-01f,+1.19562812e-01f,-1.50323268e-02f,-5.39762191e-02f,-2.94323981e-01f,
+1.01051673e-01f,+5.33255041e-02f,+4.65490483e-02f,+3.49410586e-02f,+7.11276904e-02f,
+1.76206648e-01f,+1.72065139e-01f,-1.29374459e-01f,+2.01083913e-01f,-1.63719743e-01f,
-5.01070544e-02f,-4.69661094e-02f,+2.93925524e-01f,+1.20328188e-01f,+1.45645561e-02f,
-2.88032353e-01f,+3.46798748e-02f,-1.12490933e-02f,-1.83470115e-01f,-9.86136124e-02f,
-1.95090294e-01f,-1.19285055e-01f,-2.13546351e-01f,-1.38520347e-02f,+1.82461128e-01f,
+1.33070230e-01f,-7.20945597e-02f,+2.08299026e-01f,+2.04246700e-01f,+2.07740813e-01f,
+2.52020687e-01f,+1.94273025e-01f,-7.59797543e-02f,-8.58288724e-03f,+2.37345368e-01f,
+9.26810354e-02f,+3.37233245e-01f,+3.33565712e-01f,+1.16811460e-02f,-3.35111350e-01f,
-1.45215899e-01f,-1.12992767e-02f,-2.53940490e-03f,-5.55601791e-02f,+1.23931967e-01f,
+5.20584844e-02f,-2.76318006e-02f,+1.27721235e-01f,-1.63535446e-01f,+1.04637511e-01f,
+5.24261668e-02f,+1.52715698e-01f,+5.16954772e-02f,-2.03410655e-01f,-1.17344871e-01f,
-7.66259357e-02f,+2.35351473e-02f,+7.80059472e-02f,+1.93892702e-01f,+1.74373984e-01f,
-1.28560096e-01f,+1.52138472e-01f,-1.86081752e-01f,-2.40405321e-01f,+2.30168208e-01f,
-1.90456063e-01f,+1.23388171e-01f,-1.29215732e-01f,-1.45634219e-01f,-2.47475386e-01f,
-4.17275690e-02f,-1.01981707e-01f,-3.99380922e-04f,-6.36025369e-02f,+1.23447210e-01f,
-1.20475248e-01f,-3.81355500e-03f,-2.69619465e-01f,+1.18255801e-01f,-2.08557639e-02f,
+2.26019546e-01f,-4.72710393e-02f,+1.70120656e-01f,-5.95456734e-02f,+1.95850998e-01f,
+4.21348065e-02f,+1.49573376e-02f,+1.28939137e-01f,-2.19046563e-01f,-7.09928572e-02f,
+2.57327408e-01f,+2.73261994e-01f,+3.09031308e-01f,+3.06813926e-01f,-9.62361023e-02f,
-1.71858221e-02f,-2.32700109e-01f,-2.00260282e-01f,+2.50860631e-01f,+9.31642279e-02f,
+1.95870012e-01f,+1.55234754e-01f,+8.80165175e-02f,-2.26920173e-01f,+1.57859996e-01f,
-2.14205589e-02f,+5.03253676e-02f,-7.35839456e-02f,+9.91995111e-02f,+2.41835907e-01f,
+1.49701804e-01f,-4.62618843e-02f,-2.13856369e-01f,+2.46888235e-01f,+4.50491682e-02f,
-2.02642143e-01f,-1.66063562e-01f,-2.16325819e-01f,-3.71825173e-02f,+9.44845676e-02f,
+2.16670945e-01f,+1.63885608e-01f,-1.52723014e-01f,+2.52142221e-01f,+1.39263287e-01f,
+2.88859874e-01f,+1.37238368e-01f,-8.13814551e-02f,+2.30482563e-01f,-1.23466060e-01f,
+2.58295625e-01f,+8.60102475e-02f,+2.53078371e-01f,-4.95487414e-02f,+2.24638939e-01f,
-2.22248703e-01f,+7.75671154e-02f,+9.47438478e-02f,-1.26150593e-01f,-7.13409409e-02f,
+1.61111638e-01f,+1.36396036e-01f,-1.58466861e-01f,-2.70076901e-01f,+1.97050497e-01f,
-3.11541468e-01f,-1.46161288e-01f,+2.53910959e-01f,-1.35818422e-01f,-3.34058329e-02f,
-4.49734740e-02f,-2.73756504e-01f,+3.83655578e-02f,-1.89299598e-01f,+5.25642186e-02f,
-2.27488622e-01f,+1.57321125e-01f,-1.39202207e-01f,+1.14766836e-01f,+1.83239564e-01f,
+9.29260999e-02f,-2.03604877e-01f,+1.13607228e-01f,+9.89734158e-02f,+1.42084762e-01f,
-5.50839566e-02f,-1.25519469e-01f,+7.26420581e-02f,-4.71097231e-02f,-1.68780878e-01f,
+1.75636888e-01f,+1.54681116e-01f,-2.05115661e-01f,-1.65793464e-01f,+2.12863103e-01f,
-7.71594793e-02f,-4.50028330e-02f,+1.80176198e-01f,-6.65064231e-02f,+2.59495884e-01f,
+2.27902994e-01f,+2.05436796e-01f,+1.43914700e-01f,+9.04998705e-02f,+1.39039978e-01f,
-6.08754251e-03f,+2.04229593e-01f,-3.18327583e-02f,+2.01363400e-01f,-1.78796113e-01f,
+1.54840216e-01f,-1.16206385e-01f,+1.02413312e-01f,+3.36288624e-02f,-1.49365813e-02f,
-6.82649091e-02f,+1.32459924e-01f,+7.47788232e-03f,-4.70704995e-02f,-3.44527443e-03f,
-1.63303301e-01f,+1.03345655e-01f,+1.56848133e-01f,-9.38427746e-02f,-2.15005592e-01f,
-2.31557056e-01f,+2.71289628e-02f,-1.64106324e-01f,+1.85736164e-01f,-3.45182531e-02f,
-1.37287632e-01f,+5.33201285e-02f,-6.20079748e-02f,-7.88819045e-02f,-2.32126072e-01f,
-4.86473888e-02f,-2.35098451e-02f,+2.42913216e-01f,-3.46096575e-01f,-9.73481610e-02f,
+4.16546799e-02f,-2.86472347e-02f,-2.03397572e-01f,+3.32765207e-02f,+1.74582317e-01f,
+1.13296315e-01f,-2.59930879e-01f,-1.11635188e-02f,+1.49068926e-02f,+2.59859972e-02f,
-6.46775216e-02f,+1.66128531e-01f,+1.59843162e-01f,-1.04622625e-01f,-1.16918012e-01f,
-4.09359671e-02f,-3.59766036e-02f,+1.72902018e-01f,+8.90114158e-02f,-6.75175563e-02f,
+1.19954214e-01f,-5.29676564e-02f,+9.30146649e-02f,+1.01460353e-01f,+1.85486883e-01f,
+1.93016842e-01f,-1.33803003e-02f,+1.45667642e-01f,+9.96358246e-02f,+9.66419578e-02f,
-1.78444579e-01f,-7.64070079e-02f,-1.26499936e-01f,-1.55754745e-01f,-2.91804671e-01f,
-1.15127921e-01f,+4.69221920e-02f,+1.21701315e-01f,-2.02789679e-01f,+1.73153415e-01f,
-1.74420267e-01f,+1.52833760e-01f,-9.93071645e-02f,-2.74904191e-01f,+7.24078268e-02f,
+3.27181555e-02f,-9.30170491e-02f,+1.18282088e-03f,+2.50907511e-01f,+1.55987116e-02f,
-1.20077133e-02f,+4.54334766e-02f,-3.91383469e-02f,+2.09302381e-02f,+1.58834130e-01f,
+1.61915690e-01f,-1.26663111e-02f,+2.43290827e-01f,+2.14236844e-02f,+1.03540704e-01f,
+9.81847942e-03f,+1.38239712e-01f,+3.11551034e-01f,+1.31961644e-01f,-1.17098384e-01f,
-1.10403627e-01f,-1.51307032e-01f,+1.54926449e-01f,-2.17891335e-01f,-2.46912822e-01f,
-2.47271150e-01f,+1.67572901e-01f,+1.20690949e-01f,-8.74234922e-03f,-1.66038930e-01f,
-2.18227714e-01f,-1.01288989e-01f,+8.59479606e-02f,-1.73734695e-01f,+1.44003913e-01f,
+6.60297200e-02f,-1.50206044e-01f,-1.79496512e-01f,-8.56417939e-02f,-2.15213329e-01f,
-5.30526228e-02f,+1.64537564e-01f,-1.67664558e-01f,-8.36331099e-02f,-3.04249469e-02f,
+2.22876444e-01f,+2.31722668e-02f,+5.27394265e-02f,-1.49123818e-01f,+3.92821878e-02f,
+1.64150447e-01f,+2.57597715e-01f,-1.09274663e-01f,-7.57689476e-02f,+6.20281696e-02f,
+1.77221879e-01f,+2.17361435e-01f,-1.12217776e-02f,-6.70343339e-02f,+1.61815315e-01f,
-1.26106933e-01f,+1.35555277e-02f,+5.24054021e-02f,-1.83807522e-01f,+7.64644444e-02f,
-8.97775739e-02f,+1.18142545e-01f,+2.71242820e-02f,+1.81603938e-01f,+1.91592842e-01f,
-2.88678799e-02f,+5.37371784e-02f,+7.01511875e-02f,+1.57234982e-01f,+1.81281403e-01f,
-1.23584449e-01f,+3.16773318e-02f,-5.59599698e-03f,-1.61278322e-01f,-1.50628790e-01f,
+1.20421737e-01f,+7.92040490e-03f,-1.77218318e-01f,+8.71411059e-03f,+3.44775692e-02f,
-1.36401623e-01f,-1.30356997e-01f,+2.24039719e-01f,+1.60830945e-01f,-5.42231575e-02f,
+2.04628874e-02f,-1.07624575e-01f,+1.18420348e-01f,-1.99133605e-01f,+5.45596220e-02f,
+2.37557143e-02f,-3.91068757e-02f,+1.37291953e-01f,-1.26405507e-01f,-2.40169950e-02f,
+1.30479380e-01f,-2.82692879e-01f,+1.39403060e-01f,-7.08451420e-02f,+1.69859514e-01f,
-7.66417459e-02f,+1.47754654e-01f,-1.40321637e-02f,+1.04378976e-01f,+8.62405635e-03f,
+2.45586768e-01f,-1.40507534e-01f,-1.53367877e-01f,+1.55233026e-01f,+8.30906183e-02f,
+1.10866629e-01f,-1.12456381e-02f,+1.35558367e-01f,+6.98524192e-02f,-1.93610206e-01f,
+1.31275699e-01f,-1.42164007e-01f,-3.00547898e-01f,+1.09712660e-01f,+1.36385635e-01f,
-1.32111996e-01f,-4.73743938e-02f,-1.64634079e-01f,+3.43392529e-02f,+8.09035897e-02f,
-2.18476281e-01f,+1.42469883e-01f,+1.43816441e-01f,-5.59289083e-02f,+2.97872797e-02f,
-1.80293024e-02f,-1.59847930e-01f,+7.05043450e-02f,+3.75617594e-02f,-3.15963812e-02f,
-4.86906059e-02f,-1.68160006e-01f,+3.24534401e-02f,-2.32718259e-01f,+1.85207352e-01f,
+1.24407247e-01f,+4.52725030e-02f,+2.12284371e-01f,-3.74375060e-02f,+1.16815396e-01f,
+1.44451633e-01f,-1.99258327e-03f,-9.34174359e-02f,+1.30601510e-01f,-3.38509642e-02f,
+8.76351669e-02f,+1.50657505e-01f,+2.11326271e-01f,+1.23586841e-01f,-1.85992181e-01f,
-1.97266936e-01f,-3.09849739e-01f,-2.58469909e-01f,-3.13659310e-01f,-1.89794868e-01f,
-3.39075923e-01f,+2.98510253e-01f,-3.50417346e-02f,-8.95264521e-02f,-9.95447561e-02f,
-5.29583097e-02f,+2.89383888e-01f,-6.27203286e-02f,+3.37463677e-01f,-1.28595173e-01f,
+2.05388322e-01f,+9.99194160e-02f,-1.30898938e-01f,+6.21357635e-02f,-7.31621832e-02f,
+4.26464863e-02f,+2.12162033e-01f,-6.15849122e-02f,-1.55739576e-01f,-2.49948017e-02f,
+2.05642015e-01f,-8.46285373e-02f,-9.56662521e-02f,+1.59161925e-01f,-2.64394330e-03f,
+1.85581326e-01f,-8.68944824e-03f,+1.13881201e-01f,-1.23469651e-01f,-1.88959584e-01f,
-1.97101533e-01f,+6.17637560e-02f,-8.71094465e-02f,-1.17528178e-02f,-1.04710087e-01f,
+2.31660202e-01f,-1.64472297e-01f,+5.38284965e-02f,-9.67820287e-02f,+1.60539657e-01f,
-3.48298275e-03f,-1.41139850e-01f,-2.11321488e-01f,+3.09362635e-02f,-2.78478473e-01f,
-9.98668224e-02f,-1.44035235e-01f,-2.53258407e-01f,-8.94598886e-02f,-1.81313857e-01f,
-2.35510066e-01f,+2.99941693e-02f,+2.47305274e-01f,-9.69701633e-02f,-9.57524180e-02f,
+1.60202846e-01f,+2.82867879e-01f,-1.60991967e-01f,+1.75441042e-01f,-2.11106002e-01f,
+1.25060737e-01f,-6.49557263e-02f,-1.26026288e-01f,-9.41552222e-02f,+1.11537948e-01f,
-3.65804657e-02f,-1.65008679e-01f,-7.28696063e-02f,-1.61118180e-01f,-1.27749756e-01f,
+1.87852457e-02f,-2.91811138e-01f,-2.01917529e-01f,-1.00084357e-01f,-1.52577326e-01f,
+2.64015824e-01f,-1.73941046e-01f,+8.98114145e-02f,-2.16978937e-02f,+2.24614404e-02f,
-2.42761090e-01f,+1.78096384e-01f,-2.12734133e-01f,+2.69945651e-01f,+8.94080400e-02f,
-1.02837674e-01f,-4.27399715e-03f,-2.12158561e-01f,-7.62675852e-02f,-1.28094241e-01f,
-4.11240309e-02f,+1.41806677e-01f,+2.53636181e-01f,+2.21159726e-01f,+1.05494559e-01f,
-2.01780796e-01f,+1.59055844e-01f,+7.44928047e-02f,-1.76837325e-01f,-8.88580382e-02f,
-1.26595676e-01f,+4.72433157e-02f,+8.78692344e-02f,-8.47822055e-02f,-2.24012017e-01f,
+2.37156779e-01f,+4.01227921e-02f,+5.41343540e-03f,+9.96725857e-02f,-1.19940639e-01f,
+2.59634852e-01f,+2.58328110e-01f,-7.94664919e-02f,+8.48007798e-02f,+2.67032236e-02f,
-2.97039598e-01f,-2.15409920e-01f,+1.45390376e-01f,-2.83770636e-02f,-2.85245359e-01f,
+1.51495457e-01f,+3.02859128e-01f,-2.95837671e-02f,+4.34517078e-02f,-3.22565526e-01f,
-3.18095237e-01f,-8.76972545e-03f,-2.05503061e-01f,+7.32061937e-02f,-1.10137463e-02f,
+1.44656911e-01f,+2.92975664e-01f,+2.20432311e-01f,-7.28648505e-04f,-3.86260934e-02f,
+1.01055183e-01f,+4.93798517e-02f,-5.35782799e-02f,-8.49345475e-02f,-2.82498151e-01f,
+1.18025273e-01f,+2.16794044e-01f,+2.16395274e-01f,-1.08064167e-01f,+3.10047390e-03f,
-6.58446103e-02f,-1.51930571e-01f,+5.56447953e-02f,-2.00749207e-02f,-1.24222107e-01f,
-1.52241543e-01f,+2.09277943e-02f,+5.73883997e-03f,+2.65152985e-03f,+1.69860229e-01f,
-1.00375615e-01f,-9.35090035e-02f,-2.47807160e-01f,-2.44555905e-01f,+6.14649840e-02f,
+1.66890576e-01f,-1.72320276e-01f,-2.92696357e-02f,-6.96028769e-02f,-1.21284224e-01f,
-6.44800812e-02f,+5.81752211e-02f,+2.11527824e-01f,+9.44433659e-02f,-1.22660235e-01f,
+1.77486345e-01f,+8.03241432e-02f,-7.46618360e-02f,+8.33313689e-02f,-2.46118143e-01f,
-1.62933871e-01f,-1.38185769e-01f,-1.17247351e-01f,-1.97637647e-01f,+1.79846495e-01f,
-1.39648810e-01f,+1.54445702e-02f,-4.49708616e-03f,-9.52346548e-02f,+4.23901379e-02f,
-2.02152342e-01f,+1.51155069e-01f,-8.92391335e-03f,-2.15868637e-01f,+7.45531470e-02f,
-7.77483266e-03f,-2.91374121e-02f,-2.78904941e-03f,+1.19260587e-01f,-1.83377624e-01f,
+2.83574194e-01f,+9.73085873e-03f,-2.04025075e-01f,-1.57132700e-01f,+1.11840963e-01f,
-1.09082654e-01f,+9.04065445e-02f,-4.74698246e-02f,+1.74240973e-02f,+7.08648041e-02f,
-3.90829854e-02f,+1.66675121e-01f,-1.84071064e-02f,+1.07154930e-02f,+1.39634356e-01f,
+2.91676968e-02f,+3.22378874e-02f,-1.99410945e-01f,-1.09293655e-01f,+7.83389062e-02f,
-1.34889647e-01f,+5.57482019e-02f,+3.12525742e-02f,-6.52618706e-02f,+2.18722388e-01f,
-2.96003018e-02f,+7.00298026e-02f,+8.01569745e-02f,-3.66248935e-02f,-1.38750061e-01f,
-1.40795037e-01f,-4.40738052e-02f,+1.75286248e-01f,-2.74217606e-01f,-3.09848070e-01f,
-3.08482021e-01f,-3.89588997e-02f,-2.06663966e-01f,+1.96533889e-01f,-1.05049506e-01f,
+2.27868870e-01f,-2.31528252e-01f,+1.63075235e-03f,-1.07354216e-01f,-2.52675653e-01f,
+8.59977826e-02f,+8.85255411e-02f,-3.34298760e-02f,+3.13627087e-02f,-1.95497766e-01f,
-1.13910951e-01f,+4.30013314e-02f,-7.85955600e-03f,-2.18559802e-01f,-9.71132368e-02f,
-1.42800540e-01f,-1.16415113e-01f,-6.63726628e-02f,-1.01768531e-01f,+1.48837596e-01f,
-1.74368694e-01f,+1.66778669e-01f,-1.84159890e-01f,-2.02780634e-01f,+1.64907873e-01f,
-1.69582769e-01f,-6.60259500e-02f,-9.56196189e-02f,+1.56334937e-01f,-4.95778583e-02f,
+2.67789140e-02f,-1.53294384e-01f,+1.20210275e-01f,-4.90290187e-02f,-1.74557343e-01f,
+1.49058133e-01f,+1.97235998e-02f,-2.41578937e-01f,-1.05559766e-01f,-7.67416507e-02f,
+2.55731847e-02f,-9.79196206e-02f,+1.22863911e-01f,-9.64518264e-02f,-5.36961779e-02f,
+2.04878032e-01f,+1.06700093e-01f,-8.82605016e-02f,+4.68776636e-02f,-1.29169688e-01f,
+1.69125255e-02f,-2.85996974e-01f,-3.28004718e-01f,+6.06461465e-02f,+1.70837671e-01f,
+2.19865486e-01f,-9.10917018e-03f,-4.97570038e-02f,+1.15825392e-01f,-2.08023652e-01f,
+1.28948957e-01f,+1.90826088e-01f,+2.35556826e-01f,+3.25700194e-02f,+1.71036452e-01f,
}; 
k2c_tensor dense_kernel = { &dense_kernel_array[0], 2, 800, { 100,  8,  1,  1,  1 } }; 
float dense_bias_array[8] = {
+1.81712043e-02f,-4.02406789e-03f,-4.72890818e-03f,+1.18564256e-02f,+9.23533645e-03f,
+4.54312786e-02f,+0.00000000e+00f,+4.92327809e-02f,}; 
k2c_tensor dense_bias = { &dense_bias_array[0], 1, 8, { 8,1,1,1,1 } }; 
float dense_fwork[108] = {0}; 

 
float dense_1_kernel_array[8] = {
-9.06935394e-01f,-9.03133512e-01f,-8.11895192e-01f,-8.08222950e-01f,-7.89255857e-01f,
+8.93882573e-01f,+2.83771038e-01f,+6.66111827e-01f,}; 
k2c_tensor dense_1_kernel = { &dense_1_kernel_array[0], 2, 8, { 8,1,1,1,1 } }; 
float dense_1_bias_array[1] = {
+4.27385569e-02f,}; 
k2c_tensor dense_1_bias = { &dense_1_bias_array[0], 1, 1, { 1,1,1,1,1 } }; 
float dense_1_fwork[9] = {0}; 

 
k2c_dense(&dense_output,dense_input_input,&dense_kernel, 
	&dense_bias,k2c_relu,dense_fwork); 
k2c_dense(dense_1_output,&dense_output,&dense_1_kernel, 
	&dense_1_bias,k2c_sigmoid,dense_1_fwork); 

 } 

void mlp_100_initialize() { 

} 

void mlp_100_terminate() { 

} 

