//Numpy array shape [100, 64]
//Min -0.276548743248
//Max 0.274704664946
//Number of zeros 0

#ifndef W2_H_
#define W2_H_

#ifndef __SYNTHESIS__
model_default_t w2[6400];
#else
model_default_t w2[6400] = {-0.08301080018282, 0.09634379297495, -0.08183500170708, -0.12216715514660, 0.12550182640553, -0.03774560615420, 0.11218895763159, -0.14272066950798, -0.13372193276882, -0.01221624482423, -0.10723883658648, 0.07439796626568, -0.11422685533762, -0.12360884249210, 0.14698190987110, 0.17225559055805, -0.00112463627011, -0.11575713008642, 0.15388688445091, 0.07946938276291, -0.01167049258947, 0.15166676044464, -0.02292192727327, 0.18230065703392, -0.15083776414394, 0.17710696160793, -0.05297740176320, -0.03478179872036, -0.16215677559376, 0.16560608148575, 0.04329231753945, -0.14295881986618, 0.11292283982038, 0.12761799991131, 0.09178969264030, -0.14922204613686, 0.00091828644508, -0.13640451431274, -0.01918043382466, 0.02906173095107, 0.10254283994436, 0.10170393437147, 0.16113363206387, 0.02182486094534, -0.02719884179533, 0.05897838622332, 0.12014093995094, 0.00743336509913, -0.14886042475700, 0.10406071692705, 0.17775718867779, 0.06147886812687, 0.02764275297523, 0.07444846630096, 0.16306573152542, 0.18636724352837, -0.16051825881004, -0.02046941034496, 0.11727885901928, 0.02111684530973, -0.10375628620386, -0.18481601774693, -0.14622701704502, -0.16422840952873, 0.19564282894135, 0.13543252646923, 0.12679155170918, 0.03879129886627, 0.21562977135181, 0.11558173596859, 0.24968637526035, 0.00575877679512, 0.14365257322788, -0.02129162289202, 0.05844424292445, -0.20184892416000, -0.00827174354345, 0.05384721606970, 0.16073012351990, -0.24033778905869, -0.10020105540752, 0.12464419007301, -0.09886793047190, -0.02354018948972, -0.07449839264154, -0.19974665343761, -0.08685334026814, -0.12844580411911, -0.23087672889233, -0.16540679335594, 0.00473191076890, -0.05724900960922, -0.15647222101688, 0.06948987394571, 0.14517170190811, 0.08812613785267, -0.08882994949818, -0.08309361338615, 0.11727896332741, -0.10809493064880, 0.12776736915112, -0.05148915573955, 0.14908683300018, 0.07199697941542, -0.23714426159859, 0.02632576599717, 0.00835962966084, -0.12950976192951, -0.09799788892269, -0.04079008102417, 0.05265316367149, 0.06986399739981, -0.02484874427319, -0.15468864142895, -0.09816730767488, 0.22944404184818, -0.01944711618125, 0.13111385703087, 0.13903824985027, 0.03990750014782, -0.03832359611988, 0.12131089717150, -0.14651364088058, -0.08252749592066, -0.01717091724277, 0.07585810869932, 0.06331127882004, 0.07123490422964, -0.07173050194979, 0.13887654244900, -0.14169611036777, 0.03913129121065, -0.13109350204468, 0.10433430224657, -0.00715008098632, -0.01486462634057, 0.09259801357985, -0.13069917261600, -0.03900283202529, 0.08884028345346, 0.05338565632701, 0.10302928090096, 0.13603596389294, -0.18221187591553, -0.17830142378807, -0.02674716897309, 0.05919616669416, 0.02818207256496, 0.00706792483106, 0.15570330619812, 0.00685460120440, 0.16271592676640, -0.11023940145969, 0.17115509510040, 0.14821146428585, -0.08059767633677, 0.04907007142901, 0.02787178382277, 0.14081779122353, 0.11511520296335, -0.03424209728837, -0.08628678321838, -0.09606851637363, 0.17026063799858, -0.05423228442669, 0.09485810995102, 0.13462017476559, 0.12799382209778, -0.17980201542377, -0.04425277933478, 0.07014456391335, 0.13492216169834, 0.18070614337921, 0.03731863200665, -0.00687999371439, -0.06079629436135, 0.13165886700153, -0.09727718681097, 0.08208210021257, -0.01352323964238, 0.19331790506840, -0.05817802995443, -0.06387213617563, 0.15548160672188, -0.00568853458390, 0.12404508888721, 0.03880234062672, -0.02867466583848, -0.12363944202662, 0.03122226335108, 0.07654972374439, 0.02780367806554, 0.08201541006565, 0.09737247973680, 0.15385298430920, 0.11047313362360, 0.03706125169992, -0.12222322076559, 0.18877337872982, -0.15048007667065, -0.07549041509628, 0.20109586417675, -0.08072038739920, 0.09164078533649, -0.19483070075512, 0.15136881172657, -0.03583465889096, -0.11643602699041, 0.04670020192862, 0.03471463173628, -0.09025523811579, -0.11339823901653, 0.03353254869580, 0.10620483011007, -0.18380206823349, 0.00188808259554, 0.14873328804970, 0.20061719417572, 0.08239744603634, -0.16014045476913, -0.00905982684344, 0.05818466469646, 0.20065152645111, 0.02198968641460, 0.01568947918713, 0.04622639715672, -0.19867198169231, 0.02546864002943, -0.07915759831667, -0.11120577156544, -0.16992947459221, -0.17596678435802, 0.01074942201376, -0.09676301479340, -0.13592775166035, -0.07157050073147, -0.16396827995777, -0.22468635439873, -0.03925846889615, -0.11732775717974, -0.20044377446175, 0.06156653910875, -0.02231664583087, -0.11316876858473, -0.00569578772411, -0.10001272708178, 0.05269261822104, -0.17305520176888, 0.06741754710674, 0.14994396269321, 0.09747482091188, 0.17251120507717, -0.19318138062954, -0.00343689089641, -0.05072207376361, 0.16008779406548, 0.18906800448895, -0.11638402193785, 0.13817256689072, 0.02432122454047, 0.17664839327335, 0.16463676095009, -0.14683984220028, 0.04783874377608, -0.10381226241589, -0.04241976141930, -0.05803646147251, -0.15969300270081, -0.00230549834669, 0.13628706336021, -0.17905646562576, -0.08356922119856, 0.08516519516706, -0.07949598878622, 0.00716016860679, 0.15580002963543, 0.17473450303078, 0.06683541089296, -0.09693674743176, 0.01342033781111, 0.17980462312698, 0.06378369033337, 0.07360136508942, 0.13859461247921, -0.16526603698730, 0.11006640642881, -0.08340729773045, 0.04065248742700, 0.08333783596754, 0.02384788729250, 0.06172934919596, -0.04285594448447, 0.06963907927275, -0.05435285344720, 0.14771133661270, -0.02051266841590, 0.00139679445419, 0.19448515772820, -0.13020586967468, -0.12590394914150, -0.18521499633789, -0.00471778353676, 0.03854901343584, -0.06054208055139, -0.03073100373149, -0.13138128817081, 0.17875596880913, -0.05062459036708, -0.10385663062334, -0.02164539322257, -0.10037440806627, 0.18798121809959, 0.10471338033676, -0.16387420892715, 0.06973300129175, -0.03221094608307, -0.12666662037373, -0.07172059267759, -0.03986177965999, 0.03459876030684, 0.08021684736013, 0.09264709800482, -0.06077574566007, 0.09887034446001, 0.14937312901020, -0.06425577402115, 0.13163548707962, 0.14241449534893, 0.02710486389697, 0.19450360536575, -0.16498193144798, 0.04051072522998, -0.20175556838512, -0.10553398728371, -0.07798649370670, 0.17740707099438, 0.04180914536119, 0.13093613088131, -0.13264730572701, 0.15773735940456, -0.07350625097752, 0.11049658805132, 0.05925391614437, -0.20029163360596, -0.05747580528259, 0.13728417456150, -0.10068475455046, -0.03419598937035, 0.20978137850761, -0.04376950114965, 0.17135789990425, 0.06849452108145, 0.01101620309055, 0.12346070259809, -0.12858195602894, -0.03136967867613, -0.14690627157688, -0.09149017930031, -0.11700108647346, -0.09854479134083, -0.15920251607895, -0.17394624650478, -0.10952595621347, 0.09478615969419, -0.16533398628235, 0.08990845829248, 0.10968950390816, -0.00988106522709, -0.03343111276627, 0.18665190041065, 0.04638221859932, 0.04131374135613, -0.14139509201050, 0.01279136445373, 0.08332531154156, -0.03585983440280, -0.14435794949532, 0.03129045665264, -0.11478234082460, 0.07581735402346, -0.18580961227417, 0.00579676311463, 0.09711666405201, 0.10161646455526, -0.03443117439747, -0.15247787535191, 0.16212785243988, -0.14221382141113, -0.06307531148195, 0.07763307541609, 0.20725920796394, -0.16897042095661, 0.19955226778984, 0.16388194262981, -0.00639235414565, 0.05080655217171, -0.12641759216785, -0.02180472016335, -0.14848417043686, -0.13492277264595, -0.16454945504665, -0.01111577544361, -0.00505978846923, -0.04015358909965, 0.07773052901030, -0.05320592969656, -0.01142752170563, -0.04485925659537, 0.13100051879883, 0.01879444345832, 0.12460730969906, -0.07251302897930, 0.12319728732109, 0.10952953994274, 0.03689043968916, -0.02251114882529, 0.04691106081009, -0.01364028546959, 0.05647139251232, -0.06997349858284, 0.03779832273722, -0.01027678605169, 0.02706448175013, -0.01630033180118, 0.18707850575447, 0.17398867011070, 0.14704053103924, -0.12353103607893, 0.09928106516600, 0.15926750004292, 0.01976913958788, 0.00629307795316, 0.08483772724867, 0.12418267875910, -0.18822793662548, 0.02194876968861, -0.10963458567858, -0.11219789832830, 0.12685647606850, 0.12856873869896, 0.12216194719076, 0.06208115071058, 0.06740275770426, -0.05075985193253, 0.13323436677456, 0.17117284238338, -0.07260408997536, 0.10369316488504, -0.05495402216911, -0.02148326486349, 0.08138213306665, 0.11053865402937, -0.00416244240478, 0.16474430263042, 0.11469400674105, 0.08964407444000, -0.10448941588402, 0.00429086294025, 0.10663396865129, 0.05488497391343, 0.11874992400408, 0.19573035836220, 0.09445521980524, -0.10180959105492, 0.14997942745686, -0.10515522956848, -0.12116774916649, -0.00872222054750, -0.17406915128231, -0.05017225444317, -0.01104559656233, 0.05947973951697, 0.08934133499861, 0.11257541179657, 0.08294916152954, -0.03900454938412, 0.10468565672636, -0.09550518542528, 0.02166862972081, 0.07669220864773, -0.01206070650369, -0.03983020782471, -0.05887807905674, -0.12009153515100, -0.06463353335857, -0.01155279297382, 0.13167792558670, -0.07730129361153, -0.09606616944075, -0.01670447550714, 0.10854190587997, -0.14468793570995, -0.12564344704151, -0.16566002368927, 0.13958546519279, 0.16298380494118, -0.00930040050298, -0.06443712115288, 0.05747134611011, 0.18235476315022, -0.10304496437311, -0.12593308091164, 0.14281776547432, -0.06261548399925, 0.19908867776394, -0.00921972561628, -0.04250385612249, 0.10293883085251, 0.17025828361511, -0.07330071926117, 0.05926468595862, -0.04609477519989, -0.19628915190697, 0.03403295576572, 0.03835176676512, 0.09832546114922, -0.05138521641493, -0.00358521379530, -0.08244902640581, 0.10963653773069, -0.07905729115009, -0.08425223082304, -0.10752750188112, -0.09269098192453, -0.04875738546252, 0.02817138656974, 0.14290918409824, 0.07614004611969, 0.12090146541595, 0.00814460497350, 0.02104337327182, 0.11256539076567, -0.09617016464472, 0.21911172568798, 0.08634680509567, 0.16756874322891, -0.17167542874813, 0.03105830959976, -0.06847306340933, -0.01293987035751, -0.03971676155925, -0.12850558757782, 0.05645322054625, 0.05050467699766, 0.18026120960712, -0.15657186508179, -0.13659168779850, -0.08057586848736, 0.09487355500460, 0.15737076103687, 0.18851286172867, -0.10345637053251, -0.01196195650846, 0.10364301502705, 0.00486599048600, 0.06185965240002, 0.14288133382797, 0.10017158836126, -0.10472551733255, -0.05830527842045, 0.15357534587383, 0.04546192288399, -0.13289368152618, -0.00220856489614, 0.02706144191325, -0.15409204363823, 0.11781921237707, 0.12721823155880, -0.12550412118435, 0.17368644475937, 0.17809896171093, -0.17734493315220, 0.13257342576981, -0.10961765795946, -0.18461430072784, -0.10951706767082, 0.03256392478943, -0.04537289589643, -0.03727940842509, -0.02489704452455, -0.17384418845177, 0.19957830011845, 0.15995444357395, -0.11769180744886, 0.12247385084629, 0.01990522816777, 0.17739157378674, 0.00982256606221, 0.06870995461941, 0.04982329159975, 0.15873256325722, 0.15526314079762, -0.16331791877747, -0.11643869429827, 0.03006157837808, 0.00731012644246, -0.09033278375864, 0.14627192914486, 0.02043447829783, -0.18231353163719, 0.10710125416517, -0.06400003284216, 0.20419721305370, -0.09809651970863, 0.00135903921910, 0.15637494623661, 0.08610327541828, -0.00215226178989, -0.09025350213051, 0.11140073835850, 0.03638857975602, 0.18386510014534, -0.04971735924482, -0.07446915656328, 0.17704485356808, 0.07139272242785, -0.13867472112179, 0.13481032848358, 0.13558033108711, -0.10687384754419, -0.06637857854366, -0.07552047818899, -0.07493041455746, -0.04022358730435, -0.05202075839043, 0.05598578974605, -0.05276602879167, -0.13229516148567, -0.06240810826421, 0.01573655568063, 0.02484474331141, 0.03050222992897, -0.05817576497793, -0.12948557734489, 0.03903324902058, 0.09835156053305, 0.15528357028961, -0.18935178220272, -0.03743328899145, -0.09027682244778, -0.06044523045421, -0.05907335504889, 0.01913937367499, -0.05823617801070, -0.18177300691605, 0.13552100956440, 0.00507306726649, -0.04682733863592, 0.16127246618271, -0.20742495357990, 0.10522706806660, 0.17090572416782, 0.13488906621933, -0.11331275850534, 0.05454464256763, 0.09670159965754, 0.20820666849613, 0.11428245902061, -0.18624228239059, -0.11434061080217, -0.17026099562645, -0.02815924771130, -0.03181721642613, 0.17663621902466, -0.02850187756121, 0.03643538802862, -0.11845014244318, -0.17574395239353, -0.10257300734520, -0.06154742091894, 0.14074155688286, -0.00489521166310, -0.01079619117081, -0.06104077398777, -0.11134422570467, -0.08774619549513, -0.02600294537842, 0.19014558196068, 0.02505771629512, -0.09586718678474, 0.22624133527279, -0.09672350436449, -0.02343649230897, 0.06128458678722, 0.12425575405359, -0.13774979114532, -0.04206344485283, -0.14201374351978, 0.14047025144100, 0.17294138669968, -0.18855617940426, -0.06527373194695, 0.00244326796383, -0.17040394246578, 0.16328252851963, 0.05696090310812, -0.16205142438412, -0.01793370768428, 0.20771762728691, 0.03249783813953, -0.09079021215439, -0.18143308162689, 0.02421082369983, -0.00743620423600, -0.15591964125633, -0.09937634319067, 0.05085683614016, -0.03494609892368, 0.14643184840679, -0.02677220851183, -0.14106722176075, 0.17342047393322, 0.12991489470005, -0.12055809050798, 0.15477672219276, -0.02348766848445, 0.11234181374311, 0.09480019658804, 0.00122517161071, 0.09147758036852, -0.06798662245274, -0.09422134608030, 0.11803844571114, -0.14668203890324, -0.19624331593513, -0.14573842287064, 0.17970485985279, 0.13878221809864, -0.07281136512756, 0.05341940745711, 0.07872515916824, -0.08160404115915, 0.05001849681139, 0.17756669223309, 0.04100745916367, -0.10474611818790, 0.03869479522109, 0.16303704679012, 0.06632246077061, 0.02537128143013, 0.04099712893367, -0.13462081551552, -0.00277562881820, -0.13389638066292, 0.14160060882568, 0.05224833264947, 0.06212202832103, -0.05298700928688, 0.16009962558746, -0.04229009896517, -0.12240102142096, -0.13852569460869, -0.00359969493002, 0.13963747024536, 0.17543946206570, -0.03278193995357, 0.15555813908577, -0.14130805432796, 0.13687913119793, -0.00236560264602, -0.01088484469801, -0.12463106215000, -0.06310566514730, -0.12956991791725, 0.17896063625813, -0.06296156346798, -0.04692886397243, 0.15619447827339, 0.06961154937744, -0.12100210040808, -0.11748969554901, -0.01062198914587, -0.14799898862839, 0.04469267278910, 0.10099026560783, -0.20016984641552, -0.09992107003927, -0.11770345270634, 0.14657494425774, 0.01119148451835, -0.13421592116356, -0.17214883863926, -0.03870043531060, -0.02535070851445, 0.03313857316971, -0.17332716286182, -0.07989953458309, -0.10931121557951, 0.03339922800660, 0.17190830409527, -0.08922325074673, 0.06526178121567, 0.13427054882050, 0.04702188447118, 0.09609995782375, -0.08564556390047, 0.08368203788996, 0.07308637350798, 0.11849445104599, 0.06164371222258, 0.03709606081247, -0.07450257241726, 0.07773142307997, 0.08019557595253, 0.12836901843548, -0.09868135303259, -0.03652257472277, -0.20826300978661, 0.12632852792740, -0.13188193738461, 0.16153037548065, 0.04680160805583, 0.15712258219719, -0.02358115836978, 0.08286065608263, 0.08529143780470, -0.02634713985026, 0.13753083348274, -0.16881340742111, 0.16375547647476, 0.16639348864555, -0.18821267783642, 0.00247692130506, -0.18190664052963, -0.05980099737644, -0.20460866391659, -0.12167301774025, -0.02494166977704, -0.05063817650080, -0.14796690642834, 0.06115275621414, -0.00783875957131, -0.16977101564407, 0.15459880232811, -0.16761595010757, 0.20900237560272, 0.12529660761356, -0.17715738713741, -0.22615911066532, -0.06405389308929, -0.01920125074685, -0.12370654940605, -0.03101560100913, 0.05376332625747, 0.21167582273483, -0.03212992101908, 0.09966796636581, 0.25084590911865, 0.14683289825916, 0.17634423077106, 0.05100866034627, 0.12911291420460, -0.03165910393000, 0.00852620415390, 0.14240244030952, 0.10434701293707, 0.00687492452562, -0.04058182984591, -0.24324381351471, 0.12874017655849, 0.01916572079062, -0.06834944337606, 0.05027221515775, -0.19274970889091, -0.04581610858440, -0.10641156136990, 0.01000814419240, -0.15705057978630, -0.00442046718672, -0.09744837880135, 0.12730941176414, 0.07541375607252, -0.10067693144083, -0.16574116051197, 0.15661478042603, 0.16095958650112, 0.12746308743954, -0.02929843589664, 0.04666217416525, 0.08955682069063, -0.04233741387725, -0.10585085302591, -0.16120949387550, 0.00361113343388, 0.15047737956047, -0.00906759314239, 0.02599718607962, 0.11773251742125, -0.16262988746166, -0.20540493726730, 0.02530850470066, -0.09621498733759, 0.27470466494560, -0.20453621447086, -0.22779656946659, -0.13560163974762, 0.16738645732403, -0.19635044038296, 0.10932504385710, 0.12965428829193, 0.11403642594814, 0.09712741523981, 0.19326822459698, 0.04352530092001, -0.18705056607723, 0.10690946877003, -0.13338194787502, 0.13489608466625, -0.05019073560834, -0.06444199383259, -0.06754757463932, 0.00797859393060, 0.12661175429821, 0.12291779369116, 0.01855967938900, -0.10260208696127, -0.20323318243027, -0.09503562748432, 0.03222987428308, 0.03868471831083, 0.10338220745325, -0.05967690050602, -0.22445324063301, 0.05403751134872, 0.12327868491411, 0.03971847146749, 0.04941466450691, -0.12594614923000, 0.00693289190531, 0.13249336183071, 0.06421700119972, -0.03632266074419, 0.15456995368004, -0.14818219840527, -0.20592865347862, -0.12813155353069, -0.13600528240204, 0.17339298129082, 0.05196223407984, -0.10915710777044, -0.06892422586679, 0.01523500122130, 0.04498299956322, -0.09695826470852, -0.16854411363602, -0.11409404873848, -0.06204947456717, -0.14832280576229, 0.03903058543801, -0.15239784121513, -0.13651108741760, -0.11465577781200, -0.05932676047087, -0.00480598909780, -0.12810079753399, 0.02604337222874, 0.07350941002369, 0.07137948274612, 0.09158860892057, 0.05826223269105, -0.09431809931993, -0.02350375615060, -0.06723608821630, -0.06076036021113, 0.08963537961245, -0.16118122637272, 0.01394001394510, -0.09249558299780, 0.00323543627746, -0.08155802637339, 0.02629493921995, 0.02513831667602, -0.05287616699934, -0.14031517505646, -0.08807396143675, -0.08586399257183, 0.19579350948334, 0.06613747775555, -0.05657545849681, 0.13880887627602, 0.15497674047947, 0.13079276680946, 0.02931173518300, -0.20402902364731, 0.17766830325127, 0.03267285600305, -0.07492541521788, 0.14695699512959, -0.06011684238911, -0.17640511691570, 0.04179228842258, -0.00339105539024, -0.11514464020729, 0.17530353367329, 0.18855418264866, 0.15402561426163, 0.00786077976227, 0.06689056754112, 0.01815756969154, -0.06819480657578, 0.07054936885834, -0.15217746794224, -0.13238792121410, 0.03943438827991, -0.11202371865511, -0.14074109494686, 0.18386760354042, 0.02087697573006, -0.02621996775270, 0.17087329924107, -0.17354251444340, 0.15093085169792, -0.09250153601170, 0.10578211396933, 0.17066025733948, -0.12747260928154, -0.02448511123657, 0.09719038009644, 0.05338234826922, -0.10882607847452, 0.20251718163490, 0.01058842707425, 0.05201395973563, 0.04008000344038, 0.06187193840742, 0.17749926447868, -0.09146911650896, 0.16368447244167, -0.15149149298668, 0.11941917985678, -0.04183715581894, 0.08518408238888, 0.08030340075493, 0.14999637007713, -0.10866053402424, -0.13616022467613, -0.13566966354847, -0.12734237313271, 0.02291721478105, -0.02525806799531, 0.17964091897011, -0.17074017226696, -0.00485120201483, 0.02250349894166, -0.20545904338360, 0.02698858454823, 0.08694756776094, 0.17159630358219, 0.19396010041237, 0.06727883964777, 0.01655456237495, 0.05666948854923, 0.15773522853851, -0.01133202575147, 0.00008495265502, 0.01731996424496, -0.07619871944189, 0.07361908257008, 0.12094044685364, 0.00643282989040, -0.07072151452303, 0.02130732871592, 0.06128042563796, 0.05325428023934, -0.13431280851364, -0.05472408980131, -0.05387772992253, -0.04368074238300, 0.04468486085534, -0.07068226486444, 0.07519656419754, -0.11610863357782, 0.01302870362997, 0.10833007842302, 0.14902397990227, 0.11979181319475, 0.01395737193525, 0.02094460465014, -0.18091309070587, -0.08616742491722, -0.00819619279355, -0.01212085597217, -0.08069854974747, -0.06368824094534, 0.13868935406208, -0.19217516481876, 0.05802132189274, -0.20267584919930, 0.00477928249165, 0.12109475582838, 0.10132404416800, 0.10439859330654, 0.09974557906389, -0.01436349004507, -0.17448560893536, 0.01310325786471, 0.04407104849815, 0.00711206719279, 0.14581201970577, 0.12943154573441, -0.08689756691456, -0.14142863452435, 0.19303745031357, 0.06832744181156, -0.08804573863745, 0.12529280781746, -0.06198955327272, -0.09422441571951, -0.16802285611629, 0.16850537061691, 0.02429890632629, 0.11300695687532, -0.17007175087929, -0.15611805021763, 0.01474545896053, -0.04120604693890, -0.13120222091675, -0.17975184321404, 0.14050705730915, 0.11777736246586, -0.13761232793331, 0.15331175923347, -0.08881202340126, 0.18809553980827, 0.09243872761726, 0.19125093519688, -0.00051038741367, 0.21986790001392, -0.00521162385121, -0.17811860144138, 0.16098321974277, -0.01589806564152, 0.15511482954025, -0.17380166053772, 0.12596477568150, -0.08461725711823, -0.08502407371998, 0.16688168048859, 0.11041689664125, -0.01203893218189, 0.09583317488432, 0.00416459515691, -0.13817276060581, 0.00921608414501, -0.13717788457870, -0.11514499038458, -0.20140968263149, -0.12078728526831, 0.16785301268101, -0.00994408968836, 0.16267101466656, 0.08770363777876, 0.16853053867817, 0.11941546946764, -0.08032078295946, -0.19933022558689, -0.02630948461592, -0.01876013725996, 0.20212912559509, -0.04323586076498, -0.00325848977081, -0.04933396726847, 0.00310618756339, -0.09432046115398, 0.01233177073300, -0.10989523679018, -0.11637642234564, 0.01179234776646, -0.04747071489692, -0.07970426231623, -0.08036850392818, 0.01424957998097, -0.01112943235785, 0.11931546777487, -0.02845449373126, -0.02123148180544, 0.16473694145679, 0.10771736502647, -0.11753299832344, -0.12154797464609, 0.12543980777264, -0.00974997226149, 0.09285017102957, 0.18262894451618, -0.05625367164612, 0.09606621414423, -0.18873634934425, 0.12076978385448, 0.14917847514153, 0.00665473099798, 0.10998086631298, 0.16623651981354, 0.12680611014366, -0.10405437648296, -0.18835970759392, 0.08840979635715, 0.14362013339996, 0.10724063962698, 0.05503057315946, -0.05319711565971, -0.06322885304689, -0.06632595509291, 0.15636385977268, -0.07830197364092, 0.02087368257344, 0.11711986362934, -0.05404405668378, 0.04564319178462, 0.19276659190655, 0.10398827493191, 0.11089144647121, 0.02830550447106, 0.07438020408154, 0.00451993988827, 0.04571692273021, 0.16051822900772, 0.12060805410147, 0.08752486854792, 0.02847914956510, -0.03235337510705, 0.03657206147909, 0.06308995187283, 0.16040487587452, -0.03501666709781, 0.17602680623531, -0.08265510946512, -0.15671122074127, -0.07290101796389, -0.08598068356514, 0.17085118591785, 0.02144188433886, -0.09063652902842, 0.04259486123919, 0.09045779705048, 0.05335072055459, 0.09900648891926, -0.14085985720158, 0.06305499374866, 0.16242165863514, -0.04260224848986, -0.03827555477619, 0.14129598438740, -0.09809423983097, 0.05555348098278, -0.11168586462736, -0.14879436790943, 0.15351103246212, 0.03983125090599, -0.15598380565643, 0.00191717268899, -0.05168585479259, 0.06171778962016, 0.05055814236403, 0.15806764364243, -0.11729507148266, -0.08437414467335, -0.05208454653621, 0.06665460765362, 0.15575113892555, 0.11380293220282, -0.20789046585560, -0.09835286438465, -0.03465413674712, -0.16571545600891, -0.15979127585888, -0.13016258180141, -0.14279367029667, 0.06258914619684, -0.19371195137501, -0.02991916984320, -0.10983376204967, 0.14879232645035, 0.03598242253065, 0.05650258064270, -0.12063570320606, -0.01772339455783, 0.01932158321142, 0.03980534523726, -0.02032717131078, -0.01303926669061, 0.09716771543026, 0.06415199488401, -0.19082020223141, 0.07623340189457, 0.01393006276339, 0.11507885903120, -0.21734531223774, 0.06971619278193, 0.05304830893874, -0.11042127013206, -0.01571207679808, 0.16435520350933, 0.26711040735245, -0.17076045274734, -0.13238964974880, 0.22522164881229, 0.04409246146679, 0.08333219587803, 0.17835488915443, -0.18156565725803, -0.23047333955765, 0.05036170035601, -0.05964509397745, 0.18959802389145, -0.09693660587072, -0.18500928580761, -0.10181354731321, -0.03771120309830, 0.10375689715147, -0.06135905161500, 0.12372970581055, 0.05455414950848, 0.17945452034473, -0.08581463992596, 0.18982222676277, -0.14022357761860, -0.24699935317039, -0.18312871456146, -0.11755184829235, -0.24041141569614, 0.22196501493454, -0.01182744838297, 0.08386975526810, -0.09536874294281, 0.05148592591286, 0.23534394800663, 0.07856255024672, -0.22389923036098, -0.17521922290325, 0.04614618793130, -0.05178612098098, -0.17892760038376, -0.09298972785473, -0.09817753732204, -0.25125503540039, -0.18969389796257, 0.15513484179974, -0.01620875485241, -0.08539747446775, -0.17298467457294, 0.19900313019753, -0.12520200014114, -0.16934458911419, -0.17465655505657, -0.11250175535679, 0.17778657376766, 0.12098722904921, 0.19179348647594, -0.08128137141466, 0.06112593412399, 0.03184505179524, -0.06949743628502, -0.15571595728397, 0.08575358986855, 0.03471344336867, -0.15727503597736, 0.09879764169455, -0.08464277535677, 0.03845557942986, 0.12428861856461, 0.19358867406845, 0.17796351015568, 0.02700577490032, -0.16698713600636, 0.02434506267309, 0.15100704133511, 0.11469409614801, 0.20609399676323, 0.06141391023993, 0.01333351712674, -0.13607992231846, -0.08494172990322, -0.05365949496627, -0.14751461148262, -0.07334506511688, 0.05019885674119, 0.01950858160853, 0.01044992078096, 0.17813615500927, -0.12080533057451, 0.01450957916677, 0.08879413455725, 0.10765032470226, -0.21827179193497, -0.04914408922195, 0.00837860070169, -0.00408598501235, 0.09904344379902, 0.16521304845810, 0.17915287613869, 0.03611712902784, 0.14841566979885, -0.06395780295134, 0.14863699674606, -0.18697889149189, -0.19622543454170, -0.04252760112286, 0.15574353933334, -0.00879743229598, -0.08178064972162, 0.07192510366440, -0.08397940546274, -0.05176774784923, 0.05415870249271, -0.00457368884236, 0.10621042549610, -0.05840252339840, 0.04850146919489, -0.12318721413612, 0.10736889392138, -0.10406824201345, -0.08512104302645, 0.07433471828699, 0.04445835947990, -0.11836608499289, -0.07311195135117, -0.04864524304867, -0.13775165379047, -0.16050285100937, -0.13731607794762, -0.04401480779052, 0.05308690294623, 0.10126274824142, -0.01343964599073, 0.18114784359932, -0.15718361735344, 0.17258237302303, -0.16388900578022, -0.18146669864655, 0.07124803215265, 0.02521595358849, 0.07712765038013, -0.04580793902278, 0.10832230746746, -0.17783260345459, 0.07401810586452, -0.11012376099825, 0.11484659463167, 0.17048336565495, 0.10206408798695, -0.03518665954471, 0.18843315541744, 0.00138746271841, 0.11218364536762, -0.17227306962013, -0.15678526461124, -0.03403444960713, 0.11735101789236, -0.13573260605335, -0.08718462288380, 0.17654456198215, -0.00495421653613, -0.10107163339853, -0.08166866749525, 0.10933278501034, -0.10983574390411, 0.15559802949429, -0.00034237024374, 0.05202975496650, -0.13309675455093, 0.02622694522142, -0.05609080195427, -0.13976989686489, -0.18384781479836, 0.00155095383525, 0.15720969438553, -0.06001001223922, -0.15717478096485, -0.12123832851648, 0.14835640788078, -0.02967282012105, 0.08391970396042, -0.02752550318837, 0.10718106478453, -0.09330641478300, -0.16628657281399, -0.08307433128357, 0.10775104910135, 0.16818404197693, 0.08422258496284, -0.13537944853306, 0.14376083016396, 0.18685708940029, -0.19149564206600, 0.12938147783279, 0.10692042857409, -0.04777436330914, 0.02158749476075, 0.00523833651096, -0.07772523164749, 0.12786611914635, -0.00967921875417, 0.10078594088554, -0.19096362590790, -0.10867038369179, -0.14817740023136, -0.08640374243259, -0.11604558676481, -0.08813514560461, 0.08237008750439, -0.01696120016277, 0.12380085140467, 0.08383613079786, 0.01837090961635, 0.00026683474425, -0.13358294963837, -0.12379900366068, -0.00935976393521, 0.20524385571480, -0.08431950956583, 0.11124228686094, 0.09275797009468, -0.07308840006590, -0.01743049547076, 0.11675474792719, -0.21525403857231, -0.09764261543751, -0.07047495990992, 0.14733606576920, -0.03965646773577, -0.17379482090473, 0.01435223687440, 0.16883310675621, -0.10363981127739, 0.02611781656742, -0.13877686858177, 0.11745848506689, 0.08187229931355, -0.06388945132494, 0.18420594930649, 0.14483420550823, -0.04901432991028, -0.13025420904160, -0.14676186442375, 0.13398386538029, 0.18733990192413, -0.05113241076469, -0.09625849127769, 0.08380693197250, 0.10755033791065, 0.16254588961601, -0.17334793508053, -0.07436291873455, -0.04890797287226, -0.19162036478519, -0.21600551903248, -0.08530046790838, -0.00071153562749, 0.15168060362339, 0.05512149259448, -0.01616662740707, -0.03269034624100, -0.14514370262623, -0.19124937057495, -0.16754418611526, 0.07626882940531, -0.04865831136703, -0.08601052314043, 0.00896037090570, -0.13248209655285, 0.04308486729860, 0.16447825729847, -0.14815868437290, 0.16422326862812, 0.03682643175125, 0.18647605180740, -0.12429225444794, -0.06070709228516, 0.09942612051964, -0.14092276990414, 0.05943426862359, 0.14137478172779, -0.19260230660439, -0.04193688184023, 0.09318871051073, 0.00629139225930, 0.11206465959549, -0.00625544227660, 0.19399303197861, 0.12242406606674, 0.04613264277577, 0.02317749708891, 0.14835928380489, -0.10726000368595, 0.19072706997395, 0.08643136918545, -0.02014027535915, -0.09186156094074, 0.05237560346723, 0.03228064626455, 0.02824612148106, 0.00191715860274, -0.01946060545743, -0.08639166504145, 0.15691110491753, -0.01673436164856, -0.04417501017451, -0.05288704857230, -0.05523044615984, -0.19900235533714, 0.16050675511360, 0.13415499031544, 0.03941728919744, -0.12639227509499, 0.10014220327139, -0.08185704052448, 0.10979002714157, 0.07247914373875, 0.19502580165863, 0.12172414362431, -0.07612678408623, 0.01942041143775, 0.04037557542324, 0.16018779575825, -0.11231375485659, -0.03349446877837, -0.02283228933811, 0.12458870559931, -0.11488090455532, -0.09127239882946, -0.01053148414940, -0.18185164034367, -0.10556163638830, 0.07671321183443, -0.00613366672769, 0.15706878900528, 0.00056955439504, -0.13542835414410, 0.05158122628927, 0.09899652004242, -0.08298380672932, -0.05317524075508, 0.11389494687319, -0.16406498849392, 0.12632961571217, 0.03020184114575, -0.13226598501205, -0.13406272232533, -0.00523467035964, 0.08491292595863, 0.12915319204330, -0.04876288026571, -0.16214008629322, 0.09376969188452, 0.11361163109541, 0.16424608230591, 0.09377729147673, 0.07952858507633, -0.16731318831444, -0.01200071256608, 0.13487693667412, 0.03834327310324, -0.03288705274463, -0.00749001698568, 0.05760915577412, -0.12330237030983, -0.06153141334653, 0.07601990550756, -0.00049861380830, -0.06695455312729, 0.08925618231297, -0.02964608930051, -0.03014850616455, 0.05588098987937, -0.18518052995205, 0.10076957195997, 0.01801639609039, -0.15167132019997, -0.12651996314526, 0.18240410089493, -0.15438230335712, -0.15810719132423, -0.16112758219242, -0.08101597428322, -0.08230053633451, 0.00556694716215, 0.02971382625401, -0.01259506307542, -0.09920352697372, -0.05867417901754, -0.03478717803955, 0.11906139552593, -0.18410487473011, 0.09598249942064, -0.17054568231106, -0.04337505251169, -0.04416233301163, 0.15035691857338, -0.06988606601954, 0.18124490976334, 0.10137230902910, -0.04794681072235, -0.13691113889217, -0.06762547045946, 0.02709479071200, -0.02466529048979, 0.13949523866177, -0.07640264928341, 0.07356058806181, -0.02204035595059, 0.00310920923948, 0.17953184247017, 0.09281508624554, -0.13309799134731, -0.15601269900799, -0.12506882846355, 0.11980417370796, 0.18928958475590, -0.04276440292597, 0.14285293221474, -0.13673959672451, -0.15417297184467, 0.01413875911385, 0.08114802837372, 0.12893025577068, -0.04904752224684, 0.06481283158064, 0.01551092043519, -0.11909745633602, -0.01538049429655, 0.16243277490139, -0.09610931575298, 0.07782948017120, -0.08696576207876, 0.16967909038067, -0.04161991178989, -0.08553314954042, -0.19119715690613, 0.11438443511724, 0.16110822558403, -0.05994264781475, -0.10438174009323, -0.08513588458300, 0.07677189260721, 0.02652306109667, 0.04973521456122, 0.14963626861572, -0.11092078685760, -0.09487472474575, 0.00005352310836, 0.04396908357739, -0.14239932596684, -0.15331368148327, -0.08956089615822, 0.00764080649242, 0.06198504939675, -0.04514937102795, -0.03766585513949, -0.03445010259748, 0.21277943253517, 0.10941664129496, -0.01443994976580, 0.22349086403847, -0.04659712687135, -0.18071965873241, 0.18501956760883, -0.11708089709282, 0.14942051470280, -0.19222992658615, 0.09645280241966, -0.11799736320972, 0.16407907009125, -0.11533623188734, 0.08437707275152, -0.08035206049681, 0.10194356739521, 0.07911887764931, 0.01530950143933, 0.20457328855991, 0.13481111824512, 0.16939857602119, 0.12693028151989, -0.07077354192734, 0.05871965363622, -0.01250809803605, -0.16078415513039, -0.06862054020166, -0.05813531205058, -0.03716141358018, -0.06854882836342, 0.13534176349640, -0.16825613379478, -0.09360749274492, 0.18659897148609, -0.00119174225256, -0.19271346926689, 0.14563439786434, 0.01091197319329, -0.02849040366709, 0.06493268907070, 0.06346904486418, 0.08300361037254, 0.10034476965666, -0.08256284892559, -0.11762347817421, -0.00719062704593, -0.11252675950527, 0.20049802958965, 0.08917220681906, -0.06295673549175, -0.05848785489798, 0.02968608215451, -0.10578941553831, -0.00185942323878, -0.13340836763382, -0.10260543227196, -0.01087600272149, -0.17296560108662, 0.18131507933140, -0.11674761027098, -0.10929915308952, 0.19056960940361, 0.03415892273188, -0.15270136296749, 0.15741035342216, 0.05907109007239, -0.15162597596645, -0.14266565442085, -0.06079394742846, 0.06527732312679, -0.12623569369316, 0.07372120022774, -0.14500837028027, -0.09392131119967, 0.01113970018923, 0.06997756659985, 0.03596894070506, -0.16525119543076, 0.04904275760055, 0.06898272782564, 0.17968615889549, 0.12902028858662, -0.13346579670906, -0.17233994603157, 0.16324423253536, -0.19076007604599, 0.16169223189354, -0.10852675884962, 0.15011137723923, -0.17029131948948, -0.07108106464148, 0.13893167674541, -0.09837424755096, 0.12113112211227, 0.15826053917408, -0.03089478798211, -0.16902998089790, 0.05593757331371, 0.11577722430229, -0.03040594607592, -0.04010662809014, -0.12588334083557, 0.11281944811344, -0.05898353084922, -0.03853562846780, 0.06442773342133, -0.08655329048634, 0.18400670588017, -0.00883967429399, 0.04006003215909, -0.12678803503513, 0.04205355048180, -0.11218922585249, -0.10934247821569, 0.15051622688770, 0.13702264428139, 0.07284618169069, 0.11952912062407, -0.15056605637074, -0.11473934352398, 0.09731261432171, 0.07457365095615, -0.05680102482438, -0.04267620295286, 0.00464377831668, 0.06239912658930, -0.19171771407127, -0.05045924335718, 0.00596441701055, 0.04855182766914, -0.02903549373150, 0.17636094987392, -0.22607669234276, 0.07311598956585, -0.03838671743870, 0.04333173111081, -0.00645569991320, 0.01548849325627, -0.09782058000565, 0.16964182257652, -0.01087482925504, 0.07234052568674, 0.16032686829567, 0.10763819515705, 0.13979287445545, -0.00480027869344, 0.03198835253716, -0.02676945365965, 0.18088488280773, 0.03432162106037, 0.15184564888477, 0.15314838290215, -0.11490539461374, 0.06979335099459, -0.15111729502678, -0.15468679368496, -0.13032247126102, -0.02205667272210, -0.08404099941254, 0.07599224150181, -0.04617776721716, 0.01806316711009, 0.03535309433937, -0.12189525365829, 0.07257485389709, 0.05119998380542, -0.11248300224543, 0.00667439354584, -0.02201653644443, 0.07858123630285, 0.05164080113173, 0.13866269588470, 0.10289029031992, -0.04739627614617, -0.08533813804388, 0.12425346672535, 0.08906950801611, -0.08156102150679, 0.16801695525646, -0.04867850244045, 0.11771162599325, 0.07574268430471, 0.03336199745536, 0.15558095276356, 0.06840801239014, -0.09563695639372, 0.04046466201544, -0.17996220290661, 0.03010128997266, 0.00582802109420, -0.01240127533674, 0.09136192500591, 0.00939278304577, 0.01524862647057, 0.12762843072414, -0.00542812887579, -0.20420604944229, 0.15880770981312, -0.07675708830357, -0.13323737680912, -0.11155017465353, 0.00497250724584, 0.07314132153988, 0.08756465464830, -0.14728689193726, 0.14839863777161, 0.14458522200584, -0.17606210708618, 0.01961645483971, 0.08032749593258, 0.01281068846583, -0.10121804475784, -0.06877282261848, -0.11086710542440, 0.04020167142153, -0.15151049196720, 0.16606795787811, -0.16632109880447, -0.15048271417618, 0.06950823962688, -0.03081448748708, -0.03263517841697, 0.11438281834126, -0.08417050540447, -0.10645105689764, -0.10789576172829, 0.01151566486806, -0.10073957592249, -0.01240999251604, -0.16504231095314, -0.09648223221302, 0.18672946095467, 0.08491409569979, 0.05594340339303, 0.15355998277664, -0.15223249793053, -0.17222906649113, 0.00237734336406, -0.07231084257364, 0.08208563178778, -0.08038902282715, -0.05128360912204, 0.16243779659271, -0.11692374199629, -0.10245627909899, 0.24449285864830, 0.22788573801517, 0.11349535733461, 0.13330689072609, 0.10800383239985, -0.07389781624079, -0.12217584252357, -0.19479021430016, -0.01848814077675, -0.17407844960690, 0.16002085804939, -0.17977011203766, 0.08581151813269, -0.03941047564149, 0.02536588720977, -0.22437573969364, 0.02518373727798, -0.18864975869656, 0.24492894113064, 0.02928088419139, -0.00242379517294, 0.22824868559837, -0.12578150629997, 0.15411102771759, -0.02506126463413, -0.20238429307938, 0.09386314451694, 0.18862560391426, -0.21047362685204, 0.14682191610336, 0.14601939916611, 0.18719999492168, -0.09738313406706, 0.15596705675125, -0.05794743448496, 0.18374788761139, 0.11387645453215, 0.10410886257887, -0.18386539816856, -0.07229010760784, -0.18866854906082, 0.05915220081806, -0.15470740199089, -0.01180690247566, 0.08980242908001, 0.17167876660824, -0.09934560209513, 0.15810462832451, -0.11364789307117, -0.12831307947636, 0.01651919446886, 0.03819336742163, 0.10884337872267, -0.04837637767196, -0.15332062542439, -0.02268928289413, 0.06254333257675, -0.18725518882275, 0.01887981593609, -0.04525722563267, 0.04784055426717, -0.09314863383770, -0.00895491987467, 0.08226496726274, -0.10458403825760, 0.06526512652636, -0.17301981151104, -0.05304608494043, 0.19661960005760, -0.01485296618193, 0.16742795705795, 0.18130512535572, -0.00367179559544, -0.20537017285824, 0.15196286141872, 0.14570941030979, 0.13927991688251, 0.15507964789867, -0.16856901347637, 0.03813902661204, -0.11370785534382, -0.19855576753616, -0.10135637223721, -0.15451718866825, 0.08573835343122, 0.02800388447940, -0.10664138197899, -0.02251905202866, 0.06626479327679, -0.09896834939718, 0.03225564584136, 0.09788172692060, 0.13986977934837, 0.06828754395247, 0.05327781662345, 0.12499179691076, -0.06564319133759, -0.05703689157963, -0.04537195712328, -0.20309565961361, 0.03939193487167, -0.18346771597862, 0.16662536561489, -0.09755002707243, 0.05751283466816, -0.08632813394070, 0.05005174502730, -0.17552967369556, -0.01496507786214, 0.06843671947718, -0.11882059276104, 0.14698329567909, -0.18824054300785, 0.19675806164742, -0.01985265687108, -0.19490073621273, 0.13780459761620, 0.06516657769680, -0.07960472255945, -0.07339357584715, 0.09688829630613, 0.00775450654328, 0.07828887552023, -0.00801173690706, -0.03802130371332, -0.11507609486580, 0.07449648529291, 0.16973632574081, -0.05825437977910, 0.05778944119811, -0.07844608277082, -0.14315675199032, 0.05245741456747, 0.07286929339170, 0.19007141888142, 0.17937435209751, -0.14523442089558, 0.03944956883788, 0.14498050510883, -0.02604665979743, -0.01829369552433, 0.18531590700150, -0.12756031751633, -0.00624188827351, -0.17659814655781, 0.13292722404003, -0.06459872424603, -0.06221255660057, -0.01422008499503, -0.16442035138607, -0.04698244854808, 0.01995742693543, -0.11369896680117, -0.11985410749912, 0.18127468228340, 0.02837212011218, -0.12808999419212, 0.06608341634274, -0.10192096978426, -0.19620776176453, -0.03940624371171, 0.06210789084435, 0.00951165240258, 0.20193368196487, 0.02204306423664, -0.11924900114536, -0.09227088838816, 0.06719890981913, 0.05798217654228, 0.12956744432449, 0.08612427115440, 0.09797449409962, -0.07449387758970, -0.06589867919683, 0.11300734430552, -0.15804189443588, 0.13503706455231, 0.03023221716285, -0.16511178016663, -0.15510466694832, 0.02615123614669, -0.07912062853575, 0.04709850251675, 0.14414864778519, -0.16650366783142, 0.11050700396299, 0.03017446398735, -0.07474923133850, 0.18937279284000, -0.12970902025700, 0.14085735380650, 0.15146018564701, 0.12236120551825, -0.12033231556416, -0.15457049012184, -0.16363722085953, 0.03593396022916, 0.08104509115219, 0.09582105278969, 0.13779810070992, 0.08401114493608, 0.09084765613079, -0.12989570200443, -0.03826394304633, -0.00170885340776, 0.13365644216537, 0.09535962343216, -0.08118092268705, -0.08306470513344, 0.00645508058369, -0.00083877681755, -0.02302071079612, -0.08915372192860, 0.03228019550443, -0.17539323866367, 0.08233205974102, -0.01818385720253, -0.14746342599392, -0.11452548950911, 0.19264020025730, 0.02108478546143, -0.05407653748989, -0.17801523208618, 0.05542350187898, 0.08459922671318, -0.04814611375332, -0.02198042161763, 0.00080772087676, 0.17002059519291, -0.12811616063118, -0.02358380891383, -0.09838978946209, -0.16537538170815, 0.08105438947678, -0.00461285747588, -0.13428796827793, -0.04735817387700, -0.05334290117025, -0.05724766850471, -0.12560498714447, 0.10237175971270, 0.10226617753506, -0.10117102414370, 0.04876272380352, 0.03059433959424, 0.18132898211479, -0.12718868255615, -0.17097803950310, 0.12988850474358, 0.08741778880358, 0.12409902364016, -0.10151240229607, 0.03734682500362, -0.06801314651966, -0.03709063678980, 0.15977178514004, -0.19056083261967, 0.05820960924029, 0.08476696908474, -0.02856217138469, -0.08143147081137, -0.13914111256599, -0.01580175757408, -0.16163736581802, 0.08755257725716, -0.00214180746116, -0.11753830313683, 0.12275452166796, 0.08364720642567, -0.18025726079941, -0.02475203387439, 0.12654788792133, -0.15915274620056, -0.19101080298424, -0.03007158264518, 0.10439981520176, -0.04090907052159, -0.12376049906015, -0.02898568101227, -0.00387114472687, -0.14524163305759, 0.00177138799336, 0.17646786570549, -0.09991046786308, 0.19999188184738, -0.16473853588104, -0.03094686940312, -0.18979042768478, -0.00360850337893, 0.03052875213325, 0.10089597851038, -0.08130958676338, -0.05512922629714, -0.04923551529646, -0.01785604655743, 0.01697462238371, -0.06245991960168, 0.14937715232372, -0.15989552438259, -0.14652833342552, -0.09394451975822, 0.02761811949313, -0.16701065003872, -0.00538486381993, -0.06228091195226, 0.07834465056658, 0.18450655043125, -0.07563799619675, 0.16719254851341, 0.10883754491806, 0.13328820466995, 0.12481681257486, 0.03495725989342, 0.20238769054413, -0.15361218154430, -0.08165809512138, 0.10617249459028, -0.00581519166008, 0.18992309272289, 0.11340901255608, -0.15352964401245, -0.21565964818001, 0.22063043713570, -0.11451273411512, -0.10267505794764, -0.23922535777092, -0.00918916426599, -0.04590062797070, -0.02721313387156, -0.02750388905406, -0.21110358834267, 0.12553209066391, -0.20638003945351, 0.02468292042613, -0.11455006152391, 0.09196019917727, 0.02280430495739, -0.11993608623743, 0.04191488400102, -0.06514250487089, 0.10083839297295, -0.27654874324799, 0.19002571702003, -0.09009097516537, -0.16109462082386, 0.00746024958789, 0.12075244635344, 0.11138514429331, 0.00626608077437, -0.24814592301846, -0.00311750476249, 0.03847917169333, -0.11413548141718, 0.08203314244747, -0.23479555547237, 0.00329895061441, -0.13491247594357, 0.11305423080921, -0.00340395839885, 0.07899197191000, 0.13685277104378, 0.09791094064713, -0.00359032442793, -0.07612337917089, 0.16419392824173, -0.10568977147341, 0.14237578213215, -0.27342879772186, 0.01529616024345, -0.16525542736053, 0.03186511993408, 0.00237975246273, -0.08731245249510, -0.05061742290854, -0.08857737481594, 0.10436563938856, -0.16854208707809, 0.15323844552040, 0.15236721932888, 0.14347934722900, 0.07570278644562, 0.18200522661209, 0.21146713197231, 0.04443348199129, 0.01515649352223, 0.09374390542507, -0.03842656686902, -0.09975331276655, -0.14082166552544, 0.03488878160715, 0.04546457529068, 0.13208048045635, -0.17264953255653, -0.12862473726273, 0.00119208707474, -0.15506230294704, -0.13069865107536, 0.11397895962000, -0.05584358796477, 0.12983892858028, 0.17673508822918, 0.19764202833176, -0.22675940394402, 0.05830752477050, -0.13393461704254, -0.22934859991074, -0.16474445164204, 0.02592671662569, -0.04677025228739, 0.14886647462845, 0.14499312639236, -0.14579778909683, -0.08386265486479, -0.09130939096212, -0.11661925166845, 0.06640651822090, -0.21337459981441, 0.07087481021881, 0.10265351086855, 0.13757464289665, 0.19830852746964, -0.05523883178830, 0.16270658373833, 0.11699594557285, 0.18773850798607, -0.18457816541195, 0.20740014314651, -0.01580106280744, 0.09971896559000, 0.12035368382931, 0.08627641201019, -0.05750308930874, 0.00746473856270, -0.10589271783829, 0.15420855581760, -0.12665660679340, 0.22707939147949, 0.18223884701729, -0.04876519367099, -0.09570820629597, -0.01173048652709, 0.11324693262577, -0.15905512869358, 0.01778350211680, -0.06975344568491, 0.05821233242750, 0.10535813868046, 0.07938767969608, -0.14823338389397, 0.11978033930063, -0.10516230762005, -0.11165611445904, 0.04850617423654, 0.02666345238686, -0.05483265966177, 0.05054965242743, 0.17483116686344, -0.12647327780724, 0.18465466797352, -0.08155900985003, -0.17241470515728, -0.15834845602512, 0.12643355131149, -0.04906658455729, 0.17989511787891, -0.10777541249990, -0.09371438622475, 0.13083919882774, 0.02658594585955, -0.00531058292836, -0.12703438103199, -0.09930880367756, 0.00664565665647, -0.13504068553448, 0.17717765271664, 0.08489597588778, 0.02613350935280, 0.13450047373772, -0.06558892875910, -0.08080777525902, -0.17896130681038, 0.14822107553482, -0.11679509282112, 0.04617710784078, -0.05318567529321, -0.03575852140784, -0.11286936700344, -0.03013925626874, -0.13322229683399, 0.08009783923626, 0.17139758169651, 0.06864142417908, -0.00152404652908, 0.16922461986542, 0.02314740791917, 0.01656820997596, -0.17259685695171, -0.15982657670975, -0.07007654756308, -0.05695006996393, 0.11756048351526, 0.14944364130497, 0.11004787683487, -0.13451017439365, -0.01278657652438, -0.11525939404964, 0.02645787410438, -0.03187105059624, 0.14777156710625, 0.10845392197371, 0.16255238652229, 0.13507573306561, -0.00811946578324, 0.15494263172150, -0.18578812479973, 0.06315002590418, -0.00097636476858, -0.13715867698193, -0.07745267450809, 0.02969454042614, -0.12359915673733, 0.18020361661911, -0.04877148941159, -0.02219117991626, 0.06347461789846, 0.11706885695457, 0.02122529223561, 0.08646466583014, 0.17582403123379, -0.06444072723389, -0.20526850223541, -0.15792746841908, -0.15520119667053, -0.15352544188499, 0.16068236529827, -0.01345001254231, 0.19453661143780, -0.00068238773383, 0.05604255944490, -0.08088821917772, -0.14691385626793, 0.07493025064468, -0.03804897889495, 0.04530232027173, -0.10694772005081, 0.01722098886967, -0.04136146232486, -0.00535977818072, 0.15416416525841, 0.10620089620352, 0.12235509604216, -0.02403417229652, -0.05610426515341, 0.15833045542240, 0.14342626929283, -0.17036430537701, -0.13799309730530, 0.10510335117579, -0.14856590330601, -0.16288472712040, -0.06182972714305, -0.18264542520046, 0.12709301710129, 0.03006494976580, -0.08113782107830, -0.00041595019866, 0.13342161476612, 0.14014711976051, -0.11738671362400, -0.13131685554981, -0.03141908720136, 0.13666252791882, 0.15372991561890, -0.03451327234507, 0.09604816138744, -0.08679210394621, -0.06627151370049, -0.09060002118349, -0.16124194860458, -0.01379856280982, 0.12706148624420, -0.22520332038403, -0.15390804409981, -0.11479631066322, -0.05413953587413, -0.15695883333683, 0.09660474956036, -0.10781220346689, -0.14189375936985, 0.14177688956261, -0.00458369078115, -0.15174907445908, 0.02418830990791, -0.14107449352741, 0.08656844496727, 0.02235945500433, 0.13310766220093, -0.07877691835165, -0.06579773873091, 0.09541327506304, 0.13373713195324, -0.14181853830814, 0.00315494602546, 0.02070341072977, -0.09328810125589, -0.18619497120380, 0.04810910299420, 0.04092492908239, -0.06086054071784, 0.11466725170612, -0.19197711348534, -0.11143254488707, -0.16794419288635, -0.11631211638451, -0.04141342267394, -0.00184480962344, -0.14557257294655, -0.11184754222631, -0.09579958021641, -0.08699278533459, 0.08232108503580, -0.05096574872732, 0.08607922494411, 0.15652306377888, 0.10307031124830, -0.00083190418081, -0.14259915053844, 0.17978490889072, 0.21198630332947, -0.05841610953212, -0.09245811402798, 0.04363147169352, -0.15493129193783, -0.13399858772755, -0.06355568021536, -0.06835851073265, -0.15500617027283, -0.12186214327812, 0.00344543298706, 0.01024854741991, 0.14455969631672, -0.11517946422100, 0.15905304253101, 0.17185947299004, -0.02869946509600, 0.07825465500355, 0.08849452435970, -0.11687555909157, -0.02842809632421, -0.01552543882281, -0.15376444160938, 0.09728451073170, 0.13667337596416, -0.03682225197554, -0.05468587949872, -0.03818732500076, -0.04055619239807, -0.12499891221523, 0.10338855534792, -0.20602566003799, -0.02507494948804, 0.08920015394688, -0.12340174615383, 0.09118601679802, -0.14279814064503, 0.08449347317219, 0.16538918018341, -0.12004237622023, 0.08608978986740, -0.16130357980728, -0.00664707040414, 0.10447888076305, -0.15575279295444, 0.07741054147482, -0.10043329000473, -0.04424417763948, 0.16549043357372, -0.13874053955078, -0.18844719231129, 0.05450049042702, -0.15523912012577, -0.02158444747329, 0.18460693955421, 0.14686113595963, -0.01637141406536, -0.12756010890007, 0.03180439025164, -0.10533393174410, -0.13997511565685, -0.12129569798708, 0.11767784506083, -0.07663564383984, 0.14727598428726, 0.06820166856050, 0.17125099897385, -0.04549942538142, 0.14341972768307, -0.03635038807988, -0.00204440974630, -0.10097002983093, 0.15317963063717, 0.13775761425495, -0.15680269896984, -0.13280290365219, -0.12399050593376, -0.08768616616726, -0.11819189786911, -0.07380747795105, -0.00222864886746, 0.03509211540222, -0.06618703901768, 0.10125453025103, 0.08167566359043, 0.18047809600830, 0.16341158747673, 0.13456948101521, -0.10598166286945, -0.18885034322739, 0.01808176934719, -0.11735798418522, -0.05785152316093, 0.05720726028085, -0.01992339640856, -0.12170498073101, 0.06307007372379, 0.03683024644852, 0.05183587595820, -0.11729444563389, -0.11890246719122, -0.08090943098068, 0.10161447525024, 0.03950739279389, 0.10671211779118, -0.07348679006100, 0.01593205705285, 0.15559045970440, -0.12106576561928, -0.14417234063148, -0.04956043139100, -0.18216951191425, 0.16538268327713, 0.13718821108341, 0.03233672678471, -0.02467848733068, -0.04298552498221, 0.16731981933117, 0.13695496320724, -0.16588522493839, 0.08210345357656, -0.07347176223993, -0.18216601014137, -0.07110475003719, -0.10006673634052, 0.08987057209015, -0.02752687036991, 0.17239752411842, 0.03495239466429, 0.03773070499301, -0.08695939928293, 0.01879629120231, 0.12829241156578, -0.19764395058155, 0.08287317305803, -0.08124509453773, 0.03987226635218, 0.05386690422893, 0.05534953251481, -0.00549571216106, -0.01459901593626, 0.19402423501015, -0.17183987796307, 0.15746426582336, 0.09888085722923, 0.18269187211990, -0.03655188903213, -0.01991733163595, -0.07252124696970, -0.11988126486540, 0.13030353188515, 0.11176757514477, 0.22785273194313, 0.11648406088352, 0.15288442373276, 0.04157695919275, -0.05452682077885, -0.00182002747897, 0.22718968987465, 0.03245917335153, 0.05978569015861, -0.12304052710533, 0.16621367633343, -0.09256845712662, -0.13104903697968, -0.15421639382839, -0.10014501214027, 0.00363663537428, -0.09496183693409, 0.03407371416688, 0.08244110643864, -0.15192934870720, 0.22451888024807, -0.04283257573843, 0.12243416905403, -0.11846839636564, 0.01345556322485, 0.03400724008679, 0.00130896898918, 0.14032855629921, 0.14247241616249, -0.01125101651996, -0.11988568305969, 0.06651119142771, 0.10317431390285, -0.07834762334824, 0.09383365511894, -0.02790093980730, -0.08324816077948, 0.09246866405010, -0.06686150282621, 0.03444264456630, -0.18236936628819, -0.18880096077919, 0.10129975527525, 0.02708240225911, -0.07285327464342, -0.10171064734459, -0.04848277941346, -0.17815974354744, 0.06324768811464, -0.06906611472368, 0.02858459949493, -0.10210703313351, 0.12839061021805, 0.02096210420132, 0.00189807976130, 0.09566518664360, -0.01954889483750, -0.00483389757574, 0.04391957074404, -0.06468653678894, 0.14611159265041, 0.12558543682098, -0.08798023313284, 0.08574977517128, 0.01994178816676, -0.07033790647984, 0.04092276841402, -0.16169422864914, -0.02388778328896, -0.12490495294333, 0.14645506441593, -0.06250808387995, 0.02745457924902, 0.15197239816189, -0.17876760661602, 0.16724702715874, -0.04276043549180, -0.17658421397209, -0.09698182344437, -0.17973333597183, -0.14307537674904, -0.10522318631411, -0.09779333323240, -0.00021925818874, 0.19666536152363, 0.16723783314228, 0.17111547291279, 0.17205533385277, -0.06320147961378, 0.06389210373163, 0.16540369391441, 0.12245559692383, -0.08304674178362, 0.19422206282616, 0.09478636085987, -0.11963934451342, 0.08533363789320, 0.00496226036921, 0.05202164500952, 0.21512801945210, 0.06573311984539, -0.02379122376442, -0.02256466448307, -0.14310514926910, -0.19067686796188, 0.20255705714226, -0.13829356431961, -0.13078305125237, -0.16395398974419, -0.03159742429852, 0.17219787836075, 0.02988766878843, 0.02460128068924, -0.11699686199427, -0.11351160705090, 0.01736909337342, 0.06703855842352, -0.12207013368607, -0.16973139345646, 0.15341338515282, -0.09582258760929, -0.16372117400169, -0.08071216195822, 0.18197861313820, 0.08751805871725, -0.11163478344679, -0.07558108121157, 0.15008395910263, -0.15264938771725, 0.04324642941356, 0.12509404122829, -0.09601799398661, 0.07820765674114, -0.03903143107891, -0.14478002488613, -0.09062752127647, 0.01271886005998, -0.13681797683239, -0.03392386808991, -0.10496144741774, 0.01252308208495, -0.00707263778895, 0.01279287599027, 0.15048067271709, -0.00698622595519, -0.19317944347858, -0.10366020351648, 0.07683922350407, -0.00896894466132, -0.20065429806709, -0.10971801728010, 0.15507501363754, -0.10488481074572, -0.03042557463050, 0.07875905185938, -0.00734464544803, 0.12772695720196, -0.06813066452742, -0.00265550124459, -0.01745190843940, 0.00847595557570, -0.07467615604401, 0.13624107837677, 0.12985388934612, 0.17487481236458, -0.10734592378139, -0.09031879156828, 0.14735947549343, -0.05961661040783, 0.13525268435478, 0.04394903406501, -0.04895482584834, 0.08238807320595, 0.08490114659071, 0.10649946331978, -0.00104238698259, -0.11567209661007, 0.10235449671745, -0.12139290571213, 0.13772174715996, -0.13427758216858, 0.08953272551298, 0.07850179076195, -0.03332739695907, -0.20090025663376, -0.20230533182621, 0.15372903645039, 0.09820880740881, -0.10763659328222, 0.19495542347431, -0.15015938878059, -0.06926886737347, -0.14529266953468, -0.20289756357670, 0.20153002440929, 0.01975245960057, 0.15996907651424, -0.00127317430452, -0.12848855555058, -0.04331484809518, 0.07023274153471, -0.07699480652809, 0.00619251700118, 0.01640096306801, 0.06773161143064, 0.10196290165186, 0.14496301114559, 0.00783217698336, 0.11696092784405, -0.15449342131615, 0.05284752324224, -0.11625137180090, -0.20081721246243, -0.13229559361935, 0.00004696403630, -0.15985867381096, 0.14019200205803, 0.06508109718561, -0.07901523262262, 0.18683205544949, -0.02187413349748, 0.07296740263700, 0.15808603167534, 0.18453122675419, 0.08554744720459, 0.11833406239748, 0.18178623914719, 0.01093207672238, -0.02336495928466, -0.17525069415569, 0.07227892428637, -0.09280146658421, -0.14937239885330, 0.09703638404608, -0.12045393139124, -0.11610573530197, 0.09342872351408, -0.17967700958252, 0.09900408238173, -0.01233574375510, -0.08446335792542, -0.16828963160515, -0.07864667475224, 0.16437698900700, -0.14484480023384, 0.14352227747440, -0.11531221866608, 0.18323697149754, -0.12591904401779, 0.08289696276188, 0.04164167493582, 0.15621617436409, 0.05992504209280, 0.18161161243916, 0.09718651324511, 0.18420828878880, 0.18864278495312, -0.04414478689432, 0.12205315381289, -0.02016701549292, 0.10108409821987, -0.16898776590824, 0.08003501594067, -0.15163502097130, 0.09887777268887, -0.04026440531015, -0.12564091384411, -0.13180580735207, -0.04182127863169, -0.08570341765881, 0.01158447749913, -0.14492787420750, -0.12629754841328, 0.10728131234646, 0.18333555757999, -0.16881631314754, -0.05381515249610, 0.08726330101490, -0.09551596641541, 0.20380227267742, 0.00418258691207, -0.05677911266685, 0.10724034160376, 0.00566381309181, 0.08003126829863, -0.02818499132991, -0.16132293641567, 0.18099252879620, -0.02015544846654, -0.09256280958652, 0.09989351779222, 0.19240252673626, -0.11105389893055, 0.19265910983086, 0.06400901824236, -0.13685104250908, -0.13998739421368, -0.11677006632090, -0.12444709241390, 0.05804361402988, 0.06990195065737, -0.12039453536272, -0.10594752430916, -0.15016363561153, 0.07391832768917, 0.10407971590757, -0.08139257878065, -0.14207269251347, 0.17478378117085, 0.15470758080482, -0.12474177032709, -0.17578057944775, -0.08714137971401, 0.08655171841383, -0.03842241317034, 0.16701003909111, -0.18851514160633, -0.05839702486992, 0.16530068218708, -0.17978322505951, -0.03906419873238, 0.01939028315246, -0.08577876538038, -0.00663639418781, 0.04471433162689, 0.06325253844261, 0.20398990809917, -0.04335749521852, 0.06791760027409, -0.11872571706772, -0.18905271589756, 0.16513645648956, 0.15680640935898, 0.04028730839491, -0.15781804919243, -0.13446897268295, 0.06249320879579, 0.17376130819321, -0.09948984533548, -0.11803586781025, -0.16394416987896, -0.06244616210461, 0.14309310913086, 0.13602793216705, -0.19685801863670, -0.05076713487506, -0.00359593611211, -0.08909489214420, -0.07500825822353, -0.06746164709330, -0.12959350645542, -0.04499277472496, -0.02400633133948, 0.09118093550205, -0.01375530380756, 0.08218030631542, 0.07996085286140, -0.13993492722511, -0.05184815451503, -0.04877276346087, -0.06733264774084, 0.02512603253126, -0.12699155509472, -0.11313167214394, 0.05087849870324, 0.09112193435431, 0.01347021199763, -0.16670639812946, -0.08798678219318, 0.00067054235842, 0.03336996585131, 0.18133750557899, 0.06764303147793, 0.08881037682295, -0.15260100364685, -0.03436287492514, -0.17238430678844, 0.03619337081909, -0.04055189341307, -0.02977409772575, 0.00033816834912, 0.15959212183952, 0.03497889265418, 0.07511828839779, -0.12993943691254, 0.15839068591595, 0.18155452609062, -0.10228607058525, 0.05392943322659, 0.13468262553215, 0.16129486262798, -0.09582066535950, -0.16159063577652, 0.10242024064064, -0.03550988808274, -0.10500985383987, 0.15529146790504, 0.13513678312302, 0.04633049666882, -0.13281369209290, 0.06264191865921, -0.11920564621687, -0.15814059972763, 0.18715158104897, -0.07016094774008, 0.11799080669880, -0.06237927451730, 0.13906806707382, 0.11926639825106, -0.11402384191751, 0.04543337970972, 0.15891632437706, -0.02301958762109, -0.14388963580132, 0.02997815050185, 0.13390065729618, 0.14924919605255, -0.14102929830551, -0.16078430414200, 0.15045011043549, 0.03281700983644, -0.17161209881306, 0.02412669360638, 0.10619614273310, -0.05999127775431, -0.03375489637256, -0.08202596008778, -0.15218372642994, -0.03519177436829, 0.03144102171063, 0.17457216978073, -0.06494187563658, 0.09901316463947, 0.08421321213245, -0.09954549372196, -0.12534396350384, 0.08713892847300, 0.05412195250392, 0.02597706578672, -0.18799896538258, -0.01292473077774, -0.18559044599533, -0.19209317862988, 0.15496324002743, 0.07460202276707, -0.14374245703220, 0.13793644309044, -0.03903291374445, -0.13496731221676, 0.02945093810558, 0.03084162436426, 0.15605296194553, 0.07233749330044, 0.12635886669159, -0.07116483896971, -0.05779198184609, -0.14426448941231, -0.19721750915051, 0.11558176577091, 0.03985034674406, -0.18116816878319, 0.16256631910801, 0.11822972446680, 0.09775228053331, 0.08332130312920, -0.16706675291061, 0.02903973497450, 0.10649669170380, -0.11724328249693, 0.08333259075880, 0.15106675028801, -0.16372539103031, -0.03048711642623, -0.02029998414218, 0.09217403084040, -0.03896612673998, -0.08743312954903, 0.06064734980464, 0.07636278122663, -0.11422554403543, -0.18057575821877, -0.10642937570810, 0.06586432456970, -0.01527491025627, 0.11321943998337, 0.12460637092590, 0.04280268400908, -0.18094916641712, -0.05797158554196, -0.13539162278175, -0.16008788347244, -0.11129815876484, -0.08745298534632, -0.09534657001495, -0.14664286375046, 0.02258475869894, -0.07244444638491, 0.08285269886255, -0.10580283403397, 0.04771833866835, 0.11115388572216, 0.14948427677155, -0.04881734028459, 0.14318080246449, -0.06198101118207, -0.09063313901424, 0.16455785930157, 0.16072347760201, -0.18192523717880, -0.17497347295284, -0.05168037861586, 0.09544804692268, -0.06495525687933, 0.05249727517366, -0.05171017721295, -0.10572342574596, -0.12095554918051, 0.22167687118053, -0.04347058013082, 0.05653601512313, 0.16927665472031, 0.03351050242782, 0.07238458842039, 0.09307456761599, -0.06838902831078, -0.04959886893630, -0.00130761368200, 0.18906503915787, 0.02596044167876, 0.08781365305185, 0.01728083193302, 0.08072983473539, -0.04770482331514, -0.08767089247704, -0.14633673429489, 0.19452902674675, -0.03361916542053, 0.19732518494129, 0.06932379305363, 0.04983975738287, -0.02966143563390, 0.02704914100468, -0.06914728879929, 0.14601330459118, -0.10970199853182, 0.11675672233105, -0.01366968639195, -0.01007589604706, -0.20480172336102, 0.18833677470684, -0.13660141825676, 0.09592344611883, -0.18990764021873, 0.00875143613666, -0.11273426562548, -0.00139244215097, 0.02144882641733, 0.07099816948175, 0.14613766968250, 0.16537564992905, 0.04372693225741, -0.14349582791328, 0.04536415264010, 0.12963044643402, 0.12104164063931, -0.03416070342064, 0.10318268835545, -0.10839988291264, -0.10852699726820, 0.16053137183189, 0.03425451368093, 0.04141859337687, 0.16507492959499, 0.03669939935207, -0.19266162812710, 0.19332924485207, 0.05325172096491, -0.19352610409260, -0.06056207790971, 0.00020681705792, 0.16688118875027, 0.15873932838440, 0.00429406017065, 0.00494039990008, 0.19052201509476, 0.14151130616665, -0.05790610611439, 0.00346305151470, 0.14483655989170, 0.07899031788111, 0.12079732865095, 0.14471897482872, -0.04023064672947, 0.00719735771418, -0.04075921326876, 0.00548355374485, 0.13352170586586, -0.12953741848469, -0.18437065184116, 0.14853079617023, 0.04319057241082, -0.11197494715452, -0.05700809881091, 0.16149847209454, 0.09353397041559, -0.05829859524965, -0.05190426856279, 0.13403175771236, -0.11855872720480, -0.12408414483070, -0.17098267376423, -0.06451206654310, -0.00504120765254, 0.07131400704384, -0.07745926082134, 0.02681092917919, -0.12252343446016, -0.04808279126883, 0.16638618707657, -0.10744264721870, -0.18624237179756, -0.00314566190355, 0.01877943985164, -0.06755412369967, -0.09840112179518, -0.02263206616044, -0.02910380624235, 0.20300652086735, -0.18431784212589, -0.05971599370241, 0.19951282441616, -0.17149260640144, 0.12561161816120, -0.16184976696968, 0.01728992164135, -0.15662562847137, 0.03484527394176, 0.16004860401154, -0.15982390940189, -0.06967911124229, -0.14823885262012, -0.06343691051006, 0.05171085894108, -0.04200973361731, -0.17584145069122, -0.09843016415834, 0.12277939915657, -0.05409508571029, -0.13604499399662, 0.05687144771218, 0.09488685429096, -0.20110012590885, 0.06373579800129, 0.20428161323071, 0.10708578675985, -0.13373427093029, 0.21720224618912, -0.11475994437933, -0.05071009323001, -0.08655759692192, -0.01722670905292, 0.03353569284081, -0.09739803522825, -0.08743271231651, -0.00448746327311, -0.03224682807922, -0.15696220099926, -0.00864364672452, -0.01791606098413, 0.02338762208819, 0.20049981772900, -0.14457996189594, -0.07770936936140, -0.10251521319151, 0.03978019952774, 0.06845767796040, 0.19434055685997, 0.01297513116151, 0.11066735535860, -0.01120035536587, -0.16549314558506, 0.04317651689053, -0.13427938520908, -0.05288664996624, 0.11623964458704, -0.13043044507504, -0.05642096325755, 0.10120420157909, -0.15977805852890, 0.15491662919521, 0.08314713090658, -0.03561637550592, -0.19919684529305, -0.14882716536522, 0.16375561058521, 0.15507672727108, 0.11221376061440, -0.11263170838356, 0.00999569613487, -0.01309343241155, 0.16166999936104, -0.10045543313026, 0.02792698703706, -0.11811515688896, -0.04225927591324, 0.03917423263192, 0.05551242083311, 0.01183500792831, 0.17330045998096, -0.01832072623074, -0.24255031347275, 0.03293848037720, -0.06019814684987, -0.10127973556519, 0.17864109575748, -0.19029423594475, -0.08085342496634, 0.03512506932020, 0.10449927300215, 0.20899000763893, -0.07609058916569, 0.14831760525703, 0.09099575132132, 0.14890265464783, 0.13704290986061, -0.22582565248013, -0.13425742089748, 0.05685954913497, 0.19648611545563, -0.04488036036491, 0.14351306855679, -0.02050501294434, -0.13507397472858, 0.07409962266684, 0.06630901247263, 0.19542260468006, -0.17258839309216, 0.06205587461591, -0.06167528405786, 0.07625983655453, -0.08561752736568, 0.06418783962727, 0.07823030650616, 0.09570624679327, 0.15214633941650, 0.08401631563902, -0.04998961463571, -0.05100791156292, -0.10114581882954, -0.01262138411403, 0.11983064562082, -0.17594122886658, 0.16285313665867, 0.12009222805500, 0.07242152094841, 0.14740253984928, 0.07652273774147, -0.09901464730501, -0.06944560259581, -0.17422592639923, 0.05375756323338, -0.07923909276724, 0.14516654610634, -0.11384651064873, -0.09262488782406, 0.12301371991634, 0.13854071497917, -0.15847624838352, -0.17202430963516, 0.16384431719780, -0.02891972661018, -0.19627317786217, 0.00575533509254, -0.03580303490162, -0.08207100629807, -0.17504948377609, 0.12644180655479, 0.11112237721682, 0.14476871490479, 0.01910927705467, 0.00022487470414, 0.16875162720680, 0.11874215304852, -0.03726880252361, -0.08035548031330, 0.13823427259922, -0.12222742289305, 0.18180529773235, -0.01738377287984, -0.00410963641480, -0.06395588815212, -0.16175833344460, 0.01642307452857, 0.16059477627277, -0.14171715080738, -0.16225545108318, -0.10193552076817, -0.17456974089146, 0.17980895936489, 0.04725939035416, 0.12772375345230, -0.14674349129200, 0.13591822981834, 0.14775826036930, -0.02823305875063, -0.06793497502804, 0.06459069997072, 0.16403675079346, -0.19586437940598, -0.01136795617640, -0.01333336066455, 0.07827103883028, -0.01503674685955, 0.02212442830205, 0.01881705969572, 0.18534295260906, 0.00751939229667, 0.02618010342121, 0.16296812891960, 0.01336616743356, 0.08498436957598, 0.01652299799025, 0.02789461798966, 0.02488378621638, 0.09087648242712, 0.05371335148811, -0.18276375532150, -0.03213073685765, 0.13192971050739, -0.06017817556858, 0.03584249317646, 0.00936029665172, -0.12608350813389, -0.06183035299182, -0.01229421608150, -0.17717501521111, 0.06940983235836, -0.11639373004436, -0.18700826168060, 0.18881821632385, -0.08615893125534, 0.02438804134727, -0.07464292645454, 0.02778620272875, 0.17717713117599, 0.22278979420662, -0.09748140722513, -0.13044296205044, -0.01506843697280, 0.10260877758265, -0.10088674724102, -0.04052760824561, -0.01372745726258, -0.19671303033829, -0.06145205721259, 0.08425872772932, -0.00582933146507, -0.18766269087791, 0.13334156572819, 0.09967926144600, -0.10102335363626, -0.05286904796958, 0.08210404962301, 0.16684150695801, 0.02196970768273, 0.00889541488141, -0.13554823398590, -0.11215972900391, -0.02744838967919, 0.11853300780058, -0.16744980216026, -0.03769002109766, -0.10150058567524, -0.13261355459690, -0.07639490067959, 0.04691376537085, 0.00805946066976, -0.17228777706623, -0.12239918112755, 0.00485170027241, -0.00325362617150, 0.15727190673351, -0.00718504656106, 0.06822593510151, -0.10934481024742, -0.00880670174956, 0.03376704454422, 0.08504216372967, -0.17401759326458, -0.15808716416359, 0.02356109768152, 0.01037788297981, 0.06940988451242, 0.03021017462015, 0.12337276339531, 0.13962051272392, -0.01212699804455, -0.00113404809963, -0.09104056656361, 0.10823968797922, 0.18350063264370, -0.07557406276464, -0.14004044234753, -0.16214956343174, 0.03063370101154, -0.15792849659920, -0.10746081918478, -0.05643210560083, 0.03923266381025, 0.03883812576532, 0.06246868148446, 0.09627842158079, 0.15745648741722, 0.05601585283875, -0.17846873402596, 0.09801147133112, -0.13098028302193, 0.13896644115448, -0.03336234018207, -0.15920202434063, -0.10791727900505, -0.00307051255368, -0.05390645563602, -0.11710623651743, -0.15309514105320, 0.11095477640629, 0.18790121376514, 0.16578707098961, 0.11317078024149, 0.04797863960266, 0.02393055707216, -0.16544820368290, -0.12618593871593, -0.14207126200199, -0.00543277990073, -0.11231625825167, 0.06028944253922, 0.13448099792004, -0.10316094756126, 0.04199249297380, 0.00295755267143, 0.07027191668749, 0.07984162867069, -0.16104951500893, -0.04775012657046, -0.12288381904364, -0.07191675156355, -0.11041329056025, 0.03165304660797, -0.16967587172985, 0.17029148340225, -0.09273258596659, 0.02393701672554, -0.12949821352959, 0.07981996983290, 0.18433621525764, -0.03430607169867, 0.14967112243176, -0.12193790823221, -0.12030784785748, -0.05912680923939, -0.17763531208038, 0.14667588472366, -0.09913020581007, 0.04101532697678, 0.09964919090271, 0.01697564683855, 0.03686827048659, -0.02110737003386, 0.10193313658237, 0.14797107875347, 0.06454042345285, -0.14101581275463, 0.15149661898613, 0.02835029549897, 0.10305027663708, 0.14904989302158, -0.16827520728111, -0.13345219194889, 0.00223774416372, 0.10149095207453, 0.01081460341811, 0.12054772675037, 0.15419583022594, 0.15838597714901, -0.01093398965895, -0.17234420776367, 0.12865135073662, 0.05853483453393, 0.10263112187386, -0.08169262111187, -0.04227016493678, -0.12574221193790, -0.20531916618347, 0.06948447227478, -0.06155740842223, 0.10712176561356, 0.02167135663331, -0.08825238049030, -0.17940317094326, -0.13242852687836, -0.18197265267372, 0.15315188467503, -0.02320572920144, -0.02595419250429, -0.04422652721405, -0.11761627346277, -0.14913918077946, -0.11292648315430, 0.12546165287495, -0.03668127954006, -0.12764938175678, 0.04556100815535, -0.14478607475758, 0.11317468434572, -0.18296910822392, -0.13149850070477, -0.11614140123129, 0.04226158931851, -0.01779845729470, -0.02697156555951, 0.06711773574352, -0.02244974859059, -0.08944562822580, 0.16418716311455, 0.03504644706845, 0.06131138280034, 0.05181857943535, -0.00478941202164, 0.06835288554430, 0.04916624724865, -0.02587791159749, -0.06867676228285, -0.09702723473310, 0.17106646299362, 0.05342141911387, 0.05684349313378, -0.02699104323983, -0.17924910783768, -0.06819677352905, 0.14753036201000, -0.14052280783653, 0.16924500465393, -0.14442206919193, -0.07303879410028, 0.03720714151859, -0.14420792460442, -0.09824316948652, -0.07941094785929, -0.10699862986803, 0.10069840401411, 0.14978493750095, 0.09167782217264, 0.06003510206938, 0.10058921575546, 0.17545227706432, -0.18833558261395, -0.04105679318309, 0.13662514090538, 0.18160650134087, -0.15092463791370, -0.14553104341030, 0.05778084322810, 0.13293789327145, -0.12037321925163, -0.09909028559923, 0.11930996179581, -0.14909882843494, -0.00981415621936, -0.04522962123156, -0.16333101689816, -0.13266645371914, 0.10491880774498, -0.10598893463612, 0.03589402139187, -0.13005149364471, -0.02884223125875, 0.07760040462017, -0.03781954571605, 0.02665956877172, -0.05004850775003, 0.05554982647300, 0.04040705040097, 0.07944462448359, 0.18379116058350, -0.13946762681007, 0.12249994277954, -0.16759780049324, 0.21168997883797, -0.02715076133609, -0.06034607067704, 0.10993795841932, -0.17135383188725, 0.12097626924515, -0.06591907143593, 0.04673305526376, 0.01231627259403, 0.01754711940885, -0.05953003093600, -0.00129698612727, -0.11531960964203, -0.00513715669513, -0.16586032509804, 0.03319983556867, 0.04063868150115, -0.07728791981936, -0.09606067091227, 0.07793807983398, -0.02872237004340, -0.05824456736445, -0.09291724860668, -0.17158634960651, -0.21530734002590, 0.14173583686352, 0.17852301895618, -0.14437952637672, -0.17450962960720, 0.05330535024405, 0.13521476089954, -0.05072975903749, 0.07767522335052, 0.12299951165915, 0.15190084278584, -0.11458921432495, -0.11532807350159, 0.22303733229637, -0.07332533597946, 0.00251599168405, 0.12781387567520, 0.00306217861362, 0.07087730616331, -0.14982323348522, 0.09172163158655, 0.02522508241236, -0.09889170527458, 0.03801202774048, -0.04236630350351, -0.08075166493654, -0.14004980027676, 0.03450714796782, 0.14465129375458, -0.06922454386950, 0.16097995638847, -0.13234260678291, 0.16262204945087, 0.09884589165449, -0.10826863348484, 0.17059800028801, 0.15975177288055, -0.20829682052135, -0.09963509440422, 0.13878470659256, 0.21443217992783, 0.01630614139140, 0.12959046661854, -0.17124842107296, 0.16345976293087, -0.13155315816402, 0.02670731581748, 0.05479398369789, -0.15764978528023, -0.02266875468194, 0.09174328297377, 0.16461504995823, 0.15872178971767, 0.13951027393341, -0.00779653154314, 0.13868063688278, 0.10393612086773, 0.07785467803478, 0.06778473407030, -0.00150498398580, 0.06185578182340, -0.00274748145603, 0.14097104966640, 0.17539806663990, 0.09204538911581, 0.03213253617287, -0.13388772308826, -0.01550650969148, -0.15159076452255, 0.17656731605530, 0.09624145179987, -0.17249330878258, -0.08705162256956, -0.13218496739864, -0.13642312586308, 0.17994084954262, -0.15619814395905, 0.21475484967232, 0.09616103023291, -0.11745421588421, -0.01363793946803, -0.04780321568251, 0.02454809658229, 0.08520230650902, -0.05390529707074, 0.10134780406952, -0.18815784156322, 0.19618755578995, 0.04637474566698, 0.14799518883228, -0.00257440982386, 0.01173729076982, 0.11160203814507, 0.04013143107295, 0.20840086042881, 0.03962394967675, -0.00272914115340, -0.19109921157360, -0.07097850739956, 0.10301408916712, 0.05999680981040, 0.07796173542738, 0.11454010754824, 0.10116454213858, -0.15828382968903, -0.21255044639111, -0.07031872123480, 0.17888103425503, 0.07544739544392, 0.04202271625400, -0.17769439518452, 0.09836813062429, -0.02926036529243, -0.02751714922488, 0.14214703440666, -0.14258724451065, 0.12240400165319, 0.12576305866241, 0.03614609688520, -0.06363049149513, 0.06583660095930, 0.10156100243330, 0.08846800029278, -0.05269686505198, 0.04973492771387, 0.01709067262709, 0.10778055340052, -0.20093475282192, -0.03579939901829, 0.16030956804752, -0.03939031437039, -0.04493207484484, -0.12646649777889, -0.11113223433495, 0.22468191385269, 0.17581765353680, 0.19520506262779, -0.16105137765408, -0.12403655797243, 0.11419938504696, -0.03512310981750, 0.04552549496293, -0.14092704653740, -0.01579086855054, -0.02495190687478, 0.07726672291756, 0.09998288750648, -0.12607771158218, 0.10540243983269, 0.02331782504916, -0.17675761878490, -0.10247783362865, -0.05383655801415, -0.00632739579305, -0.13027349114418, -0.03938879445195, 0.11894977837801, -0.02446861006320, 0.05725541338325, 0.11577616631985, -0.05448976904154, 0.00548300473019, -0.09006039798260, -0.02371363714337, -0.12962494790554, -0.08655480295420, -0.00184444012120, -0.14886814355850, -0.10294747352600, 0.10704635083675, 0.12280583381653, 0.06828647106886, -0.06850274652243, -0.19406759738922, 0.18430593609810, -0.01241948921233, 0.12960144877434, 0.25154995918274, -0.01209539454430, 0.26252213120461, 0.13778077065945, -0.06642740964890, 0.00713657541201, 0.05049866437912, -0.16074068844318, -0.07606329768896, -0.17633581161499, -0.10297016799450, -0.09560809284449, 0.00779313826934, 0.04005010426044, 0.04680325463414, -0.10075931251049, -0.06934762746096, -0.18976214528084, 0.13077212870121, 0.07784400880337, -0.03356475383043, 0.07040165364742, -0.00016197777586, 0.14578631520271, -0.08777598291636, -0.04347613826394, 0.06436659395695, -0.14816896617413, 0.14482289552689, 0.03753617033362, -0.19527517259121, -0.05249584466219, 0.01618250645697, 0.04569997265935, 0.03823560476303, 0.07635099440813, -0.14727903902531, -0.14985656738281, -0.17482194304466, -0.08465063571930, 0.02547296136618, 0.15873828530312, -0.10817796736956, -0.06986936181784, -0.03115217573941, 0.15068458020687, -0.01178868021816, 0.09417194128036, -0.18813093006611, -0.01346488296986, -0.00598532287404, -0.16758514940739, -0.01428089663386, -0.16149413585663, -0.04644140228629, 0.11791586875916, 0.05170782282948, -0.14524877071381, -0.09409243613482, -0.17012588679790, 0.10539993643761, -0.06679496169090, 0.02775063738227, -0.12597164511681, 0.03304438292980, 0.03820276260376, 0.14714123308659, 0.19231720268726, 0.10493194311857, -0.14255815744400, -0.03468789160252, 0.15509021282196, -0.13589389622211, 0.09378372877836, 0.05498936399817, 0.12242129445076, -0.12865704298019, -0.13915131986141, 0.15609245002270, 0.02539092674851, -0.01586000062525, -0.12748670578003, -0.04833076894283, -0.06615722179413, -0.15721602737904, -0.14753110706806, -0.10631362348795, 0.14329791069031, -0.02118110843003, 0.01813275739551, 0.09601399302483, -0.08661711215973, 0.15486899018288, 0.15635217726231, 0.00681001273915, -0.11944261938334, 0.11720842868090, 0.09306618571281, -0.17436026036739, 0.09803767502308, 0.06066402047873, -0.10134796798229, 0.13701607286930, 0.10881832242012, 0.10356846451759, 0.06184051558375, -0.09786102175713, 0.13587264716625, 0.19113396108150, -0.02795238234103, -0.06976845115423, 0.06755889207125, -0.05975994095206, 0.09455820918083, 0.15818439424038, -0.02764727361500, 0.09391339868307, 0.02463999949396, 0.09203983843327, -0.06506953388453, -0.11483681946993, 0.12374429404736, -0.11349378526211, -0.11211836338043, 0.02158790268004, 0.12543773651123, -0.04410110786557, 0.16975618898869, 0.18366283178329, 0.08974701166153, 0.20465068519115, -0.09201213717461, 0.02032073028386, 0.17271284759045, 0.02338704094291, -0.11325200647116, 0.01412239670753, 0.18045105040073, 0.02157509699464, 0.01189439743757, 0.12788063287735, -0.05696779489517, 0.03256554156542, -0.00276257516816, 0.05143837630749, 0.17641994357109, -0.16111961007118, -0.10214467346668, -0.05084878578782, -0.10528353601694, 0.05274495482445, 0.03763104602695, -0.04481218382716, -0.19712163507938, 0.00754634011537, -0.06576975435019, 0.15100608766079, 0.14225147664547, 0.14551557600498, -0.15890318155289, 0.10177003592253, 0.05886746570468, 0.05408712103963, -0.03304319083691, -0.02336420118809, -0.03710921108723, 0.01784081943333, -0.08202576637268, 0.08540041744709, 0.13378666341305, 0.04021169617772, -0.13642504811287, 0.02463994547725, 0.19591581821442, -0.02149289473891, -0.16332203149796, -0.14289321005344, 0.16972893476486, -0.10042937844992, 0.07332867383957, 0.20950943231583, -0.19685971736908, 0.18284623324871, -0.02929859422147, 0.02439699694514, 0.04198914021254, 0.07285444438457, 0.03342501819134, -0.02435989305377, -0.20554745197296, 0.23133228719234, -0.08274155110121, -0.05074360966682, 0.07616882771254, 0.06170425936580, 0.09935290366411, 0.00496384548023, 0.08134631067514, 0.13862811028957, 0.00113840552513, -0.11274129152298, 0.09733541309834, -0.11755511909723, -0.14230464398861, -0.13637335598469, -0.04467581957579, -0.13013805449009, -0.00756709091365, -0.01779220625758, -0.16436325013638, 0.07865488529205, 0.13896031677723, 0.08265501260757, 0.01405834313482, -0.15576972067356, -0.05617826059461, -0.11977263540030, 0.11226447671652, -0.05929363146424, 0.17587114870548, -0.16747319698334, 0.01758566498756, 0.14252263307571, -0.05893801152706, -0.18835069239140, 0.08797328919172, 0.05056888982654, 0.14633338153362, -0.07465291023254, -0.16356004774570, 0.10353870689869, -0.11534495651722, -0.06813194602728, -0.02533180266619, -0.11783296614885, 0.05449041724205, -0.07752500474453, -0.11763282120228, 0.14874285459518, -0.09686108678579, 0.13307799398899, 0.10818625241518, 0.13315720856190, 0.03845268115401, -0.07913601398468, -0.02572108060122, 0.09178125113249, -0.04868967458606, -0.14453983306885, 0.04803223162889, 0.03135706111789, -0.16348840296268, -0.20751449465752, -0.06633763015270, 0.10151974111795, 0.07832575589418, 0.11959551274776, -0.04135377705097, 0.08836024254560, -0.21016135811806, 0.09741613268852, 0.16105251014233, -0.02132645249367, 0.09120164811611, -0.01335889101028, -0.04076457768679, 0.01061088219285, 0.15453858673573, 0.09929242730141, 0.15368665754795, -0.14297653734684, 0.11057440936565, 0.00763120222837, -0.03090065717697, -0.00257411319762, -0.13745620846748, 0.04130861908197, 0.13456794619560, -0.16805793344975, 0.05918878316879, 0.14007793366909, -0.19558456540108, 0.04098649695516, -0.11341117322445, -0.02312428504229, 0.09508948028088, 0.12973143160343, -0.01100137922913, -0.08770120888948, -0.18022297322750, 0.07198223471642, -0.09599430859089, 0.09201265871525, 0.10468707978725, -0.13579027354717, 0.04585138335824, 0.04245513305068, 0.17521326243877, 0.08080293983221, -0.01829588226974, -0.13526463508606, 0.14161175489426, 0.00304908817634, -0.16530404984951, -0.06023818254471, 0.09669464826584, -0.06741637736559, -0.13686396181583, -0.05529576912522, -0.04826741293073, -0.09052685648203, 0.06083967164159, -0.18818397819996, 0.03963799402118, -0.02550347521901, 0.14736129343510, 0.11619572341442, 0.13909880816936, 0.11848134547472, -0.15152865648270, 0.05574659630656, 0.15775893628597, -0.05698048323393, 0.01492690946907, -0.16030047833920, -0.01632480137050, -0.03024327754974, -0.09987386316061, -0.18655732274055, -0.07068467885256, 0.05404967442155, -0.17125611007214, 0.04674295708537, 0.12976592779160, 0.02285577170551, 0.04580894857645, 0.04541590437293, 0.15521882474422, 0.20643883943558, -0.15613858401775, 0.11871452629566, -0.16317243874073, -0.05296416953206, -0.11389124393463, -0.11049257963896, 0.07064037024975, 0.13947992026806, -0.13290478289127, 0.15817348659039, 0.17871780693531, 0.17601709067822, 0.03056696988642, 0.09028404206038, -0.06160721182823, -0.16661871969700, 0.17942811548710, 0.12264360487461, 0.02983447350562, 0.08874395489693, 0.17598792910576, 0.01584259606898, 0.05230878293514, -0.11992058157921, -0.11024732142687, -0.02499000541866, 0.16108952462673, -0.12115794420242, 0.13162724673748, 0.11400979757309, -0.01101526059210, -0.01524236146361, -0.11547981947660, -0.04897947236896, -0.08290921896696, -0.14645157754421, 0.15350162982941, -0.08576218783855, -0.11602905392647, 0.00872913282365, 0.02896891534328, -0.16059836745262, -0.11781456321478, -0.15439951419830, 0.04539806395769, 0.21706812083721, -0.00030820872053, 0.06017259880900, 0.16276805102825, 0.10704400390387, -0.05561357364058, -0.00225893384777, -0.23879189789295, 0.16439576447010, -0.10667635500431, 0.15237294137478, 0.12000413239002, -0.13096730411053, 0.06472209841013, -0.06677025556564, 0.03452205657959, -0.06867637485266, -0.13773435354233, 0.17316551506519, 0.04430349543691, 0.05053042992949, -0.06708660721779, 0.09554885327816, 0.12676768004894, 0.03654685243964, 0.06782535463572, 0.08031544089317, 0.13899476826191, 0.08264177292585, 0.14410328865051, 0.00540012214333, 0.06974177062511, -0.02908377349377, 0.04950696974993, 0.15522584319115, -0.13427563011646, 0.14172048866749, 0.09032499045134, 0.04114437103271, 0.13102225959301, -0.07774144411087, -0.07107850164175, -0.00899924430996, -0.05800635740161, -0.18853630125523, -0.05681817978621, 0.00680283829570, -0.05174927413464, -0.01406202092767, -0.08228050917387, -0.12785400450230, -0.08287142962217, 0.06378412991762, 0.11283240467310, -0.11328268051147, 0.10110588371754, -0.20670744776726, 0.12519042193890, -0.09363274276257, 0.01673881709576, 0.08408784121275, -0.11028193682432, 0.10261404514313, 0.07016422599554, -0.08940955996513, 0.08765662461519, -0.18585295975208, 0.16831175982952, 0.07144788652658, 0.18844166398048, 0.15326167643070, 0.04435211047530, -0.15267524123192, 0.07347640395164, 0.02614296041429, 0.00739685632288, 0.12392794340849, 0.03639648854733, -0.13263194262981, 0.00325206201524, -0.03686638176441, -0.14788697659969, 0.03504133597016, 0.08690748363733, -0.18801423907280, -0.06771385669708, 0.07335729151964, 0.07163210213184, 0.12659122049809, 0.10097192972898, -0.08533119410276, -0.11706495285034, 0.16509860754013, 0.00124419946223, -0.06775956600904, -0.12179541587830, -0.15143820643425, -0.11859880387783, -0.20720532536507, 0.16400189697742, 0.04496077448130, 0.15140008926392, -0.07951653003693, -0.04141308739781, 0.09561636298895, 0.10054687410593, 0.04926088079810, -0.08309553563595, -0.00382717419416, -0.08731736242771, -0.18661803007126, -0.15170168876648, -0.08026408404112, 0.03371929749846, -0.19082231819630, -0.18728262186050, -0.10293439775705, 0.12444359064102, 0.06235154345632, -0.14812403917313, -0.06238066032529, 0.07628452777863, 0.07442898303270, -0.07855913043022, 0.12055459618568, 0.11471204459667, 0.15168464183807, -0.09077857434750, 0.14862324297428, 0.04216564074159, -0.10811813175678, 0.09695437550545, -0.01755994558334, 0.12917858362198, 0.01752207428217, 0.16697344183922, 0.16178242862225, 0.16766072809696, -0.09125692397356, -0.00825085025281, 0.09217151254416, 0.00535125005990, 0.12373098731041, -0.18139830231667, 0.09611250460148, -0.00000525475480, 0.04908249527216, -0.03146117553115, -0.14846371114254, -0.11936625838280, 0.11594798415899, 0.08889432251453, -0.16811425983906, -0.01552960742265, 0.09394785761833, -0.09515603631735, 0.07575894892216, -0.12666775286198, 0.07047800719738, 0.14818802475929, 0.05088917165995, -0.17382247745991, -0.13416950404644, 0.01480307523161, 0.04343623667955, -0.03176280111074, 0.17034742236137, 0.09251701086760, -0.17814415693283, 0.06115196272731, -0.00215333048254, 0.00146870710887, -0.12393123656511, 0.18192435801029, -0.18748050928116, -0.06198269501328, 0.07777679711580, -0.10715474188328, -0.06860391795635, -0.16878335177898, 0.15436160564423, -0.20641973614693, 0.05591886118054, -0.04979764670134, -0.09963280707598, 0.18628591299057, 0.14913326501846, 0.09205047786236, 0.11232161521912, -0.13356195390224, 0.19458489120007, -0.01109539717436, -0.04232003167272, 0.12203998863697, -0.20192770659924, -0.07914288341999, 0.00413372181356, 0.09251166880131, -0.04502834379673, -0.08578300476074, 0.07386837154627, -0.05371290817857, -0.01920599490404, 0.08877933025360, 0.03480035811663, -0.09416774660349, -0.07141315191984, 0.18441465497017, 0.13450735807419, 0.14808455109596, -0.11929105967283, 0.18330803513527, -0.11234596371651, 0.02390519902110, 0.13938772678375, 0.07607046514750, -0.11263463646173, 0.18037129938602, -0.04337188974023, -0.16638638079166, 0.14047068357468, 0.04237794131041, 0.00764336064458, -0.08390800654888, -0.00771972676739, 0.13554960489273, 0.00111170869786, -0.05064116045833, 0.05945900082588, -0.05739998817444, 0.07441549003124, 0.18949085474014, -0.19175072014332, -0.03803917393088, -0.08553035557270, -0.17300894856453, -0.09819897264242, -0.00440535368398, 0.14030846953392, 0.14292919635773, -0.07806537300348, -0.07900958508253, 0.07796845585108, -0.12065681070089, 0.05858368426561, -0.14314271509647, -0.16957972943783, -0.17254586517811, -0.03667119145393, 0.16589899361134, 0.17158558964729, -0.02321158349514, 0.08873184025288, 0.14732086658478, -0.03509462997317, -0.01329856086522, 0.13426160812378, 0.02403608150780, -0.02127080224454, -0.09395175427198, 0.15888869762421, 0.16490992903709, 0.03871301189065, -0.10111691057682, -0.11334251612425, -0.01103565655649, -0.01803131215274, 0.08001685887575, 0.12304884940386, -0.04504799097776, -0.04219259694219, 0.04482993483543, -0.06889417022467, -0.10272001475096, -0.17287477850914, -0.12430371344090, -0.17758859694004, -0.14352327585220, 0.06544070690870, -0.00377563782968, -0.04257231205702, -0.01322472654283, 0.08243264257908, -0.04705930873752, -0.08196786791086, -0.06426692008972, -0.13679094612598, 0.01436531823128, 0.04740291088820, 0.01319310069084, 0.15565699338913, -0.12965343892574, 0.03073168173432, 0.15495511889458, -0.09789705276489, -0.09213301539421, -0.06345055997372, 0.02207467891276, -0.03262645006180, 0.13412222266197, 0.04399203509092, 0.02371537499130, 0.18634073436260, -0.08554275333881, 0.09724614024162, -0.07093629986048, -0.01315969787538, 0.18510022759438, -0.20026922225952, -0.03727207332850, 0.01575559936464, 0.10966518521309, -0.09542331099510, 0.17813768982887, 0.11373203247786, 0.07906107604504, 0.17004379630089, -0.05892515555024, 0.03184557706118, -0.16262830793858, -0.02471334114671, -0.01535983104259, -0.01456980872899, 0.01290856394917, -0.07330508530140, 0.14072248339653, -0.05266874656081, -0.01089632511139, 0.13388897478580, -0.15242466330528, 0.01380813494325, -0.11262628436089, -0.06963883340359, 0.04959534853697, 0.12621280550957, -0.07052156329155, -0.13191998004913, -0.14921849966049, 0.09253696352243, 0.12596730887890, 0.15254269540310, -0.14211447536945, 0.16822667419910, 0.10176184773445, 0.20294332504272, 0.03268393501639, -0.04916924238205, 0.00401755934581, 0.08416268229485, -0.14822228252888, 0.11741185933352, -0.00573473237455, 0.02335426956415, 0.08073463290930, -0.17294657230377, -0.07967904210091, 0.14912119507790, 0.10845332592726, 0.08409839123487, 0.19912749528885, -0.06176628544927, 0.08169796317816, 0.08144714683294, -0.14596256613731, -0.15493525564671, 0.03528887778521, 0.11678656935692, 0.01057165581733, -0.06093350425363, 0.00230940780602, -0.01755095273256, 0.14440357685089, 0.03533246368170, 0.09090274572372, 0.13488979637623, -0.16323019564152, 0.11542049795389, -0.02960231155157, 0.11652173101902, 0.09430690109730, 0.07021676748991, 0.05051914229989, -0.13791094720364, 0.09928366541862, 0.11404224485159, -0.18482349812984, -0.02004594728351, 0.14519369602203, 0.17875359952450, 0.07836145162582, -0.13052763044834, -0.04978164657950, 0.03274136781693, -0.01037432905287, 0.01939708739519, 0.11900535970926, 0.00477635022253, -0.01915930956602, -0.00461227633059, 0.14234469830990, -0.04399234801531, 0.18323414027691, -0.16338145732880, -0.13547290861607, -0.11375575512648, 0.18048056960106, 0.16956152021885, -0.12328979372978, 0.07652377337217, -0.16958592832088, -0.18947409093380, -0.12769719958305, 0.00288223754615, 0.16509856283665, 0.15119384229183, 0.19524361193180, 0.11579532176256, 0.19493211805820, 0.13714301586151, -0.10998131334782, -0.21075710654259, -0.17250485718250, -0.17960853874683, 0.07781394571066, -0.08192535489798, -0.14949022233486, -0.00292524113320, -0.04126127064228, 0.10246329754591, 0.02384586073458, -0.01274106930941, -0.02205866575241, -0.10769537091255, 0.14101676642895, 0.18252147734165, 0.14854723215103, -0.14726254343987, -0.06284555047750, -0.13519848883152, -0.05561034381390, 0.04888495802879, -0.22668381035328, -0.18600346148014, -0.00261163711548, -0.12185247242451, 0.07233183830976, -0.12989257276058, 0.12215111404657, -0.00373628851958, 0.09023059904575, 0.02894460782409, -0.04855503886938, -0.12406235188246, 0.11853874474764, -0.13638295233250, 0.06247354298830, -0.10780643671751, -0.06130142509937, 0.00899191293865, -0.09732161462307, 0.24415466189384, -0.00614968966693, -0.06049683317542, 0.06403967738152, -0.04904993250966, -0.12005537003279, -0.01159790344536, -0.02674412541091, 0.06644358485937, -0.21891726553440, 0.00781735591590, -0.10780722647905, -0.18774485588074, 0.06027645245194, 0.24228654801846, -0.14249087870121, -0.05799752101302, 0.14915579557419, -0.04965835437179, -0.21368224918842, -0.11717239022255, 0.08889149874449, 0.14319902658463, 0.02559435926378, 0.02659682929516, -0.16754046082497, -0.01323558483273, 0.08007347583771, -0.01486524753273, -0.07054031640291, -0.05400532856584, -0.10456146299839, -0.12682679295540, 0.16617329418659, 0.14739334583282, 0.04826987907290, -0.20794481039047, -0.10700956732035, 0.01353227905929, -0.04515533521771, 0.14007271826267, 0.15308025479317, 0.06470624357462, 0.11774391680956, -0.00278696278110, 0.12918186187744, -0.19378559291363, -0.05366894602776, -0.06751514226198, 0.03690868616104, -0.07994522899389, 0.07798085361719, -0.08640888333321, 0.16799485683441, 0.00821966305375, 0.08195769786835, -0.11651148647070, -0.13983657956123, -0.17296585440636, 0.08289358019829, 0.01665438711643, 0.12281010299921, -0.08744579553604, -0.04576690122485, 0.16859219968319, -0.01671938598156, 0.05169426277280, 0.18058934807777, 0.13669954240322, -0.09389872103930, 0.02512418106198, 0.10605714470148, 0.06926654279232, -0.14373432099819, 0.02903867885470, 0.14907883107662, 0.09882971644402, -0.11811489611864, -0.10904695093632, 0.05931291729212, -0.18968914449215, -0.17040935158730, 0.09563327580690, -0.00590049941093, -0.06421091407537, -0.00405066460371, -0.05324629321694, -0.10341864824295, -0.11877139657736, -0.08213814347982, -0.07012438029051, 0.18299075961113, -0.05063007026911, 0.18422108888626, 0.23532921075821, -0.20546078681946, 0.12200201302767, -0.06372068077326, 0.13945075869560, 0.01130267418921, 0.10539416968822, 0.00682414649054, -0.03040040098131, -0.11458715796471, 0.06735602766275, 0.04094975441694, 0.07816683501005, 0.12537887692451, -0.12172687798738, -0.00393247045577, 0.21639145910740, 0.01020409166813, -0.10985195636749, -0.04370542243123, 0.10144957154989, 0.01704381406307, 0.09058568626642, 0.03380263969302, 0.12130007147789, 0.05198863521218, 0.12318124622107, 0.03733074665070, 0.12843041121960, 0.21770374476910, 0.04840175807476, -0.12668684124947, -0.03896154835820, 0.06594852358103, -0.24003131687641, -0.06709018349648, 0.11477331072092, 0.08526092767715, 0.06192260235548, 0.13228631019592, -0.11757832020521, 0.17305301129818, -0.12049197405577, -0.06797157227993, -0.03181861713529, 0.18469507992268, 0.07126355916262, 0.18642929196358, -0.05845410749316, 0.18704128265381, -0.07463812828064, 0.20431539416313, 0.13864967226982, 0.12701651453972, 0.01931701973081, -0.00300389342010, -0.15147103369236, 0.09949658066034, -0.06562104076147, 0.15606364607811, -0.10835938155651, -0.03776760026813, 0.12859570980072, -0.04468423128128, 0.06037729233503, 0.14160653948784, 0.24742585420609, -0.01904448308051, -0.10238204151392, 0.06902313977480, -0.03376973792911, 0.14969263970852, 0.03551625832915, -0.00590403657407, -0.13519448041916, -0.05033010616899, 0.01338205765933, 0.01337316446006, -0.00394283514470, -0.19075241684914, -0.24031001329422, 0.14143724739552, -0.01138872094452, 0.09783855080605, -0.06918040663004, -0.15310460329056, 0.24773590266705, 0.06576513499022, -0.06559395045042, 0.16924907267094, -0.03660165891051, -0.10581522434950, -0.01608288474381, -0.05623326078057, 0.25824701786041, -0.07455773651600, -0.09508980065584, 0.06148798018694, -0.07010119408369, 0.11760207265615, -0.12095572799444, -0.03880185633898, 0.04972765967250, -0.02988180145621, 0.04768088087440, -0.16497153043747, 0.06225153431296, -0.16080820560455, -0.15617673099041, -0.05274729058146, -0.21551342308521, -0.20020379126072, -0.10547915101051, 0.01007962413132, -0.01681929081678, -0.18070118129253, -0.14337120950222, -0.19987727701664, -0.11201811581850, 0.19249273836613, 0.14026373624802, 0.01432573702186, 0.07137486338615, -0.12393882870674, 0.16686864197254, -0.07754693925381, 0.07038623839617, -0.06782551854849, 0.09448710083961, -0.10649888962507, 0.16664068400860, 0.14473363757133, -0.14515186846256, -0.12805911898613, 0.17999947071075, -0.12973006069660, 0.14396142959595, 0.18207877874374, -0.16669411957264, 0.11130186170340, -0.00799899175763, -0.11353411525488, 0.07909420877695, -0.14221304655075, 0.08340548723936, 0.16656269133091, 0.14730404317379, -0.02291728742421, -0.08369757980108, -0.09403004497290, -0.09670417010784, 0.17956349253654, 0.02623280324042, 0.11957275867462, -0.13299725949764, 0.03315149620175, -0.07089419662952, 0.12488479167223, 0.02100996859372, 0.13886244595051, 0.00931476335973, -0.06465709954500, -0.03831354156137, -0.08149781078100, -0.04699686914682, 0.02287888154387, 0.10885662585497, 0.09705233573914, -0.01152728125453, 0.07130733132362, -0.02473284862936, -0.04218554496765, 0.06655193120241, 0.02945505827665, 0.14387437701225, 0.08068934828043, 0.15053310990334, 0.05052404105663, -0.11550633609295, 0.00339963589795, 0.09388180822134, -0.07325910031796, -0.17831517755985, -0.12284900993109, -0.04208973795176, 0.04168249294162, 0.19876541197300, -0.13909582793713, 0.01664101332426, -0.00371104478836, 0.10706164687872, 0.16643756628036, -0.16080403327942, -0.11706083267927, -0.23476471006870, -0.11010822653770, -0.10219113528728, -0.21729052066803, 0.09564464539289, 0.01906708255410, 0.06084747612476, 0.16907171905041, 0.00313855754212, -0.12209980189800, 0.17004342377186, -0.22581994533539, -0.05541839450598, 0.05649897456169, -0.04236738011241, -0.17115688323975, 0.19864730536938, -0.22904936969280, 0.04238358512521, 0.11162325739861, -0.20978574454784, 0.00573133910075, -0.14663533866405, 0.04530535265803, 0.19244879484177, 0.00243318686262, -0.00396915525198, 0.11661104857922, 0.15885977447033, -0.14124737679958, 0.10150679945946, -0.14399404823780, -0.03720688819885, 0.03564511612058, -0.07557652890682, 0.03804434463382, 0.16457785665989, 0.15440866351128, 0.02042654715478, 0.19158299267292, 0.09452506154776, -0.01368901599199, 0.00112011819147, -0.16831168532372, 0.10488390177488, -0.09904593229294, -0.21047239005566, 0.08542399108410, -0.02388869971037, 0.05732088163495, 0.07975731790066, -0.11531377583742, -0.11449857056141, 0.02059818245471, -0.05398633703589, -0.12928810715675, -0.06985613703728, -0.01802839525044, 0.14679948985577, 0.10316462814808, -0.18204285204411, -0.07243322581053, -0.09495011717081, -0.13203515112400, -0.16276416182518, 0.14403742551804, -0.17222255468369, -0.01186409126967, -0.01918331347406, 0.10546959191561, 0.11520265042782, 0.03445556014776, -0.11955351382494, 0.07695304602385, 0.00874266680330, -0.00806661322713, -0.18541681766510, 0.20817437767982, 0.11933147907257, 0.00909547507763, 0.03953542932868, -0.13343375921249, 0.01250019483268, -0.02533567138016, -0.09439778327942, 0.13129162788391, 0.12135608494282, -0.17674289643764, -0.07215064018965, 0.16158311069012, -0.05716848000884, 0.07237134873867, -0.20854991674423, -0.07770008593798, 0.11812958866358, -0.16304452717304, -0.12582463026047, -0.06033537164330, 0.01622463390231, 0.12261298298836, -0.12867611646652, 0.05016333982348, -0.05095683410764, 0.05547758191824, -0.03872856497765, 0.10082422196865, 0.04846952483058, 0.14442192018032, 0.07722114771605, 0.21351657807827, -0.08670838922262, -0.09784432500601, -0.11699198186398, -0.02857807464898, -0.03528423234820, 0.13301873207092, 0.16660907864571, 0.06504186242819, 0.02840950526297, -0.08625613898039, 0.14059643447399, -0.12944599986076, 0.01914994977415, -0.06327604502439, -0.14340643584728, -0.03801814839244, 0.15583629906178, -0.10319534689188, -0.04110713675618, -0.12955439090729, -0.11831704527140, 0.16508033871651, 0.09863758832216, -0.18781284987926, -0.07399976253510, -0.12951460480690, 0.13297109305859, 0.14672535657883, -0.08011756837368, 0.14666520059109, -0.14197131991386, -0.03240885585546, 0.08898691833019, -0.00781841576099, -0.01721046306193, 0.03567898273468, -0.07566745579243, -0.10671282559633, -0.10999365150928, 0.10445134341717, -0.18000389635563, -0.10939718037844, -0.11059684306383, -0.12073368579149, 0.03273662179708, 0.10613755136728, -0.11248848587275, -0.05711420625448, 0.19491298496723, 0.09205275028944, -0.11334405094385, 0.15512356162071, 0.03915322571993, 0.08333271741867, 0.08682603389025, 0.11277610808611, -0.18363444507122, 0.15675885975361, -0.11609645187855, 0.17365944385529, -0.13142034411430, 0.06557864695787, -0.16538956761360, 0.03638119995594, -0.04325312748551, -0.14335469901562, 0.16228418052197, 0.10324672609568, -0.12905780971050, 0.09113662689924, 0.08604945242405, 0.06144816428423, -0.14143864810467, -0.14081339538097, -0.06205162033439, 0.17909333109856, -0.18417400121689, 0.04963495209813, -0.00612322939560, 0.12144569307566, -0.09709742665291, -0.12471763789654, -0.01293640490621, -0.05965232476592, -0.05217073485255, 0.07517335563898, 0.03300038352609, 0.02783305011690, 