//Numpy array shape [64, 32]
//Min -0.305257946253
//Max 0.327184081078
//Number of zeros 0

#ifndef W5_H_
#define W5_H_

#ifndef __SYNTHESIS__
model_default_t w5[2048];
#else
model_default_t w5[2048] = {-0.15931490063667, 0.21281605958939, -0.14323627948761, -0.05049573630095, 0.28547790646553, 0.20710916817188, -0.08611516654491, -0.19622817635536, -0.01652366295457, -0.25223168730736, 0.00400561280549, 0.18733443319798, -0.10829307138920, 0.11154349893332, -0.11419433355331, 0.16081410646439, 0.06615864485502, -0.09350711107254, -0.12172231823206, 0.15898072719574, 0.14780423045158, 0.06222491338849, 0.20573131740093, 0.09185474365950, 0.04913441464305, 0.01966969296336, 0.21133808791637, 0.20219931006432, -0.05512399226427, 0.12796854972839, -0.17423425614834, 0.06236848607659, 0.20526240766048, -0.09108794480562, 0.15123338997364, -0.21146762371063, -0.24360942840576, 0.08648888766766, 0.07326029986143, 0.09179115295410, -0.06143591180444, 0.18505655229092, -0.05351774394512, -0.04179361462593, 0.09328591078520, -0.02423214726150, 0.16648693382740, 0.00088357005734, -0.19426000118256, -0.15108585357666, 0.11487524211407, 0.16280823945999, -0.14182910323143, 0.16594594717026, 0.00946315191686, -0.05113038048148, -0.04024435579777, -0.07843828946352, -0.04923395439982, -0.01254179235548, -0.16213913261890, 0.27082225680351, 0.15054079890251, 0.16879767179489, 0.18248800933361, 0.05082812160254, 0.06270501762629, -0.03985751420259, 0.07645890116692, -0.18709170818329, 0.09051465988159, -0.00275416136719, -0.03929192572832, -0.10971105098724, -0.04145277291536, -0.17456208169460, -0.19619084894657, -0.07208847254515, -0.26254510879517, 0.03308323770761, -0.04180546849966, -0.01766089722514, 0.01488755177706, 0.11504042148590, -0.01771007105708, -0.15796428918839, 0.03209092095494, 0.02260958962142, 0.15339699387550, 0.18416562676430, 0.22093813121319, 0.01466899085790, -0.08616507798433, 0.15501283109188, 0.16732998192310, -0.08422014117241, -0.00421761628240, 0.04994123056531, -0.01880477368832, 0.26808854937553, -0.08140890300274, 0.00169996800832, -0.10059909522533, 0.25215864181519, 0.06432212144136, 0.16178549826145, -0.10894922167063, -0.01049936097115, -0.08741912245750, -0.11967451125383, -0.15064415335655, -0.10536749660969, -0.09926353394985, 0.24568016827106, -0.19914990663528, -0.08968345820904, -0.17231631278992, -0.15960446000099, -0.12631654739380, 0.01255534403026, 0.20092760026455, -0.19428580999374, -0.02023933455348, -0.05232225731015, 0.06419833749533, -0.10827875137329, -0.02210585586727, 0.16993445158005, 0.21294094622135, -0.09033312648535, -0.04952741414309, 0.03948781639338, -0.02386335842311, -0.18978823721409, 0.11989926546812, 0.08289913088083, -0.07353351265192, -0.12916298210621, 0.16249279677868, 0.17388688027859, -0.22751222550869, -0.07310722023249, -0.05772780254483, 0.27756834030151, -0.03954400494695, 0.05897159129381, -0.03493236750364, -0.28641515970230, -0.14756554365158, -0.10217650979757, -0.07208408415318, -0.06436889618635, -0.17198319733143, -0.15613867342472, -0.11934079974890, 0.21702490746975, -0.23036953806877, 0.01933101937175, -0.12454675883055, -0.10082273930311, -0.24982267618179, 0.12325837463140, -0.17915898561478, 0.06129688769579, 0.18734516203403, 0.11654598265886, 0.15016514062881, 0.22581267356873, -0.12405521422625, -0.05192542821169, -0.16777785122395, -0.20048445463181, -0.07997799664736, -0.20031718909740, -0.17956836521626, -0.18324297666550, -0.04405291751027, 0.00367485266179, 0.15387772023678, -0.03715501725674, -0.08648470789194, -0.18627409636974, 0.14032472670078, -0.01477021072060, 0.12703567743301, 0.09563635289669, -0.04248017817736, -0.16145652532578, -0.17671550810337, 0.08764693140984, -0.16831047832966, 0.16017039120197, 0.28925359249115, -0.07685852795839, -0.12299595773220, 0.03579064086080, 0.03117414191365, -0.03106645122170, 0.09665820747614, 0.19472952187061, 0.04886030033231, -0.29179897904396, 0.00756336841732, 0.13211368024349, -0.12095016241074, -0.17002803087234, 0.22827395796776, 0.14131960272789, -0.26088622212410, -0.29581001400948, 0.11413813382387, -0.02820674516261, 0.10599017143250, 0.01091421674937, 0.08655562996864, 0.12313169240952, -0.07937793433666, 0.21950291097164, 0.20601896941662, 0.21543106436729, -0.19535669684410, -0.27380988001823, -0.06876487284899, 0.12906336784363, 0.08417254686356, -0.10737863183022, -0.16275304555893, -0.02804473228753, 0.03629254549742, 0.12529797852039, 0.01808517798781, 0.06567177176476, -0.12841694056988, -0.16975353658199, -0.21300503611565, 0.08643341064453, 0.03760440275073, -0.08505187183619, 0.03547317907214, 0.09381356835365, -0.02984318695962, -0.05152365192771, -0.15610538423061, 0.19963704049587, -0.02743937633932, -0.00223786942661, -0.21665257215500, 0.23632484674454, 0.16431735455990, -0.24988058209419, 0.20043180882931, -0.22956691682339, -0.04758726432920, -0.21078535914421, 0.20252257585526, 0.15303722023964, 0.10509891062975, -0.17203131318092, 0.22602634131908, 0.05982328578830, 0.01339326053858, 0.03069271706045, 0.03098708949983, -0.12916447222233, 0.20948033034801, 0.02128006517887, 0.03774585574865, 0.10775260627270, -0.03977302834392, -0.09965584427118, 0.20795567333698, -0.04843028634787, -0.21869841217995, -0.13111339509487, 0.00284312409349, 0.05870518460870, -0.06572660058737, 0.10326588153839, -0.14599396288395, 0.21394674479961, -0.05433136597276, -0.07489549368620, -0.11641864478588, 0.12831473350525, -0.24574106931686, -0.14354453980923, 0.15756726264954, 0.03488217294216, -0.08283998072147, -0.18723875284195, -0.26016637682915, -0.02580693550408, 0.13549415767193, -0.05798369273543, -0.11326293647289, 0.03298196196556, -0.21573588252068, -0.11637762933969, 0.16941475868225, 0.13111387193203, 0.05958278104663, 0.04461565613747, 0.08105228841305, 0.10979571193457, 0.00783946923912, -0.06745883822441, -0.19251975417137, -0.16704256832600, -0.02206452377141, 0.16835677623749, 0.12712250649929, 0.25262930989265, -0.23504494130611, 0.01502766273916, -0.05485402792692, 0.27007484436035, -0.23609925806522, 0.21318146586418, -0.14052070677280, 0.04408567771316, 0.06915038824081, -0.11931500583887, -0.20505106449127, -0.00758190918714, 0.24239605665207, 0.01010101195425, 0.14038147032261, -0.05980818346143, -0.16629125177860, 0.03556172922254, 0.01760649122298, -0.25178974866867, -0.18465912342072, 0.06704270094633, -0.10581956803799, -0.09855722635984, -0.23053891956806, 0.07700376212597, 0.02316856198013, 0.08177280426025, 0.03232343122363, 0.21959286928177, -0.09920888394117, 0.28576278686523, -0.06679373979568, 0.18658432364464, 0.24303928017616, -0.05518044531345, -0.03298140689731, -0.23689164221287, -0.26248157024384, -0.20755097270012, -0.07470705360174, 0.16901831328869, -0.04732172936201, -0.06250043958426, -0.00639872997999, 0.02048923820257, 0.14596985280514, -0.06947398930788, 0.21766519546509, -0.05309041589499, -0.17010036110878, 0.12918102741241, 0.05920301005244, 0.24558897316456, -0.15113128721714, -0.10387361794710, -0.07715260237455, -0.09818610548973, -0.02887122146785, 0.17754760384560, -0.24382904171944, 0.02713375166059, 0.24806374311447, -0.19846837222576, 0.08561649918556, -0.10707893967628, 0.05965608358383, -0.21533071994781, 0.13838474452496, 0.17664404213428, 0.22464966773987, 0.04106927290559, -0.23741070926189, 0.04484826326370, -0.20413821935654, -0.14728650450706, 0.10332000255585, 0.11949994415045, -0.19028541445732, 0.21845449507236, -0.09029949456453, 0.05793604254723, -0.08805699646473, 0.09441615641117, 0.23873138427734, 0.21808455884457, 0.03100189566612, -0.04738161712885, 0.24447381496429, 0.23098960518837, -0.17341445386410, 0.21706128120422, 0.02039466425776, -0.11905717849731, -0.21388891339302, 0.07359098643064, -0.10872793942690, -0.06464259326458, 0.01399614103138, -0.08044173568487, -0.05106274411082, -0.09975925087929, 0.01575171947479, 0.18459187448025, 0.09621459990740, -0.09141431003809, 0.10398844629526, 0.09455910325050, -0.09362813085318, 0.03278588131070, 0.10554065555334, 0.01336555927992, -0.12749983370304, 0.15660987794399, -0.15270505845547, -0.08606914430857, -0.04632243514061, -0.25767874717712, 0.14022320508957, 0.22800078988075, -0.01172541268170, -0.19049717485905, -0.02298066951334, 0.08146426081657, 0.16263131797314, -0.19737692177296, 0.15700531005859, 0.03319790959358, 0.09089031815529, 0.21350179612637, 0.13170389831066, 0.15688425302505, 0.07257898151875, 0.06057487055659, -0.30175372958183, 0.01085674203932, -0.12567462027073, -0.10626307129860, 0.06065487116575, -0.02981836907566, 0.15189351141453, -0.23856870830059, -0.22423745691776, 0.16592560708523, 0.06492930650711, 0.15806521475315, -0.13677972555161, 0.03824197873473, -0.18131391704082, -0.01580365560949, -0.21108196675777, -0.23486658930779, -0.21133455634117, 0.09282635152340, -0.10560411959887, -0.11224360018969, -0.21955992281437, 0.15701922774315, 0.01745311543345, -0.06731346249580, -0.20687279105186, -0.16331288218498, -0.15343986451626, -0.04044510796666, -0.01437289640307, -0.10461249947548, -0.11764179915190, 0.06096209213138, 0.18083064258099, 0.22039692103863, -0.12156841158867, 0.26825764775276, 0.19439028203487, -0.05042966455221, -0.05358255282044, -0.08048838376999, 0.16662167012691, 0.29599529504776, 0.07822679728270, 0.23658391833305, 0.08847980201244, 0.10151526331902, 0.18553400039673, 0.14420230686665, -0.16382037103176, -0.13663995265961, -0.03133098036051, 0.19979232549667, 0.10554653406143, -0.14233213663101, -0.20043900609016, -0.22890691459179, -0.04486134648323, -0.13796867430210, 0.05899142473936, -0.23277939856052, 0.15522624552250, 0.18656384944916, -0.00628171022981, 0.26592752337456, 0.19038714468479, 0.21288059651852, -0.17663103342056, 0.04980075731874, -0.21318541467190, -0.03271622210741, -0.02795083448291, -0.20288200676441, -0.01679635420442, 0.26132825016975, 0.18789766728878, -0.19564893841743, 0.21401464939117, 0.00951559655368, -0.11377470940351, -0.16258467733860, 0.17184332013130, -0.19543074071407, -0.20940330624580, 0.20362715423107, 0.02278417907655, 0.02395318076015, 0.04602549225092, 0.12478249520063, -0.00874920748174, 0.23249559104443, 0.16181151568890, -0.04466905444860, 0.07249540835619, -0.10331189632416, 0.13869526982307, 0.13535849750042, -0.23755018413067, -0.10874978452921, -0.09738229960203, 0.07422636449337, -0.07768489420414, -0.00710506271571, -0.21247108280659, 0.12090846896172, 0.13511799275875, -0.24769078195095, 0.01785129308701, 0.17649564146996, 0.17010447382927, 0.09326713532209, -0.23235315084457, -0.20976047217846, -0.22514106333256, -0.22040934860706, -0.19705474376678, 0.23879514634609, -0.14705729484558, -0.01867443323135, 0.02795254252851, 0.12388025969267, -0.14370220899582, 0.03642957285047, 0.17689971625805, -0.02709649689496, 0.15548720955849, -0.22178858518600, 0.00979223102331, 0.23879031836987, 0.10647407919168, -0.14601954817772, 0.05454012751579, -0.10649269819260, -0.09581450372934, -0.15967991948128, -0.07126068323851, 0.17466802895069, 0.14337591826916, 0.19466269016266, 0.18820144236088, 0.00810659863055, 0.03355723991990, -0.02625599130988, 0.13027703762054, 0.00419932138175, -0.18909098207951, -0.05934381484985, -0.05901334434748, -0.15092846751213, -0.08029457926750, -0.20717346668243, 0.22694334387779, -0.06448032706976, -0.06905031204224, -0.13886325061321, 0.13518068194389, -0.20884782075882, 0.13230943679810, 0.03369742259383, -0.02994386851788, -0.16238945722580, 0.12387853860855, -0.05016286671162, 0.01437741424888, -0.18410025537014, 0.01628158241510, -0.21841366589069, -0.17084890604019, 0.25270196795464, -0.15186434984207, -0.05192597955465, -0.20117999613285, 0.10919464379549, 0.15186199545860, -0.05713227018714, 0.07860280573368, 0.19753685593605, 0.15727204084396, -0.12222311645746, -0.10322716832161, 0.13792137801647, 0.19283202290535, -0.08892976492643, 0.12862437963486, -0.02010672725737, 0.20343770086765, -0.06821132451296, 0.24711425602436, 0.11547304689884, -0.21890893578529, 0.06935786455870, 0.23294676840305, 0.12840881943703, -0.05492952466011, -0.04609452560544, -0.03248687088490, 0.19482946395874, 0.01295951567590, -0.25101271271706, 0.19487591087818, 0.10225355625153, -0.17127853631973, -0.17422801256180, 0.01128774788231, -0.03857024759054, -0.03086275048554, 0.06455844640732, 0.06268019974232, 0.06570190936327, -0.07683562487364, -0.11020705103874, -0.27705466747284, 0.09328078478575, 0.15058131515980, 0.18049043416977, 0.07133408635855, -0.19780099391937, -0.13053634762764, 0.24491687119007, 0.13220685720444, 0.13918232917786, 0.09042079001665, -0.05001315474510, -0.22858871519566, -0.03949611634016, 0.09516797959805, 0.16934633255005, -0.06386272609234, 0.27068215608597, -0.05091014876962, -0.08004830777645, -0.19312268495560, -0.25120586156845, -0.10659387707710, 0.18293979763985, -0.11158595234156, 0.04653463512659, -0.11363692581654, 0.25087761878967, -0.19534638524055, 0.17129075527191, 0.18249607086182, -0.00250212708488, 0.04305236041546, -0.21205732226372, 0.18279975652695, 0.10966159403324, -0.07778640836477, -0.14938122034073, -0.00148333283141, -0.19476941227913, -0.14068584144115, -0.19735340774059, 0.09359434992075, -0.03756367415190, 0.24625335633755, -0.09904316067696, 0.23882046341896, -0.06222539395094, -0.18798899650574, 0.01699680089951, 0.08839045464993, -0.11411170661449, -0.15608239173889, -0.10966869443655, 0.15496303141117, 0.16395497322083, -0.06676490604877, -0.11849106103182, 0.15536543726921, -0.12829969823360, -0.21335431933403, 0.04322666302323, -0.09921190142632, -0.04740874469280, -0.05483116582036, -0.00849469285458, 0.13697598874569, 0.13912412524223, 0.12950091063976, -0.07261890918016, -0.20192372798920, -0.21202617883682, -0.03865324705839, 0.11506605893373, -0.11928144842386, -0.20716591179371, -0.21284423768520, 0.12196130305529, -0.19928492605686, 0.17900510132313, -0.16287258267403, 0.07215598225594, -0.24717485904694, 0.20624253153801, 0.20209282636642, -0.19389680027962, 0.25374233722687, 0.12152799218893, -0.09784635901451, 0.30992656946182, 0.04261636361480, 0.21770450472832, 0.10279015451670, 0.11134225130081, 0.14171028137207, -0.15656627714634, 0.20604223012924, 0.18575197458267, 0.07063495367765, -0.02471048384905, 0.01203494053334, -0.10541164875031, -0.12504018843174, 0.04485859349370, -0.18523529171944, -0.28580865263939, -0.10943984985352, 0.15889960527420, 0.06005792692304, 0.05762709677219, 0.01050642412156, -0.11668633669615, 0.21867963671684, 0.08359127491713, 0.12186930328608, -0.00916274078190, -0.10684402287006, 0.14962115883827, 0.28880193829536, 0.24907544255257, 0.25516259670258, 0.14136327803135, -0.17916840314865, 0.01265307422727, -0.11053088307381, 0.16542643308640, -0.00742578692734, 0.14387182891369, -0.08966048806906, 0.16604937613010, 0.25900247693062, -0.01743511296809, 0.17854622006416, 0.13418905436993, -0.14219821989536, -0.06846618652344, -0.13383084535599, -0.09928255528212, -0.10220391303301, -0.12125588953495, 0.23216505348682, -0.04061968624592, 0.12844914197922, 0.13474225997925, -0.03815892338753, -0.18470083177090, 0.07799080759287, 0.20948624610901, 0.13349807262421, -0.01705551519990, 0.06407754123211, 0.18619768321514, 0.28232374787331, -0.02394386753440, -0.19577898085117, -0.20521129667759, 0.19766873121262, 0.22082528471947, -0.01703020557761, -0.19231894612312, 0.03947112709284, 0.21634089946747, 0.18081197142601, 0.24347464740276, 0.19572560489178, -0.07345660030842, 0.15087771415710, -0.15776167809963, 0.17954140901566, -0.05036062374711, -0.06796661764383, 0.14582371711731, -0.21734541654587, 0.09169895946980, -0.09401051700115, -0.07035694271326, 0.17010077834129, -0.02487434633076, 0.11717879772186, 0.07623261958361, 0.13994574546814, 0.04616624116898, -0.21129572391510, -0.03956781327724, 0.18930111825466, -0.17659991979599, -0.24980284273624, 0.04315555840731, -0.09673934429884, 0.23972463607788, 0.09367060661316, 0.10895137488842, -0.21358522772789, -0.12958420813084, 0.26823395490646, -0.00980879925191, 0.06270217150450, -0.18922296166420, -0.03389899060130, 0.19825841486454, -0.06980199366808, -0.02078014984727, 0.18410310149193, 0.09097994863987, 0.18844088912010, 0.13305456936359, 0.01814305782318, -0.01571679115295, 0.20369213819504, 0.24407315254211, -0.13391053676605, 0.12105304002762, 0.20562708377838, 0.15417331457138, 0.01151293516159, 0.19176602363586, 0.15964984893799, 0.17303293943405, -0.03698891401291, 0.22944635152817, 0.15782541036606, 0.21239298582077, 0.22913300991058, -0.16445481777191, 0.06015443801880, 0.19178539514542, -0.01034104824066, 0.21785438060760, 0.10496580600739, 0.04730200767517, -0.15196263790131, 0.17977237701416, 0.22492945194244, -0.13100099563599, -0.20621293783188, 0.24329543113708, -0.16547882556915, -0.03986436128616, 0.07705739140511, 0.08043715357780, 0.03605348989367, -0.00324358977377, -0.00015745864948, -0.00623000413179, -0.09332376718521, 0.18838217854500, -0.10572361201048, -0.21928107738495, -0.02911982685328, -0.03900764137506, 0.17542961239815, -0.05492553487420, 0.05030027031898, -0.19771969318390, -0.08649722486734, -0.18347440660000, -0.08652025461197, 0.20630279183388, -0.20337352156639, 0.08717732131481, -0.11192777007818, -0.17958243191242, -0.15058661997318, 0.25868514180183, -0.07511746138334, 0.12058632075787, 0.21231357753277, -0.22315903007984, -0.12067538499832, 0.11900600790977, -0.07810044288635, 0.15754429996014, 0.20652142167091, -0.01469591446221, 0.01089590694755, 0.24669788777828, -0.07862211018801, 0.13471478223801, -0.16205678880215, 0.25430291891098, -0.19575043022633, 0.02683427184820, 0.04455154389143, -0.16880145668983, -0.22302030026913, 0.03857895359397, 0.25883308053017, 0.14626613259315, 0.04261303693056, 0.23225229978561, -0.07783824205399, -0.10561311244965, 0.20212793350220, -0.01183843426406, -0.05373819544911, 0.09951809048653, -0.18381266295910, 0.10204806923866, 0.19663451611996, 0.19581085443497, 0.22327207028866, 0.10684912651777, 0.04830659925938, -0.06447169929743, 0.03105775825679, -0.15151856839657, -0.13077203929424, 0.14428746700287, 0.10396014153957, 0.02843960374594, -0.11657345294952, 0.06896022707224, 0.26191434264183, -0.03299472481012, -0.14171317219734, 0.15296664834023, 0.14520597457886, 0.04047369211912, -0.07376499474049, -0.01979706063867, -0.17280063033104, -0.27287042140961, -0.13704688847065, -0.22837327420712, -0.25891214609146, -0.00485782139003, 0.25079807639122, -0.12085812538862, 0.22109615802765, 0.07739886641502, 0.21808175742626, 0.08371440321207, -0.01641736552119, -0.10681690275669, 0.08276990056038, -0.10962193459272, 0.00232482678257, -0.16189888119698, -0.06001961976290, 0.08157878369093, -0.10898755490780, -0.15637524425983, 0.11257816106081, 0.00802947953343, 0.02803128771484, 0.00968943908811, -0.18627296388149, 0.21733303368092, 0.20128829777241, 0.04796486720443, -0.18539366126060, 0.20078557729721, -0.18368831276894, -0.05712020024657, -0.05759335681796, -0.10104542970657, -0.07108929008245, -0.07923150807619, -0.15546412765980, 0.10039670765400, -0.04076113924384, 0.14044453203678, -0.19084657728672, 0.17518584430218, -0.02028375491500, 0.02912645787001, -0.27697873115540, 0.14728727936745, -0.07017036527395, 0.13973918557167, 0.01124248746783, 0.30603164434433, -0.14103464782238, -0.20811723172665, 0.12562026083469, 0.02705617249012, -0.11322296410799, 0.02679818868637, 0.01522614154965, 0.00812488514930, 0.16039794683456, -0.14351788163185, 0.05978906527162, 0.06765200942755, 0.27773851156235, 0.01201488077641, -0.21828994154930, -0.20390163362026, -0.02038804441690, -0.14977571368217, -0.08722307533026, 0.08045628666878, -0.22498846054077, -0.00118934689090, -0.19309338927269, 0.00202379561961, 0.12860053777695, -0.00485072890297, -0.01778998970985, 0.06214487552643, -0.02867191843688, -0.03457506746054, 0.18064521253109, -0.10946136713028, 0.09121789038181, 0.18870005011559, 0.16834169626236, -0.03535388410091, -0.09213445335627, 0.18524894118309, 0.14517131447792, -0.02447111345828, 0.02504801750183, 0.06959950178862, 0.24332332611084, -0.12646159529686, -0.13878947496414, -0.00660187564790, -0.21847313642502, 0.15579283237457, 0.14021568000317, -0.19301128387451, -0.22143459320068, 0.13090401887894, 0.23441138863564, -0.22362433373928, -0.05107241868973, 0.05476016923785, -0.06637167930603, -0.18521612882614, 0.11945787817240, -0.13625738024712, -0.15655505657196, 0.22711010277271, -0.03392658382654, -0.00160146399867, 0.23741567134857, -0.02812301553786, 0.23830944299698, 0.15428717434406, -0.22005641460419, 0.28805711865425, 0.09259331226349, -0.01432787906379, 0.08335274457932, -0.14294560253620, 0.01714336685836, 0.10695023089647, -0.19930066168308, 0.17853009700775, -0.20123296976089, -0.08828819543123, 0.17164064943790, -0.02890128083527, -0.20136646926403, 0.15013267099857, 0.05762611329556, 0.13953977823257, -0.19914612174034, -0.14610779285431, 0.29317814111710, 0.01761480793357, 0.23649594187737, -0.17520461976528, -0.07069907337427, 0.09278423339128, 0.23048090934753, 0.01815502904356, -0.08344108611345, -0.01783541403711, -0.22662451863289, -0.06176045536995, 0.03288450464606, -0.19205807149410, -0.16387723386288, 0.13906209170818, -0.20187287032604, -0.16605398058891, -0.10977668315172, -0.22459200024605, -0.13468676805496, -0.24131791293621, -0.01021990366280, 0.24836415052414, 0.02787390165031, -0.09827716648579, -0.15883484482765, -0.14102798700333, 0.11240842193365, -0.10476286709309, -0.15003091096878, -0.17865428328514, 0.06974558532238, -0.09792849421501, 0.09828414767981, -0.14459231495857, -0.08849411457777, -0.16398015618324, 0.16613651812077, -0.17149358987808, 0.25038564205170, 0.10302039235830, -0.03774447366595, -0.25411817431450, 0.15331943333149, 0.13797163963318, 0.09569996595383, 0.02594994381070, -0.12694655358791, 0.11818275600672, -0.17520762979984, -0.13572028279305, 0.05637294054031, -0.02262291871011, -0.14445187151432, -0.16020108759403, -0.14583393931389, 0.00890419632196, -0.20360755920410, 0.09722632169724, -0.10323848575354, 0.21654351055622, 0.03387799486518, -0.10905380547047, -0.18845480680466, -0.11702395230532, -0.02290136925876, 0.21770463883877, -0.13717257976532, 0.01906953193247, 0.19919402897358, 0.04265938699245, 0.09591981768608, -0.18739378452301, 0.01341849565506, -0.11084663122892, 0.14753526449203, -0.17310261726379, 0.24081844091415, -0.19123685359955, 0.16928237676620, -0.23139640688896, 0.12200776487589, -0.02403778582811, 0.03631848096848, -0.06311299651861, -0.17298132181168, -0.02511942386627, 0.18900024890900, 0.16830486059189, -0.08787781000137, -0.00335345719941, 0.20061469078064, 0.22883087396622, -0.24662640690804, 0.06987591832876, -0.04311878234148, -0.20600675046444, -0.06309724599123, -0.13248448073864, -0.08235722035170, 0.06452053785324, -0.20083141326904, -0.23870243132114, -0.08499330282211, -0.18262062966824, -0.19317398965359, 0.04302275553346, -0.06341041624546, 0.11900619417429, 0.23832856118679, -0.08379315584898, -0.13689893484116, 0.00839772727340, 0.16228526830673, -0.06568062305450, 0.09102514386177, 0.07178049534559, -0.21517485380173, 0.13384020328522, 0.10253096371889, -0.09001257270575, 0.10631476342678, 0.13344249129295, -0.13963346183300, -0.16377615928650, -0.05787213146687, -0.03719965368509, 0.11938919872046, 0.24167542159557, -0.20185069739819, 0.08502400666475, -0.23924951255322, 0.02957199513912, 0.25370991230011, -0.04375315457582, 0.00178771419451, -0.08474883437157, -0.03004312515259, 0.00653129210696, -0.07792229205370, -0.08187319338322, -0.02023819647729, 0.09908832609653, -0.08578982204199, 0.05611530318856, -0.06458833068609, -0.18829853832722, 0.15270431339741, -0.23587806522846, -0.02807691134512, -0.08203473687172, -0.13848689198494, 0.14840564131737, -0.20929197967052, 0.07339426875114, 0.04292435944080, -0.13997292518616, -0.04192417114973, -0.10386780649424, -0.20078647136688, 0.05419372394681, -0.22229844331741, 0.03434278443456, -0.13544757664204, -0.08426800370216, -0.19435577094555, -0.06188550963998, -0.00918873585761, 0.21318778395653, -0.15819862484932, 0.32718408107758, 0.08842695504427, 0.30264520645142, 0.19147451221943, 0.25293856859207, -0.24423880875111, 0.02579923905432, 0.12301082164049, -0.03468685597181, -0.00744925066829, 0.04904950410128, 0.05415684357285, -0.10128951817751, -0.12222272157669, -0.15659584105015, -0.09874080121517, -0.03915359079838, -0.08331104367971, -0.14829757809639, -0.07035540044308, 0.23404976725578, 0.24544945359230, 0.18167673051357, 0.20326101779938, -0.16205924749374, 0.00929593387991, -0.12198652327061, -0.15568326413631, 0.05177739635110, 0.00594004336745, 0.24904228746891, -0.10429888963699, -0.14996834099293, -0.12357241660357, 0.02390255220234, 0.19184723496437, 0.15361875295639, -0.22385393083096, 0.00227897893637, -0.24070033431053, -0.00718792341650, -0.20624804496765, -0.17492930591106, 0.16181880235672, -0.20780418813229, -0.21886798739433, -0.06668761372566, 0.11543622612953, -0.10319883376360, -0.18335136771202, 0.07164269685745, 0.01263134740293, 0.03095897473395, -0.11142541468143, -0.05591562390327, 0.19333961606026, 0.03435295075178, -0.10405524075031, -0.10115423053503, -0.18892459571362, 0.21368311345577, 0.13271701335907, -0.07788387686014, -0.04171289876103, 0.24253879487514, -0.09981437027454, -0.08739743381739, -0.15520618855953, -0.05017072707415, 0.01454271562397, -0.19947473704815, -0.18568213284016, -0.01084658876061, 0.12378184497356, 0.06667751818895, -0.11784670501947, -0.09022361785173, -0.17567205429077, 0.07229635864496, -0.16219006478786, -0.27056226134300, -0.14797659218311, -0.01768957264721, 0.10020640492439, 0.10448264330626, 0.13747777044773, 0.07168656587601, -0.04394674301147, 0.25336912274361, -0.14500872790813, 0.00568925496191, -0.21092267334461, -0.02313765697181, -0.22965185344219, -0.24996423721313, 0.08952040970325, -0.07636301219463, -0.20728470385075, 0.14813791215420, 0.06972536444664, -0.01371864043176, 0.14552175998688, -0.04479081556201, 0.18315985798836, 0.02404245734215, -0.07197656482458, -0.11944391578436, 0.08399607986212, -0.16085754334927, 0.15390431880951, -0.24310389161110, -0.04792216420174, -0.12740896642208, -0.24922002851963, 0.10828085243702, -0.20937739312649, -0.16265858709812, 0.18517926335335, 0.19994616508484, 0.07218371331692, 0.02558087371290, 0.14124792814255, 0.29571902751923, 0.01278284005821, 0.02100423164666, 0.08450848609209, -0.17387646436691, 0.23919130861759, 0.02407750114799, -0.03046625666320, -0.04156566783786, 0.20601280033588, -0.04892553761601, 0.06958495080471, -0.26884415745735, -0.00930905807763, -0.06668142229319, 0.12258078157902, 0.19890275597572, -0.19086499512196, 0.16184441745281, 0.14501675963402, 0.03587702661753, -0.15481202304363, -0.03211696073413, -0.15007621049881, -0.07191522419453, -0.01778846606612, -0.04014018550515, 0.14117947220802, 0.17502598464489, -0.06731731444597, -0.00695573724806, 0.23604413866997, -0.08536919951439, 0.15471601486206, 0.12813656032085, -0.01364626735449, -0.09437575936317, 0.03702572733164, -0.12350822985172, -0.16912516951561, 0.10193824768066, 0.15793281793594, -0.03712502494454, 0.02307795174420, -0.01978143490851, 0.05086438730359, 0.10949255526066, -0.08294606953859, 0.16983181238174, 0.12511551380157, -0.17546129226685, -0.23525951802731, 0.00118657923304, 0.09008339792490, -0.21063348650932, 0.11677189171314, 0.22727705538273, 0.05100709199905, 0.27487406134605, 0.20610357820988, -0.08876722306013, -0.18537789583206, 0.19559308886528, -0.03344091773033, -0.16003094613552, -0.18721438944340, -0.17945171892643, -0.04839137569070, 0.24049775302410, 0.16270236670971, -0.01835122518241, -0.24588830769062, -0.17820148169994, 0.19842788577080, -0.15362030267715, 0.08334941416979, -0.01818823814392, -0.10940212011337, -0.08438839018345, -0.10240644961596, 0.03921511396766, 0.11479157209396, 0.17656412720680, 0.05798643454909, -0.16757163405418, -0.10485505312681, 0.00951198395342, -0.07848668098450, 0.01888355053961, -0.11430370062590, -0.11824779957533, 0.08602535724640, -0.05901833623648, 0.25459411740303, 0.04998712614179, -0.13667605817318, 0.14891007542610, 0.07291635125875, 0.14252400398254, 0.26570159196854, 0.21327847242355, -0.06244424358010, -0.14149104058743, 0.15804369747639, -0.23474021255970, -0.11813160777092, 0.17770403623581, 0.22796159982681, -0.05981308221817, -0.17007416486740, 0.01191248558462, 0.12269739806652, -0.16380737721920, -0.18368420004845, 0.18543915450573, -0.07360450178385, 0.00381764629856, -0.02803192846477, 0.28400853276253, 0.19320903718472, 0.19908908009529, -0.17907159030437, -0.23638635873795, 0.16489152610302, 0.11091984808445, -0.03452663123608, -0.07345055043697, 0.20450150966644, 0.02423395588994, 0.23631867766380, 0.01244843285531, -0.18022534251213, -0.03330819308758, 0.11410610377789, 0.15236961841583, -0.19800066947937, -0.14366377890110, 0.08263891190290, 0.16908316314220, -0.17373463511467, 0.18881349265575, 0.25643870234489, 0.24999268352985, 0.20421384274960, 0.01708775758743, 0.20326624810696, 0.03784162923694, -0.10292346030474, 0.05526475980878, 0.10750485956669, -0.06792325526476, -0.10823482275009, 0.03884596005082, -0.05366854369640, -0.08282548934221, -0.22142639756203, -0.12087000906467, 0.12821261584759, -0.20101501047611, 0.14962531626225, -0.11510830372572, -0.19365006685257, -0.00315274740569, -0.10840697586536, 0.22135455906391, 0.14633624255657, -0.04340767487884, 0.09231785684824, -0.00785146281123, 0.08013693988323, -0.18498551845551, 0.16552506387234, 0.06681047379971, 0.06765926629305, 0.06095329299569, -0.00930017232895, 0.06429460644722, 0.20834378898144, -0.22064045071602, -0.10809575766325, -0.12586629390717, -0.17722876369953, -0.11538676917553, 0.10362012684345, 0.06875736266375, -0.07680436968803, 0.10960718989372, -0.04306706413627, 0.00626608263701, -0.07782132923603, -0.23628844320774, 0.07911203801632, 0.03894544020295, 0.11577987670898, 0.17878103256226, -0.12698721885681, 0.01133732963353, -0.01318054646254, 0.14611627161503, 0.09231871366501, 0.23017182946205, -0.05732768774033, -0.03273744136095, 0.14485596120358, -0.18364407122135, 0.10392896831036, -0.22674071788788, 0.12872093915939, -0.08705420792103, 0.15745578706264, -0.16449648141861, -0.20385503768921, 0.24863602221012, 0.14994382858276, -0.07745350152254, 0.14195114374161, 0.05047925189137, -0.07477154582739, 0.20554013550282, -0.16497543454170, -0.23935076594353, 0.06459990143776, -0.23305295407772, -0.15702249109745, -0.18926464021206, 0.18531039357185, -0.12267727404833, -0.17074555158615, -0.00367336487398, -0.13455203175545, -0.22024567425251, -0.17297905683517, -0.11764807254076, -0.00934627000242, -0.27632886171341, -0.22722804546356, 0.03064452111721, -0.04011872410774, 0.21820500493050, 0.16679640114307, 0.17420640587807, 0.22654551267624, -0.20015507936478, -0.17263515293598, 0.02148721367121, 0.19535669684410, -0.04395124688745, 0.20740513503551, 0.00568259460852, -0.05385300889611, -0.18755650520325, -0.20777729153633, 0.02495713531971, -0.22466085851192, 0.18961396813393, -0.18213695287704, 0.03138041496277, 0.03597221896052, -0.16502244770527, 0.17831258475780, 0.21555227041245, 0.19134713709354, 0.03955930471420, -0.02758514136076, 0.17303346097469, -0.10621407628059, -0.05508099496365, -0.11777678132057, 0.05580476671457, 0.12871293723583, 0.08071766048670, 0.20032650232315, -0.18441022932529, 0.11799202114344, -0.20531690120697, 0.22911153733730, -0.24170514941216, -0.18256704509258, 0.09180355817080, -0.08471519500017, 0.22287431359291, -0.15845438838005, -0.23669895529747, 0.07689464092255, 0.13470682501793, -0.18386811017990, -0.01868399791420, 0.13786226511002, -0.09131047129631, 0.03124889172614, -0.21712447702885, 0.20484155416489, 0.04184509068727, 0.20028524100780, 0.00553131569177, -0.03942744061351, -0.10158935934305, 0.20062191784382, -0.17673157155514, -0.08877762407064, 0.18112616240978, 0.03823792934418, -0.14926689863205, 0.18815839290619, -0.06304878741503, 0.13463090360165, -0.04289196804166, -0.27596130967140, 0.29007622599602, -0.07238708436489, 0.24655689299107, -0.06274621188641, 0.01384633779526, 0.22109696269035, 0.06663905084133, -0.15744197368622, -0.01996638998389, 0.18689368665218, -0.13974013924599, -0.15423448383808, -0.01769784465432, -0.09262999892235, 0.20332367718220, 0.07004650682211, 0.12968409061432, 0.16402263939381, -0.19130018353462, 0.15779116749763, 0.17106717824936, 0.02032696641982, -0.12018980085850, -0.24581493437290, 0.20254938304424, -0.06027276813984, 0.11662437021732, 0.04538248106837, -0.02987281419337, 0.23507568240166, -0.12015578150749, -0.08285500109196, 0.15554490685463, -0.21186855435371, -0.09103247523308, -0.00452743330970, -0.06071733683348, -0.15898418426514, -0.20290131866932, -0.27411320805550, -0.04584920778871, -0.10756307095289, 0.22699357569218, 0.22613593935966, 0.08918594568968, 0.18468314409256, 0.00862084887922, -0.23681564629078, 0.19528008997440, -0.17387846112251, 0.11732956022024, -0.05254036188126, -0.15281902253628, -0.00347515195608, -0.05790975689888, 0.12134508788586, 0.19858661293983, -0.17928743362427, -0.16578166186810, 0.15505890548229, 0.08320897817612, 0.15028175711632, -0.17853191494942, -0.03194998949766, 0.03142483532429, -0.03403213247657, -0.11622596532106, 0.02941741608083, 0.09837353229523, -0.10454430431128, -0.08233214914799, -0.01469632424414, 0.11238481849432, -0.07484465837479, 0.12833723425865, 0.02672522328794, -0.03712507337332, -0.01985926553607, 0.08157362043858, 0.00384860811755, 0.07409866154194, 0.14783567190170, -0.10240516066551, 0.05068389698863, 0.21646201610565, 0.12575376033783, -0.12667456269264, 0.15013641119003, -0.01762089692056, -0.04455193132162, 0.00289868889377, -0.03170941770077, -0.11137498170137, -0.01227909047157, -0.07424292713404, 0.15366831421852, 0.00871804635972, 0.05668190121651, 0.27090683579445, 0.13229106366634, 0.02486545778811, -0.18059854209423, 0.14707009494305, 0.03993748873472, 0.22465875744820, -0.12567104399204, 0.16776844859123, -0.15242077410221, 0.00584789132699, 0.12444401532412, -0.12560118734837, 0.18995225429535, -0.16199669241905, -0.01378702744842, -0.12233118712902, -0.20529305934906, -0.23608170449734, -0.07463939487934, 0.06379545480013, -0.13728444278240, 0.12499938160181, -0.02340051904321, -0.06071287393570, -0.21105074882507, 0.02994486503303, -0.07732444256544, 0.15707792341709, 0.16978912055492, 0.29232695698738, 0.22198854386806, 0.09740461409092, 0.07949615269899, 0.20537842810154, -0.20524483919144, -0.08105231821537, 0.20339405536652, 0.00489883776754, 0.20759487152100, -0.03659272938967, 0.25787693262100, 0.03213669359684, -0.03156824782491, 0.07084173709154, -0.00145600712858, -0.11868011951447, 0.24467292428017, 0.24043489992619, 0.00168028264306, 0.21228362619877, 0.15414187312126, -0.17357409000397, 0.17914989590645, 0.12612101435661, 0.11985897272825, 0.24960331618786, 0.02529148198664, 0.11348523944616, -0.21570302546024, 0.16297724843025, 0.12548413872719, 0.13609568774700, -0.12724635004997, -0.15161527693272, 0.15334379673004, 0.05246482789516, -0.00602647569031, 0.13454878330231, -0.04282901063561, 0.21743883192539, -0.01821998879313, -0.16513729095459, 0.12938673794270, 0.16430103778839, 0.25154960155487, 0.03852997347713, 0.24319052696228, -0.01934813521802, -0.26421847939491, -0.10107085853815, -0.06013182178140, -0.09297524392605, -0.17943450808525, -0.07782936841249, -0.18886309862137, 0.12247724831104, 0.16939237713814, -0.09186024963856, -0.09796217828989, -0.22154654562473, 0.25486084818840, -0.16799908876419, -0.05820501968265, 0.09221438318491, -0.20555426180363, -0.11906497925520, -0.01579044014215, 0.22593000531197, 0.03778938576579, -0.12396592646837, -0.02602056227624, -0.06948610395193, -0.23249568045139, 0.25930163264275, 0.07370891422033, -0.04863302782178, -0.23563537001610, 0.30696263909340, -0.06577430665493, 0.07413713634014, -0.15782134234905, -0.14677394926548, -0.15260195732117, 0.14283570647240, 0.27890539169312, 0.22789813578129, 0.08241713792086, -0.26835593581200, -0.07600899040699, 0.00138878705911, 0.07230558246374, 0.15246677398682, 0.18505446612835, -0.22703449428082, -0.09152213484049, -0.12878759205341, -0.08167324215174, 0.01168957073241, -0.18365320563316, -0.06533834338188, -0.21705090999603, 0.32468584179878, 0.06326986104250, -0.04245326668024, -0.03099823184311, -0.15605755150318, -0.18695834279060, 0.22919720411301, 0.20162756741047, 0.00221604900435, 0.12164224684238, -0.14622294902802, 0.19509761035442, -0.11040254682302, 0.18975707888603, 0.06678484380245, 0.25157737731934, -0.23891353607178, 0.07760962843895, -0.17933398485184, 0.11576894670725, -0.16256469488144, 0.06574873626232, -0.18677829205990, -0.11727930605412, -0.13680432736874, -0.14952565729618, 0.10245365649462, 0.19267088174820, 0.03910949826241, 0.06576447933912, -0.15757149457932, 0.25670972466469, -0.24388840794563, -0.09290498495102, -0.03608759865165, 0.04691448807716, -0.06802765280008, -0.00877836998552, -0.06556757539511, 0.02236237935722, -0.01668656058609, 0.14803831279278, -0.04324620217085, 0.18724900484085, 0.07146757841110, 0.25366365909576, 0.15676586329937, -0.11430621892214, -0.24800445139408, 0.12369914352894, 0.19620496034622, -0.02775185927749, 0.04452251270413, 0.11971009522676, -0.23752507567406, 0.29157420992851, 0.05429748445749, -0.15997986495495, -0.20040093362331, 0.05978524684906, 0.15905985236168, 0.07616880536079, 0.04068743437529, 0.12977294623852, -0.14674535393715, -0.22393256425858, 0.08226113021374, 0.15882299840450, 0.05453761667013, -0.19443504512310, 0.02103994414210, 0.19800734519958, -0.16279876232147, -0.01179788820446, 0.02637380361557, -0.20756219327450, -0.11859700828791, 0.00393842440099, -0.24635338783264, 0.17020370066166, 0.07524423301220, -0.03451813384891, 0.23940497636795, -0.26322501897812, -0.30525794625282, 0.01398855075240, 0.02233202196658, 0.07163316756487, 0.27444744110107, -0.00335808051750, 0.01401221752167, -0.18533280491829, 0.24487337470055, -0.09433041512966, 0.10677661001682, 0.04426622763276, -0.16258406639099, -0.23600213229656, 0.13944308459759};

#endif

#endif
