//Numpy array shape [25, 32]
//Min -0.462537735701
//Max 0.427586972713
//Number of zeros 0

#ifndef W2_H_
#define W2_H_

#ifndef __SYNTHESIS__
dense_weight_t w2[800];
#else
dense_weight_t w2[800] = {0.18027572333812714, -0.04536788538098335, 0.10141235589981079, -0.12329211831092834, -0.19363710284233093, -0.40601426362991333, 0.31518772244453430, -0.09715384244918823, -0.22736182808876038, -0.11453000456094742, -0.15544991195201874, -0.22453248500823975, -0.06678511947393417, -0.36059460043907166, 0.10363795608282089, 0.06359910964965820, 0.24548104405403137, -0.19023413956165314, 0.08343019336462021, -0.31966832280158997, 0.16924166679382324, -0.21191225945949554, 0.13572522997856140, -0.14985319972038269, -0.01617963798344135, 0.17580366134643555, 0.24311231076717377, 0.01662629656493664, 0.07602435350418091, 0.29509302973747253, -0.40552437305450439, 0.26366373896598816, -0.27784645557403564, 0.16740077733993530, -0.20577108860015869, -0.17480671405792236, -0.29525598883628845, 0.10242092609405518, -0.07357139885425568, -0.12278418987989426, 0.09378491342067719, 0.31183460354804993, -0.13306121528148651, -0.16265816986560822, -0.17649480700492859, -0.13824361562728882, 0.13576979935169220, 0.08173552155494690, 0.37004989385604858, 0.17819188535213470, -0.02568370848894119, 0.11806280165910721, 0.19495090842247009, -0.40246376395225525, -0.19030441343784332, 0.22266556322574615, 0.03372277691960335, -0.00569691555574536, 0.22135415673255920, -0.01118176151067019, -0.00261891074478626, 0.07727371901273727, 0.02525983750820160, 0.14783558249473572, 0.13936653733253479, 0.13573524355888367, -0.17380809783935547, 0.14317423105239868, -0.00276212440803647, 0.27850362658500671, 0.00439399899914861, -0.13931016623973846, 0.14374665915966034, -0.01649560965597630, 0.25432500243186951, 0.10507274419069290, -0.16320747137069702, -0.13843758404254913, -0.07490942627191544, 0.25084811449050903, 0.14991384744644165, 0.02758119814097881, -0.16238494217395782, -0.07192347198724747, 0.14192569255828857, -0.01717466861009598, -0.14836201071739197, -0.27710798382759094, -0.17564401030540466, -0.26991519331932068, 0.16903528571128845, 0.33712252974510193, -0.04170966520905495, -0.18508341908454895, 0.14649058878421783, -0.21314588189125061, -0.11273127049207687, 0.04948692768812180, -0.05046600848436356, 0.22574727237224579, -0.21631552278995514, 0.14745031297206879, -0.15709745883941650, 0.00480105448514223, -0.08606588840484619, 0.30060446262359619, -0.13875065743923187, 0.28270173072814941, -0.25821858644485474, -0.13920313119888306, -0.17341457307338715, -0.04677191376686096, 0.18037122488021851, -0.07842546701431274, -0.09455753117799759, -0.06135036796331406, 0.18029132485389709, -0.30632480978965759, 0.36605739593505859, 0.22145076096057892, 0.23207594454288483, 0.08595670759677887, -0.00502594653517008, -0.27171319723129272, -0.15534238517284393, 0.00365719338878989, 0.22799265384674072, -0.23068550229072571, -0.24378103017807007, 0.10764901340007782, 0.04094848036766052, 0.15675729513168335, 0.08151484280824661, -0.27725985646247864, 0.21585573256015778, -0.12720339000225067, -0.25034335255622864, -0.07858955115079880, -0.15335500240325928, 0.08126229047775269, 0.10028946399688721, -0.33497312664985657, 0.20502787828445435, 0.00131495809182525, 0.04954764991998672, -0.07114125043153763, 0.12562635540962219, 0.14028115570545197, -0.20646958053112030, 0.25404760241508484, -0.22338646650314331, 0.17566445469856262, 0.08348579704761505, 0.01677675731480122, 0.07692888379096985, -0.02467877045273781, 0.11848925054073334, 0.28905302286148071, 0.14368009567260742, -0.24143920838832855, -0.04936599731445312, -0.16289882361888885, -0.24278444051742554, 0.29485100507736206, -0.12149845063686371, -0.04651755094528198, 0.37797409296035767, 0.07356587797403336, -0.12890672683715820, -0.15357881784439087, 0.22848045825958252, -0.02655120380222797, 0.08906263858079910, 0.01918683759868145, -0.26240289211273193, 0.15411129593849182, -0.12550723552703857, 0.23116950690746307, -0.19973063468933105, 0.11041663587093353, 0.33514606952667236, 0.08789943903684616, 0.06102793291211128, -0.06464904546737671, 0.15773554146289825, 0.30118119716644287, -0.11288730055093765, 0.25796484947204590, -0.07247353345155716, -0.16863596439361572, 0.02318330854177475, -0.00047064328100532, -0.29578909277915955, 0.22169271111488342, -0.07276764512062073, -0.26425924897193909, 0.31292960047721863, -0.22941592335700989, -0.02773269079625607, -0.15713275969028473, -0.12108812481164932, -0.05815195292234421, 0.16423778235912323, 0.00588204804807901, -0.10622245818376541, 0.01773847825825214, -0.24293342232704163, -0.11560484766960144, -0.23128245770931244, 0.18129448592662811, -0.14532618224620819, 0.15416526794433594, -0.18935188651084900, -0.08387091755867004, 0.00223190709948540, 0.31492900848388672, -0.23904788494110107, 0.12365748733282089, -0.10642237961292267, -0.07850716263055801, 0.17606873810291290, -0.12132821977138519, 0.38411715626716614, -0.17301049828529358, -0.18633592128753662, -0.05803281813859940, -0.22460828721523285, 0.28430488705635071, 0.01664494350552559, 0.04833930358290672, 0.25316703319549561, 0.10293100774288177, -0.31519886851310730, 0.21259796619415283, -0.01905880495905876, 0.29020014405250549, -0.16389116644859314, 0.09039559215307236, 0.32305827736854553, 0.08605734258890152, 0.04174556210637093, -0.14593710005283356, 0.21054208278656006, -0.08151517808437347, -0.23356229066848755, -0.09074422717094421, 0.36815655231475830, 0.15388092398643494, -0.22577300667762756, -0.14163720607757568, -0.05833413451910019, 0.13863866031169891, -0.00674617476761341, 0.01672494038939476, 0.24239058792591095, 0.35004720091819763, -0.00848017912358046, -0.13619861006736755, -0.16136536002159119, -0.15031610429286957, -0.27243825793266296, -0.07741770893335342, -0.14933660626411438, 0.21124716103076935, -0.07193798571825027, 0.09379573911428452, -0.18677596747875214, -0.13507573306560516, -0.23199328780174255, -0.00699038570746779, -0.31441217660903931, 0.19282567501068115, 0.37098222970962524, 0.10087379068136215, -0.12156414240598679, -0.01377931237220764, -0.29984328150749207, 0.13221928477287292, 0.16054850816726685, 0.09395566582679749, -0.06322124600410461, -0.04702377319335938, 0.08031669259071350, -0.15739735960960388, 0.21816113591194153, -0.18884205818176270, 0.19653102755546570, -0.06441524624824524, -0.12723495066165924, 0.18378022313117981, -0.23185700178146362, 0.22530195116996765, 0.01069593429565430, 0.13868793845176697, 0.06217741966247559, 0.06544762849807739, -0.00277689099311829, -0.23721587657928467, -0.12205484509468079, 0.03475934267044067, 0.15517145395278931, 0.08686135709285736, 0.19369071722030640, -0.13209961354732513, -0.13750332593917847, 0.35978892445564270, 0.13877485692501068, -0.31563267111778259, -0.05064715072512627, -0.02630303800106049, 0.13492156565189362, 0.01746061630547047, 0.07885844260454178, 0.29664167761802673, 0.16178762912750244, 0.08691275864839554, -0.38416340947151184, 0.04552050307393074, 0.00190867634955794, -0.06654292345046997, -0.15896311402320862, 0.10861963778734207, 0.20130911469459534, -0.28590047359466553, 0.22370339930057526, -0.17164079844951630, 0.10315474122762680, 0.13668800890445709, -0.02484989911317825, 0.22712771594524384, -0.27431520819664001, 0.03679097071290016, 0.10904433578252792, 0.06492413580417633, 0.22836564481258392, -0.01402217522263527, -0.26316532492637634, 0.06478139013051987, 0.36374768614768982, 0.08596263825893402, 0.09838699549436569, -0.23857098817825317, -0.12808492779731750, -0.22414954006671906, 0.26497644186019897, -0.11822937428951263, 0.17248903214931488, 0.05275114625692368, 0.02810682356357574, -0.09067379683256149, -0.19267874956130981, -0.27898076176643372, -0.02899125963449478, -0.38184604048728943, 0.16331993043422699, -0.14734019339084625, -0.27285021543502808, -0.23895594477653503, 0.23486895859241486, -0.05346365645527840, 0.32711020112037659, -0.05894476175308228, -0.15348447859287262, 0.28023633360862732, -0.00377080356702209, -0.24099408090114594, -0.29298225045204163, 0.24036270380020142, -0.38581568002700806, -0.16769188642501831, -0.33509230613708496, -0.09359280765056610, 0.41300451755523682, -0.11970958858728409, 0.08665029704570770, -0.16500349342823029, -0.04536172002553940, -0.16354785859584808, 0.25759804248809814, -0.24981294572353363, -0.46253773570060730, 0.19260512292385101, -0.24556744098663330, 0.06546124070882797, -0.20480360090732574, -0.02628416381776333, 0.18455222249031067, 0.09796790033578873, 0.12349686026573181, -0.23090630769729614, -0.17749629914760590, 0.00128336052875966, -0.09431183338165283, 0.07646679878234863, 0.11037126183509827, 0.06125855073332787, -0.14768704771995544, -0.05376325547695160, -0.02263986505568027, 0.00190514256246388, 0.32023379206657410, -0.03025192022323608, -0.04947471618652344, -0.21416300535202026, -0.25921273231506348, 0.10737180709838867, -0.28384649753570557, 0.31023320555686951, 0.26059821248054504, 0.18209949135780334, 0.08959805965423584, -0.13470138609409332, -0.06235140562057495, 0.02975830435752869, 0.21712294220924377, -0.29582941532135010, -0.12032607197761536, -0.30471274256706238, 0.06512165069580078, -0.14456376433372498, 0.16574880480766296, -0.24202987551689148, -0.17901293933391571, -0.28469142317771912, 0.13732382655143738, -0.13881203532218933, -0.18111193180084229, 0.26840069890022278, 0.05540795251727104, 0.24577061831951141, 0.21837747097015381, -0.32074376940727234, -0.10426533967256546, -0.09211780130863190, -0.22111222147941589, 0.28435662388801575, 0.16068771481513977, 0.21710512042045593, -0.23203541338443756, -0.18383255600929260, 0.17607817053794861, -0.11213953047990799, -0.32860049605369568, -0.08686483651399612, -0.28846544027328491, -0.14323441684246063, -0.11998054385185242, 0.25941056013107300, 0.06889770925045013, 0.21673454344272614, -0.13021552562713623, 0.02775368094444275, 0.20847795903682709, 0.11123711615800858, -0.05121478438377380, -0.16544109582901001, -0.16779406368732452, 0.15604659914970398, 0.19550216197967529, -0.24431693553924561, -0.24275493621826172, -0.17489707469940186, 0.02510056458413601, -0.03494572266936302, -0.05378734692931175, -0.36061885952949524, 0.04920235276222229, -0.31339544057846069, -0.03213429823517799, -0.17608112096786499, 0.11869691312313080, 0.05287052690982819, -0.14501343667507172, 0.26320889592170715, 0.24928575754165649, 0.01193373743444681, 0.02740146033465862, -0.11308164149522781, -0.21977035701274872, -0.29645514488220215, -0.11435601860284805, -0.19347383081912994, -0.08022305369377136, -0.07181105762720108, 0.28902792930603027, -0.14461998641490936, 0.04972196742892265, -0.28798156976699829, 0.15397757291793823, -0.14693109691143036, 0.19520707428455353, 0.09368243813514709, -0.11392208188772202, -0.31158608198165894, -0.19721785187721252, 0.10891600698232651, -0.32363939285278320, 0.23532694578170776, -0.04757021367549896, 0.23708353936672211, 0.08719767630100250, 0.06533229351043701, -0.05404980480670929, 0.08411838114261627, -0.17409494519233704, -0.15840727090835571, 0.19492481648921967, 0.24335663020610809, -0.09718853235244751, -0.25133845210075378, -0.00451271515339613, 0.05989829078316689, -0.04122495651245117, 0.05711992457509041, -0.19433085620403290, 0.28534796833992004, -0.07485912740230560, -0.24312970042228699, 0.23996382951736450, 0.27176469564437866, -0.17495967447757721, -0.21952295303344727, -0.06842828541994095, 0.03547921776771545, 0.12572912871837616, 0.07689774036407471, -0.26977586746215820, 0.22833508253097534, -0.13198630511760712, 0.29619163274765015, 0.42758697271347046, -0.16115112602710724, -0.15682666003704071, -0.04776884615421295, -0.03034050390124321, -0.07050175219774246, -0.02082582563161850, 0.22243589162826538, -0.09362216293811798, -0.17853572964668274, -0.03546969220042229, -0.01065604202449322, 0.29253983497619629, 0.09900773316621780, 0.12932829558849335, -0.32995510101318359, 0.00292860344052315, 0.16251267492771149, -0.42764064669609070, 0.03213815391063690, 0.21866662800312042, -0.09892714023590088, 0.13988798856735229, -0.04136147350072861, 0.00688949134200811, 0.11377350986003876, -0.04921201243996620, -0.15538592636585236, -0.11912629753351212, -0.14480981230735779, 0.34631964564323425, -0.07073996216058731, 0.19892264902591705, -0.24626350402832031, -0.09159161150455475, -0.13660131394863129, -0.43675246834754944, 0.15353810787200928, -0.12696522474288940, -0.01429030671715736, -0.03056979551911354, -0.02409897930920124, 0.37693989276885986, -0.16559313237667084, -0.12375968694686890, -0.12153375893831253, 0.02070340141654015, -0.00027247372781858, 0.30493575334548950, 0.22957743704319000, -0.02013438940048218, -0.10736323148012161, 0.04108442366123199, 0.07179395854473114, 0.30113112926483154, 0.02821704186499119, -0.18266862630844116, 0.26592293381690979, -0.14171974360942841, -0.06256029009819031, -0.30226197838783264, 0.17269299924373627, 0.18973655998706818, -0.06804538518190384, 0.31011039018630981, 0.27497467398643494, -0.16230185329914093, 0.32341703772544861, -0.10851719230413437, -0.27973699569702148, 0.10437740385532379, -0.13083833456039429, -0.04126675799489021, 0.02469303458929062, 0.16020016372203827, -0.20270147919654846, 0.21975760161876678, -0.11468960344791412, -0.07962525635957718, -0.22323705255985260, -0.29967442154884338, 0.25295254588127136, -0.06738127768039703, 0.25398343801498413, 0.33711969852447510, -0.16784013807773590, -0.07803376764059067, 0.11381834000349045, 0.20338200032711029, -0.14042834937572479, 0.27992710471153259, 0.14106658101081848, -0.11798713356256485, -0.25701823830604553, 0.21938033401966095, -0.17974646389484406, 0.24421890079975128, 0.10740887373685837, 0.22962731122970581, -0.09835690259933472, 0.05118216574192047, 0.20353363454341888, 0.22133488953113556, -0.04914871975779533, -0.08939509093761444, -0.28594765067100525, 0.10865519195795059, -0.19802169501781464, 0.25365340709686279, -0.02985368296504021, -0.21300165355205536, 0.38350725173950195, 0.02147689647972584, -0.19111055135726929, 0.17655871808528900, 0.06628882139921188, -0.00057189119979739, -0.16944266855716705, 0.04379174858331680, 0.30317571759223938, 0.29596284031867981, -0.06714490801095963, 0.02501474320888519, 0.24367427825927734, -0.06042797490954399, 0.31871318817138672, 0.26339799165725708, -0.32117527723312378, -0.20036771893501282, -0.04562355205416679, -0.17500559985637665, 0.09884003549814224, -0.01902178116142750, -0.10484353452920914, 0.16732826828956604, -0.25319978594779968, 0.24267725646495819, -0.30162838101387024, -0.06510742753744125, -0.19641375541687012, 0.32058155536651611, -0.03623256459832191, -0.17750941216945648, 0.16442760825157166, 0.06630653887987137, -0.25496441125869751, 0.28520494699478149, 0.08604040741920471, -0.20325499773025513, 0.12396007031202316, 0.07691940665245056, 0.08084123581647873, 0.02478800900280476, -0.07560991495847702, -0.25563344359397888, -0.33007222414016724, 0.13255780935287476, -0.02650096453726292, -0.32329976558685303, -0.20623041689395905, 0.22232411801815033, 0.27870592474937439, 0.24832829833030701, 0.07434445619583130, 0.11202216148376465, -0.19033463299274445, -0.14332410693168640, 0.13314281404018402, -0.08312278985977173, -0.03911623358726501, -0.01970860362052917, 0.15086093544960022, -0.07521058619022369, -0.06666848063468933, 0.16336059570312500, -0.06521168351173401, -0.04363006353378296, -0.26023301482200623, 0.17772206664085388, 0.24774041771888733, -0.28542155027389526, -0.00509044528007507, -0.00623413920402527, 0.05648416280746460, -0.13144180178642273, -0.29058510065078735, 0.13918393850326538, -0.30329084396362305, 0.27209225296974182, -0.03103202581405640, -0.08547985553741455, 0.04328438639640808, -0.26878789067268372, 0.24796494841575623, 0.32326939702033997, 0.05564349144697189, 0.06672994792461395, 0.05541619285941124, 0.27568978071212769, 0.16297729313373566, 0.19349217414855957, -0.25020352005958557, -0.17306251823902130, -0.04690548032522202, -0.13230586051940918, 0.13923485577106476, 0.17928640544414520, -0.04687451198697090, -0.19467787444591522, -0.15609468519687653, -0.25451737642288208, 0.11439435929059982, 0.26044869422912598, 0.21648943424224854, 0.06148535385727882, -0.12931245565414429, -0.25738251209259033, 0.24944850802421570, -0.14150962233543396, 0.11514884233474731, -0.32217377424240112, 0.15565229952335358, 0.18556050956249237, 0.05504360422492027, 0.12486888468265533, -0.24595510959625244, 0.36326324939727783, 0.23415689170360565, 0.16975526511669159, -0.12686163187026978, 0.13457857072353363, 0.05524985864758492, -0.03942293673753738, 0.13618983328342438, -0.08726945519447327, 0.01157996803522110, 0.35091468691825867, -0.09820396453142166, -0.17114408314228058, -0.30133935809135437, 0.20621305704116821, -0.12506039440631866, -0.37534558773040771, 0.15827795863151550, 0.27487775683403015, 0.10460562258958817, 0.10825226455926895, 0.12681595981121063, 0.10805396735668182, -0.12039244920015335, -0.25283753871917725, 0.42026227712631226, 0.07705868780612946, 0.21495485305786133, -0.30133160948753357, 0.02395082265138626, -0.22983579337596893, -0.17528347671031952, 0.21381844580173492, -0.18667438626289368, 0.13674424588680267, 0.18486878275871277, -0.18338544666767120, 0.18422259390354156, -0.22194170951843262, 0.37557521462440491, 0.00542439101263881, 0.18319562077522278, 0.33091813325881958, -0.17319986224174500};

#endif

#endif
